#weightloss 0.698891 0.479313 -0.361354 -0.25232800000000005 -0.005957000000000018 -0.8721220000000001 -0.548106 -0.315293 0.374928 -0.452016 1.4390640000000001 -0.7130749999999999 -0.703991 0.8225309999999999 -0.787787 -1.2531539999999999 0.25251100000000004 -0.752845 -1.323388 0.494683 0.265569 -0.788539 1.4293939999999998 -0.9581639999999999 -0.164853 -0.55125 0.514441 -0.5061249999999999 -0.37511099999999997 -0.315475 0.579831 -0.5287339999999999 0.38685200000000003 -0.141088 -0.04483400000000004 -0.184579 1.3406150000000001 1.829842 1.430464 1.9973450000000001 0.12299200000000002 -1.49033 0.988985 0.09771799999999997 -1.021422 1.265508 -1.195525 -0.24123300000000003 -0.15778000000000003 0.927379 0.209231 1.078249 -0.17513 -0.653958 -0.42781399999999997 0.21633799999999997 -0.389904 0.841633 0.491942 -0.599054 1.234725 0.562863 0.697456 -0.416863 0.26944399999999996 0.433504 0.337816 0.537635 -0.141638 0.15877799999999997 -1.3757890000000002 -0.19760300000000008 -0.16744199999999998 -1.025395 -0.8729929999999999 -0.245348 -0.568079 0.12203099999999997 -0.18441800000000003 0.318313 0.22234900000000002 0.7493209999999999 0.746562 0.664512 0.346317 -0.24441599999999997 0.706211 0.278969 0.260366 0.355891 -0.132955 0.33921599999999996 0.286456 -1.0372940000000002 -0.12399199999999999 0.7936890000000001 -0.465568 0.37064400000000003 -0.84597 0.623857 0.507199 1.112464 0.39174200000000003 0.27263699999999996 0.7438089999999999 0.90157 0.744321 0.469779 0.513672 -1.326333 -1.238652 0.37532599999999994 -1.209816 0.03715 -2.135867 0.25499099999999997 -0.996749 -0.5075810000000001 0.821046 0.187976 1.369661 0.173959 0.6167100000000001 0.826836 -0.616714 0.378926 -0.929269 0.4608500000000001 -0.696705 0.520269 0.278214 0.5645180000000001 -1.0082659999999999 -1.15104 -0.996116 -0.628157 0.8239699999999999 -0.421072 -0.662066 0.629956 0.830982 0.835894 -0.43964899999999996 -1.107931 1.014202 -0.551534 0.6688580000000001 0.11592899999999995 0.210116 1.186679 0.22733499999999995 -0.658034 -0.826998 0.08819999999999995 0.704518 -0.7457689999999999 -1.265777 0.043518999999999974 0.24267000000000005 1.4873660000000002 -0.740178 -0.482529 -0.672185 -0.930973 0.774295 -0.48099000000000003 -0.05098800000000003 -0.41819300000000004 -0.592134 -1.082788 -0.7359 0.247241 1.008401 0.7912399999999999 -0.174176 1.4861900000000001 0.703112 -0.961311 -1.4588290000000002 -0.405592 0.190624 -0.08845099999999995 -0.028079999999999994 1.7261250000000001 -0.8906409999999999 0.712071 -0.9621780000000001 -0.685991 0.466726 0.985933 0.274138 -0.014557000000000042 1.188728 -0.963109 0.15796100000000002 0.935176 -0.621217 -0.5846659999999999 0.35369500000000004 0.11339300000000002 -0.858179 -0.501595 0.578067 -0.07721100000000003 -0.859043 1.0537 -0.8279169999999999 -0.220437 -0.306236 0.28187399999999996 -0.538626 0.5793740000000001 0.9382320000000001 0.9569379999999998 0.323987 -1.486194 0.269424 0.20276899999999998 0.265823 1.07444 1.313494 -0.672888 -2.517333 0.41806199999999993 -1.633997 -0.250078 0.7834000000000001 0.444434 -0.189425 0.614356 -0.006294000000000022 -0.531327 -1.333331 0.010710999999999998 0.38921500000000003 1.41516 -1.1689289999999999 -0.748275 -0.278183 1.052972 -0.47936799999999996 0.06855900000000001 0.33454 -0.232054 -0.685793 0.369306 1.12466 0.199386 -0.11043200000000002 0.303799 -0.3706809999999999 0.49962200000000007 -0.072525 -0.428052 0.522544 0.148617 1.3467479999999998 -0.03170199999999998 -0.63216 1.195621 -1.2626979999999999 0.41788900000000007 -1.21096 0.615391 0.175195 1.233738 -0.35043899999999994 0.8495170000000001 -0.043217000000000005 -0.165044 0.34032399999999996 -0.5696749999999999 -0.6991620000000001 0.552045 -0.12529 0.792958 0.692258 0.993541 -0.753008 -1.379277 -1.382342 0.791777 -1.6473520000000001 0.917486 1.177594 -0.041689000000000004 0.16319699999999998 -0.667937 0.136558 0.13395400000000002 0.032035 1.522763 -0.357157 0.07578800000000001 -1.9924899999999999 0.013312000000000046 -1.248529 -0.425168 -0.43354899999999996 -0.626255