<spanstyle="font-weight:400;"> -0.002108 0.00027899999999999995 -0.0022960000000000003 -0.0007179999999999999 -0.0010370000000000002 0.00033 -8.700000000000005e-05 0.0009549999999999999 -0.0005319999999999999 -0.001551 0.0012029999999999999 0.001558 0.0009170000000000001 -0.0017230000000000001 0.0005769999999999999 -0.000111 0.0017139999999999998 -0.000361 0.001192 -0.00047999999999999996 0.000965 0.000279 -0.001258 0.001088 0.001887 -0.0016879999999999998 -0.002602 -0.001352 0.000905 0.000629 1.0999999999999942e-05 0.002131 0.0009089999999999999 0.001049 -0.001921 -0.000129 -0.001955 -0.002007 0.000826 0.000847 -0.00022599999999999996 -0.001305 -0.000928 -0.002643 0.000306 -0.0003520000000000001 0.00058 -0.001314 0.002621 -0.001562 -0.0017950000000000002 0.00025199999999999995 0.002051 0.00027900000000000006 0.0013399999999999998 0.0006039999999999999 0.001925 -0.0012619999999999999 -0.000747 -0.000502 -0.000633 -0.000735 0.0016279999999999999 0.00027400000000000005 0.00031300000000000007 -0.00029200000000000005 0.00014600000000000003 -0.0016419999999999998 0.001033 -0.002362 0.002539 -0.002525 -0.000333 -0.001722 -0.0018340000000000001 -2.800000000000003e-05 -0.002074 0.002079 -0.0013419999999999999 -0.002786 0.0005170000000000001 0.000196 0.000799 -0.000765 0.00047599999999999986 -0.001194 -0.00016100000000000012 -0.000933 0.0008780000000000001 0.002424 0.001899 0.00024399999999999986 0.001688 0.00019299999999999997 0.000519 -0.0013319999999999999 -9.899999999999991e-05 0.0006640000000000001 0.00035999999999999997 -0.002399 0.001634 -0.0004339999999999999 -0.001591 0.001301 0.001177 -9.199999999999996e-05 0.001273 -0.000898 -0.0013469999999999999 0.003264 -0.00035099999999999997 0.002504 0.00012699999999999997 0.0004469999999999999 -0.001595 0.0006020000000000001 -0.0007459999999999999 0.0015760000000000001 -0.00033 0.00013100000000000004 0.000666 0.0015689999999999999 0.000374 -0.000979 0.0017620000000000001 0.000894 0.0010229999999999998 0.001664 0.0015580000000000001 -0.001951 0.002598 -0.00014099999999999998 0.0009480000000000001 -0.002327 0.00116 -0.001209 0.000915 -0.0009 0.001226 -0.000432 -0.0009689999999999999 -0.002458 -0.001262 -0.000843 -0.00201 -0.002857 -0.00023999999999999998 0.000576 0.002053 -0.000569 -0.002626 0.002719 0.001 0.001082 -0.001593 -0.000572 -0.0013579999999999998 -0.000571 0.001091 0.000201 0.000812 0.00035500000000000006 6.100000000000007e-05 -0.001573 -0.001971 -0.0021130000000000003 0.000551 0.002278 0.000321 0.001778 -0.001488 -0.000648 0.002653 0.0005840000000000001 -0.001491 0.0006420000000000001 -0.002273 -0.00173 -0.0021149999999999997 -0.00022000000000000003 0.001033 -0.001407 -0.0008349999999999999 -0.001301 -0.000325 0.000906 -0.001873 0.001651 0.0003349999999999999 -0.0007809999999999999 0.0018510000000000002 0.001148 -0.00042600000000000005 0.001912 -0.00042500000000000003 0.0009369999999999999 0.0031320000000000002 0.00012600000000000003 -0.0001200000000000001 0.00011999999999999999 0.001904 -0.001607 -0.000528 0.001225 -0.001024 0.001315 -0.001466 3.600000000000001e-05 -0.0004159999999999999 -0.00024799999999999996 0.00315 0.000617 0.001679 -0.001018 -0.000684 -0.00198 -0.00011200000000000001 0.000776 -0.00032999999999999994 0.000223 -5.000000000000013e-06 -0.001811 -0.001961 -0.0004320000000000001 0.00010000000000000005 0.000947 0.000505 -0.00010099999999999996 0.0010729999999999997 0.00038600000000000006 1.8000000000000004e-05 -0.00035500000000000006 0.002111 -0.0005089999999999999 0.000869 -0.002246 0.0008049999999999999 0.002736 0.001124 0.000388 -0.0008449999999999999 0.00094 0.001005 0.000835 -7.900000000000008e-05 0.000321 -0.001146 -0.00019099999999999998 0.001097 -0.0014750000000000002 3.300000000000004e-05 0.0010919999999999999 4.7000000000000004e-05 -0.001928 0.0006609999999999999 0.000147 -0.0009809999999999999 -0.002168 4.6000000000000034e-05 9.200000000000007e-05 0.001552 6.500000000000001e-05 -0.0002639999999999999 0.00033 -0.0004450000000000001 0.000606 -0.0019169999999999999 0.00035899999999999994 9.000000000000002e-06 -0.000792 -0.002586 -0.000836 0.000147 0.001753 -3.0000000000000187e-06 6.899999999999994e-05 -0.00126 -0.0011480000000000001 -0.00012199999999999993 -0.00016299999999999995 -0.0026230000000000003 -8.899999999999989e-05 0.0009280000000000001 0.000757 -0.002017 0.001589 0.000904 0.000335 -0.0005789999999999999 -0.0023829999999999997 0.00042699999999999997 0.000973 0.001014 0.00016299999999999995 0.0013030000000000001 0.000569 0.0007690000000000002 -0.000614 0.000928 0.0007770000000000001