a-weight 0.008901999999999993 0.160845 0.657599 -0.22398100000000004 0.23602299999999998 -0.959775 -0.228308 -0.276299 0.101103 0.21499500000000002 -0.40898799999999996 -1.3209359999999999 0.274874 -0.449356 -0.366868 0.364712 -0.325076 1.2111589999999999 -0.616592 -0.003168000000000004 -0.585751 0.727762 1.2045190000000001 0.130793 0.965364 0.120284 -0.469401 0.011565999999999965 0.34335000000000004 0.367725 -1.051985 0.21026299999999998 -0.43958499999999995 0.464376 -0.6108579999999999 0.06548200000000001 -1.175493 -0.169267 0.261536 -0.819483 0.5680069999999999 0.70085 0.10795099999999999 1.2309109999999999 -0.97053 -0.5328379999999999 -0.353186 -0.031508000000000036 0.209299 0.131477 0.267277 -0.905836 -1.195584 0.3760720000000001 0.6314869999999999 -0.03744999999999998 0.457097 0.463106 0.132362 0.505514 -0.538207 0.746464 -0.4508 -0.390548 -0.429722 0.308882 -0.138903 -0.176952 0.614927 -0.317171 1.142533 -0.119424 -0.017237000000000002 -0.123065 -0.09589500000000001 -0.41406400000000004 -1.651395 0.056852 -0.1031 0.191582 0.973865 0.762465 -0.110192 0.290763 -0.385616 -0.130637 0.7210759999999999 0.204024 0.427977 0.053949000000000025 0.05405499999999999 -0.608844 -0.638493 0.599461 0.557256 0.893844 0.009643999999999986 0.615056 0.0948 0.10713299999999998 0.186971 -0.308168 0.47664300000000004 0.9769680000000001 0.30774199999999996 -0.07709800000000001 0.294559 0.398053 -0.123588 0.220923 -0.6688700000000001 -0.088255 0.714117 0.797262 -0.751513 -0.11311900000000003 0.345902 -0.483073 0.554739 -0.8850859999999999 -1.008886 -0.26491599999999993 -0.587278 0.429851 -0.13519099999999998 0.477789 0.230751 0.435979 -0.34089400000000003 0.10362400000000002 -0.12350399999999997 0.6728050000000001 -1.6503649999999999 0.39313699999999996 -1.310785 -1.101649 0.946614 -0.504839 -0.973808 -0.063884 -0.76666 -8.999999999981245e-06 0.12755400000000003 -0.21577700000000002 0.38343499999999997 -0.273078 -0.428975 0.362822 0.746327 0.5373300000000001 1.4327370000000001 0.34401000000000004 -0.235014 -0.03692699999999999 -0.66332 -1.054395 -0.33087 0.33411 0.612911 -0.9571670000000001 0.262593 0.06764600000000001 -0.600602 -0.23573699999999997 0.113837 0.29830799999999996 0.40636900000000004 -0.257104 -0.481291 0.130384 -0.468098 -0.82804 0.166112 -0.8950539999999999 0.7205400000000001 -0.982021 0.10639800000000005 0.33426 0.18276800000000004 -0.9362440000000001 -0.087262 0.091418 -0.584728 0.541876 1.285166 0.93413 0.03601300000000002 0.534844 -0.495385 1.049899 0.46223499999999995 0.345214 0.19715999999999995 0.6410290000000001 -0.25339100000000003 -0.227044 -0.16022099999999997 0.086541 0.295397 0.355659 -0.252001 -0.709146 0.603611 0.380828 0.257174 0.42491100000000004 -0.27427599999999996 0.136579 -1.079355 0.29171199999999997 -0.456032 -0.862568 -0.510892 -0.27564099999999997 -1.328424 0.67045 1.047585 0.608574 -0.10850199999999999 -0.951716 -0.260816 0.024901000000000062 -0.12118100000000004 -0.7693730000000001 0.837518 0.204505 -0.16864300000000002 -0.7164780000000001 -0.8286490000000001 -1.5512510000000002 0.943079 -0.09966799999999998 0.034661 0.57066 -0.010592000000000018 0.471782 0.293648 0.5088889999999999 -0.281007 0.771556 0.6258509999999999 0.21986799999999995 0.076374 -0.460608 0.44776299999999997 -0.39791000000000004 0.9930059999999999 0.12992199999999998 0.831232 0.366776 0.28276500000000004 -1.218965 -0.169102 -0.13993500000000003 -0.172574 -0.041793 0.611017 0.982634 -0.017027 0.47318899999999997 0.07913800000000001 -0.003986000000000017 -0.453168 1.472078 0.614943 0.8925839999999998 0.223196 0.04575699999999999 -0.12002399999999999 0.346717 -0.292181 0.629247 -0.04161500000000001 -0.864995 0.8857830000000001 0.362087 -0.7136899999999999 -0.114369 -0.03819800000000001 -0.064528 -0.72744 -0.309404 0.120199 0.47462800000000005 -0.868571 0.412389 0.016550999999999982 -0.39139899999999994 0.637781 -1.269919 1.152223 0.46776399999999996 0.33028 -0.6029119999999999 -0.57576 -0.5088590000000001 -0.41122800000000004 0.767827 0.103093 0.659853