airweight -0.0005580000000000029 -0.360992 0.738538 0.08781299999999992 -0.009278999999999982 -1.822852 0.7497440000000001 0.9335040000000001 -0.7364280000000001 -0.6094350000000001 1.388248 0.3704 0.059476 -1.543685 -0.987962 0.731508 -0.254773 -0.194804 -1.5055800000000001 0.330316 -1.35971 -0.07047599999999998 0.375549 -0.9251649999999999 0.469232 0.618924 0.059852000000000016 -0.531836 -0.221893 -0.687176 -0.25883500000000004 1.729295 -0.837926 0.5059739999999999 -1.2696390000000002 0.574308 -0.21252200000000004 -1.3208119999999999 1.343632 0.156982 -0.09414700000000001 0.43370600000000004 0.369585 0.16685100000000003 0.559855 -0.8513660000000001 0.580328 -0.18929000000000007 -0.059123999999999954 -0.10999600000000004 -0.022286 -1.8290190000000002 -0.43647600000000003 1.159107 0.712477 -1.1481729999999999 -0.179799 1.092044 -0.027129000000000004 1.257345 -0.550648 0.757201 -0.076244 1.7140689999999998 0.650282 -0.498834 -3.044946 -0.729347 -0.646828 0.747131 0.311689 1.067594 -0.18884399999999996 -0.058138999999999996 -0.701619 -0.18266100000000002 -0.358526 1.028012 0.842287 0.7166560000000001 0.102887 -0.506599 0.180546 0.15976500000000002 -0.599396 0.224051 -1.117389 -0.678173 -0.620437 -0.452932 0.48644299999999996 0.750323 0.06458700000000003 0.694941 -0.43674499999999994 0.21920399999999995 1.251184 0.664914 -0.791838 0.6493180000000001 0.687273 0.630826 -0.21206 -0.10833799999999999 0.619882 0.30677 0.40594899999999995 -0.21341500000000002 0.02771699999999999 0.20484 -0.14163200000000004 -1.515238 0.7730429999999999 -0.439684 -0.745626 0.577253 -0.15832800000000002 0.345618 0.020490000000000008 0.060681 0.762162 1.503726 -0.07716299999999998 0.20012599999999997 -0.54458 0.6526510000000001 0.817141 0.585283 0.687889 -2.627763 0.189943 0.454097 -0.6610739999999999 -0.180705 0.047488 -0.07908000000000004 0.11908300000000005 2.073947 -0.525701 1.215636 -1.6191689999999999 0.584118 0.26051199999999985 -0.11254199999999998 0.934154 -0.12805 -0.45680300000000007 0.611855 -0.215547 0.616611 -0.188004 -0.28593500000000005 -1.446033 -0.631206 -0.807472 0.422505 -0.95893 -0.633556 0.658414 -0.620892 0.175282 0.981035 -0.39769 -1.3606920000000002 0.229872 -1.295399 -0.551355 0.7523230000000001 0.29510600000000003 1.189613 0.920542 -1.034713 -0.637709 0.393498 -0.461614 -0.772113 0.035577 0.149426 0.595272 0.17140399999999995 -1.810309 0.079468 -1.450995 0.019013000000000002 0.283995 -0.47765399999999997 2.73592 0.7528739999999999 -0.920396 -1.2699079999999998 -0.03154800000000002 0.19776200000000002 0.191378 -0.543404 -0.937843 -0.283883 -1.3698869999999999 0.400494 0.617739 -0.19369399999999998 0.155377 0.9015120000000001 -0.272913 0.589962 -1.484129 -0.813012 1.614232 0.5080180000000001 -0.917728 -0.18271300000000001 -0.05508000000000002 -0.031665 0.570562 0.693774 0.49078700000000003 0.48796599999999996 -0.03981299999999999 0.948704 -0.642246 0.832599 0.134113 0.879391 -0.922102 0.750205 0.578069 -0.869032 0.15522000000000002 -0.824897 0.433551 -1.271178 -0.329657 -0.746138 -1.8042120000000001 0.527056 0.51368 -0.555011 -0.06586 0.11392700000000001 -0.504939 -0.18217399999999997 0.338912 0.976915 0.4169670000000001 0.14284000000000008 -0.28744000000000003 2.530201 1.396735 -0.28453300000000004 -0.01617200000000002 -0.241657 0.964205 0.08826300000000001 -1.121834 -0.0009410000000000807 1.8937789999999999 -0.15450800000000003 1.587931 0.320817 0.289643 -1.2218049999999998 -0.29895299999999997 1.459562 0.817068 -1.476083 -0.138397 0.48832200000000003 -1.6780009999999999 -0.784756 -0.276762 0.303399 1.336876 1.413949 -0.027164999999999995 -0.300162 -0.111368 -1.11564 1.053252 -0.22461499999999998 -0.42435300000000004 -1.006589 -0.376593 -0.643494 0.712872 0.382774 -0.37106300000000003 -0.04783900000000002 1.4539460000000002 0.474635 -0.692045 0.507164 0.6894720000000001 -0.45960300000000004 0.094117 -0.678401 0.26926000000000005 0.43925800000000004 -0.521584 0.7962809999999999 0.60737 1.354835