antweight 0.798205 -0.13355700000000004 0.722628 1.0487920000000002 0.13691499999999998 0.43833900000000003 -0.540446 -0.6273240000000001 -0.594835 -0.154077 1.140838 -0.11433299999999996 0.674772 -0.93209 -0.783256 -1.030456 -0.3583 -0.5168780000000001 0.275193 0.689117 -0.9388700000000001 0.781477 0.213727 0.494623 -0.17910700000000002 -0.032884 0.548383 0.819202 0.254492 -0.115706 -0.482361 0.287623 -0.40751699999999996 0.18534 0.100824 0.088764 -0.490042 -0.10422700000000001 -0.45782999999999996 0.130125 -0.856317 0.787728 0.645092 -0.22233799999999998 -1.213603 0.487856 -0.186452 -0.634617 0.14991500000000002 1.286529 -0.72019 -0.826368 -0.23428500000000002 -0.018964999999999996 0.49897199999999997 0.035687999999999984 0.888193 -0.08318500000000001 0.08213500000000001 -0.19380599999999998 0.18924400000000002 -0.406515 -0.960381 0.187011 -0.36918999999999996 -0.715438 -0.02938099999999999 0.365267 -0.37777000000000005 0.55155 -0.306331 -0.066112 0.269877 -0.302198 -0.15224 -0.538996 0.410521 0.31995999999999997 -0.019619 -0.9318960000000001 -0.732001 0.23953400000000002 0.16192499999999999 0.535129 0.016513 0.010853999999999975 0.9130149999999999 0.27485699999999996 0.10115099999999999 1.282435 0.279694 -0.244703 0.152049 -0.605597 0.33169 0.318295 0.529916 1.297796 -1.1829589999999999 -0.275313 0.563893 -0.561253 1.0260150000000001 -0.236856 -0.430832 0.675361 1.108 -0.34165799999999996 -0.7677799999999999 0.21877300000000002 -0.12395500000000004 0.28042300000000003 0.082399 0.23755199999999999 0.05095799999999995 -0.130276 -0.7951919999999999 0.251867 -0.20874399999999999 -0.703646 0.617869 0.15523 -0.08288800000000002 -0.052513000000000004 -0.302086 1.134267 -0.276226 0.34978200000000004 -0.308608 0.8295710000000001 -0.188299 0.3241839999999999 0.54476 0.131234 0.6158769999999999 -0.096219 -0.15464999999999995 -0.13654200000000005 -0.012322 1.3069000000000002 -0.115891 1.1476769999999998 -0.185122 -1.808897 0.935357 -0.820832 0.45843 -0.08805199999999999 0.95785 -0.278263 0.476057 0.11027100000000001 -0.11810300000000001 0.38646600000000003 -0.41066199999999997 0.343858 -0.084951 -0.19548300000000002 -0.04945000000000002 -0.003197000000000002 -0.501392 -0.04678399999999999 -0.457683 0.5861689999999999 -0.0009100000000000219 -0.07412600000000003 -0.289663 -0.228777 0.128606 0.235415 0.535242 -0.027016999999999985 -0.5225650000000001 0.06132 -0.541718 0.373706 -0.483525 -0.03066100000000005 -0.548075 -0.037636 0.7500300000000001 0.610754 -0.20719300000000002 -0.27611399999999997 -0.30674199999999996 -0.123469 0.819726 -0.562926 0.18483000000000002 -0.26424000000000003 -1.008162 1.236692 -0.196711 0.13420300000000002 -0.490813 1.152585 0.09071699999999999 -0.414215 0.531526 -0.7760929999999999 -0.9689719999999999 0.164239 -0.686867 -0.627056 -0.426197 -0.395233 0.406826 0.41237200000000007 1.032065 0.29858300000000004 0.07566300000000001 0.30546 -0.633628 -0.50817 -0.27301 -0.07421900000000003 0.629978 -0.5142260000000001 -0.504202 0.663924 0.191638 -0.449928 -0.327513 0.296529 -0.55993 -0.196904 -0.854336 -0.529539 0.78386 -0.6929730000000001 0.5875239999999999 0.44744700000000004 0.22759800000000002 -0.287437 -0.223516 0.249303 -0.672925 0.115841 0.50752 -0.451865 -0.25713 1.1351710000000002 0.763231 0.8405720000000001 0.5135419999999999 -0.12893400000000002 -0.156008 0.998974 0.262571 0.034755999999999995 0.250071 0.17290700000000003 -0.9274880000000001 -0.524895 0.34579099999999996 -0.226759 0.6960689999999999 -0.734098 -0.070599 0.9567459999999999 -0.18354600000000001 0.11361300000000002 -0.106656 -0.394196 -0.030696999999999974 0.9797279999999999 0.6708970000000001 -0.098555 -0.955908 0.651435 -0.419157 -0.505035 0.6420440000000001 0.877114 -0.7884439999999999 0.942833 0.165221 1.01562 -0.878555 -0.04023500000000002 0.03809599999999996 1.087798 -0.179568 0.46159100000000003 -0.06074399999999999 -0.30015000000000003 0.110291 -0.812066 -0.696832 -0.343884 0.395892 -0.243296 -0.201182 -0.661884 0.08880100000000002 0.15287800000000001 -0.018239 -0.647425 -0.560745 -0.468699