atomweight 0.43323199999999995 -1.1328209999999999 1.285892 0.08173199999999997 1.283927 0.16967300000000002 0.025341000000000002 -0.946054 0.46321000000000007 -0.047214000000000006 -0.354821 0.010057999999999984 0.06758499999999998 -0.706902 -0.929362 -0.189749 -0.771315 0.779123 -0.500462 1.06057 -1.215207 1.47126 -0.353206 0.329653 0.978572 0.04292099999999999 0.11201499999999999 0.086487 0.301134 0.014829999999999982 0.6184430000000001 0.541519 -0.47442300000000004 0.629123 1.269343 -1.073522 -0.709549 -0.11026800000000003 -0.185286 -0.770399 -1.676226 0.45370200000000005 0.0040060000000000096 0.243941 -0.050522999999999985 0.29633999999999994 -0.40031100000000003 -0.775709 0.09442699999999993 0.781795 0.08816200000000002 -0.25458 0.351262 0.621281 0.538516 0.021332000000000004 -0.143999 0.313685 -1.050931 -0.7376750000000001 0.201233 0.850232 0.552034 -0.688901 -1.301352 -0.35481 -0.09442600000000001 0.260193 0.846257 0.91481 0.37361799999999995 -0.41007400000000005 0.211496 0.25932900000000003 -0.53061 1.124787 -0.556728 0.350278 -0.506652 -0.216146 0.19782500000000003 0.11141000000000001 -0.04077999999999998 0.627414 -0.194653 0.6280380000000001 0.42464100000000005 0.175403 0.22414699999999999 -0.756613 0.40534400000000004 -0.893983 -0.628772 -0.486494 0.48968700000000004 -0.641776 1.348233 0.08057700000000001 0.296278 -1.463303 1.374457 -0.332922 -0.153908 -1.265565 -0.245902 -0.756379 0.18137599999999998 -0.10993000000000003 0.410859 1.600832 -0.45203000000000004 0.619405 0.447155 0.463505 -0.348219 0.728598 0.320166 -0.473305 -0.374081 -0.34234 0.22278599999999998 -0.32151500000000005 1.529828 -0.303883 1.6776520000000001 0.7553700000000001 -0.48761 0.18822299999999997 -0.466317 0.739232 -1.3584619999999998 0.10036699999999998 -0.696624 0.855964 1.107063 -0.25269400000000003 -0.8298730000000001 0.923842 0.27049100000000004 -0.27986500000000003 0.41379 0.507787 -1.095691 0.6162730000000001 1.966853 0.615469 0.8616630000000001 0.267992 1.077938 0.06540000000000001 0.26863600000000004 -0.336707 0.596345 -0.033677999999999986 -0.32228999999999997 0.653377 -0.137643 0.7685489999999999 -0.031499 -0.795553 -0.22289199999999998 0.06220800000000004 -1.106465 0.830253 -1.425079 0.236065 0.251267 -0.525431 -0.868036 0.650587 1.850765 0.061126000000000014 0.820472 -0.5899869999999999 -1.185863 0.6630210000000001 0.695085 -0.010759999999999992 1.051281 -0.875335 0.189558 0.209558 -0.37947699999999995 -0.269921 0.024727999999999972 -0.430848 -0.5898479999999999 -0.681945 0.6680520000000001 0.044814999999999994 0.6100209999999999 1.301056 -0.463257 1.466233 -0.38955 0.556235 -0.493622 -0.632595 0.916556 -0.652246 -0.508857 -0.700991 0.467718 0.7493879999999999 1.235816 0.932341 -0.003613000000000005 0.24864699999999998 -0.081858 0.312498 -0.06188100000000002 1.7144759999999999 -0.21249300000000004 0.45636999999999994 0.154036 -0.33922399999999997 0.952156 -0.283348 0.014739000000000002 -0.424666 0.197317 0.6756549999999999 -0.426037 -0.75702 -0.012911000000000006 1.064629 0.414376 -0.04346100000000003 -0.629064 -1.240575 -0.8409319999999999 0.53193 -0.207922 0.051952999999999916 0.928416 0.096497 1.011185 0.50307 0.588165 0.694543 1.088848 0.285759 1.03668 0.46635 0.073884 0.971474 0.272108 -0.515291 0.545411 0.52284 0.655693 -0.17262699999999997 0.167567 -0.25518300000000005 0.41030500000000003 0.432592 -0.162628 -0.128295 0.6771429999999999 0.662039 1.157586 -1.053854 -1.164207 1.0325520000000001 0.41004 1.510896 1.175964 -0.507946 0.41320799999999996 0.321667 -0.8640920000000001 -0.462707 -0.7551230000000001 0.172775 0.605928 0.7567079999999999 0.472534 0.110521 0.175836 -0.664678 -1.122092 1.042891 -0.490699 0.04059500000000002 -0.8964399999999999 0.427858 0.7914399999999999 -0.559287 -0.48378200000000005 0.06875400000000001 -0.506698 0.32299500000000003 0.347594 -0.12193599999999999 0.29320999999999997 -0.26878399999999997 -1.449132 0.007961999999999997 0.7747229999999999 1.166853