bantamweight -0.147103 -0.062236 0.506778 0.235788 0.11629500000000001 -0.113397 -0.44756399999999996 -0.850854 -0.246189 -0.5356810000000001 0.074332 -0.552097 0.914445 0.075496 -1.449357 -0.38942899999999997 -0.05945299999999998 -0.201442 -1.0744449999999999 0.841793 -0.287149 0.275539 0.706423 0.42594 0.654125 -0.078702 0.05921 0.617587 -0.08699 0.956806 0.33067 0.612519 0.259264 0.325814 0.14230600000000002 -0.692295 0.13085400000000003 0.402382 -0.461628 0.07779399999999999 -1.1253549999999999 -0.496111 -0.298255 -0.468358 0.939631 0.73227 -0.145098 -0.435741 0.21237099999999998 0.5649500000000001 -0.016907000000000005 -0.582242 -0.176298 0.610241 0.764956 -0.360148 0.564584 0.373468 -0.11891899999999998 -0.595614 -0.36091800000000007 1.161573 -0.108497 0.146172 -0.39751899999999996 0.152254 -0.463667 0.11034200000000001 1.118074 0.323445 0.5672159999999999 -0.507466 -0.217647 -0.250747 -0.549153 -0.420064 -0.339043 0.259926 -0.14571299999999998 0.194198 0.506693 0.5674250000000001 -0.10472800000000002 0.7336320000000001 -0.155652 0.256287 0.7038439999999999 0.14459 0.594368 -0.594241 0.377602 -0.25986200000000004 -0.580735 -0.36883 0.384168 0.11546099999999998 0.738272 0.149294 0.60599 -0.17601699999999998 0.970416 0.170716 0.184007 -0.6671469999999999 0.559503 0.135362 0.138401 0.08978 0.734748 0.099176 0.214778 0.081676 0.378259 0.151435 -0.382137 0.335105 -0.10838600000000001 0.012697999999999997 -0.213987 -0.023132000000000014 1.468015 -0.04609599999999997 0.415933 -0.229939 0.7201580000000001 0.358403 -0.60612 0.42942600000000003 -0.11405100000000001 0.681165 -0.479878 0.334041 -0.477007 -0.03333900000000001 0.36165400000000003 -0.24165999999999999 -0.866992 0.784088 0.666235 0.431419 0.085706 0.013260999999999967 -0.20794300000000002 0.011135000000000006 0.528798 -0.223906 0.506227 0.880158 0.409408 0.235784 0.412246 0.056699 -0.36794699999999997 -0.906076 0.040915999999999994 0.163097 0.539589 0.708582 -0.161304 -0.712311 -0.936153 0.09510499999999998 -2.324119 0.04709300000000001 -0.891104 0.7698229999999999 -0.552627 -0.46824699999999997 0.021706000000000003 0.104351 0.119497 -0.239336 0.152916 -0.668737 0.29252500000000003 -0.5004029999999999 0.300578 -0.530021 0.057366 -0.77742 0.5006649999999999 0.052386000000000044 0.08699499999999999 -0.265617 0.11461400000000002 -0.045675999999999994 -0.60192 -0.8537129999999999 0.48461200000000004 0.231118 0.610572 0.8360669999999999 0.056880000000000014 1.5332720000000002 -0.572113 -0.743447 0.057922 -0.305778 0.395832 -1.175813 0.018869999999999998 -1.171587 0.27669299999999997 0.46858099999999997 0.461285 -0.09195600000000001 -0.24867399999999998 0.124056 -0.8600190000000001 -0.15559099999999998 -0.27823 1.057611 0.0020780000000000243 0.437694 -0.899856 -0.239019 0.482527 -0.414553 -0.431724 0.070202 0.06373099999999998 0.0033539999999999993 -0.427484 0.109909 -0.0006430000000000047 0.44375 -0.35627699999999995 0.405485 0.796834 -0.59862 -0.154165 1.721155 0.6008399999999999 0.365649 0.800889 -0.628382 0.7265250000000001 0.6425190000000001 0.188112 0.36649600000000004 0.15457 0.041493 -0.129409 -0.294155 -0.06408199999999999 0.09025000000000001 -0.669996 0.030690000000000023 0.68987 0.7393080000000001 0.6596569999999999 0.30416099999999996 0.450328 -0.15477800000000003 -0.11271300000000001 -0.08080900000000002 0.330975 0.7900739999999999 -0.347048 0.44359699999999996 0.789747 -0.280076 -0.40048 0.21537899999999996 0.20708 -0.12476999999999999 0.041366000000000014 -0.570057 0.192137 -0.416348 -0.10255 -1.178363 0.12572 -0.527417 0.109995 0.09847800000000001 -0.605819 0.097268 -0.16700900000000002 0.30918 -0.13757200000000003 0.21091400000000002 -0.212562 0.198605 0.061828999999999995 0.9923420000000001 0.782969 0.126564 -0.85481 0.23927400000000001 0.719562 0.23709400000000003 0.036143 0.127054 -0.27007099999999995 0.04835 -0.642604 -0.19672599999999998 0.5959669999999999 0.086019