bantamweights 0.209752 0.206115 0.32776999999999995 -0.03576099999999999 0.023218000000000016 -0.052654000000000006 -0.20273000000000002 -0.529708 -0.441982 -0.007098 0.496284 0.526871 0.430864 -0.341349 0.373093 -0.34833400000000003 -0.723636 -0.7089770000000001 -0.05462900000000001 0.6088260000000001 0.918916 0.4773 0.732791 0.450028 0.148249 -0.19639699999999993 -0.159034 0.27739800000000003 0.43450500000000003 0.191042 -0.487713 0.19636000000000003 -0.026860000000000002 0.018791999999999996 0.01902699999999996 -0.044333999999999985 -0.162825 0.108124 0.0008000000000000229 0.5071150000000001 0.186547 -0.462997 -0.534177 -0.23340699999999998 0.310194 0.19183099999999997 -0.387878 0.145024 -0.203619 0.28672 1.259481 -0.42183800000000005 -0.321604 0.140584 0.24552900000000005 -0.256868 0.06620200000000001 0.12376500000000001 0.425051 -0.416978 -0.234489 1.008622 -0.06639600000000001 -0.0708 -0.737304 -0.003271000000000024 -0.6524909999999999 0.357699 0.30677 -0.010883000000000004 0.9265300000000001 -0.568075 -0.189744 0.387343 -0.446164 -0.531609 -1.1296 0.283872 0.07330199999999999 0.674612 0.707846 0.62408 -0.507394 -0.046035999999999994 -1.1204610000000002 1.075135 0.744375 0.21950699999999998 -0.13573 -0.15354399999999999 -0.030742999999999965 -0.303656 -0.384546 -0.551579 1.210013 0.197084 0.469714 0.108591 0.07713999999999999 -0.023321 0.351589 0.127977 -0.195332 0.199549 0.537465 -0.705027 0.09958299999999999 0.035247 0.8836550000000001 -0.452745 0.121997 0.243558 -0.475646 0.119752 -0.472302 0.00918999999999999 0.186939 0.35225 -0.27755799999999997 -0.31653200000000004 1.2471679999999998 -0.935671 0.08903 -0.459919 0.16296900000000003 0.09412999999999999 -0.968346 0.212837 0.304221 1.06383 -0.04145100000000001 -0.668851 -0.24087199999999998 -0.03107199999999999 0.845302 -0.45502100000000006 -0.2097 0.388301 0.162864 -0.111928 -0.6414690000000001 -0.16649099999999997 -0.35377400000000003 0.05817800000000001 0.617434 -0.10603700000000002 0.270932 0.599947 0.05352000000000001 -0.219325 -0.279752 0.234435 -0.706287 0.18445899999999998 -0.326176 0.39919899999999997 0.14306 0.153097 0.48150899999999996 -0.776514 -0.41013700000000003 0.24955500000000003 -0.9031039999999999 0.753996 -1.2838150000000002 0.710113 -0.18006099999999997 -0.21032800000000001 -0.128332 0.214069 -0.316566 0.477226 0.101986 -0.434216 -0.5503020000000001 0.62567 0.065375 0.23185699999999998 -0.135749 0.18921000000000004 0.559412 -0.744514 0.624251 -0.349762 0.09512800000000005 0.591653 0.199154 -0.703843 0.348274 0.361574 0.22326300000000002 0.389863 0.5936980000000001 0.710809 -0.391851 -0.405871 -0.123633 0.35795 -0.273407 -0.822469 0.560813 -0.9823850000000001 0.381738 0.187383 -0.315952 0.536805 0.186881 0.175184 -0.679619 -0.6851740000000001 -0.25143899999999997 0.450384 -0.017905999999999977 0.295338 -0.887318 -0.17935700000000002 -0.099667 -0.025956 -0.37719400000000003 0.241989 0.20871900000000002 0.009010000000000004 -0.20885600000000004 0.025961000000000005 0.206065 -0.576541 0.212317 0.24318199999999995 0.47128 -0.671408 -0.40401600000000004 1.140098 0.6394930000000001 0.46687999999999996 -0.00919399999999998 -0.013858999999999982 0.179678 0.712489 0.723551 1.08129 -0.46903 0.295664 -0.244614 -0.358884 -0.033811999999999995 0.026400000000000003 -0.30987699999999996 0.481609 0.16056900000000002 0.36043000000000003 0.033593 0.221698 0.832174 0.5753029999999999 -0.47157899999999997 0.39280400000000004 0.26803 1.33423 -0.24240599999999998 -0.767605 0.801196 -0.365139 0.14258800000000002 0.184411 0.25605500000000003 -1.013535 0.413294 -0.832263 -0.057534 -0.325993 -0.8422660000000001 -0.676038 -0.754499 -0.443791 1.055174 -0.183489 -0.276395 -0.15956199999999998 0.13245600000000002 -0.096234 0.03531200000000001 -0.15010199999999996 -0.025672 0.251219 -0.12588599999999997 0.816095 1.327763 -0.40086 -0.061336 0.618207 0.049911 0.6610480000000001 0.27252 -0.022705000000000003 -0.20612299999999997 0.253809 -0.15184600000000004 0.487799 0.14513600000000001 0.468476