baseweight 0.31542 1.2772929999999998 -1.642106 1.1141670000000001 3.943637 0.603154 0.148434 2.942006 -0.019796000000000036 0.7215940000000001 -0.725857 -1.260623 1.627432 0.290005 -0.952868 -0.5380820000000001 -1.536254 0.83917 -1.890388 -0.17304200000000003 -0.105485 0.841108 0.3892580000000001 0.112375 -0.936985 0.476832 0.24831199999999998 -1.4389210000000001 -1.720505 0.010229000000000016 -0.761588 1.0627600000000001 -2.334277 0.221115 -3.020492 0.28726600000000013 0.006418000000000035 -1.713306 -1.999209 1.9165610000000002 1.822276 -0.956835 -1.549719 0.9150889999999999 -1.482964 1.3147069999999998 -0.149058 0.06627900000000003 -1.582457 0.70013 0.260476 1.648635 0.8376950000000001 0.639401 -2.128685 -0.881938 1.1761629999999998 -0.102713 -0.9316000000000001 -0.34776799999999997 1.568209 -1.624495 -0.7293540000000001 0.32002200000000003 0.87001 -0.325484 0.704024 3.387375 -0.803327 1.233263 -1.912047 -0.374568 0.377124 1.816872 -0.28672200000000003 -2.22766 1.048637 -0.6514260000000001 0.693976 3.0232270000000003 1.142914 -0.6169579999999999 -0.377753 0.980656 0.666557 -0.486776 0.543266 1.374584 1.1277940000000002 -0.177992 -0.6803049999999999 1.9169580000000002 -2.4168089999999998 -0.541817 -0.026978999999999975 -0.80404 -0.20389199999999996 -0.07084800000000002 -0.41749400000000003 -0.46150500000000005 -0.9716279999999999 -0.072746 -1.721997 0.44408600000000004 0.40608799999999995 -1.173265 -0.20998499999999998 0.409836 2.275435 -0.67347 -0.04838699999999996 0.561801 -0.6935020000000001 -0.9327049999999999 -0.434313 1.041686 -1.105229 -1.00847 -0.868296 -0.4468619999999999 1.6015979999999999 0.524867 -0.395211 0.11676500000000006 -0.14336699999999997 -0.020401999999999976 0.11432700000000001 -0.9102250000000001 -1.3187330000000002 0.487437 0.602418 0.780851 1.5264350000000002 -1.02502 1.179347 0.852546 -0.068774 -0.715442 0.604311 2.125238 0.804972 -1.631903 1.005401 -0.08341900000000002 0.09666399999999997 0.940518 1.30124 -2.2460329999999997 0.703616 1.598347 -0.7707919999999999 -1.684889 0.5289519999999999 0.295826 -0.056572999999999984 -1.1131469999999999 2.070044 0.31613600000000003 0.7482709999999999 -0.35223799999999994 -1.866483 -1.4201160000000002 -0.7051780000000001 0.077907 0.31622 0.12082099999999996 -1.959782 -0.491502 1.758748 -0.5367780000000001 0.656396 -1.0357290000000001 -0.218559 -0.21830099999999997 -2.027933 0.5694520000000001 0.030985000000000002 -0.914797 1.22655 -0.771712 0.549125 -0.492788 -0.617356 0.942947 0.43732299999999996 0.008519999999999972 0.23541800000000002 -0.48478600000000005 0.831354 2.680075 0.8215319999999999 1.67089 1.9424869999999999 -3.4482739999999996 0.633904 1.798557 1.9579149999999998 -0.494649 -0.736197 -0.679295 -0.880757 2.394768 1.233118 0.080959 2.518654 -1.602707 -0.14127699999999999 0.9804829999999999 0.496593 0.374349 -1.619381 0.613331 -0.7385999999999999 -0.997961 -1.080456 -0.174981 0.5621699999999998 3.5895099999999998 0.580041 -1.794931 0.7852619999999999 0.1412549999999999 0.13324799999999998 1.255424 1.558267 0.5738710000000001 -0.711894 -0.459133 -0.33317399999999997 -0.738442 -0.8872639999999999 -0.057248999999999994 0.371638 1.447791 -0.444569 1.7077870000000002 3.915506 0.692241 -0.9923039999999999 1.040023 1.884722 -0.117215 0.008466000000000029 -0.4921789999999999 0.12702500000000003 0.20306800000000003 1.674055 0.877913 1.052314 1.811596 0.02297400000000005 -0.724153 -1.214571 -0.9297390000000001 2.03542 2.226049 0.1845 -0.058613999999999944 0.698897 0.004875000000000018 -0.433394 -0.076362 -0.114425 -0.30640399999999995 -1.751455 -0.764038 -0.45172 5.2857400000000005 1.605143 0.758359 -1.4688430000000001 -1.520144 -1.135838 -0.17460799999999999 3.500109 0.18686999999999998 0.94448 2.265577 -1.180819 -0.098284 0.551651 -0.85351 0.563154 0.014032999999999962 0.273462 0.660783 0.5327850000000001 -0.042317999999999995 -0.20672499999999994 0.14470499999999997 1.2446869999999999 -0.850245 -1.2670249999999998 0.497077 -0.25637899999999997 0.222114 1.039642 1.8049879999999998 0.723174 -0.12887100000000007