beetleweight -0.30125599999999997 -0.256978 0.259862 -0.104131 0.150328 -0.050425 -0.764122 -0.260795 -0.685021 0.204252 0.594387 -0.5852820000000001 -0.003579999999999972 -1.034738 0.008568999999999993 -0.836556 0.09997600000000001 -0.163195 0.17707 -0.005581000000000003 -0.4783430000000001 0.236827 0.47946500000000003 0.15703399999999995 -0.18562 0.784339 0.437162 -0.142976 0.175491 0.34771199999999997 0.298062 -0.461058 -0.354938 -0.5993850000000001 -0.011184000000000003 -0.34343599999999996 -0.533173 -0.033951999999999996 -0.929759 -0.617875 -0.155712 0.25689300000000004 -0.161888 -0.338173 -0.678464 0.716283 0.12115400000000004 0.404321 0.314145 0.7954300000000001 -0.363093 -0.40288 -0.652545 0.293256 0.41203999999999996 -0.110876 0.32373999999999997 0.534096 -0.149679 -0.37674299999999994 0.24155300000000002 -0.431086 -0.7720830000000001 0.873698 -0.32803699999999997 0.309443 -1.0775450000000002 0.292133 -0.19424 0.18169599999999997 0.019220999999999988 0.37935399999999997 0.680004 0.731531 -0.907278 -0.47472099999999995 -0.286649 -0.139879 -0.332617 -0.038847999999999994 -0.533531 0.11018 0.17199499999999998 -0.037914 -0.607112 0.75795 0.059711 -0.138012 0.141954 0.849159 -0.501581 -0.491485 0.26817 -0.763224 0.18708699999999998 -0.372455 1.082241 0.633211 0.16453500000000001 0.182328 0.209693 -0.873519 -0.168998 -0.888969 0.12681899999999996 -0.109953 0.673997 -0.350323 -0.705783 0.063502 0.50293 -0.554602 -0.16862500000000002 0.03795100000000001 -0.38798 1.003939 -0.6479640000000001 -0.173417 -0.196719 -0.36070199999999997 0.303804 -0.04132800000000003 -0.6557930000000001 0.400629 0.29434800000000005 0.223955 -0.21684399999999998 -0.067923 -0.188286 0.5031800000000001 -0.8233550000000001 -0.138254 0.572749 -0.353082 1.094929 0.770383 0.21337599999999998 -0.06412999999999996 1.376374 0.502869 -0.11732400000000001 0.42454000000000003 -0.875159 -1.007807 0.6106389999999999 -1.28092 -0.258288 -0.27423400000000003 0.326856 -0.7620629999999999 0.483797 0.012458000000000025 0.6341760000000001 -0.6166480000000001 -0.48607999999999996 0.015518000000000004 0.10301300000000001 -0.305376 -1.242583 -0.33422799999999997 0.128399 0.14438600000000001 -0.44387499999999996 0.37477499999999997 -0.659303 0.276666 -0.4229 -0.29110199999999997 -0.489857 0.21656999999999998 0.052260999999999995 0.321845 -0.24722099999999997 0.012835999999999986 -0.07789799999999997 -0.735432 -0.521994 -0.24465599999999998 -0.127216 0.621315 0.736351 -0.035984 -0.74437 -0.184641 -0.438773 0.013503000000000043 0.477614 0.014544999999999975 -0.729214 -0.6260519999999999 0.19420300000000001 0.377147 0.261419 -0.020774 0.27528199999999997 0.357104 0.34290200000000004 -0.40851800000000005 0.5771679999999999 -0.7695529999999999 -0.875801 0.361803 -0.420504 0.562573 -0.45025499999999996 0.143245 -0.11457299999999998 0.879621 -0.079988 -0.128349 -0.174556 -0.258882 -0.670819 -0.534524 -0.331089 -0.060983 -0.079762 -0.525476 -0.720911 0.483786 0.15585500000000002 -0.13186499999999998 0.170599 0.131995 -0.556959 0.316633 -0.390282 0.339387 0.30197399999999996 -0.80068 0.471812 -0.23279 -0.11888900000000002 -0.599197 0.109127 0.171324 -0.544196 0.766804 0.810339 -0.645555 0.5228029999999999 0.6592199999999999 -0.094193 -0.998546 0.618593 -0.40591499999999997 -0.49166400000000005 1.004206 0.7826139999999999 0.165707 -0.187216 -0.360727 -0.753722 -0.23403000000000002 1.0037340000000001 -0.470136 0.08832999999999999 -0.430319 0.138188 0.968515 0.42739 0.367949 -0.41350200000000004 -0.376061 -0.17870799999999998 0.145354 -0.15609399999999998 0.64059 -0.475147 0.173668 -0.41999000000000003 -0.589268 0.6027579999999999 0.991477 -0.348427 1.323909 0.410111 -0.285896 0.006503000000000009 -0.11014900000000002 -0.6738029999999999 1.186519 0.063577 -0.323733 1.086719 -0.143029 0.129845 -0.885412 0.105385 -1.506803 0.012253999999999987 0.463192 -0.30893400000000004 0.03378199999999998 -0.274656 0.298157 0.159632 -0.06449799999999997 0.40820300000000004 -1.114952