birthweights 0.297693 0.303703 0.336878 0.13637099999999996 -0.895552 0.19678299999999999 0.853337 0.016682000000000002 -0.540798 -0.109881 0.11596400000000001 0.09957 0.871085 0.36434 0.587847 0.246962 -0.709936 0.11595499999999999 -0.059342000000000006 0.6523720000000001 0.21155400000000002 0.289307 -0.525335 -0.26271100000000003 -0.501144 -0.14505699999999996 -0.191534 -0.211279 -0.05932699999999999 0.300599 -0.635116 0.611326 -0.601247 -0.29334699999999997 -0.222377 0.542562 0.186705 0.48413399999999995 -0.15907400000000002 0.405517 0.642423 -0.24295699999999998 0.0786 -0.574495 -0.26968899999999996 0.261372 0.146293 0.407519 0.802344 0.22384600000000002 0.353606 0.693424 -0.223099 -0.017441 0.24747 0.924395 1.004943 0.213554 0.359038 0.052412999999999994 -0.06589400000000001 -1.079532 -0.09003900000000001 -0.13918 -0.20423199999999997 -0.5651149999999999 0.12228900000000001 0.592715 0.887887 -0.410647 0.067269 0.627562 0.35945499999999997 -0.463607 0.27845 -0.44209999999999994 -0.348397 -0.349221 0.043216000000000004 0.9363680000000001 -0.165456 0.45682100000000003 0.65427 0.7830779999999999 -0.295613 -0.041022 -0.706064 -0.199497 0.820002 -0.37523 -0.22896199999999997 0.146452 0.150699 -0.29946500000000004 -0.186691 -0.7324700000000001 -0.391243 -0.193467 -0.38803600000000005 -0.759456 -0.8723270000000001 0.8517710000000001 0.451947 -0.21499000000000001 -0.819647 -0.531746 1.250034 0.7234419999999999 -0.32777100000000003 -1.021792 0.03281 -0.40024000000000004 -0.30197399999999996 0.307349 0.789621 0.075624 0.356021 0.935261 0.216978 0.559369 -0.349599 -0.963237 0.17056300000000002 0.09404400000000002 -0.202547 0.04853299999999999 0.07730400000000004 -0.525149 -0.600804 -0.230995 -0.9422699999999999 0.48937400000000003 -0.39848700000000004 0.589905 0.382819 0.316376 -0.015599000000000002 0.502253 0.016044000000000003 -0.013284000000000004 0.090505 -0.469509 -0.447212 0.29155900000000007 -1.036781 0.32979899999999995 0.316424 0.592854 0.42641999999999997 1.6422949999999998 -0.556115 0.8885419999999999 -0.5630120000000001 0.27929499999999996 0.070414 0.227567 -0.6303380000000001 -0.008662000000000003 0.561742 -0.041741 -0.55846 -0.5046999999999999 0.7203029999999999 0.7289829999999999 -0.16187800000000002 0.63237 -0.14414900000000003 0.340522 0.645412 0.459946 0.330441 0.179727 -0.245497 0.186141 -0.24669300000000002 -0.380783 -0.137585 -0.035139000000000004 0.08030900000000002 0.798863 -0.312825 -0.627822 0.517991 -0.32689199999999996 0.69488 0.706536 0.461414 -0.5596 0.378358 -0.132208 -0.44252100000000005 -0.295418 -0.703862 0.097611 -0.739948 -0.41774 0.18275899999999998 -0.1827350000000001 0.40508 -1.252834 -0.985299 0.032163 -0.553149 0.020138000000000003 0.294444 -0.43316 0.138438 -0.23562400000000003 0.04256600000000002 0.349011 0.476415 0.26741200000000004 -0.18821400000000002 0.057462999999999986 0.08260800000000001 0.494733 0.472202 -0.09381899999999999 -0.158187 0.126273 0.003798999999999997 0.09739600000000001 0.262174 -0.384791 0.579664 -0.024411000000000002 -0.09928700000000001 0.632677 -0.448135 -0.32033900000000004 0.139215 -0.131663 0.12591999999999998 0.07980599999999999 -0.640158 0.508319 -0.719742 -0.503341 0.399108 0.502509 0.498217 -0.5375300000000001 -0.0006470000000000087 -0.7579870000000001 -0.379128 0.309762 -0.429437 -0.425601 -0.26828499999999994 -0.002597999999999989 -0.7423930000000001 0.487982 -0.790829 -0.774585 0.266092 -0.252842 0.538311 0.05101100000000003 -0.16113099999999997 -0.126558 0.449862 -0.054581 0.12262100000000001 -0.250057 -0.33802499999999996 -0.6491979999999999 -0.28569 -0.274409 0.555492 0.641032 0.38018100000000005 0.859533 -0.44484 -1.1976019999999998 0.307075 -0.08361899999999994 0.383262 0.3994 -0.127781 0.37495599999999996 0.28155600000000003 -0.13530099999999998 -0.002148999999999998 0.501076 -0.367796 -0.23735400000000004 0.011625999999999997 0.589279 0.6601079999999999 -0.535145 -0.797701 -0.175789 0.513279 -0.42147799999999996 -0.312536 -0.4189 0.322789 -0.04245499999999999 1.0391270000000001 0.449233