birthweight -0.363541 0.330819 0.28708 0.9407639999999999 -0.345112 -0.7690710000000001 0.412912 -0.23987499999999998 -0.42228499999999997 -0.046534000000000006 0.40613 0.092864 0.628785 0.10064999999999999 -0.560185 0.180246 0.044515 -0.051033999999999996 -0.044750999999999985 1.077861 -0.159736 -0.206322 0.0066799999999999984 -0.095639 -0.558942 -0.24651099999999998 0.006541999999999999 0.06599 0.08534900000000001 -0.127029 -0.519412 -0.431604 -1.169338 -0.674468 -0.578343 0.03786800000000001 0.04561100000000001 0.909119 -1.266911 -0.248632 0.03060199999999999 0.49421 0.122993 -0.559885 0.327256 -0.248914 -0.26456599999999997 0.486637 0.351753 0.317435 -0.037631000000000005 0.787291 0.5144949999999999 0.093273 0.726411 0.08576700000000001 0.7215860000000001 0.686594 0.06093799999999999 -0.118568 0.015581000000000012 -0.24078399999999994 0.595969 -0.277687 -0.47241600000000006 -0.139758 0.426098 0.168494 0.982111 0.072144 0.487099 0.550449 0.15885900000000003 -0.11968100000000001 0.308025 -0.7193930000000001 -0.24397500000000003 -0.34022600000000003 0.11085 0.372362 -0.22986600000000001 -0.050676 0.049115 0.884299 -0.14017700000000005 -0.300336 -0.03046 -0.26815300000000003 0.096052 -0.3471 -0.251895 0.18757500000000002 0.0015140000000000153 0.6788460000000001 0.118973 -0.334321 0.281297 -0.120594 -0.300429 -0.773628 -0.060388 0.640247 -0.077517 -0.08775399999999998 -0.767252 -0.939875 0.897652 0.502972 -0.762364 -0.680728 0.028594 -0.126968 -0.331194 -0.332262 0.345664 -0.392942 0.35221800000000003 0.006132000000000026 0.72978 0.276126 0.886321 -0.267139 -0.147171 -0.6934819999999999 -0.342408 0.748408 -0.17944300000000002 0.025467000000000004 -0.191193 -0.09372000000000003 -0.6816139999999999 0.10245399999999999 0.219806 0.25215299999999996 0.531168 -0.072608 -0.28405800000000003 0.645404 0.479008 -0.07515500000000001 0.09056199999999999 -0.154643 -0.419401 0.111491 -0.417699 -0.500486 0.190307 0.10525499999999999 0.133275 1.2608709999999999 0.06609 1.2100629999999999 -0.178741 -0.17715 0.057107000000000005 0.340354 -0.542337 -0.334885 0.516602 -0.086373 0.36429700000000004 -0.268501 -0.464146 0.43115600000000004 -0.124177 0.41429699999999997 -0.12653599999999998 -0.18595699999999998 0.670008 0.276772 0.03670100000000001 -0.47016 0.029535999999999993 0.063611 0.244851 -0.102421 0.39744100000000004 0.10841899999999999 -0.505066 0.621327 -0.027304999999999996 -0.042094999999999994 -0.171569 0.23598400000000003 0.17778 0.840322 -0.27455 -0.272414 0.275377 0.158798 0.238673 0.10539100000000001 -0.29873099999999997 -0.085058 -0.325174 -0.31833900000000004 -0.49365400000000004 0.032511999999999985 0.144678 -0.565175 -0.202926 0.087326 0.158865 0.305403 0.193863 -0.670459 0.710529 -0.397087 0.40728 -0.532679 0.207345 2.070616 0.07747599999999999 0.11424399999999998 -0.30053 -0.21196199999999998 0.934292 0.04020099999999999 -0.17933000000000002 0.041911000000000004 -0.0009389999999999954 -0.7684880000000001 -0.088741 -0.203229 1.497646 -0.49660499999999996 -0.19368200000000002 0.700365 -0.497436 -0.125912 -0.34032500000000004 0.357302 0.176272 0.730753 -0.13790199999999997 -0.19586 -0.655239 -0.39836499999999997 0.19377899999999998 0.819259 -0.233893 -1.120536 -0.466644 0.177806 -0.5222450000000001 1.169454 -1.1340189999999999 -0.17799 0.053209 -0.430057 -0.194907 0.344825 -0.27381600000000006 -1.178452 -0.188778 -0.827661 0.298801 -0.18310700000000002 -0.36273500000000003 0.568694 1.001792 -0.08263999999999999 -0.39496600000000004 -0.542404 -0.440498 -0.350187 -0.142262 0.19342400000000004 -0.262781 0.265011 -0.275895 0.18189 -0.037556000000000006 -1.160228 0.393906 -0.6904939999999999 0.6875899999999999 0.24696300000000002 0.22278 0.519456 -0.645131 0.026479999999999997 0.338523 0.53598 -0.047077 -0.8288519999999999 0.331814 0.42523599999999995 -0.349909 -0.59781 -0.582021 -0.078564 0.8821140000000001 0.08779200000000001 -0.46539200000000003 -0.557883 0.431048 0.7483550000000001 0.277858 0.298409