bodyweights 0.877643 0.557405 -0.004740999999999995 0.161078 -0.25837299999999996 -0.11676500000000001 -0.179501 -0.6025250000000001 -0.79141 -0.11633100000000002 0.557207 0.474808 0.230103 -0.196387 -0.11859700000000001 0.050265000000000004 -0.24905899999999997 -0.670824 0.023577 -0.25850599999999996 -0.079323 -0.503573 0.042920000000000014 -0.245585 0.08973499999999995 -0.257027 -0.10498500000000002 -0.18367200000000006 0.03405099999999997 0.322521 0.195031 -0.142975 0.167916 -0.7282329999999999 -0.40206200000000003 0.378281 -0.016583 0.321773 -0.748337 0.5143030000000001 -0.02394999999999997 -0.5685239999999999 0.283514 -0.475122 -0.12458 0.294903 0.191506 0.456775 0.851027 0.229069 0.24262799999999998 0.189196 0.011944 0.68638 0.22147999999999998 0.575356 0.462898 0.387842 0.348201 0.433349 -0.434862 0.257448 -0.283958 0.516204 0.34351 0.773523 -0.160859 -0.05025399999999999 0.736085 0.28122500000000006 -0.18802400000000002 0.14576500000000003 -0.06048400000000001 -0.197422 0.105607 -0.6307320000000001 -0.5335799999999999 0.352066 -0.594809 -0.09598399999999999 0.10677400000000001 0.44198499999999996 0.04877300000000001 -0.014797999999999992 0.112846 -0.43989200000000006 0.725066 -0.8328720000000001 0.174527 0.24334799999999998 0.20764100000000002 -0.166934 -0.628366 0.030404 0.844152 -0.28394600000000003 -0.188344 0.0063449999999999895 0.059281 -0.61686 -0.09279499999999999 0.9443320000000001 0.607307 0.099828 -0.503134 -0.5918110000000001 1.7319019999999998 0.164282 -0.904491 -0.233126 0.583817 0.448598 0.074101 -0.305313 0.419282 0.051899999999999995 -0.10828299999999999 0.613823 0.25549 -0.28504399999999996 -0.019053 -0.283767 0.791329 -0.33262800000000003 0.03425700000000004 0.48043199999999997 0.690143 -0.6534899999999999 -0.639699 -0.13642500000000002 -0.41317899999999996 0.988232 -0.08703499999999997 0.229899 0.772443 -0.518425 0.344757 0.15996000000000002 0.7729140000000001 0.053704 0.05127899999999999 -0.05855899999999999 0.256267 -0.519802 0.03745699999999999 -0.484421 -0.474072 -0.021619 0.9907630000000001 0.6531680000000001 -0.557822 -0.425734 0.217403 -0.241868 0.334831 0.907392 -0.026520000000000002 0.18962400000000001 0.6490400000000001 1.546786 -0.413948 0.485333 -0.307831 0.54936 -0.148279 0.651857 0.238437 -0.099292 -0.310767 0.436068 0.5979460000000001 0.867782 -0.813055 0.47862000000000005 0.209304 0.42623 0.5103759999999999 0.09149 0.03947999999999999 -0.42721999999999993 0.195504 -0.167665 0.21691100000000002 -0.240029 0.22784900000000002 1.243776 0.337712 -0.32402 0.47683 -0.008131 -0.21443 -0.447374 -0.5448620000000001 0.829907 -0.257684 -0.256137 -0.243155 -0.16064399999999998 -0.294903 -0.574681 -0.764113 -0.20486 0.002824999999999994 -0.903194 -1.022718 0.078942 0.326521 -0.18743200000000002 0.21219100000000002 0.20964200000000002 0.11637900000000001 0.03405100000000001 -0.370401 -0.503161 0.48965800000000004 -0.097519 0.04582700000000001 -0.119365 -0.360504 -0.14279299999999998 -0.23165100000000002 -0.715426 0.619265 -0.34135899999999997 1.243765 0.083763 -0.419951 -0.24110900000000002 0.431869 0.02421100000000001 -0.8254710000000001 -0.262873 -0.08230100000000001 0.6081179999999999 0.47953100000000004 0.06526000000000001 -0.15310300000000002 0.707523 0.011712 -0.09785100000000001 -0.274825 -0.20378500000000005 -0.09468299999999999 -0.26551400000000003 -0.096764 0.593864 -0.029690999999999995 0.551048 -0.461144 -0.368836 -0.828013 0.165191 -0.544271 -0.698952 0.140892 -0.545581 0.19034600000000002 -0.154397 0.0014149999999999996 0.010788000000000006 0.182581 -0.149061 -0.730708 0.391787 -0.689337 -1.134792 0.362881 -0.16638999999999998 0.257764 0.873047 -0.408276 -0.100047 -0.23305 -0.619307 0.334675 -0.43438 -0.380514 -0.396206 -0.686972 0.282168 -0.34913099999999997 0.03176600000000001 -1.374655 0.725757 -0.216375 -0.20699299999999998 0.17923499999999998 -0.35246299999999997 0.684063 -0.14273199999999997 -0.151082 0.14289299999999996 -0.11016000000000001 -0.9483050000000001 -0.7962800000000001 -0.49194000000000004 0.014112 0.23467600000000002 0.521348 0.43722300000000003