bodyweightfitness 0.06631300000000001 1.062104 0.429384 -0.967401 -0.24676199999999998 1.350088 -0.726011 -0.6076109999999999 0.767599 -0.346395 1.5251649999999999 0.39142600000000005 0.414057 -1.101407 -0.88079 1.1253389999999999 -0.657229 0.9310639999999999 1.0813389999999998 -0.38980099999999995 -1.2299280000000001 -2.3289809999999997 -0.295858 0.8759020000000001 -0.056215 0.479279 0.405861 -1.5675109999999999 0.034384000000000026 1.088035 2.010799 -0.278606 0.013082999999999984 -0.666312 -0.092702 0.193654 -0.08704000000000003 0.02896 -1.100903 0.24768100000000004 -0.776265 -0.7712129999999999 -0.895974 0.163179 -0.22251700000000002 -0.935163 0.913132 0.683625 -0.14924300000000001 0.21466000000000002 -0.520154 -0.30425900000000006 1.208924 0.8592569999999999 0.443514 -0.16138699999999997 0.6879770000000001 -0.22513900000000003 0.46804100000000004 0.7312270000000001 -0.25952800000000004 1.4797850000000001 -0.34228600000000003 -0.565921 0.28813 0.867209 -0.05564400000000003 0.19483700000000004 1.442517 0.5021680000000001 1.205389 0.998161 -0.170244 -0.373258 -0.14496900000000001 -0.020446999999999993 0.45984400000000003 0.795484 0.050939 0.08062400000000002 0.360236 0.985161 0.234149 -0.7990069999999999 -0.842515 -0.22272200000000003 0.17466199999999998 -1.018516 -0.405615 0.11833699999999997 -0.288339 0.673948 -1.220427 -0.184623 -0.324739 0.4757819999999999 0.814955 -0.12384599999999996 -1.698146 -0.458778 -1.244463 0.581213 1.0168 0.526405 -1.383171 1.12702 -0.8931830000000001 -0.7258819999999999 0.8756430000000001 -0.05214599999999997 0.306418 -0.30806599999999995 -0.799606 0.6614840000000001 -0.162584 0.04314100000000004 0.37564699999999995 -0.6018009999999999 -0.9632970000000001 -1.269552 1.3311520000000001 -0.644346 -0.0068430000000000435 1.164489 -0.47500699999999996 1.0909769999999999 -0.30559400000000003 -0.631595 -1.001314 0.17779 -1.075424 -0.607523 1.012586 0.572265 0.829629 -0.39635000000000004 -0.447179 -0.170487 1.388288 0.8620829999999999 0.357929 -0.667123 1.331543 0.11563999999999997 0.393189 0.234682 -0.713507 -1.792983 0.818285 -1.003585 0.23894700000000002 0.6100140000000001 0.11385999999999999 -0.573775 -0.6236360000000001 0.603762 -0.629413 0.5502819999999999 -0.33722399999999997 0.10223999999999997 -0.534979 -0.011056999999999984 -0.544493 -0.721551 -0.518688 0.15441199999999994 -0.344987 -0.160746 0.126364 -0.40122199999999997 0.974407 1.17469 0.788208 -0.15392899999999998 1.4220629999999999 0.74278 0.3728969999999999 0.3648159999999999 -0.10976599999999999 -1.3665930000000002 0.46253 0.316288 0.46793999999999997 2.057448 0.544815 -0.10824099999999992 0.7111609999999999 0.370846 0.562152 -0.284455 0.445263 0.727565 0.32916900000000004 0.556658 -0.15096199999999999 -0.792238 -1.475816 -0.6708179999999999 -0.223453 -0.06936600000000004 -0.289103 -0.195651 0.544775 0.263851 0.5868310000000001 -0.4078109999999999 0.28339400000000003 0.8372850000000001 1.3850250000000002 -0.26423599999999997 0.22654400000000002 0.766919 0.617106 -1.340814 0.283511 -0.642961 -0.269514 0.002565999999999957 -0.841615 0.11794799999999994 1.140378 0.01341500000000001 0.23267100000000002 -0.23228800000000005 0.9364669999999999 -1.128984 0.468092 -0.238705 0.44765900000000003 1.1311010000000001 -1.3056969999999999 -0.16083800000000004 -0.119529 0.6328739999999999 0.687237 -0.70503 0.14377399999999996 -0.910855 -0.37828100000000003 -1.1518220000000001 -0.054346000000000005 -0.427485 -0.728774 0.16917200000000002 -0.224374 0.464573 0.5619500000000001 0.220406 -1.038055 0.061803000000000004 -0.824792 0.339576 -0.715308 -0.8405 0.327084 -0.354662 -0.993185 -0.608867 -0.048535999999999996 -0.13252800000000003 0.17489999999999994 1.222459 -0.714 0.09738600000000003 0.196251 -0.094717 -1.48602 0.107051 0.8567910000000001 0.585658 0.344816 -0.303675 -0.7882610000000001 0.329755 -1.130412 -1.08223 -0.017921999999999993 0.421268 0.296396 0.059090000000000004 0.219092 -0.21752899999999997 -1.583981 -0.41072200000000003 0.05814799999999998 -1.095555 0.43534800000000007 1.24601 0.43734700000000004 0.29970300000000005 -0.32802999999999993 -0.949507 -0.7835049999999999 -0.6111949999999999 0.295811 -0.79848 1.04494 -0.420311 -1.381339 0.163441