bodyweight 0.472848 0.47331500000000004 0.244867 0.344605 0.10186400000000001 -0.685751 0.317781 -0.44434300000000004 0.08908200000000001 -0.135778 1.168348 -0.300558 -0.034259999999999985 -0.10581099999999999 -0.1421 0.321175 -0.190298 -0.141081 0.986053 -0.22147699999999998 -0.650182 -0.539525 0.272919 0.16080999999999998 -0.003707999999999989 -0.20680899999999997 -0.015269999999999999 -0.7944869999999999 -0.157237 0.066767 0.448018 0.259934 -0.33087 0.113097 -0.179702 0.193726 0.351785 0.529202 -0.416327 -0.05356899999999999 -0.070523 -0.130411 -0.23217100000000002 -0.5502659999999999 -0.447417 0.237894 0.45837300000000003 0.666611 -0.201645 1.017713 -0.75275 0.33663299999999996 0.110221 0.640942 0.823875 -0.27393900000000004 0.15307300000000001 -0.614209 -0.46961299999999995 0.63781 -0.769188 0.8738790000000001 -0.551129 0.312633 0.050346 0.60414 0.009650000000000006 0.128007 0.820198 0.24559599999999998 -0.114876 0.514969 -0.544639 -0.558615 -0.486368 -0.508326 0.8003439999999999 0.352367 0.123965 -0.016691 0.43530500000000005 0.36581600000000003 0.169231 -0.004593 0.181909 0.254832 0.245399 -0.05771000000000001 0.25058 0.307863 0.03986300000000001 -0.022452999999999994 -0.471794 0.156772 0.31227699999999997 0.297769 -0.24062 0.565871 -0.679663 -1.080124 -0.28473699999999996 0.504474 0.507866 -0.118334 -0.776193 0.413552 0.250176 0.05401900000000001 0.138906 -0.012606000000000001 0.315912 0.098396 -0.516093 0.336597 0.376745 0.25136 0.259737 -1.007726 0.27127 0.413368 1.856843 0.27816300000000005 0.563206 0.493903 0.168989 0.67897 -0.254985 0.002894999999999995 -0.6620900000000001 -0.453643 -0.32525 -0.26779000000000003 0.588382 -0.06040799999999999 0.197164 0.238475 0.06552899999999999 0.313382 -0.189448 0.383578 -0.339358 0.030692999999999998 0.700657 -0.380168 0.11651499999999998 -0.575006 0.133389 -0.112862 0.790524 -0.08454 0.47782800000000003 -0.134329 0.194359 -0.34104100000000004 0.821688 1.011462 -0.497458 -0.364117 -0.26648700000000003 0.5468379999999999 0.196462 0.191264 -1.549423 -0.45404 -0.300978 0.224055 -0.156943 0.0030000000000000027 -0.038306 -0.42991599999999996 0.851912 0.84198 0.07369299999999998 -0.407021 0.397035 0.501421 0.125243 -0.995196 0.270281 -0.32765099999999997 0.227145 -0.12812500000000002 0.222019 1.143973 0.25197200000000003 0.133835 0.167015 0.24374099999999999 0.07731 0.26525 -0.371189 0.24157499999999998 0.11652100000000004 0.484118 -0.25949599999999995 -0.374234 -0.564877 0.600761 -0.168785 -0.42764 -0.226255 -0.3176 0.164049 -0.35099199999999997 -0.066969 0.20669899999999997 0.266641 0.528853 0.270009 0.9804060000000001 0.234915 1.149856 -0.56938 -0.0017270000000000063 0.181609 -0.505065 0.012066000000000007 -0.07025299999999998 -0.679944 -0.483804 0.382146 -0.19238 0.620653 0.069796 2.5261579999999997 -0.703783 0.052329 -0.275428 -0.005199000000000002 -0.22101300000000001 -0.523781 0.680251 0.054345000000000004 0.048022999999999996 -0.293295 0.24334099999999997 -0.829947 0.28738199999999997 -0.20470900000000003 -0.086647 -0.02710499999999999 -0.6630389999999999 -0.257421 -0.152408 0.0003039999999999987 0.591707 -0.19298099999999999 -0.600919 0.03881899999999999 -0.331322 -0.30691999999999997 -0.01709 -0.46701899999999996 -0.546211 -0.23718 0.571674 -0.226161 -0.625046 -0.60593 0.12835 0.407779 0.613306 -0.700247 0.281612 -1.229127 0.6726110000000001 -0.344598 0.35566899999999996 0.646711 -0.365375 -0.169272 -0.311034 -0.480777 -0.343618 0.240037 0.18445 0.37648800000000004 -0.311562 0.14855000000000002 -0.236718 0.405226 0.459939 -0.9938229999999999 -0.014485999999999995 0.06260199999999999 0.27759500000000004 0.792016 0.34038199999999996 0.647066 -0.26949 0.170813 0.35767800000000005 0.31634300000000004 0.05467 -0.582141 -0.654495 0.181234 -0.045651 0.088461 0.242231