bruiserweight 0.165096 0.2162 -0.268166 -0.342983 0.657868 -0.007274000000000003 -0.540059 -0.247703 -0.267717 -0.871551 0.16761 -0.539169 0.566121 0.25456999999999996 0.41215599999999997 0.32734 0.069845 -0.41636700000000004 0.567124 0.337301 -0.665034 -0.12808 -0.496375 0.07290999999999997 0.21597099999999997 -0.163853 -0.406158 0.63264 0.00589400000000001 0.08578300000000001 0.599083 -0.076427 -0.029286000000000006 -0.075928 -0.158573 0.315842 0.148824 -0.211351 0.664774 0.567214 0.449195 0.415755 -0.14871499999999999 -0.011554000000000009 0.841262 0.480345 -0.24815500000000001 -0.316719 0.39854500000000004 0.170155 -0.23923499999999998 -0.610446 0.3854 -0.655058 0.109726 0.368245 -0.253118 0.678722 0.305579 -0.613845 0.498429 -0.624343 0.438236 -0.154019 0.229887 0.24371199999999998 -0.5084839999999999 0.04508799999999999 -0.456712 0.276431 0.6193949999999999 -0.36804000000000003 -0.547317 -0.483399 1.00661 -0.17676300000000003 -0.307662 0.928917 -0.11675 -0.279771 0.290067 0.002817 0.16946 1.157152 -0.8727860000000001 0.025745999999999998 -0.29776199999999997 -0.507681 0.407462 0.214721 -0.36348800000000003 0.186896 -1.402563 -0.193666 -0.10203299999999998 0.539172 0.6877789999999999 0.11205399999999999 0.425424 -0.031997 -0.288904 -0.188831 0.042435999999999974 -0.426917 0.68329 0.16572599999999998 -0.11677199999999999 0.549152 0.07570400000000002 -0.14709 -0.33658499999999997 0.344064 -0.5095540000000001 -0.014510000000000023 -0.042234 0.672135 0.391354 0.648577 -0.546855 0.763394 0.120999 -0.08168700000000001 0.718236 -0.48362199999999994 0.36766899999999997 0.348962 0.218198 0.968272 0.015899999999999997 -0.278364 0.49381299999999995 0.422137 0.894147 -0.115197 -0.7002729999999999 -0.33423800000000004 0.214049 0.239347 0.907093 0.77708 0.431694 -0.013352000000000003 -0.622025 -0.034039000000000014 0.147763 -0.5196459999999999 -0.367541 0.26611100000000004 0.07389700000000005 -0.006408999999999998 0.238313 -0.291334 -0.12708699999999998 0.027062000000000003 0.340516 0.329705 0.286526 0.853062 -0.312571 0.338131 -0.24012800000000004 0.015038000000000024 -0.563281 0.04892099999999999 0.19409200000000001 0.036379999999999996 0.42531399999999997 -0.23824900000000002 -0.39686200000000005 0.20054699999999998 0.454418 0.383529 0.478068 -0.658087 0.07516899999999999 -1.391029 0.026075 -0.003787999999999986 -0.6790120000000001 -0.183993 -0.575182 0.404105 0.09842899999999999 -0.343152 0.127062 -0.19115100000000002 0.7162390000000001 -0.366751 -0.350324 0.7533909999999999 -0.398169 0.763991 -0.016877000000000003 0.363558 -0.199434 0.375014 -0.287904 -0.16779000000000002 0.406242 -0.678276 -0.086783 0.92656 0.155168 0.327474 0.190605 0.24433200000000002 -0.348967 0.09286499999999998 -0.33496000000000004 -0.057816000000000006 -0.164927 -0.421773 1.009503 -0.258326 0.389656 0.35002099999999997 0.308489 0.562118 0.392213 0.157123 0.25127700000000003 -0.5961879999999999 -0.470936 -0.332781 0.9240090000000001 -0.248616 -0.563973 0.283923 0.160717 -0.6680619999999999 -0.474591 -0.057118 -0.665473 -0.10562100000000002 0.05778599999999999 -0.881093 -0.08563599999999999 0.172624 -0.368616 0.25860700000000003 -0.40196299999999996 -0.795082 -0.07825899999999997 0.061036 0.44738 0.148647 0.29053399999999996 0.287839 -0.701176 0.27482599999999996 0.21412599999999998 0.480506 0.797695 -0.336497 -1.502472 -0.049234 0.22646100000000002 0.551554 0.031692 0.12754200000000002 -0.065401 0.20195700000000003 -0.09727000000000001 0.241918 0.353278 0.260101 0.058732000000000006 0.433646 -0.008815000000000003 0.40682999999999997 -0.211853 -0.580269 0.024255000000000027 -0.11012 1.120628 0.723722 -0.42701 -0.788412 0.0015549999999999939 0.24156899999999998 -0.09208500000000003 0.232966 -0.591343 0.421929 -0.74048 0.340054 -0.051186999999999996 -0.181641 -0.033248 -0.08045600000000003 -0.217412 -0.056250999999999995 -0.444011 -0.113523 0.09995599999999999 0.200073 -0.328136 -0.511694 0.42024 0.526895