cambiaso -0.33831500000000003 0.867261 0.7776890000000001 1.757857 -0.219461 3.082549 0.345937 0.09748200000000001 0.6906869999999998 -1.048227 -2.045007 0.921531 -0.58289 0.650989 0.096857 -0.7181839999999999 -0.29412799999999995 -0.221333 -1.299594 1.071454 -2.1950000000000003 -2.524585 1.080609 -0.193876 0.49382600000000004 1.943449 -0.587309 1.586665 0.18201999999999996 0.606281 -1.8804480000000001 2.075462 -3.073232 0.464834 -0.786108 -0.563966 -1.106577 2.913997 -1.685933 1.495962 0.447001 -0.6598120000000001 -1.901609 -0.8362580000000001 -0.563393 -1.723043 0.316821 0.1712149999999999 0.873688 1.48016 0.11338499999999996 0.4064420000000001 0.609422 0.254141 -0.13999 -0.873915 -0.37719800000000003 0.18536000000000002 0.5857709999999999 0.755346 -0.16849599999999998 0.507201 0.284019 -0.358479 -3.079181 2.220475 -1.047333 -0.405458 0.21551600000000004 -0.16743200000000003 -0.208017 -1.301516 1.241899 1.1428699999999998 0.18305100000000002 -0.682413 0.03150700000000006 -0.43977000000000005 0.920853 0.3949099999999999 0.705361 -0.890131 -0.061751 0.15971400000000002 0.18135400000000002 -0.64842 -3.566611 -1.4373529999999999 -0.084642 0.766671 0.062583 -0.88547 -0.679819 -1.5089730000000001 -0.12681199999999998 1.603504 -1.1775449999999998 1.043258 -0.8761559999999999 0.693923 1.0951440000000001 0.09509900000000004 0.21344800000000003 -0.650833 -0.942062 1.231065 -0.241331 0.375869 -0.05157399999999998 0.574832 0.05059399999999997 0.729096 0.338617 0.11736899999999983 -1.4751180000000002 0.867664 -0.546334 1.835385 -1.7014809999999998 0.049289999999999945 0.822584 -0.6993240000000001 0.662092 0.458411 -0.113842 1.130393 1.553827 0.888678 1.443062 -0.569543 -0.461851 0.808763 1.260969 -0.361766 -0.730647 0.04159400000000002 0.80735 -0.41736700000000004 -0.01766200000000001 0.6618310000000001 -0.535907 -0.83092 -0.0041509999999999984 -0.744282 0.50696 0.19843200000000005 -0.05480499999999999 0.183567 -1.08743 -1.01172 1.868032 0.267598 0.532879 2.834672 1.172689 0.219166 0.37885599999999997 1.029787 0.842833 0.235482 -0.28972000000000003 -0.55702 -3.410458 0.10433700000000001 1.524639 -0.48325000000000007 -1.418091 -1.296523 1.034894 -1.065755 0.552173 0.11370500000000006 -0.05735099999999993 3.418729 -1.250909 0.015853000000000006 0.06611300000000003 -1.4616500000000001 1.9988190000000001 -0.43588299999999996 -0.418589 -0.47058599999999995 -0.23018999999999995 -5.181521 0.7789159999999999 -0.660129 -0.319306 1.000124 -0.23162500000000003 1.07731 -3.7767470000000003 -0.8018299999999999 0.47923799999999994 -1.175789 0.500558 -2.025093 -0.23442200000000002 0.527866 -0.365631 -0.7486170000000001 -1.902679 0.968067 0.93471 -1.195215 -0.09875699999999998 -1.151324 -2.2687720000000002 -1.6307610000000001 -0.402801 -0.5467 2.412239 2.245514 0.94493 -0.9397249999999999 -0.24489999999999995 1.883421 -0.08646100000000001 1.432287 -0.421335 -1.416174 1.8617219999999999 0.5160399999999999 0.36603799999999986 1.499588 0.2005539999999999 0.499814 -3.5820049999999997 1.17078 -0.02398800000000001 -0.07536200000000004 0.260479 3.0284880000000003 0.24682500000000002 -0.61817 0.659496 -0.35696 -1.003183 0.783621 -2.029626 1.094382 -0.903505 0.6822630000000001 0.299627 -0.692622 -0.19035999999999997 0.043317999999999995 -0.7474640000000001 -0.327603 -0.677914 -2.49816 -1.030378 -1.023275 1.948693 -0.53483 -0.31202399999999997 -0.378264 0.458256 -0.6517580000000001 -1.179193 2.443181 0.408863 0.19254399999999994 -0.25424800000000003 -0.697955 -0.47663200000000006 1.203901 -1.028983 -0.320755 0.151755 0.233853 -0.024569000000000007 0.813431 -0.8899920000000001 0.45879000000000003 -1.186044 0.11344599999999999 1.491983 -0.384436 -1.509468 -0.273461 0.628536 1.634067 -0.5119090000000001 0.807363 -0.15397999999999995 -0.36527499999999996 0.34552399999999994 0.342581 0.7933089999999999 -0.319104 1.141581 0.6757120000000001 0.271873 -1.397986 0.5802970000000001 0.84766 0.331752 0.351464 2.473932 -2.806081