carryweight 0.017237000000000002 0.626852 -0.517061 1.087354 0.04638200000000001 0.4387 0.34716800000000003 -1.112707 -0.849237 0.175504 0.0706 -0.506927 -0.244925 0.565379 -0.662606 0.622446 -0.10453599999999999 -0.818646 -0.002725000000000033 0.578657 0.139393 -0.18032 0.254349 0.021360999999999963 0.070523 0.39744799999999997 0.40857200000000005 0.37435799999999997 -0.087119 -0.403891 0.25815 -0.415849 -0.387766 -0.05445299999999999 -0.126413 -0.611231 -0.616026 -0.17335499999999998 -0.513794 0.260994 0.030396999999999952 -0.09101499999999998 0.20026600000000006 -0.234697 -0.04012 -0.005528000000000005 0.672558 1.027952 -0.49381600000000003 -0.12771900000000003 0.22346700000000003 -0.394404 0.8252079999999999 -0.405551 0.589518 -0.06852700000000002 0.137985 -0.39065999999999995 -0.649675 0.9617169999999999 -0.07587199999999994 -0.054335999999999995 -0.708925 -0.05703899999999999 0.149239 0.12409600000000001 -0.616305 0.563083 0.589901 0.061613 -0.382295 0.12060599999999999 0.219651 -0.066561 0.350626 0.15775100000000003 -0.166655 0.145212 0.324527 -0.34661 0.041186 0.355297 0.390547 0.21290599999999998 0.054981 -0.15537900000000002 -0.198992 0.10394800000000001 -0.04274599999999998 0.34627399999999997 0.419421 -0.16267200000000004 0.370571 0.271456 -0.253154 0.31013900000000005 -1.119553 0.380118 -1.399902 -0.146113 -0.5529639999999999 -0.223063 -0.480485 -0.111662 0.10927999999999999 -0.635499 1.068003 0.201025 -0.445745 0.289088 0.281163 -0.10037499999999999 -0.27843599999999996 -0.268636 -0.20337599999999997 0.07724099999999999 -0.5311629999999999 -0.937436 -0.262898 0.382777 -0.08723700000000001 0.028011000000000008 -0.298037 -0.122249 -0.01887899999999998 0.003439000000000001 -0.575862 0.288482 0.200065 -0.504634 -1.186819 -0.350382 0.399324 -0.237195 -0.5449550000000001 0.145735 -0.290147 -0.20303500000000002 0.39091499999999996 -0.269755 0.487866 -0.25516300000000003 -0.17526 -0.135542 0.22090400000000002 0.13583699999999999 -0.513008 0.656482 0.035107 0.625092 0.509405 0.32102699999999995 0.031768000000000005 -0.272481 -0.14000200000000002 0.415677 0.716637 0.516667 0.46895000000000003 0.33305700000000005 0.009513999999999995 -0.874947 -0.27859100000000003 0.546239 -0.054125000000000006 0.459104 -0.1322 -0.496414 -0.9370620000000001 0.5680339999999999 0.10953100000000002 0.31256700000000004 0.262426 0.7228479999999999 0.45869099999999996 0.38529 -0.015943 -0.49388699999999996 -0.34075300000000003 -0.6078190000000001 -0.265421 0.7001930000000001 1.145868 0.43498400000000004 -0.332132 0.6599160000000001 -0.815496 -0.132731 -0.318247 -0.005925999999999987 0.154937 -0.6982389999999999 0.07812200000000001 0.27763 -0.09575900000000004 0.24997600000000003 -1.4078119999999998 -0.434938 0.126894 -1.053337 -0.7164710000000001 0.172239 -0.504823 0.6432370000000001 -0.619746 0.225424 0.056759000000000004 0.05676700000000001 -0.12407599999999999 -0.09607900000000003 0.1028 -0.11332900000000001 -0.245967 -0.14578100000000002 -0.775308 0.23064099999999998 0.307729 0.141812 -0.04768599999999999 -0.46767899999999996 0.316354 -0.5388120000000001 -0.289227 -0.377407 0.699694 -0.052881000000000004 0.121304 -0.141964 0.620039 -0.061857999999999996 -0.289601 -0.13559 -0.309844 0.33536 -0.112546 0.17739499999999997 -0.778446 0.368493 0.256679 -0.353605 0.232218 0.18337000000000003 0.163703 -0.570997 0.187927 -0.497687 0.331558 0.09933 0.43203199999999997 -0.231938 -0.436566 -1.1112 0.18902799999999997 -0.142589 -0.399826 0.05478199999999999 0.17290699999999998 -0.604052 -0.177838 -0.23022 0.650443 0.477678 0.336526 -0.6918569999999999 -0.083146 0.640691 0.36300200000000005 0.647134 -0.14142299999999997 -0.670015 0.544964 -0.06499100000000002 -0.6746669999999999 0.26942 -0.858487 0.590151 -0.07149900000000001 -0.10208 -0.565763 -0.60038 0.143342 0.101967 -0.06125 0.135544 0.329855 -0.561197 0.09040000000000001 0.21448300000000003 -0.224385 0.36933699999999997 -0.05576999999999999 -0.09004000000000001 1.13247 0.659306 0.22719199999999998 0.491875 0.210028 -0.269923 -0.830202 0.600425