catchweight 0.41396299999999997 0.09836700000000001 0.125967 -0.059621 -0.18056 -0.048977999999999994 0.32535 -0.514154 -0.605591 -0.10175200000000001 0.275685 -0.928253 -0.439557 0.021116999999999997 -1.32528 -0.09484000000000001 -0.08583999999999997 0.07371699999999998 -0.283358 0.716336 0.07819100000000001 0.5933400000000001 -0.086757 0.739992 0.332254 -0.250376 -0.521503 0.992445 -0.19066500000000003 0.049247000000000006 0.08885699999999999 0.450905 -1.058103 0.547301 -0.8443539999999999 -0.327109 0.8278369999999999 0.053950999999999985 -0.462627 -0.8149740000000001 -0.08598300000000003 -0.103059 -0.648957 -0.19156299999999998 0.154616 0.437278 -0.349244 -0.187312 0.319241 -0.09947 0.02670700000000001 -1.204161 0.05652100000000004 0.095808 0.724009 -0.48817799999999995 0.106012 0.313931 0.22739000000000004 -0.763941 -0.376019 0.8156129999999999 -0.252612 -0.27138100000000004 -1.1246960000000001 0.057711999999999986 -0.038162999999999975 0.647223 1.319538 -0.453766 0.033723 -0.608224 -0.680186 0.34890299999999996 -0.8938999999999999 -0.24889899999999998 -0.15981099999999998 -0.21963999999999997 -0.324849 0.6502410000000001 0.125595 0.5918140000000001 -0.5090790000000001 0.279054 -0.72697 0.576811 0.590094 0.026125999999999996 1.125969 -0.398319 -0.02188000000000001 -0.32234599999999997 -0.049257999999999996 -0.39136899999999997 0.822473 0.33597600000000005 0.022605 -0.395054 0.15762699999999996 -0.543764 0.715511 -0.33179400000000003 0.9520569999999999 -0.8155349999999999 0.18393299999999996 0.305724 0.559963 -0.140871 0.649494 -0.332422 -0.498062 0.145706 0.334308 0.325504 0.7306440000000001 0.814273 0.183846 -0.5930470000000001 -0.424751 0.43889999999999996 1.070064 -0.281371 -0.061495999999999995 0.19643699999999997 0.535511 0.921405 -0.48882400000000004 0.98551 -0.5865480000000001 -0.15973900000000002 0.257154 -0.331739 -0.417738 0.420945 0.36619999999999997 0.7048260000000001 -0.59111 -0.142818 -0.0009699999999999709 -0.127994 -0.12435600000000002 0.396995 0.7630399999999999 0.501405 0.9865120000000001 -0.17797800000000003 0.234311 0.307814 0.494417 0.675545 0.390644 0.211286 0.565614 -0.065966 0.34688399999999997 0.408961 -0.618144 0.5305430000000001 0.189592 -0.64261 -0.7405630000000001 -0.06073500000000004 -1.098498 0.298126 -0.329037 0.973505 0.367804 -0.593171 0.497084 0.09382599999999999 0.56097 0.04727999999999999 -0.052151 -0.27415100000000003 -0.042049 -0.10535 0.289438 0.140362 -0.09942099999999998 -0.043874000000000024 0.301131 -0.029044999999999987 0.016068 0.442396 0.7780739999999999 0.17209 -0.47628299999999996 -0.5986670000000001 -0.158004 0.694197 0.017070000000000002 1.069348 0.47899800000000003 1.789897 -0.041595999999999994 -0.4006219999999999 -0.043179999999999996 0.26103699999999996 0.8402350000000001 -0.510595 -0.5793999999999999 -0.09757600000000002 0.23916199999999999 -0.386294 0.819094 -0.081923 0.2765409999999999 0.6369020000000001 -0.392112 -0.5460389999999999 0.04641199999999998 1.121238 -0.594881 0.12252099999999999 -0.156076 -0.19016399999999997 0.527133 -0.291779 -1.152119 0.368498 0.71299 0.140712 0.1015 -0.342754 0.450172 0.8410059999999999 -0.621474 0.394861 0.35076700000000005 -1.384935 -0.7981689999999999 0.46528 -0.897706 -0.012781 -0.316336 0.416842 -0.02293300000000001 0.18706 0.252157 0.034852999999999995 -0.1563 -0.017760000000000012 0.753593 -0.372811 -0.24987700000000002 0.013062000000000004 0.12329899999999999 0.231407 -0.259436 0.12102800000000002 0.52981 -0.028023999999999993 -0.823615 0.07557600000000003 -0.594989 0.23862499999999998 -0.137011 0.9239029999999999 0.123656 -0.425725 0.7316010000000001 -0.8014049999999999 -0.693777 0.443729 -0.270937 -0.240342 -0.654097 -0.659307 0.188485 0.39380400000000004 -0.842483 -0.638327 0.296511 -0.954358 0.6047 0.240363 -0.202088 0.147196 -0.616093 -0.355857 -1.190229 0.48771200000000003 -0.772776 0.07127200000000002 0.636309 0.603219 -0.18737399999999999 0.38156900000000005 -0.043956999999999996 -0.447975 -0.844474 0.239789 0.448079 0.298516 -0.520343 0.124162 -0.42569899999999994 -0.11380299999999999 -0.006150000000000003 -0.41142999999999996