chartweight -0.46604 0.7211859999999999 1.249622 -6.741881 -1.49355 -0.19516699999999998 -1.762505 0.36350000000000016 0.4694919999999999 -2.145262 1.286344 -1.633152 -2.719892 -1.544064 0.7328199999999998 0.6196909999999998 -0.655058 -1.9463080000000001 0.618325 -3.110291 5.5831990000000005 0.19956000000000002 -1.126283 -2.802711 3.3079199999999997 5.523686 6.591175 1.043443 -2.33868 -0.16297100000000003 0.661699 -1.033123 0.996771 1.658965 -0.11684300000000003 4.539586 -1.9981140000000002 6.336618 3.708145 2.887643 -6.63316 1.6580320000000002 -5.620245 -1.3460740000000002 -1.936181 0.056902999999999926 2.346385 -2.850236 -0.9243619999999999 0.35515399999999997 -4.003197 1.77487 -2.86243 0.4926760000000001 2.177602 -1.829412 -2.07302 1.249071 -2.184817 -2.133158 1.37804 -2.110801 2.087132 2.565476 0.7700199999999999 -0.564085 0.186512 1.619296 0.443705 -5.055449 2.393832 1.371836 -2.5529390000000003 1.013087 -2.2296750000000003 -0.13779999999999992 -4.184928 1.8144550000000002 0.8085300000000001 -1.40347 -2.2337919999999998 1.877232 4.171439 2.09422 -2.133204 -1.9516550000000001 0.620287 -1.093216 -1.116215 1.950659 0.20024700000000006 -2.291094 0.05462800000000001 2.771502 0.615646 7.851834 2.37112 -1.3007900000000001 -1.743119 1.31796 -0.13290499999999983 -2.02286 1.746871 2.796951 -0.969464 -1.243144 1.4561030000000001 -1.788281 -1.079279 -1.146399 3.925132 -2.241691 0.823735 -1.15069 -1.1580460000000001 0.805356 -1.078365 1.6909199999999998 2.6039209999999997 -1.8584319999999999 -0.728836 -1.958923 -1.189272 -1.3078539999999998 -0.35111899999999996 1.993708 2.018689 0.8142780000000001 -1.968868 -1.0030729999999999 5.884143999999999 -5.992671 -0.378555 6.580383 -0.36679799999999996 -2.908229 2.014237 3.943517 2.357891 2.154825 -0.9475479999999998 2.033565 -2.525228 -1.981542 -4.912951 0.7665839999999999 5.194603 -2.034627 -0.08863500000000002 0.6840649999999999 -0.6006459999999999 0.47578000000000004 2.2704050000000002 1.005894 -2.870295 1.049282 0.461843 -1.648208 0.704886 -5.126088 0.33971699999999994 0.805748 -0.6204429999999999 -2.974909 1.2291150000000002 1.2294779999999998 -2.963128 5.045412 -0.727358 0.369853 5.639075 6.59969 -1.09828 2.059513 -1.081811 -2.408777 0.10104399999999991 -0.8185220000000001 2.423845 2.222638 -0.525266 0.6673469999999999 0.086923 0.781721 1.729559 2.165446 2.3464349999999996 0.8966799999999997 -0.8791169999999999 2.9434640000000005 -1.501017 0.501289 4.563098 -2.715904 2.380532 0.5386149999999998 4.4647120000000005 2.003252 -2.456354 1.283703 2.876196 0.49271999999999994 -1.789549 1.867152 0.5888869999999999 1.098379 -0.24815399999999999 -2.499853 0.853859 -6.939212 -2.3129359999999997 2.4441379999999997 -1.811073 1.1522340000000002 5.962623 5.993498 -1.956507 4.312382 0.8532580000000001 -2.116472 1.3229060000000001 -0.8903260000000002 2.88389 -3.442354 3.3874370000000003 1.273298 1.5934499999999998 -1.358775 4.162416 0.017779000000000045 0.707563 0.150671 -1.6306379999999998 -0.637362 -3.055152 0.7025480000000001 -0.280141 1.92728 -0.375769 0.315164 1.331306 4.151858 -0.47911299999999996 -1.296159 -1.134569 0.799124 0.505649 1.172218 3.9977480000000005 -1.300705 1.6295270000000002 1.692536 -3.511696 -6.005152000000001 1.9000150000000002 -0.02117100000000005 1.405032 1.0290240000000002 1.842003 -0.542104 0.984969 -1.3900890000000001 -0.8099259999999999 -0.866409 1.419943 -0.4039029999999999 1.912142 -1.231669 2.199642 2.457066 -0.410385 -6.211464 2.1127130000000003 -3.055846 -0.18735100000000002 -2.859159 0.6746080000000001 0.243232 4.950557 -0.3765510000000001 -6.026252 -1.477211 1.916712 2.5993220000000004 -0.17806900000000003 -0.17882400000000004 2.917447 4.124714 0.287731 -0.23011000000000004 -1.334564 1.344049 -0.4027669999999999 1.102901 0.694356 1.829782 1.233734 -3.879834 -2.353532 -1.8609710000000002