cmweight 0.109435 0.6692899999999999 0.540128 0.695218 0.293187 -0.693613 -0.382689 -0.331556 -0.654375 0.838271 -0.514739 -0.573281 -0.15767199999999992 -0.270312 -0.23557700000000004 0.374592 0.28003700000000004 0.960635 0.665568 0.5468909999999999 0.6261720000000001 0.349101 0.31574 -0.174646 0.06598399999999999 -0.44663200000000003 -0.433219 -1.379903 -0.317361 -0.412029 -0.894173 0.007794000000000002 0.30698300000000006 -0.451675 0.026203000000000032 0.634854 0.827055 -0.319784 -0.099693 0.13575299999999996 -0.377527 -0.419689 0.523159 -0.296979 -0.461214 -0.377089 0.24198 0.171168 -0.508542 0.05695600000000001 -0.112403 -0.49578500000000003 0.11462699999999999 0.394146 0.38031499999999996 -0.408439 0.320951 0.36088699999999996 -0.530435 -0.500748 -0.15928200000000003 0.509385 0.310952 0.897005 1.264491 0.04631 0.07187500000000001 0.21356199999999997 0.34589000000000003 -0.037091999999999986 -0.159461 0.089455 0.322086 0.29536100000000004 -0.893553 -0.01696199999999999 -0.395885 0.32277500000000003 0.235883 0.366225 -1.437601 -0.853109 -0.21524800000000002 -0.640864 -0.438469 0.10397 -0.297571 -0.45137700000000003 1.103833 -0.595096 0.860636 -0.299956 0.692531 0.204443 -0.843082 0.926053 -1.445433 0.49793299999999996 -0.445649 -0.5213160000000001 0.7411449999999999 0.205962 0.455775 -0.10343400000000001 -0.25354 -0.17864599999999997 -1.067634 -0.475194 0.31409299999999996 -0.7605919999999999 0.134515 0.49553900000000006 0.10566400000000001 -0.6258440000000001 0.6884579999999999 -1.102765 -0.05769999999999999 0.38462999999999997 0.24348900000000007 0.09747899999999998 0.7341329999999999 0.42288000000000003 0.22834100000000002 -1.003214 -0.40224499999999996 0.509144 0.11200599999999997 0.5121209999999999 -0.490339 -0.01865499999999999 0.31501 -0.38275400000000004 -0.13570899999999997 0.006564000000000014 0.296488 0.286436 -0.12875400000000004 1.034166 0.448322 0.38277000000000005 0.05925400000000003 -0.664962 -1.3093409999999999 -1.672699 -0.220966 -0.019658999999999996 1.621439 -0.20491 0.49477499999999996 0.344406 1.288312 -0.643877 0.004699000000000009 -0.697419 -0.21034 -1.143642 -0.39927799999999997 0.368232 -0.0038469999999999893 0.13336299999999998 0.483474 -0.5731229999999999 -0.508892 0.941844 0.750664 0.46582799999999996 -0.22300799999999998 -0.20831699999999997 -0.943623 -0.284592 0.415385 -0.16620200000000002 -0.098373 0.03164 -0.329095 1.1482299999999999 1.0227490000000001 -0.243897 0.095656 -0.450194 0.227556 0.300289 1.034614 1.129047 -0.434449 0.437034 -0.515043 0.143778 -0.48043199999999997 -0.980862 -0.03154299999999999 -0.6943480000000001 -0.223571 0.48082199999999997 1.3866720000000001 -0.047888000000000014 0.333782 0.86506 -0.060645000000000004 -0.257736 -0.742147 -0.355641 0.7573519999999999 0.32383700000000004 -0.173735 0.09124299999999999 1.005957 0.612142 -0.0067989999999999995 -1.754029 -0.27456200000000003 0.400531 0.338922 0.04517199999999999 0.252456 0.46002599999999993 -0.115616 -0.022232000000000002 -0.840452 0.05966099999999999 0.695579 -0.12697599999999998 -0.327301 0.717965 0.30321200000000004 -0.9091800000000001 -0.598289 -0.917678 -0.33053899999999997 -0.24905999999999998 -0.590039 -0.11503000000000001 0.418736 -0.095778 0.270321 0.6366809999999999 -0.6319779999999999 0.446664 1.3005 0.183055 0.501117 -0.20468599999999998 -0.3944519999999999 -0.29993900000000007 -0.866503 -0.028165999999999997 0.335846 -0.210676 0.511598 0.157582 -0.29071 0.291341 -0.6228370000000001 -0.163407 -0.276448 0.328525 0.327317 -0.859143 0.372463 0.395985 0.53759 0.678755 -0.219889 -0.297585 -0.8755710000000001 0.04827999999999999 0.593568 0.6381239999999999 0.795613 -0.48558999999999997 -0.390618 -0.248529 0.27064199999999994 0.8434490000000001 -1.216823 0.26731499999999997 -0.495607 0.237024 -0.716315 -0.239879 0.222987 0.8574919999999999 0.442217 0.15101400000000004 -0.096721 -0.769668 -0.38941800000000004 0.17102699999999998 0.28498300000000004 -0.127475 0.732128 -0.6564650000000001 -0.062426999999999996 1.026128 0.03651500000000002 -0.31525800000000004 -0.06759200000000001 0.026353000000000015 0.374131 0.777166