cottonweight -0.70546 -0.437766 -0.46848199999999995 0.07644600000000001 -0.645371 -0.358532 -0.39346800000000004 1.061267 1.889962 -0.14728999999999998 -0.197485 -0.709781 0.481211 -0.507061 0.884476 0.299936 -0.23368700000000003 -0.20645999999999998 -0.221528 0.8680840000000001 -0.193381 -0.6799 -0.9945809999999999 0.48212599999999994 0.27054199999999995 0.083998 0.015348 -0.61857 0.00270200000000001 -0.27043 -0.36895799999999995 -0.11635699999999996 -0.58708 -1.2769599999999999 -1.3379729999999999 -0.264919 0.41191 -0.204012 0.043449000000000015 -0.531694 0.183267 -0.43586300000000006 -0.708198 0.10569100000000001 -0.394996 -0.324851 -0.0032189999999999996 -0.523821 -0.903063 0.765349 -0.85791 -1.072819 0.279008 -0.156072 0.797641 -0.33077100000000004 0.096245 0.626601 0.681988 -0.022158999999999984 -0.264554 -0.874518 0.6108060000000001 0.9768349999999999 0.457605 -1.506346 -0.64847 0.482414 -0.027142 -0.4890749999999999 -0.079029 0.250652 0.931078 -1.148686 0.6632579999999999 -0.233984 0.33411499999999994 0.07622599999999999 0.386645 -0.533599 -1.082355 -0.458021 0.6607320000000001 0.14499900000000002 -0.5782579999999999 -0.450684 1.671276 -0.710565 -0.10291800000000001 0.171383 0.26189 -0.511398 -0.561803 0.489892 -0.663905 0.835106 -0.724524 0.6897789999999999 0.952908 -0.8226829999999999 0.392962 0.565588 0.326754 0.22965899999999997 -0.02729999999999999 -0.674723 1.16916 0.45635699999999996 1.5768339999999998 -0.03766599999999998 0.22370100000000004 -0.07205400000000003 0.24115199999999998 -1.047859 0.5034270000000001 -0.026462 -0.0006110000000000282 0.282221 -0.22229800000000002 -0.30721899999999996 0.514578 -0.287227 0.440924 0.15330700000000003 0.18784400000000004 0.41670799999999997 -0.23798300000000006 0.452972 -0.33477 1.0053429999999999 -0.599124 0.409918 0.110784 0.157006 0.299888 0.003011 0.628996 0.8779290000000001 0.233989 0.155882 -1.700793 -1.2105540000000001 -0.374405 -1.555588 -1.673025 0.361282 0.824792 -0.8394820000000001 0.797373 -0.023373000000000033 0.13694 -0.039136000000000004 -0.37706700000000004 0.05233999999999999 0.41638699999999995 -1.026754 -0.25746099999999994 -0.037479 0.6234999999999999 -0.649931 -0.489638 -0.698774 0.42694 0.393184 -0.520257 0.812689 0.582689 0.241012 -0.9429989999999999 0.500698 -0.019896999999999998 0.706824 0.353367 -0.6267389999999999 0.219267 0.504416 0.19837499999999997 -0.42359899999999995 -0.15881800000000001 -1.374864 0.09159599999999998 0.370255 0.077092 0.275245 -0.060917000000000006 0.2368929999999999 -0.971061 -0.589955 -0.074951 0.7427750000000001 -0.196828 -0.705292 1.074602 -0.20641500000000002 0.48558300000000004 0.37277099999999996 0.412965 0.4827220000000001 -0.46902000000000005 -0.665181 -0.31745300000000004 0.23945699999999998 0.862705 0.888951 0.13023800000000002 0.620134 -0.23454099999999994 -1.122467 0.24556899999999998 -0.973487 1.0111029999999999 0.288766 1.021453 -0.267227 -1.219569 -0.245198 0.495705 -0.754649 -0.8549089999999999 -0.48606900000000003 -0.004740999999999995 -0.279822 0.22765699999999994 -1.626748 0.195229 0.555799 -0.13334700000000002 -0.458241 -0.6089800000000001 0.186149 1.033206 -0.262688 -0.322687 0.174711 1.3034059999999998 1.0855320000000002 0.8986019999999999 -0.595767 0.588949 -0.802506 -0.568283 0.34440800000000005 0.140602 -0.716125 0.10988700000000001 0.472877 -0.051361000000000004 0.036241999999999996 0.34064300000000003 0.513606 -0.09922700000000001 -0.233927 0.615803 0.479631 0.174452 0.667242 -0.04456299999999991 -0.096691 0.8968020000000001 0.9311659999999999 0.14102900000000002 -0.22714499999999999 -0.14292999999999997 -0.439252 -0.468211 0.443199 -0.676904 -0.30821099999999996 -0.752758 -0.24459099999999998 -0.774716 0.9598249999999999 -0.441044 -0.45651400000000003 -0.293902 -0.19937 0.248427 0.405563 -0.300551 -0.158018 -0.15572999999999998 -0.17651299999999998 0.231169 -0.394713 -0.315655 -0.144897 -0.223639 -0.437849 0.524751 -0.793153 0.296914 0.13006500000000004 0.55737 1.380005 0.59037 1.2807520000000001 -0.042404 0.432272 0.034492999999999996 -0.04749700000000001