counter-weight 0.010166999999999982 0.32831200000000005 0.252822 -0.217976 0.7543350000000001 0.575987 0.012336000000000014 -0.286073 -0.125824 -0.042353999999999996 0.22542099999999998 -0.222173 0.457534 -0.023826999999999987 0.03733900000000001 -1.0162390000000001 -0.472368 -0.525626 -0.14062 -0.15720800000000001 -0.39426000000000005 0.513597 0.55736 -0.068712 -0.005393000000000002 0.757362 -0.685354 0.295548 0.372204 0.26031 0.056225 0.623024 -0.973249 0.739737 -0.682278 0.386787 0.135166 0.40358900000000003 -0.6675789999999999 -0.289131 0.22413 -0.202759 -0.38232 0.243645 -0.518088 0.126189 0.067716 0.480163 -0.648147 -0.267976 -0.53845 -0.17366099999999998 0.175316 -0.669664 -0.546447 0.440469 0.46160900000000005 -0.40958300000000003 0.119892 0.40207899999999996 0.38926 -0.34957000000000005 0.282773 -0.296871 0.12853 0.384725 -0.329804 0.841451 0.22085600000000002 0.059607 0.7331989999999999 0.17245599999999997 0.824704 -0.526386 -0.8458749999999999 -0.046662 0.121813 0.44674899999999995 0.437118 0.254527 -0.20076199999999997 0.446633 0.391726 0.206505 -0.34557099999999996 0.713288 -0.05398 0.175122 -0.093436 -0.263848 0.8656900000000001 0.449239 0.41616 0.214908 -0.33217800000000003 0.021481 0.27 -0.03885700000000003 -0.465454 -0.589241 -0.458194 -0.591268 0.338602 -0.531736 -0.43823900000000005 -0.7442409999999999 -0.129146 -0.28606200000000004 0.42425 0.691836 0.267698 -0.21200499999999997 0.739007 0.152672 0.766669 0.888571 0.558489 -0.214062 -0.585012 -0.446862 0.14092 0.682933 0.568648 -0.484026 -0.510757 0.345431 0.37436499999999995 -0.017230999999999996 0.11004999999999998 -0.5211859999999999 0.26004499999999997 -0.19133500000000003 -0.046923000000000006 0.009847000000000009 0.45425800000000005 -0.033475000000000005 0.43205499999999997 0.049136 0.130323 -0.32693700000000003 -0.192384 -0.14378000000000002 -0.748338 0.30186199999999996 0.03191900000000003 0.6621520000000001 -0.418894 0.077924 -0.193062 -0.44477500000000003 0.9682580000000001 0.41337100000000004 0.12209500000000001 0.7931239999999999 -0.19997900000000002 0.929027 -0.933754 0.533736 0.482641 -0.281279 -0.497319 0.06128300000000003 -0.800502 -0.375239 -0.515743 0.739207 -0.177749 -0.367852 0.542272 0.273115 -0.560151 -0.12046500000000002 -0.631645 -0.10597300000000001 -0.146196 -0.35304599999999997 -0.13467300000000004 -0.5648960000000001 -0.08514000000000001 -0.20603400000000002 -0.352026 -0.322096 0.537868 -0.278211 0.180853 0.38516300000000003 0.204517 -0.478854 -0.28459999999999996 -0.153544 0.334789 0.215947 -0.35749200000000003 0.160142 -0.810673 -0.23508400000000002 -0.005435999999999996 0.295339 0.25346 -0.539242 -0.234179 -0.232468 -0.13774899999999998 -0.45069899999999996 -0.319284 0.058196 -0.5956349999999999 0.393576 -1.232761 -0.07159000000000001 0.096987 0.9955289999999999 0.098465 0.34269700000000003 0.476983 -0.43753200000000003 0.191718 -0.04501500000000003 -0.645084 -0.08983000000000001 0.20141799999999999 0.029901999999999998 0.342669 -0.5009790000000001 0.996194 -0.401387 -0.646316 0.19456300000000004 0.07119800000000001 -0.34115500000000004 -0.9190240000000001 0.8967499999999999 -0.267335 0.04703399999999999 -0.179065 -0.392641 -0.5339119999999999 0.754003 -0.36101 0.273074 0.139017 0.309311 -0.03783800000000001 -0.12633 0.731472 0.062611 0.469553 0.068116 1.210379 -1.127269 -0.934078 0.49384500000000003 -0.200811 -0.22144300000000003 -0.294586 0.032487000000000016 0.498285 0.31597 -1.596835 0.10073 0.675068 0.719182 -0.490131 0.328967 0.084997 -0.47161699999999995 0.5597230000000001 0.418877 -1.19326 0.627442 -0.614828 -0.079935 -0.144198 -0.332301 -0.257393 0.936563 -0.09714 0.11292599999999998 -0.955734 0.614315 0.7602559999999999 0.438987 0.04305300000000001 0.257887 -0.504051 -0.44464400000000004 -0.404979 -0.5733809999999999 0.509277 -0.151342 0.8065899999999999 -0.249167 -0.391216 0.163526 -0.008227000000000012 -0.47699 0.6940040000000001 -1.111091 -0.253491 -0.35844200000000004