counter-weights 0.37651900000000005 0.290043 0.43279500000000004 -0.074246 0.26847 0.18777 -0.155471 -0.114046 -0.12423100000000001 -0.11985299999999999 -0.07857299999999998 -0.712301 -0.002767000000000002 0.0013839999999999963 0.333972 0.023926999999999976 -0.197623 0.006269999999999998 -0.202582 -0.355955 0.226455 -0.7022980000000001 0.653146 0.20513800000000001 -0.448286 -0.18817 0.034551 0.10691300000000001 0.749082 -0.600353 -0.3295 -0.294751 -0.34518 0.325168 -0.149022 -0.357295 0.248722 -0.0047719999999999985 -0.327569 0.161576 0.41385 0.253272 0.156159 0.10563900000000001 -0.194558 -0.17668699999999998 0.470302 0.536258 0.07788599999999998 -0.351288 0.041686 0.423257 0.059988999999999994 -0.12969 0.322851 0.177176 -0.20462200000000003 -0.284721 0.36478499999999997 -0.22854399999999997 0.226536 -0.32987 -0.662959 0.17319400000000001 -0.067687 0.13444899999999999 0.05598900000000001 0.858218 -0.30250900000000003 0.23471999999999998 0.520083 -0.723035 0.6664209999999999 0.058810999999999995 -0.5244260000000001 -0.224935 0.049761 0.7428220000000001 -0.126989 0.606884 0.25442400000000004 -0.279731 0.360751 0.125221 -0.440998 -0.182914 0.111598 0.08315700000000001 -0.236042 0.15903099999999998 0.515483 -0.16561499999999998 -0.300008 0.028036 0.035746 -0.0046419999999999795 -0.47232699999999994 0.6196269999999999 -0.548648 -0.013708999999999999 -0.38670299999999996 0.060321 0.086779 0.085758 -0.17297800000000002 -0.5589299999999999 0.439422 -0.11947200000000002 -0.10023399999999999 -0.336534 0.342473 0.664821 0.19884000000000002 0.149173 -0.461898 -0.044553999999999996 0.24788100000000002 0.219497 0.303729 -0.5133759999999999 -0.471889 -0.038189 0.312021 0.19140599999999997 -0.643348 -0.036343 0.013215000000000005 -0.044733999999999996 0.34956299999999996 -0.568162 -0.262252 0.441514 -0.306056 -0.168215 -0.047120999999999996 -0.6857249999999999 0.13365799999999997 0.255314 -0.074215 -0.02758200000000001 -0.16657 0.143814 -0.334227 -0.106211 0.119305 -0.04678799999999997 -0.800541 0.54448 0.05088200000000001 -0.30684 0.562587 0.06932500000000001 0.356682 0.154661 0.20210700000000004 0.497983 -0.5776129999999999 0.523753 0.561279 0.015823000000000004 -0.145153 0.22474100000000002 0.40868899999999997 0.23681300000000002 0.10882800000000001 0.26362399999999997 0.08115299999999999 -0.278381 -0.021787 0.224527 0.056285 0.026858000000000007 -0.27227199999999996 0.235708 -0.62487 -0.38519400000000004 -0.24664599999999998 -0.11282500000000001 0.0027520000000000044 -0.786547 0.094199 0.11308199999999999 -0.162118 0.015695000000000014 0.012297000000000002 0.16264399999999998 0.34035099999999996 0.511014 0.425365 0.5554870000000001 -0.451287 0.241126 -0.012337 -0.05987 -0.724971 -0.004585000000000002 0.11627499999999999 -0.038444 0.416567 0.12146 0.14307100000000003 -0.33549 -0.050994 -0.512659 0.164387 -0.294959 -0.37339999999999995 0.321936 -0.41768700000000003 0.14210399999999998 0.09212899999999999 -0.48314 0.022219999999999997 0.7304980000000001 0.560643 -0.9988900000000001 0.09331700000000001 -0.36593 -0.440577 -0.078371 0.052567 0.280146 0.041124999999999995 -0.44699600000000006 0.514648 0.291651 -0.314278 0.202916 0.7403759999999999 -0.384646 -1.261606 0.023640999999999995 0.345013 0.135698 -0.45891800000000005 -0.584378 -0.316904 -0.34425399999999995 -0.606625 -0.067771 0.283528 -0.18686999999999998 0.107699 -0.555005 0.089698 0.24094 -0.12361500000000003 -0.04553799999999997 0.496128 0.32478799999999997 -0.07605899999999999 0.272096 -0.167571 -0.31078300000000003 0.14022 -0.05418099999999999 0.027407 -0.038596000000000005 -0.7209030000000001 -0.185671 0.288632 0.06508800000000001 0.34008900000000003 0.56416 0.02261500000000001 0.283968 -0.544254 0.538919 0.016989000000000004 -0.224068 0.39010200000000006 -0.292351 -0.5476829999999999 -0.6205959999999999 -0.06419899999999999 -0.039478 -0.080709 -0.509284 -0.6379680000000001 -0.021168 -0.40777300000000005 -0.006154 -0.236697 -0.452409 0.357703 -0.350466 -0.24062 -0.448688 -0.116024 -0.085725 -0.06459499999999999 0.04761 -0.116808 0.236911 0.307076 -0.22481199999999998 0.13544899999999999 -0.16786700000000002 0.45573600000000003 0.27554999999999996