counterweights 0.23226000000000002 0.198825 0.268179 0.05498 0.276007 0.402334 -0.590384 -0.520652 -0.433661 -0.39666 0.659329 -0.519646 0.649135 0.27938999999999997 -0.18243700000000002 -0.199334 -0.637481 -0.289668 -0.20025 -0.493376 -0.5445909999999999 0.004795000000000001 0.346315 0.09184 -0.0009189999999999999 -0.384069 0.28963700000000003 0.08851099999999999 0.694508 -0.036317999999999996 -0.094418 -0.24607300000000001 -0.5931660000000001 -0.016959999999999996 -0.655362 0.723399 0.185457 0.241188 0.026067000000000007 0.221247 0.0022999999999999965 -0.23426 -0.31003000000000003 -0.177065 -0.321064 0.46463200000000004 0.06220099999999998 0.277004 -0.044713 -0.10876 -0.192491 0.268015 -0.122866 -0.36371499999999996 -0.046775000000000004 -0.13316799999999998 0.020159999999999997 -0.03920299999999999 0.337872 0.150284 -0.057786000000000004 -0.528841 -0.417253 -0.551421 0.5041100000000001 0.268828 -0.096088 0.777893 0.316803 0.08636200000000002 0.459383 -0.145056 0.08444399999999999 -0.07450899999999999 -0.21576599999999999 0.173866 0.105426 0.676789 -0.695326 0.48664 0.44397000000000003 0.305001 0.102854 0.574409 -0.19936299999999998 0.353246 -0.188023 -0.391685 0.316486 -0.773064 0.731821 -0.22482000000000002 -0.266572 -0.07644899999999999 0.32276099999999996 0.324091 -0.48855000000000004 -0.068855 -0.988221 -0.631203 -0.199932 -0.16742200000000002 0.6419009999999999 0.080504 0.282785 -0.5407150000000001 -0.20364 -0.24960500000000002 -0.04857 0.17926799999999998 -0.015513000000000027 -0.06096599999999999 -0.05198999999999998 -0.19345400000000001 -0.046754 0.209753 0.19152000000000002 -0.9990399999999999 0.04367599999999999 -0.220673 -0.16310999999999998 0.07088199999999999 0.39454700000000004 -0.198884 -0.8751829999999999 0.417621 0.08544300000000002 -0.095271 0.288302 -0.213652 -0.549747 0.15912799999999996 -0.46365999999999996 -0.35799 0.558351 -0.832383 0.25345399999999996 0.20702500000000001 -0.268307 -0.326641 -0.470213 -0.13927499999999998 0.19602599999999998 0.421385 -0.048105999999999996 0.30152799999999996 -0.4264 -0.163759 -0.07617399999999999 0.05135400000000001 0.7553430000000001 -0.46861 -0.04616600000000004 0.026471999999999996 -0.259289 0.19955599999999998 -1.002959 0.12040200000000001 -0.083441 -0.235283 0.029550000000000007 0.22421100000000002 -0.861809 0.046408000000000005 -0.7265619999999999 0.43021099999999995 0.23908200000000002 -0.318405 0.205497 0.503781 0.647055 -0.400827 -0.282058 -0.5070790000000001 -0.197436 0.177645 0.23835800000000001 -0.699431 -0.042624999999999996 -0.562848 0.479757 -0.5093449999999999 0.07180500000000001 -0.614424 -0.044238 0.406279 -0.531929 0.248234 0.575347 0.568481 0.03714700000000001 -0.271938 -0.208596 0.8662289999999999 -0.20936299999999997 -0.27897 0.5508310000000001 0.04344999999999999 0.25042 0.05461600000000001 -0.22694999999999999 -0.420442 0.320539 -0.34844 0.05443600000000001 0.211083 0.189047 0.321398 -0.17355299999999999 0.13371199999999997 -0.403706 1.097089 0.193666 0.05067099999999998 0.74873 -0.785981 0.243419 0.07962299999999999 -0.070031 -0.249098 0.278173 0.265131 0.143179 -0.306896 1.5028380000000001 -0.417258 -0.9636319999999999 -0.11674100000000001 0.70999 -0.48146100000000003 -0.927967 0.609905 0.32519 0.10972300000000001 -0.379656 0.229981 -0.5804549999999999 0.273052 -0.189786 -0.12647 0.49462100000000003 0.044693000000000004 -0.033006999999999995 -0.824957 0.542814 0.37826899999999997 -0.078956 -0.178805 0.623206 0.029635999999999996 -0.174708 -0.04313 0.030515999999999988 -0.743274 0.274696 -0.40494 -0.07745 0.264162 -1.205283 -0.113813 0.559546 0.25432499999999997 0.265957 0.12065000000000001 -0.328883 -0.439606 -0.245454 0.079618 -0.217485 0.33123899999999995 -0.198715 -0.41771800000000003 -0.171093 -0.482271 -0.063273 0.356221 0.49227299999999996 0.330303 -0.563025 -0.01111899999999999 -0.522756 0.195316 -0.6013310000000001 0.16043800000000003 0.21140599999999998 -0.628091 0.537892 0.033518999999999965 0.016154 0.21781500000000004 0.566591 -0.210137 0.20462999999999998 -0.18700699999999998 -0.30378499999999997 0.011356999999999992 0.641579 -0.761685 0.22256200000000004 0.309622