counterweight 0.15185700000000002 0.096864 0.142814 -0.206156 0.274127 0.047817 -0.11106099999999999 -0.100496 -0.498699 -0.28769 0.6047389999999999 -0.19922600000000001 0.7125319999999999 -0.27225 0.014442000000000003 -0.311638 -0.159746 -0.354194 0.109317 0.043566999999999995 -0.387423 0.40529000000000004 0.513377 0.079297 0.219035 -0.336314 0.22450599999999998 0.037197999999999995 0.314801 0.255866 0.185582 -0.078898 -0.447396 0.20202599999999998 -0.557176 0.330742 -0.045667 -0.111311 0.200178 0.282975 0.25470600000000004 -0.573026 -0.524365 -0.11809499999999999 -0.810038 0.36023700000000003 0.186389 0.419298 -0.194462 -0.146789 -0.534512 0.06525899999999998 0.197552 -0.6454160000000001 -0.433183 -0.25649299999999997 0.26394 -0.055061 0.051208000000000004 -0.0027419999999999996 0.343913 -0.161444 -0.42835500000000004 -0.42735 0.014676999999999999 -0.0025270000000000015 -0.313149 0.327004 0.270895 0.219509 0.523103 -0.026107999999999992 0.083616 -0.8533200000000001 -0.451249 -0.243166 0.258974 0.09743600000000002 -0.6525639999999999 0.5005040000000001 0.26793100000000003 -0.118974 -0.123847 0.319072 -0.48003999999999997 0.545052 -0.30008599999999996 0.15324200000000002 0.808465 -0.605872 0.9289879999999999 0.037953 -0.207196 0.421266 -0.34614500000000004 0.297873 -0.095572 -0.22739800000000002 -1.168765 -0.5137510000000001 0.267538 -0.186988 0.447747 0.108107 0.244966 -0.198998 -0.21473899999999999 -0.306877 -0.318183 0.045855999999999994 0.38533300000000004 -0.171785 0.02191800000000002 0.0451 -0.008524000000000004 0.5354019999999999 -0.009957999999999995 -1.2878880000000001 0.07564199999999999 -0.171874 0.10688199999999998 0.354116 0.18796200000000002 -0.09743199999999999 -0.589944 0.45284800000000003 0.04433899999999999 -0.157028 0.006822999999999996 0.021579000000000015 0.018947000000000006 -0.320113 -0.018483 -0.360759 0.252925 -0.5343009999999999 0.11971000000000001 0.189679 -0.199412 -0.069041 -0.19047 -0.057392999999999986 -0.22006799999999999 0.026219 -0.119261 0.23073100000000002 -0.342152 -0.20636 0.485171 0.218904 0.897401 -0.30035 0.193521 0.256716 -0.02982399999999999 0.386443 -1.01468 0.006565000000000001 -0.198245 -0.131005 0.055358000000000004 -0.060551 -1.673569 -0.3588 -0.303411 0.22103400000000004 0.32438500000000003 -0.092912 0.342611 0.600216 0.457778 -0.203357 -0.26554099999999997 -0.189184 0.042612999999999984 0.240294 -0.02676099999999998 -1.142442 -0.40235 -0.454793 0.5454399999999999 -0.03619900000000004 -0.060587999999999996 -0.42115100000000005 0.208401 0.313778 -0.279967 0.006003000000000008 -0.201078 0.0007689999999999919 0.355201 -0.082532 0.33528600000000003 0.452656 0.007736999999999994 -0.30444 0.363472 0.338142 -0.111721 -0.390936 -0.221643 -0.510999 0.254379 -0.374116 0.032489000000000004 -0.05663700000000001 0.488109 0.767326 -0.23771399999999998 0.688861 -0.316693 0.893529 -0.23952299999999999 0.12529099999999999 0.143335 -1.043812 0.407935 0.28522299999999995 0.034287 0.448149 0.065751 -0.048438 -0.040074 -0.224407 1.29253 -0.433981 -0.6743819999999999 0.11599399999999999 0.357591 -0.194855 -0.09869800000000001 1.154599 0.526057 0.260208 -0.5393669999999999 -0.042775 -0.17568 0.406267 -0.07212299999999999 -0.251743 0.450356 -0.21041400000000002 -0.410238 -0.288812 0.613205 0.146358 0.391492 0.029764000000000006 0.568812 -0.371935 -0.013359000000000003 0.307916 -0.117539 -0.67197 0.21564 -0.14349 0.34356600000000004 0.183413 -1.7339470000000001 0.6456770000000001 0.6777610000000001 0.691408 0.045235000000000004 0.006707000000000005 0.05810799999999999 -0.311337 -0.124633 0.05730099999999999 -0.252006 0.36087800000000003 0.081871 -0.450607 0.10746599999999999 0.013832999999999998 -0.142799 0.123054 0.377119 -6.700000000000456e-05 -0.5852010000000001 0.13312600000000002 -0.5610379999999999 0.148896 -0.380176 0.389714 -0.0022179999999999978 -0.204682 0.40187500000000004 -0.230791 0.08124100000000001 0.12703 0.7352339999999999 0.10468800000000002 0.09612100000000001 -0.106044 -0.21527600000000002 -0.16096499999999997 0.514782 -0.607939 -0.312616 0.127941