cruiserweights -0.6436329999999999 0.247442 -0.47835099999999997 1.060895 0.021589999999999998 -0.25457199999999996 1.088857 -1.209176 -0.259259 0.30232 0.639526 -0.470909 0.31215000000000004 0.714424 0.33389 -0.5424789999999999 -0.454916 -1.02933 -1.236029 -0.17037999999999998 0.575532 0.8353869999999999 -0.911469 0.144419 -0.985904 -1.127952 0.19685800000000003 -0.06021 1.294531 -0.925941 -0.522391 0.991638 -0.456163 0.10314000000000001 0.7078709999999999 -0.128687 0.546034 0.23096999999999998 -0.589825 0.43553699999999995 -0.948644 -0.34514899999999993 0.675316 0.308762 0.785582 -0.7893779999999999 -0.9106369999999999 -0.250704 0.009026000000000034 -0.209909 0.46362800000000004 0.094646 0.5945630000000001 0.5301450000000001 0.901976 0.501576 0.06120400000000001 0.729749 0.741569 -0.712953 -0.824445 1.255267 -0.933311 0.280344 0.065161 -0.44179700000000005 -0.18340599999999999 -0.06523500000000002 -0.928106 0.8398110000000001 -0.617692 -0.193262 0.125421 -0.180551 0.068191 0.315867 -0.503537 0.932584 0.607902 0.672813 0.879352 1.0037980000000002 -0.29162299999999997 0.489066 -0.784349 -0.379621 -1.115294 0.386683 0.083837 0.061162999999999995 0.9403830000000001 -0.583008 -0.26942299999999997 0.106447 -0.227095 -0.00018099999999998673 -0.114072 0.32076000000000005 -0.30873 -0.022821000000000008 0.985646 -0.09812000000000001 0.068435 0.248661 0.32350599999999996 -0.914177 -0.11312699999999998 0.7526219999999999 1.279696 0.17775999999999997 -0.37599800000000005 0.855232 0.323516 0.701001 1.5297800000000001 0.648861 1.580317 0.762473 -0.241064 -0.266977 0.40736799999999995 -0.771029 1.376768 0.461978 0.216584 -0.020683999999999994 -1.424793 0.15985099999999997 0.504605 1.1800840000000001 0.0072119999999999684 -0.507144 0.34317000000000003 -0.044021000000000005 1.5333350000000001 0.62369 -0.753189 0.6027549999999999 0.824799 0.33912400000000004 0.567165 0.687596 -0.8245020000000001 0.7995880000000001 0.301065 -0.480402 0.48616000000000004 -0.840795 0.28872600000000004 0.08896500000000002 0.49559900000000007 0.478992 0.133276 -0.365024 0.410346 0.239817 -0.250921 0.6067290000000001 -0.958628 -1.9236010000000001 -0.5834779999999999 1.082112 -1.2926579999999999 0.225174 -0.658375 0.524022 0.7439 -0.226638 0.23049500000000006 0.045942999999999984 0.397176 -1.262081 -1.155818 0.41480399999999995 -0.815597 -1.132808 0.24487799999999998 -0.077074 -0.09364 0.29324799999999995 0.629575 0.608964 1.375943 0.787273 -1.054119 -0.173376 -1.377218 0.5745100000000001 1.029848 0.07691800000000001 -0.519 -0.18193700000000002 -0.41353199999999996 0.969803 -0.8879509999999999 1.570889 -0.929013 0.221157 -0.550659 -0.800442 0.004379000000000022 -0.6634 1.331178 -0.455542 0.429994 0.475422 0.631437 1.6549010000000002 0.538994 0.220421 -0.8682759999999999 0.360303 0.615605 1.160251 -0.878796 0.088441 -0.08335800000000004 0.02913199999999999 0.29717000000000005 0.975189 0.581321 0.04993700000000001 -0.325905 -0.837084 0.871947 -0.334059 -0.462692 0.09237999999999999 0.340717 -0.197666 -0.6294470000000001 -0.263808 -0.590418 0.013476000000000002 0.49867300000000003 -0.54695 -0.426698 0.542321 0.258409 0.8143229999999999 -0.42091799999999996 0.191646 -0.45346 -0.158677 -0.449244 0.415258 -0.5909 -0.8572649999999999 0.327752 -0.842395 -0.7460449999999998 0.33490400000000003 0.048847 1.0198420000000001 -0.078694 -0.331545 0.06915199999999999 0.750471 0.3513629999999999 -0.179841 0.701243 -0.7417819999999999 -1.851791 0.47081400000000007 -0.499643 0.561034 -1.4494509999999998 -0.266035 0.221066 0.336438 0.30235999999999996 0.3096150000000001 -0.32813499999999995 0.718875 1.1575199999999999 0.47909 0.118071 0.172547 0.900687 0.827013 0.11691200000000002 -0.56622 -0.46909 0.335348 0.61361 0.41529199999999994 0.038898 1.406202 -0.11552700000000002 -0.83053 -0.95766 -0.32655 0.005420000000000008 -0.371096 -1.2283469999999999 0.09087399999999995 0.7745209999999999 -0.6948369999999999 1.0952410000000001 0.384689