cruiserweight 0.120147 0.594034 0.6738999999999999 0.899853 0.035806000000000004 0.393522 0.09945300000000001 -0.810918 -0.19467 -0.34454299999999993 0.19639099999999998 -0.818624 -0.09167999999999998 0.293226 -0.571018 0.247348 0.26314099999999996 -0.6184940000000001 -0.144687 0.814724 -0.011999999999999997 0.437299 0.03158 0.888898 0.074245 -0.153275 -0.03647900000000001 0.07758900000000002 0.043745 0.802764 0.759501 0.29062899999999997 0.015106000000000008 0.013898000000000008 -0.266504 0.162705 0.25783100000000003 0.939154 -0.686074 0.5666450000000001 -0.889348 -0.772518 -0.11129399999999998 0.12717 0.171723 0.838157 -0.482888 -0.408587 -0.24129599999999995 0.135653 0.225456 0.142179 0.40212400000000004 0.260432 0.487121 0.14985900000000002 0.8447 0.346445 -0.025065999999999998 -0.598198 0.32090700000000005 0.958231 -0.343712 0.15572199999999997 -0.40968899999999997 0.15535400000000002 0.181935 0.080233 0.24268499999999998 0.618273 0.187944 0.119701 0.06506799999999999 -0.0025300000000000045 -0.23758 -0.40751200000000004 -0.296605 1.000408 -0.142386 -0.07248500000000001 0.56602 0.43791599999999997 -0.751895 0.8820199999999999 -0.447737 0.34013899999999997 -0.292876 0.57969 0.211092 -0.219661 -0.6913739999999999 -0.434877 -0.09989799999999999 -0.5033259999999999 -0.013628000000000001 -0.024568000000000006 0.261652 0.20518200000000003 -0.388181 0.205849 0.853507 0.41626799999999997 0.43811500000000003 -0.669384 0.650103 -0.09337000000000001 0.25446 0.503894 0.7764899999999999 0.420153 -0.08191399999999999 -0.22312 0.254176 0.03811199999999998 0.284692 0.636876 0.356374 0.16242700000000002 -0.493331 0.019022999999999998 0.981076 0.0012890000000000124 0.137387 0.13975 0.06787800000000002 -0.38577700000000004 -0.573558 0.6693589999999999 -0.469326 0.47582100000000005 -0.627792 -0.09446 -0.7169709999999999 -0.11510600000000001 0.074342 -0.249433 -0.46778400000000003 0.7279260000000001 0.32758699999999996 0.8264769999999999 -0.085033 -0.535411 0.274423 0.508066 0.485414 -0.589602 0.714892 0.24524 0.303506 -0.204747 0.24910900000000002 0.042041999999999996 0.053773 0.23296499999999998 0.628039 0.243036 0.026325 0.85602 -0.102555 -0.716077 -1.042408 0.204295 -2.392901 -0.033553 -0.299999 0.5329200000000001 0.24544100000000002 -0.708519 -0.30290700000000004 -0.06415799999999999 0.62907 0.064611 -0.294848 0.204796 -0.21164100000000002 -0.475729 -0.023760000000000003 -0.861627 -0.8059179999999999 -0.511965 0.477637 0.21632300000000002 -0.8904529999999999 -0.238546 0.186636 0.235275 -0.602652 -0.184518 0.469089 0.049123999999999994 0.244909 0.839736 0.577233 0.788193 -0.652025 0.627516 0.10130900000000001 0.134931 -0.055590999999999995 -1.25735 -0.393017 -1.065449 0.13215 -0.18825599999999998 0.684045 -0.15801700000000002 -0.218709 0.304172 -0.394724 -0.446601 -0.221992 0.782304 0.29760200000000003 0.025948000000000027 -0.770116 -0.33034199999999997 0.435863 -0.225208 -0.026683 0.385031 0.518116 0.138248 -0.633493 -0.217837 0.477233 0.361276 -0.29318 0.555656 0.8214779999999999 -0.0536 -0.156813 1.565376 0.18182800000000002 -0.337777 0.6810879999999999 -0.9324209999999999 0.515047 0.622039 -0.109949 0.669809 -0.384744 0.07905800000000002 0.221254 0.097405 -0.163787 0.201125 -0.44737099999999996 -0.423239 0.804495 0.401034 0.12618600000000002 0.268198 0.07849099999999998 0.37371200000000004 -0.31029500000000004 -0.165792 0.069333 0.18604199999999999 0.494502 0.531746 0.271868 -0.21228600000000003 -0.260263 -0.18400199999999997 0.5639810000000001 -0.084922 -0.087074 -0.208133 0.40445699999999996 0.063862 0.35289200000000004 -0.699839 0.09707700000000001 0.013844000000000002 0.12197399999999999 0.944745 -0.648312 -0.283867 0.07116 0.204268 -0.283412 0.28576 0.368107 0.35440499999999997 0.05014 0.8838550000000001 0.140941 0.959276 -0.462738 -1.0709009999999999 0.392585 0.376631 0.33818 -0.498747 -0.630686 -0.41256099999999996 -0.322024 -0.573681 -0.119586 0.025789000000000006