crusierweight 0.287768 0.19387400000000002 0.053747 -0.07403700000000002 0.42539099999999996 -0.027441 -0.291693 0.020433000000000034 0.49262199999999995 0.534664 0.622937 -0.020078000000000013 0.06631 0.7085239999999999 0.92928 1.005327 0.880196 -0.176519 0.29036100000000004 0.264622 -0.929064 0.241533 -0.163904 0.7837810000000001 -0.18704199999999993 0.27323699999999995 -0.14179000000000003 -0.239289 0.540604 -0.871466 0.503033 -0.007817000000000001 0.428053 -0.559344 0.27013200000000004 -0.173869 0.325334 1.131103 0.16409200000000002 0.130571 -1.1609690000000001 -0.11270500000000006 0.662942 0.5167740000000001 0.175642 -1.04081 -0.23784799999999998 0.349997 0.30117299999999997 -0.417184 0.379391 0.306416 -0.012989 0.9440350000000002 0.780914 -0.39773000000000003 0.272778 1.178085 -0.40551499999999996 -1.29751 0.17816999999999994 0.42817700000000003 0.6162540000000001 1.000928 0.26385499999999995 0.24744900000000003 0.16411699999999999 0.160379 -0.131421 -1.057567 0.597599 0.185356 0.48151700000000003 -0.652307 -0.516918 0.772706 0.220265 0.383151 -0.179823 -0.205564 0.43513799999999997 -0.48868 -0.5690329999999999 0.804694 -0.999912 0.04583499999999999 -0.006309999999999982 -0.036305000000000004 0.074713 0.405563 -0.688561 -0.243921 -0.957592 -0.46086699999999997 -1.609917 -0.969476 0.050151999999999995 0.864886 0.150324 -0.099118 0.547343 1.27653 1.1043150000000002 -1.006816 -0.720411 0.09679099999999999 0.748446 0.41218499999999997 0.837831 -0.114391 0.476648 0.48347500000000004 0.33867 -0.6229790000000001 -0.255872 0.355949 -0.137831 0.289165 -0.431931 -0.49407300000000004 -0.07995900000000002 -0.35068000000000005 -0.22756300000000002 0.262625 0.07050800000000002 0.296699 0.37256900000000004 0.296589 -0.18736600000000003 -0.20593299999999998 -0.131194 0.415662 -0.159212 0.305004 0.162192 -0.55405 0.409529 0.921007 -0.45796400000000004 1.217649 0.062262 0.8596569999999999 -0.798479 0.9979439999999999 0.5407219999999999 0.097208 -0.036111000000000004 1.7117109999999998 -0.151492 -0.10119299999999998 0.376697 0.03373900000000002 0.488454 1.177281 0.693654 0.360593 0.09772299999999999 1.024256 -0.185831 -0.242556 -0.454952 -1.074197 -0.47307299999999997 1.297729 -0.189251 1.085034 0.185223 0.739517 -1.42115 0.49093899999999996 0.142847 0.528903 0.9699329999999999 0.748697 -0.26237900000000003 -0.92676 0.628972 -0.423232 -0.10324999999999998 0.473088 0.857144 1.410859 -0.103465 -0.137432 0.478013 0.025962999999999986 0.08465800000000001 0.463493 -0.69449 1.100539 -0.10255800000000004 0.227629 0.506986 0.44012399999999996 0.08194300000000004 0.660191 -1.38787 0.134777 0.895721 -0.82787 -0.5663549999999999 -0.559778 -0.143389 0.260564 0.820727 0.03313 -0.553262 0.578543 -0.519231 0.09523499999999999 -0.10493800000000003 -0.6334660000000001 0.91506 -0.193605 -0.294029 0.385579 0.39408099999999996 0.566185 -0.455063 -0.23973799999999998 -0.282619 0.8365 -1.140912 -0.780423 -0.057169 1.029101 -0.205962 0.3508 0.27300199999999997 0.161359 -0.686339 0.319041 -0.6498740000000001 0.015223999999999998 0.864552 0.15308899999999998 0.888486 1.331216 0.512831 0.341601 -0.882477 0.776702 -0.22715200000000002 -0.180399 -0.07452900000000001 -0.225577 0.068493 0.769884 1.982857 0.21079199999999998 0.04170299999999999 0.193278 -0.142394 0.068466 0.5023690000000001 0.7770489999999999 -0.251535 -0.136905 1.499368 -0.25834 -0.111786 0.065584 -0.44064600000000004 -0.033757999999999996 -0.3629 -0.27460700000000005 -0.828946 -0.259999 -0.036867 0.20052 0.614208 -0.319463 -0.489468 0.464277 0.33660500000000004 0.5732820000000001 0.305 0.43628300000000003 0.641876 0.608574 -0.272452 0.03500700000000001 0.438748 -0.607163 -0.10010100000000001 0.633687 0.08673599999999992 -0.426665 0.692843 0.28204 -0.538027 -0.41297800000000007 -0.6325069999999999 0.410619 0.388373 1.039036 -0.690792 0.171637 -0.179601 0.58828