deadweight -0.024482000000000004 -0.23905300000000002 -0.058951 -0.275388 -0.27795 0.38022900000000004 0.216527 0.741708 -0.371818 -0.302808 0.003012999999999988 -0.827194 0.08418199999999999 -0.06450900000000004 -0.595232 0.05341599999999999 -0.22809 -0.043529 -0.21939799999999998 -0.12194699999999999 -0.39731700000000003 -0.471787 0.175618 -0.311153 -0.32265699999999997 -0.054612999999999995 0.582783 -0.057593 0.137576 0.30139699999999997 0.551372 0.113701 -0.779502 0.548047 -0.152567 0.254078 -0.726362 0.7717400000000001 0.134131 0.03359800000000002 -0.47599099999999994 -0.265034 -0.116688 -0.44050500000000004 -0.915666 -0.227827 -0.246428 0.460617 -0.44931400000000005 -0.126351 0.417603 0.200419 0.41837500000000005 0.224395 -0.159311 0.326786 0.048480999999999996 0.027121000000000006 0.339791 -0.340923 0.567989 -0.5712809999999999 -0.46389 0.052263000000000004 0.485111 -0.34060799999999997 -0.078305 0.715457 0.517485 0.093011 -0.13411299999999998 -0.13449699999999998 -0.00023299999999999883 -0.9935940000000001 -0.347005 -0.211893 0.020012000000000002 -0.09173800000000001 -0.355008 0.559139 -0.419325 0.269799 -0.18692800000000004 0.03325399999999999 0.10906400000000002 -0.38916399999999995 -0.06214199999999999 0.129833 -0.058174000000000003 0.151076 0.654729 -0.144678 0.59148 0.474241 0.5109440000000001 -0.023668999999999996 0.081511 -0.050272000000000004 -0.33591099999999996 -0.139785 0.027628 -0.5836619999999999 0.355414 0.15033 0.04507 -0.6851780000000001 1.178101 0.5833699999999999 0.320588 0.230292 0.80922 0.411314 -0.45322 0.13048300000000002 0.631308 0.663945 0.0726 -0.675164 -0.279364 0.329616 -0.53608 -0.261775 0.281569 -0.132108 0.11403799999999997 0.603108 0.0013350000000000029 -0.024270999999999994 -0.178102 -0.07048199999999999 -0.610385 -0.047397999999999996 -0.18765300000000001 -0.450586 -0.232475 0.26478 -0.860923 -0.617582 -0.052803 -0.06393399999999999 0.0062429999999999986 0.37257799999999996 -0.358626 0.113212 0.377642 -0.497398 -0.230232 -0.639368 -0.00383 0.42327099999999995 0.19520300000000002 -0.06253700000000001 -0.18672 0.228791 0.580185 -0.28336 0.5505329999999999 0.37770000000000004 -0.747817 -0.271061 -0.11730299999999999 -0.028643000000000002 -1.700871 0.292065 -0.45201800000000003 -0.05972100000000001 -0.21225299999999997 -0.7017850000000001 0.223022 0.489659 0.39213 -0.055015999999999995 0.312576 0.18690299999999999 -0.139031 0.999148 0.54593 -0.15166799999999997 0.17462 -0.44192299999999995 -0.774357 0.253257 0.149127 -0.101893 0.268992 -0.037412 0.199653 -0.6253489999999999 -0.34607699999999997 0.088305 -1.277501 -0.139797 -0.04814499999999999 0.231008 0.021831000000000003 0.470041 0.7389600000000001 -0.47403700000000004 0.080358 0.25891200000000003 -0.011032 0.03534800000000002 0.68804 0.21428899999999998 0.392018 -0.407241 0.508478 0.28419099999999997 -0.706774 -0.532073 0.01883599999999999 1.167927 -0.449418 -0.407756 -0.148712 -0.6229929999999999 0.08069 0.16737800000000003 -0.15034499999999998 0.328988 -0.670183 -0.301482 0.657272 -0.38570099999999996 1.487513 -0.121413 -0.384929 0.17044700000000002 0.062205 -0.196056 0.192703 0.9967159999999999 0.12002700000000002 0.206545 0.317419 0.25451199999999996 -0.262131 0.328264 -0.534396 0.22648999999999997 -0.069898 -0.33016999999999996 0.015694999999999997 -0.039852 -0.619499 -0.09138299999999999 0.5314719999999999 0.24793 0.377361 -0.5226310000000001 0.28286100000000003 -0.37735599999999997 0.004766000000000006 -0.28013699999999997 -0.016737000000000002 0.587567 0.319982 0.4343600000000001 -0.693704 0.175541 -0.286667 0.18118 -0.7816810000000001 -0.217328 -0.535705 0.40749500000000005 -0.04077700000000001 -0.11285199999999998 0.5998429999999999 0.148933 -0.732328 -0.26109699999999997 -0.391926 0.16103499999999998 -0.09480000000000001 -0.126314 0.224083 0.759226 -0.112098 0.46628800000000004 -0.080759 0.381629 -0.8409770000000001 0.16674399999999998 0.504345 -0.424529 -0.11103299999999999 0.478059 0.211804 -0.6395299999999999 -0.27735200000000004 0.004201 0.379397 0.152854 -0.45023399999999997 -0.14866400000000002 0.504752 -0.32578999999999997 -0.200086 0.013416999999999998