deadweights -0.12213800000000001 0.23547800000000002 0.098076 -0.12369100000000001 -0.157977 -0.024120000000000003 0.590473 0.288402 0.148889 0.475344 0.495683 -0.583212 0.016932 0.41798100000000005 -0.24172 0.26471300000000003 -0.894926 0.182236 -0.540284 -0.29124300000000003 -0.184396 -0.005666000000000004 -0.038572999999999996 -0.193654 -0.678714 -0.205602 0.206781 -0.23385100000000003 0.13796199999999997 -0.314567 -0.08824099999999999 -0.134708 -0.212252 0.03629 0.07675400000000002 -0.266231 -0.059093999999999994 0.5318620000000001 0.240837 -0.029879999999999997 0.229719 0.429721 -0.156246 0.383091 -0.927546 0.250409 0.07117199999999999 0.095773 -0.632552 0.498361 -0.20949099999999998 -0.2739 0.137071 -0.203652 -0.016314999999999996 -0.163958 0.332189 -0.186617 0.1262 -0.317885 0.02284599999999999 -0.470945 -0.261551 -0.188625 0.34977199999999997 -0.412875 -0.328809 0.5137130000000001 -0.09402100000000001 -0.144094 -0.019821000000000005 -0.13437100000000002 0.23874499999999999 0.086563 -0.453391 -0.455708 -0.17474299999999998 0.099496 0.12370900000000001 0.734234 0.231185 0.31377299999999997 -0.17379599999999995 0.601778 -0.56602 0.8003009999999999 -0.34101000000000004 -0.348421 -0.24673499999999998 0.17245500000000002 0.012118000000000018 0.10902499999999998 0.123501 -0.6448290000000001 0.083915 -0.317612 -0.627989 -0.021382000000000012 -0.514791 -0.25058600000000003 -0.230815 0.542471 0.361053 -0.03951899999999997 -0.07097800000000001 -0.381133 0.600571 -0.420743 0.09676300000000002 0.14126699999999998 -0.324364 0.527108 -0.683348 -0.615173 -0.41030500000000003 0.381909 0.247021 -0.084718 -0.304278 -0.211643 -0.167715 -0.11400300000000001 0.45721199999999995 0.297294 0.24734500000000004 0.404138 0.125075 0.518007 -0.090087 0.679183 -0.132829 0.030412999999999996 0.6437200000000001 0.149202 0.04425600000000002 -0.475716 -0.6270220000000001 -0.270771 -0.400613 -0.807204 -0.21612499999999998 0.07666200000000001 -0.25194500000000003 0.137704 -0.677809 -0.37855799999999995 0.23283600000000002 0.122152 0.055987 0.062259999999999996 -0.585635 -0.588572 -0.019222000000000003 0.202831 0.356715 -0.098025 -0.169068 -0.363067 0.12138399999999999 -0.527695 -0.51887 0.359951 0.225344 0.795489 -0.8443590000000001 0.57875 -0.30769199999999997 0.024577 0.245895 -0.35257099999999997 0.465692 0.087723 0.270494 -0.331765 -0.118432 0.795858 -0.06466799999999999 -0.408704 -0.32900700000000005 -0.24550799999999998 -0.230494 0.074355 0.525889 -0.526794 0.422337 0.267854 0.27579200000000004 0.364135 -0.344581 -0.328148 -0.491519 -0.311133 -0.613485 -0.23055399999999998 -0.690813 0.304277 0.144565 0.041638999999999995 0.39346800000000004 0.119893 0.039938 -0.280539 0.6184919999999999 -0.748396 -0.172292 0.152336 0.644387 -0.842537 -0.611164 0.129928 -0.096779 -0.135357 -0.10028299999999998 -0.364386 -0.418169 0.559821 -0.03516 0.902161 -0.460426 -0.35745699999999997 0.347658 -0.04421000000000003 0.11615199999999999 -0.433243 -0.039716 -0.251158 -0.012005999999999989 -0.353829 0.8075340000000001 -0.547168 -1.31878 -0.312922 0.45970599999999995 0.009031000000000011 -0.507748 0.068765 -0.261932 0.251109 -0.758146 0.538327 -0.370825 -0.764501 0.404112 0.7502150000000001 -0.12076200000000001 -0.079905 0.329289 -0.18576499999999999 0.049294000000000004 0.249512 0.095335 -0.14077299999999998 0.32593500000000003 -0.680547 0.276583 -0.11198 0.541493 -0.08502900000000001 0.07505900000000001 -0.085015 -0.23278300000000002 -0.06724 -0.337374 -0.17895600000000003 -0.7070000000000001 0.003585999999999999 -0.23880200000000001 -0.178424 0.442714 0.010019 0.0017859999999999994 -0.022647000000000028 -0.629596 0.064803 0.009727 -0.086067 0.0895 0.2624 0.879208 0.151884 0.026311 0.330055 -0.14549 -0.12409299999999998 0.061642 0.500657 0.648755 0.395214 0.304857 -0.241946 0.167779 -0.852951 0.51756 -0.04098500000000001 -1.165502 0.197467 0.210274 -0.293037 -0.18574200000000002 0.009370000000000017