downweight -1.5872279999999999 -5.344609 1.7441929999999999 2.52067 -0.214845 0.449492 -0.030862000000000056 2.524727 0.935174 -1.81945 -0.33205799999999996 -1.997907 -0.23523899999999998 2.015454 0.827817 0.646323 0.15178800000000003 0.7982129999999998 -1.9579170000000001 2.447861 -0.717777 -2.4996039999999997 1.974536 0.43188899999999997 1.381212 -0.54215 -1.0089839999999999 -1.325986 -3.091494 -1.476754 -0.761276 0.46048599999999995 4.244726999999999 1.2020199999999999 -0.467935 2.5703 2.8830739999999997 -0.827063 -2.626228 0.005842000000000014 0.9257810000000001 -0.98853 -2.175803 0.982583 -0.12641400000000003 0.951978 0.477614 -0.5021120000000001 -0.152188 2.193367 0.055676999999999977 -3.0503630000000004 -2.06599 -0.42270800000000003 1.2573370000000001 0.051962 1.418241 -0.748466 -1.3280280000000002 1.173535 0.256791 -1.0033239999999999 2.286207 0.0042280000000000095 -0.342901 -3.727493 1.3637730000000001 -1.1914209999999998 1.99218 0.392169 0.45455500000000004 1.3330730000000002 1.230411 1.5041630000000001 -0.6769130000000001 -0.7924629999999999 -1.1174870000000001 -0.7542939999999999 2.8338210000000004 0.3668609999999999 1.0118719999999999 2.8433230000000003 -1.3121239999999998 0.21451199999999992 0.4062760000000001 0.9039409999999999 -1.304779 -3.824448 0.558608 3.021669 1.033992 -1.251576 0.498104 0.5965039999999999 1.057457 0.683747 -1.865625 0.461083 -0.422285 5.274591 1.82549 -3.223613 1.48516 0.518168 -0.870383 -2.2092259999999997 -0.844679 0.6940270000000001 -4.744229000000001 0.33150099999999993 -1.080863 0.4187449999999999 -1.3848639999999999 0.048274 0.5427709999999999 2.267951 1.653225 -1.4616310000000001 -2.7296880000000003 -0.336909 -1.174008 -1.6999659999999999 0.362805 -2.161856 1.232683 1.935505 1.653861 0.41149 0.49209800000000004 -2.735185 1.248277 -0.188554 1.4054920000000002 -1.7729960000000002 2.657003 0.12817699999999999 0.737965 -3.362947 2.086908 -0.40093100000000004 -0.7896400000000001 1.655491 -1.565177 0.324948 -1.374433 -0.314748 -0.817454 1.202752 -1.1738970000000002 -0.8197110000000001 0.186325 -1.188517 0.794039 1.944567 -5.1899939999999996 -0.662222 -0.04722000000000004 -0.7144710000000001 0.48436 2.291165 0.13531100000000001 -0.34526100000000004 2.6253840000000004 -0.20163899999999998 2.553308 1.8531429999999998 -1.9499790000000001 -1.4055630000000003 -0.733075 0.10687400000000002 4.989793000000001 -2.17974 -1.1760510000000002 -0.9439770000000001 0.368127 -0.745916 1.522417 0.173452 0.7523690000000001 -0.46476300000000004 3.757053 1.496847 1.109083 2.5591589999999997 -2.577829 -3.728319 0.5605929999999999 -1.9178009999999999 0.6612350000000001 0.449475 -1.6793879999999999 -0.975372 3.808212 -3.510278 1.4312749999999999 0.524456 1.887098 0.7289359999999999 3.03994 2.089105 0.07417599999999996 -2.036457 -0.29836 0.9203420000000001 0.26489200000000007 1.855036 0.39267399999999997 1.1767779999999999 1.0208939999999997 1.533045 -4.022426 -2.207529 0.314423 -0.21524500000000002 0.831235 0.626609 1.846408 -2.462937 -1.3463040000000002 0.980214 -0.03578700000000001 -0.203909 -0.8404240000000001 2.746732 1.822058 1.269365 -1.251865 1.5863969999999998 -2.2038290000000003 5.734252000000001 -2.9116850000000003 -0.380654 1.432353 -0.270523 1.114763 -2.057877 0.540351 0.314472 0.6724370000000001 -1.3026719999999998 1.079266 -0.622883 0.846515 0.512717 1.3983470000000002 -0.660823 2.980833 0.764583 -0.609164 -1.907954 0.904591 0.6619600000000001 -0.04781400000000002 2.052925 -2.130914 2.603319 -0.475746 2.396229 0.18001599999999995 -0.248748 -0.7147999999999999 0.594438 -1.342127 0.7063130000000001 3.9483690000000005 2.333987 -2.379732 -1.413173 -0.616035 -1.3047240000000002 0.44656799999999996 -0.7873889999999999 1.4668480000000002 0.85074 1.657837 -0.5767589999999998 0.41493500000000005 3.027068 1.358624 -0.48028899999999997 1.68418 0.955084 1.06192 -2.349053 -2.508237 -1.4261270000000001 -0.694042 2.6302070000000004 1.0607330000000001 -4.269347 -0.842182 2.162527 4.790337 0.693256 0.8347519999999999 0.7893660000000001 0.942452 1.247135 1.892515 -0.274766