dreamweight -0.6516470000000001 -0.718927 -0.166625 -0.981644 -0.316021 -0.6606029999999999 0.003583000000000003 0.028829 1.669066 -0.661308 0.028559 -0.261646 0.126437 0.494123 -0.867216 0.602439 0.11564000000000002 0.10716 -0.279416 0.276308 -0.569285 -0.318276 0.316044 -0.094135 0.39557699999999996 -0.41429900000000003 0.229732 -0.037978 0.039323 -0.697799 -0.546704 -0.255925 -0.41944 0.007984999999999992 0.056383999999999934 -0.548851 -0.737583 0.420655 0.169313 -0.123136 -0.12206 0.180807 -0.035438000000000004 -0.270615 -0.41906699999999997 -0.40120200000000006 1.06298 -0.474142 -0.020321999999999993 -0.062305 0.20804099999999998 0.007670000000000003 0.905249 -0.6127279999999999 0.05899499999999999 -0.679312 -0.367254 0.159028 -0.186469 -0.274545 -0.725321 -0.7767189999999999 0.837901 0.6270500000000001 -0.255935 -0.6041380000000001 0.03349 0.06756699999999999 -0.220209 -0.01865699999999998 -1.2238829999999998 0.6566639999999999 0.289086 0.086807 -0.023013000000000006 -0.222207 -0.4393 0.560945 -0.587006 -0.414173 0.20217100000000002 0.422214 -0.065996 0.408375 -0.40688599999999997 -1.260792 0.931062 0.12020600000000001 -0.018968000000000013 -0.013847999999999985 0.333662 0.44650799999999996 -0.24052700000000002 -0.92983 0.32962500000000006 0.18812799999999996 0.18735700000000002 0.8161919999999999 0.5392699999999999 -1.118634 0.486938 -0.336337 0.10315 0.08766600000000001 -0.023908 -0.011688000000000032 1.4834990000000001 -0.102447 1.174731 1.036365 -0.452493 -0.1729 0.20043999999999998 0.313489 0.09740300000000002 0.46116099999999993 -0.120427 0.04502400000000001 -0.857389 -0.36244699999999996 0.651076 0.39544500000000005 -0.251014 0.20689100000000002 -0.462654 1.133264 -0.306647 -0.313539 0.19417700000000002 0.351702 -1.0161229999999999 0.4249569999999999 0.210797 -0.063667 0.547096 0.015645 -0.50081 0.24013199999999998 -0.28321399999999997 0.39216799999999996 -0.411527 -0.24342800000000003 0.47979 -1.111996 -0.695271 0.10528000000000001 0.558381 -0.243504 0.365597 0.11914999999999998 0.551538 0.0019519999999999954 -0.05426 -0.404326 0.446114 -0.677225 -0.07114799999999999 -0.003414000000000028 0.207596 0.16371799999999997 -0.42560699999999996 -0.37113 0.311562 0.470635 0.676628 0.455468 0.388198 0.783936 0.023434999999999984 0.109681 0.38991699999999996 0.261682 -0.041601 -0.126162 0.417436 -0.011780000000000013 0.3171050000000001 -0.356448 0.540591 0.012193 0.514286 0.743271 0.01341500000000001 -0.571728 0.254515 0.441986 -0.393519 -1.039024 0.574466 0.155204 0.5409889999999999 0.6015860000000001 0.803054 0.385469 -0.314362 0.718194 -0.006518000000000001 0.11071399999999998 -0.03031499999999998 0.45075299999999996 0.11437800000000001 -0.10412400000000001 0.48001799999999994 0.482945 0.0006840000000000179 0.5989690000000001 -0.16625800000000002 0.630081 0.20786699999999997 -0.345771 0.11668500000000001 -0.560084 0.49451399999999995 -0.313515 -0.172246 0.117373 0.376702 -0.188818 0.035918000000000005 -0.393472 -0.41932600000000003 0.046231999999999995 -0.033887 -0.856842 0.39766999999999997 0.531041 -0.508284 -0.064493 -1.582941 0.5396 1.057208 -0.544539 -1.1350500000000001 -0.175202 0.17961300000000002 0.468441 0.28437 -0.358838 0.05382400000000001 -0.162804 0.271121 0.171834 0.097577 -0.368892 0.051338999999999996 0.08554800000000001 1.229344 0.564532 -1.4000000000014001e-05 0.080078 0.220034 0.22838399999999998 0.20631 0.534132 0.47470999999999997 0.37958600000000003 -0.7934100000000001 0.07057100000000001 0.718645 0.536855 0.10944800000000002 0.370922 0.056701 -0.636508 0.23656900000000003 -0.024274000000000004 0.314554 -0.677459 -0.5333140000000001 -0.32472 -0.09213 0.496815 -0.390079 0.00037700000000000233 0.11707200000000001 -0.10026900000000005 0.357907 0.560578 -0.5488839999999999 0.249422 0.099242 -0.370302 -0.530275 0.504664 0.07563299999999998 -0.58644 -0.22554400000000002 0.39966399999999996 1.122917 -0.946494 -0.468209 -0.164895 0.811797 -0.27457699999999996 0.844206 0.462733 -0.481219 0.23757999999999999 -0.40656000000000003 0.538931