entryweight -0.025233000000000005 -0.07100200000000001 0.09732300000000002 0.474563 -0.330082 0.11649499999999999 0.868138 0.482492 0.428052 0.018813999999999997 -0.099725 0.316602 -0.06868199999999999 0.18827400000000002 0.36492 0.547904 -0.486031 0.15178999999999998 0.683245 -0.174027 -0.129922 0.35775199999999996 -0.23560599999999998 -0.447804 -0.9926320000000001 0.360005 0.370418 -0.495386 0.18412800000000001 -0.344981 -0.07213000000000001 -0.419492 0.24283300000000002 0.46627 0.615533 0.422462 -0.55551 0.8520110000000001 0.132834 -0.092535 -0.05561999999999999 0.724906 0.36106099999999997 -0.121727 -0.159357 -0.526768 0.005298000000000011 0.455532 -0.460569 -0.855018 -0.516918 0.34951499999999996 -0.201542 0.163817 -0.286842 0.590638 0.304597 0.594677 -0.8538209999999999 0.20545 -0.14417900000000003 -0.766779 -0.543747 -0.28598 -0.17713700000000002 -0.567413 -0.443342 -0.6985250000000001 0.396753 0.165302 0.277568 0.58431 0.16382300000000002 0.254447 0.656134 -0.23789200000000002 -0.31871499999999997 0.654276 -0.535092 0.09221499999999999 0.05968000000000001 0.5545 -0.035958 0.17207200000000003 0.5321089999999999 -0.391642 -0.319665 -0.038989000000000024 0.861787 0.392207 0.492469 -0.522478 0.308498 -0.252739 -0.49307500000000004 0.365858 -0.422776 0.258226 -0.85015 0.32012300000000005 -0.069933 -0.503353 -0.626502 -0.990038 -0.06562699999999999 -0.232512 -1.100789 0.190149 0.582891 -0.170896 0.571413 0.502993 -0.6432180000000001 -0.222597 -0.48645700000000003 0.032357 0.03769 0.294063 -0.363336 0.677963 0.06754 0.753708 -0.038028000000000006 -0.617061 0.44800100000000004 0.16420200000000001 0.01456099999999999 -0.10483500000000001 0.782811 -0.693834 -0.053805000000000006 0.47223499999999996 -0.231056 -0.716401 -0.25824400000000003 0.595529 0.520736 -0.226893 -0.118948 -0.12228100000000001 0.48361299999999996 0.006754999999999997 -0.6988099999999999 0.24287799999999998 -0.06023999999999999 0.211223 0.660847 0.274828 0.566202 0.584101 0.527281 0.27615 -1.047879 -0.35699400000000003 -0.04075000000000001 -0.787434 -0.386247 0.612535 -0.949 0.07467700000000001 -0.10861800000000002 -0.138015 0.0043310000000000015 0.24260900000000002 -0.04270499999999999 -0.271553 0.15020899999999998 0.24461100000000002 0.013906000000000002 -0.754864 0.063405 -0.172129 0.23554999999999998 -0.263164 0.12000899999999998 0.283532 0.177501 -0.353926 -0.930205 -0.14167100000000005 -0.117341 0.466279 0.252212 0.8404100000000001 0.064324 -0.093276 0.5252249999999999 -0.44357100000000005 -0.02803 -0.512412 -0.467657 0.026965000000000003 0.118676 0.6041460000000001 0.418439 0.6692710000000001 0.14620800000000003 -0.165534 0.486335 -0.05798300000000001 -0.23667100000000002 -0.19784000000000002 0.051957999999999976 -0.48738000000000004 0.368581 0.120813 0.651797 -0.006306000000000006 -0.50065 -1.213826 -0.159514 0.09092299999999999 -0.17136400000000002 -0.282551 0.368581 0.094176 0.957233 -0.347836 -0.385483 0.41824100000000003 -1.011577 -0.14514200000000002 -0.24079099999999998 -0.012453999999999993 0.580268 -0.644787 0.108327 0.07704599999999998 -0.163633 -0.013488 1.513699 0.844894 -0.5357149999999999 -0.889286 -0.34680700000000003 1.153685 -0.5298430000000001 -0.202521 -0.369624 0.197507 -0.446956 -0.899621 0.402845 -0.150156 -0.941414 -0.392593 0.402008 0.16350699999999999 0.034691 0.305448 -0.30956100000000003 0.6403490000000001 -0.263212 0.012649000000000007 -0.728049 -0.277588 0.164867 -0.032932 0.515019 0.097761 0.998451 -0.084947 0.211807 -0.07675499999999999 -0.45721399999999995 0.283467 0.05183600000000001 0.236224 0.416666 -0.13058600000000004 -0.36567099999999997 0.37375600000000003 -0.511009 0.077819 -1.1823730000000001 -0.0006650000000000059 -0.18803000000000003 0.397432 -0.35016200000000003 -0.49641899999999994 -0.022954000000000002 0.161548 -0.335037 -0.22714199999999998 -0.13300099999999998 0.078791 -0.246056 -0.511278 0.36949899999999997 1.038795 -0.717587 -0.452248 0.629864 0.293023 -0.23317300000000002 0.008309999999999984 -0.056077 -0.5537559999999999 -0.136992 0.392886