featherweights 0.737204 0.009216999999999989 0.19235000000000002 -0.071386 -0.081772 -0.08211100000000002 -0.127835 -0.563076 -0.03649400000000001 -0.274593 0.103177 0.020817000000000002 0.142104 0.05551399999999998 0.182981 0.240484 -0.49219100000000005 -0.410986 -0.138162 0.253843 0.235848 -0.37621899999999997 0.728325 0.608747 0.461752 0.027356999999999992 -0.20324399999999998 0.431649 0.776487 0.193912 -0.423052 -0.149894 0.095288 -0.10486799999999999 0.169258 0.023078 -0.17513499999999999 0.221099 -0.694809 0.5711269999999999 0.293764 0.105146 0.08796399999999999 -0.20624199999999998 -0.100629 -0.241558 -0.03188099999999999 -0.41723 -0.230049 0.5978140000000001 0.524323 0.257903 -0.326385 -0.296782 0.38645999999999997 -0.32255100000000003 0.115459 0.41420199999999996 -0.12403399999999999 -0.16503099999999998 -0.17973 0.43154099999999995 -0.33237700000000003 0.281163 -0.30342800000000003 -0.35908999999999996 -0.49444 0.536907 -0.019330999999999997 0.228608 0.087329 -0.338498 -0.320822 0.364522 -0.291218 -0.4879319999999999 -0.404065 0.59797 0.46391099999999996 0.894722 0.17115999999999998 0.356324 0.244562 0.36705299999999996 -0.198852 0.938889 0.147733 -0.10686600000000002 0.12487999999999999 -0.791385 0.161997 -0.716334 0.14979699999999999 -0.580652 0.7357100000000001 0.028336 0.34209100000000003 0.31261700000000003 -0.07939700000000001 0.137818 0.17643699999999998 -0.218424 0.325214 0.03990200000000001 0.19878600000000002 -0.926822 0.407083 0.142149 0.08259300000000001 -0.39482 0.0016790000000000138 0.18708300000000003 -0.087011 0.45943900000000004 -0.26408 0.212335 0.135446 0.068401 -0.110286 -0.673147 0.7819940000000001 -0.7273080000000001 -0.194726 -0.17117100000000002 0.289437 0.13451600000000002 -0.450351 -0.111956 0.346893 0.739761 -0.842899 0.07533000000000001 -0.798406 -0.131826 0.6605920000000001 -0.163927 -0.794146 -0.046143 0.358652 -0.183281 -0.133636 -0.362892 -0.08895499999999998 0.384028 0.47841100000000003 -0.23318699999999998 0.34471999999999997 0.321575 0.327885 -0.023923 0.017113 0.28542 -0.483758 0.073706 -0.023649999999999997 0.34711099999999995 -0.173664 0.023252000000000002 -0.177453 -0.491505 -0.7245779999999999 0.6018509999999999 -1.29894 0.559367 -0.429004 0.963635 0.400484 -1.361912 -0.357687 0.096968 -0.040741 0.25055499999999997 -0.069695 -0.58367 -0.32460900000000004 0.42075300000000004 0.372977 0.621075 -0.220816 0.421315 0.7860419999999999 -0.419678 0.20325 -0.42942100000000005 0.21080299999999996 0.348048 -0.297879 -0.591798 0.033518000000000006 0.278549 0.8208519999999999 0.37535300000000005 0.552506 0.27255399999999996 -0.5916640000000001 -0.216307 -0.223354 0.096688 0.12192399999999998 -0.8018919999999999 0.6364160000000001 -0.429832 0.20668 -0.09213400000000001 -0.358003 -0.14169 -0.04632399999999999 -0.502219 -0.136385 -0.147933 -0.10733000000000001 0.499142 -0.730017 0.686479 -0.585174 0.220424 0.469039 -0.431693 0.045794 -0.171535 0.229933 -0.12837099999999999 -0.13412799999999997 -0.564981 0.32177900000000004 -0.20059899999999997 0.461024 0.21958299999999997 0.454061 -1.022921 0.097408 1.095413 0.132891 0.03293399999999996 -0.006012 0.147007 -0.07652199999999998 0.6345099999999999 -0.290929 0.67037 0.089683 -0.08205599999999996 0.558323 0.090357 0.404586 0.476364 -0.527645 0.14335699999999998 0.16613100000000003 0.05107199999999999 -0.179984 -0.50777 -0.066776 0.17627 0.255608 0.241524 -0.10675399999999999 0.9323429999999999 -0.063651 -0.45950799999999997 0.7371840000000001 -0.30955999999999995 0.012470999999999996 0.330998 0.09105000000000002 -0.24766899999999997 -0.005062999999999998 -0.839214 0.019274 -0.57921 -0.266274 -0.389154 -0.394716 -0.766111 0.6402300000000001 0.358901 -0.14461000000000002 -0.420204 -0.137603 -0.244191 -0.024344000000000032 -0.228825 0.097451 0.6502030000000001 0.191055 0.656737 1.201403 -0.045793999999999974 0.005295999999999995 -0.07025100000000001 -0.03371300000000002 0.10528699999999999 0.316212 0.405811 -0.391324 0.016413999999999998 0.510146 -0.073397 0.677725 -0.046197