featherweight 0.207235 -0.12136000000000001 0.173971 0.451302 0.034879 0.095968 -0.478529 -0.868588 0.22944900000000001 0.0062530000000000086 0.30812 -0.604047 0.407205 0.058069 -0.8312759999999999 -0.16691499999999998 0.0039579999999999615 -0.507377 -0.0065840000000000065 0.586139 -0.050421999999999995 0.076877 0.5820000000000001 0.5796049999999999 0.5532980000000001 -0.076458 -0.043407 0.03667 0.548206 0.928556 -0.143391 0.552968 -0.15206 -0.338449 0.212889 -0.50679 0.49410299999999996 0.42625100000000005 -0.663014 0.06637699999999999 -0.623425 -0.323697 0.302247 -0.14258099999999999 0.086452 0.529401 -0.39659500000000003 -0.780951 -0.06189700000000001 0.188183 0.083645 0.076489 -0.125977 0.646644 0.49792999999999993 -0.386725 0.53167 0.876699 -0.542324 -0.29561499999999996 -0.20830900000000002 0.901362 -0.30416 0.5141910000000001 -0.13542 -0.257799 -0.292569 0.243373 0.873818 0.203596 0.119512 -0.7310300000000001 -0.268309 -0.100937 -0.7898080000000001 0.04061100000000001 -0.18047 0.792138 0.159132 0.9319390000000001 0.010639999999999997 0.05595499999999999 -0.132847 0.859988 -0.043768 0.368175 0.8018000000000001 0.022988 0.869038 -0.63505 0.093914 -0.20865299999999998 0.048708 -0.517799 0.47195 0.319826 0.6591910000000001 0.18368200000000004 0.467479 -0.12566100000000002 0.278658 -0.020009 0.402771 -0.470971 0.767591 -0.48697999999999997 0.10035400000000001 0.452479 0.959998 0.26815 -0.270524 -0.021491 -0.007589999999999986 0.261651 -0.231651 0.28311600000000003 -0.3664 -0.5796889999999999 -0.39496999999999993 -0.477644 0.988191 -0.196125 0.108215 0.276861 0.6534949999999999 -0.069382 0.020856000000000006 0.404669 0.05775499999999999 0.10669499999999998 -0.893411 -0.05573000000000003 -0.684528 -0.131943 0.304349 -0.079204 -0.797511 0.470802 0.084012 -0.091644 0.076264 -0.15106799999999998 -0.17380099999999998 0.04579 0.776311 0.150677 0.576821 0.5592699999999999 0.501914 0.05988099999999999 -0.036256 -0.040729000000000015 -0.14563800000000002 -0.454555 0.02734 0.15986899999999998 -0.19921 0.6613709999999999 -0.361738 -0.05703499999999999 -0.793559 0.079461 -2.49553 0.0023119999999999807 -0.560546 0.6315850000000001 -0.290861 -0.667601 -0.12406800000000001 -0.027147000000000004 0.202871 0.309913 -0.006093999999999995 -0.218777 -0.00543600000000001 -0.18314 0.402683 -0.16161 -0.28337 -0.564036 1.007937 -0.06737200000000002 -0.38931499999999997 -0.15549000000000002 0.31913400000000003 -0.334393 -0.61579 -1.0702720000000001 0.277328 0.6797500000000001 0.804764 0.750044 0.272549 0.893923 -0.32004999999999995 -0.264169 -0.229439 -0.226146 0.540591 -0.683942 0.120725 -0.910155 0.41425 0.064016 0.095774 -0.664825 -0.45969699999999997 -0.016848000000000002 -0.364398 0.12391100000000001 -0.630587 1.276572 -0.22067599999999998 0.543134 -0.746221 0.195494 0.35888699999999996 -0.514829 -0.021785 -0.187497 0.6612180000000001 0.2245 -0.272522 -0.212592 0.563401 0.186412 -0.17619800000000002 0.33498800000000006 0.316004 -0.546876 0.394238 1.3814769999999998 0.632899 0.530159 0.452094 -0.39758099999999996 0.371163 0.605348 -0.312412 0.264089 0.161269 -0.18014999999999998 -0.127109 0.185183 0.164915 -0.174671 -0.7600560000000001 0.018443000000000015 0.02052900000000002 0.19437700000000002 0.695202 0.266839 0.025897000000000003 0.27255 -0.05156000000000002 -0.108762 -0.351466 0.441274 -0.247474 0.751093 0.55326 0.14303 -0.45195199999999996 0.462862 -0.051306000000000004 -0.12503999999999998 -0.1152 -0.122613 0.171429 -0.27406800000000003 0.006881000000000005 -1.067256 0.06329100000000001 -0.43622099999999997 0.372539 -0.07586499999999999 -0.655062 -0.45913099999999996 0.07372900000000002 0.173712 -0.10031499999999999 0.304663 -0.11878900000000003 -0.059975 -0.082312 0.586597 0.965992 0.571913 -0.33364499999999997 -0.365016 0.49755800000000006 0.216121 0.074713 0.066943 -0.06387499999999999 -0.15245 -0.160961 -0.135211 0.9693890000000001 -0.278754