flyweights 0.016253999999999998 -1.295499 0.095727 0.024463000000000013 0.804461 -0.47588300000000006 0.0020959999999999868 -0.09822299999999999 -0.37974 -1.047434 0.627212 -0.31733399999999995 -0.19600799999999996 0.340263 -0.56101 0.412329 -0.36999400000000005 -0.29019300000000003 -0.38736099999999996 0.38274300000000006 -1.455055 0.996205 0.8540730000000001 1.018919 0.625623 -1.192952 0.090507 0.05545300000000003 -0.020289 -0.7497240000000001 -0.06550099999999999 0.387941 0.180585 0.015139000000000014 0.601345 -0.374368 0.077155 -0.46230699999999997 1.4122270000000001 -0.15318600000000002 0.995628 1.8565049999999998 -0.081668 -0.47377600000000003 0.353132 -0.10190700000000003 -0.493355 0.31935499999999994 -0.09404799999999999 0.351715 0.586091 0.329986 -0.37063599999999997 -0.14506300000000003 -0.14951599999999998 -1.729307 0.9305950000000001 0.11887299999999999 0.11118800000000001 0.438429 -0.757627 -0.017581999999999987 -0.255154 -0.927322 -0.533531 0.301438 -0.15442899999999998 0.08295599999999997 0.6528619999999999 0.673764 -0.411406 -0.38146599999999997 0.18565399999999999 0.66169 -0.013572000000000028 -0.845537 0.374227 -0.245224 0.515504 0.9757 -0.406213 1.408982 1.205919 1.00813 0.12831900000000002 0.20874600000000001 -0.489913 0.373319 0.443757 -0.405466 -0.743546 0.691141 0.20448900000000003 0.235114 1.505694 0.183746 0.931509 0.06193500000000002 -0.415822 0.242836 -0.413101 1.000148 1.1564830000000001 -0.171042 0.0018139999999999996 -0.32220699999999997 -0.95406 -0.7758229999999999 0.43688 0.053895 -1.108018 0.715339 -0.5062840000000001 0.07990499999999998 -1.16281 -0.09184699999999998 0.726108 -0.31232400000000005 0.356641 -1.188351 0.31769899999999995 -0.604677 -0.43899900000000003 1.068229 0.100253 1.4077380000000002 -0.549633 0.5634520000000001 0.11999400000000002 1.015953 -0.43631400000000004 0.215258 -0.80958 -0.300122 0.24964999999999998 0.029772999999999994 -0.08172099999999999 0.328129 1.4430859999999999 -1.0255480000000001 0.11524000000000001 1.88686 0.556328 0.138141 0.199964 0.783787 -0.075475 0.776187 -1.02281 0.423899 0.18739900000000004 1.120109 -0.601928 0.222358 0.428283 -0.319333 -0.43205899999999997 0.565959 -1.050873 -0.847718 -0.620479 0.048447000000000004 -0.7145320000000001 0.820845 -0.035115999999999994 1.284904 0.211823 -0.520486 -0.494371 1.2506 0.9822710000000001 0.7469899999999999 -0.940649 -0.890846 0.288606 0.8918459999999999 -0.02428999999999998 0.256769 -0.094019 -0.04375300000000004 -1.162411 -0.18315 0.041994000000000004 -0.383311 0.697435 -0.076101 -0.431739 0.173987 0.130669 0.436456 0.598579 0.07873 0.265714 0.03615399999999999 -0.078263 -0.438315 -0.136827 0.475472 0.359931 -0.35670300000000005 0.29731899999999994 -0.37756900000000004 1.3201070000000001 0.547333 0.264811 0.545913 -0.773272 -0.29333200000000004 0.910007 -0.44962899999999995 -0.254389 -0.050134999999999985 -0.467519 0.753646 0.435282 0.28263 0.156472 -0.643494 0.49400099999999997 0.040686 0.883043 0.232995 0.17298200000000002 -0.961737 0.04914099999999999 1.334197 -0.178196 -0.286878 0.173771 -0.39451899999999995 -0.566171 1.071835 1.3858899999999998 -0.602166 0.188842 0.325199 0.275502 0.21897999999999995 0.05804500000000001 0.063811 0.678411 -0.628957 -0.252289 -0.290796 1.390895 1.5728680000000002 -0.671817 0.279216 0.584463 0.500889 0.49092099999999994 -1.276322 0.361476 -0.513576 -0.318912 -0.071878 -0.275403 0.15366200000000002 -0.134612 -1.213063 0.521492 0.48334499999999997 0.571871 -0.319664 0.42830999999999997 -0.8667879999999999 0.21490900000000002 -0.12061200000000001 0.473344 -0.076871 1.308862 -0.536151 0.44013199999999997 -0.8391139999999999 -0.093732 0.607824 -0.13454000000000002 0.840074 0.12056099999999999 -0.21033300000000002 -0.150457 0.6828930000000001 0.8166910000000001 0.729636 0.272854 0.42887200000000003 0.086038 0.519078 -0.05244499999999999 -0.153248 0.299665 0.591161 0.003240999999999994 -0.8406830000000001 -0.06612399999999999 0.927713 0.181332 0.019626000000000005 0.510178 0.11562800000000001