flyweight -0.189913 -0.071637 0.6205510000000001 -0.097069 0.126714 -0.365072 0.099505 -0.7928850000000001 -0.15561600000000003 -0.49076699999999995 -0.059570000000000005 -0.422876 0.601026 0.032133999999999996 -0.939991 0.084607 0.04577899999999996 -0.349892 -0.23901800000000004 0.797641 -0.29147599999999996 0.400345 0.641954 0.297388 0.5771219999999999 -0.143197 0.328511 0.569237 0.32220899999999997 0.6675340000000001 0.11650500000000001 0.645935 0.173379 -0.037535999999999986 0.315219 -0.382189 0.38853 0.196114 -0.6611560000000001 0.19772599999999999 -1.01961 -0.235437 0.149918 -0.21359700000000004 0.390528 0.381701 -0.05781000000000003 -0.035329 0.252544 0.305281 0.272283 -0.699307 -0.24926300000000007 0.644064 0.554913 -0.37026200000000004 0.670403 0.23030199999999998 0.03846100000000002 -0.50908 -0.169536 1.253039 -0.016963000000000006 0.12460500000000002 -0.190108 -0.166389 -0.32602200000000003 0.163443 0.7394769999999999 0.334363 0.542902 -0.364713 -0.02360000000000001 -0.226215 -0.3045 -0.565518 -0.724418 0.327594 0.065878 0.6343559999999999 0.178637 0.468115 0.065391 0.86677 -0.036978 0.316882 0.48749 0.031187000000000006 0.521137 -0.522705 0.160627 -0.039824 -0.150088 -0.75139 0.410537 0.277418 0.747179 0.022097000000000006 0.11627199999999999 -0.026067 0.43629799999999996 -0.01897900000000001 0.101072 -0.510304 0.836197 0.057318999999999995 0.245214 0.037944 1.109078 0.262309 -0.570408 0.140584 0.687178 0.400694 -0.45093099999999997 0.860143 -0.075881 -0.44668299999999994 -0.51644 0.206966 1.185178 0.294434 0.348784 -0.23297199999999998 0.434006 0.28982600000000003 -0.5002530000000001 0.518015 0.20490300000000003 0.624926 -0.359329 -0.13886500000000002 -0.393523 0.04341300000000001 0.123695 0.008014 -0.6544190000000001 0.275099 0.29519799999999996 0.235713 -0.17492599999999997 -0.11828 -0.228311 -0.115657 0.711236 0.17129 0.668651 0.498903 0.54204 0.330293 0.307535 -0.35567499999999996 0.295891 -0.466536 -0.040041999999999994 0.201191 0.493016 0.442538 -0.426615 -0.47734200000000004 -0.7903629999999999 -0.214365 -2.067046 -0.217197 -0.22608399999999998 0.9043209999999999 -0.530338 -0.617649 0.029293000000000013 0.274607 0.290438 0.392856 0.115604 -0.5098469999999999 0.157523 -0.230649 0.270612 -0.5968260000000001 0.178751 -0.0003210000000000157 0.142785 0.154895 -0.48734099999999997 -0.378472 0.25912499999999994 -0.07342900000000001 -0.45227500000000004 -0.741397 0.461008 0.5995550000000001 0.18813900000000003 1.1457060000000001 0.036882 1.8264870000000002 -0.023383000000000015 -0.535519 0.207479 -0.26414 0.307966 -1.20912 -0.024270000000000014 -0.944434 0.38177 -0.028521000000000005 0.546152 -0.07478699999999999 -0.32791800000000004 0.263706 -0.457584 0.26802499999999996 -0.12334600000000001 1.009824 -0.014409000000000005 0.178643 -0.535108 -0.09993199999999999 0.29791999999999996 -0.51467 -0.270309 0.023568000000000006 -0.004477999999999982 0.280209 -0.531696 0.005070999999999992 0.070987 0.489332 -0.199023 0.18803 0.699614 -0.401515 0.107931 1.601772 0.412875 0.133173 0.9068430000000001 -0.37718500000000005 0.703097 0.298192 0.025113000000000003 0.506989 -0.292298 0.08422100000000002 -0.434471 0.005527000000000004 0.165985 0.6448210000000001 -0.989329 0.31366 0.61648 0.222319 0.502291 0.342765 0.526213 -0.042852 0.01119500000000001 -0.250308 -0.086499 0.36862500000000004 -0.12671200000000002 0.07406399999999999 0.871262 -0.125728 -0.374315 0.28524000000000005 -0.093198 0.312089 -0.16564900000000002 -0.484186 0.244568 -0.25161100000000003 -0.052674 -1.217965 0.058503 -0.184699 -0.16768699999999997 0.333642 -0.49502099999999993 0.21764399999999998 -0.06492400000000001 -0.028975 -0.59626 0.4352 0.327268 0.389984 0.075784 0.7833060000000001 0.463735 0.545445 -0.251475 0.04470000000000002 0.732897 0.357234 0.102836 0.077324 -0.014677999999999997 -0.249368 -0.412188 -0.162846 0.40406 0.273659