fontweight 0.04181199999999996 -0.5510950000000001 1.341388 0.0012550000000000061 -0.883598 -0.750334 0.729745 2.545995 0.725518 0.603524 1.4037130000000002 -1.132523 0.539751 -0.298543 0.568621 0.05512499999999999 -0.75731 0.463515 1.0093 0.29736799999999997 0.91402 0.1141859999999999 2.002326 -0.40553800000000007 -2.3314459999999997 1.3991 0.8302210000000001 -2.730066 0.426854 -1.261578 -0.34111800000000003 -1.2836759999999998 0.350107 0.24342200000000003 0.635184 0.834684 -0.920404 -1.705223 0.018133000000000003 -1.028538 1.01982 0.853572 -1.599079 1.131979 -0.418968 0.738607 -0.530354 0.544293 -0.07645400000000001 0.679128 -0.521754 0.26649599999999996 0.379706 0.309914 -0.213399 1.242121 0.06787300000000007 -1.889752 0.904793 -0.04222400000000001 -0.39052000000000003 -0.8952180000000001 -0.44525 0.02828900000000001 -0.610141 0.11075600000000002 -0.1349950000000001 -0.8801559999999999 1.018245 -2.31107 0.262905 -0.999105 1.0441880000000001 -0.23657499999999998 1.2123680000000001 1.011897 -0.413099 1.5302580000000001 -2.022129 1.1987450000000002 -0.310894 -0.091265 0.595877 -0.11261199999999993 0.617408 -0.12325600000000003 1.274996 -1.785459 -0.325614 2.295455 -0.7896190000000001 1.122353 0.38152699999999995 1.7413669999999999 -0.452782 -1.589044 -0.153443 1.295998 -1.1147909999999999 -0.804487 -0.5924579999999999 -0.37925600000000004 -0.771396 0.5834600000000001 0.025920000000000006 0.13944800000000013 -0.924616 0.43628500000000003 0.455765 1.6520510000000002 0.001468999999999998 -0.8748229999999999 2.1507579999999997 -0.634191 -0.194826 0.640409 -2.370695 0.44439300000000004 -0.154061 -0.764421 -0.938959 -1.086403 -0.9983970000000001 1.8856730000000002 -1.063458 1.55492 -0.04034899999999997 -0.012606999999999924 -0.631915 0.16591900000000004 0.5016619999999999 -0.400092 -0.293538 -0.7848109999999999 -0.878881 0.40935 0.842032 -0.355277 -0.02653799999999995 -1.382126 -0.551214 0.536821 1.281191 -0.718161 0.95132 0.32821600000000006 0.7434620000000001 1.317963 0.7273670000000001 0.36472499999999997 -0.32898099999999997 0.80367 0.12613300000000005 -0.675629 0.602874 -0.840065 0.858904 0.717117 -1.0438939999999999 0.795316 0.885904 0.212249 0.011008000000000018 1.171432 -1.7030720000000001 0.5771630000000001 -0.9271480000000001 -1.131879 -2.4707 -1.7666620000000002 -0.40582699999999994 -0.963079 0.164441 0.327476 0.762716 0.175234 -0.837933 -1.799941 -0.6598010000000001 -0.719903 0.05754300000000001 0.807713 0.178428 -0.24066400000000002 -0.5616209999999999 1.322317 0.5470349999999999 -2.879071 0.121226 -1.595137 1.0915249999999999 0.791297 0.192 0.065494 2.02879 -0.242706 -0.5803090000000001 -1.2479580000000001 2.316409 -1.200396 -0.298828 0.597128 -1.687932 1.004711 1.821282 0.36463 -1.454647 -0.410344 -1.493637 -0.5961730000000001 -1.361735 -0.950728 -0.8858349999999999 -1.5821779999999999 -0.0061350000000000016 0.24452600000000002 1.0209279999999998 0.430493 2.408261 0.9274199999999999 -1.133027 -0.15070799999999995 -1.498961 -1.743443 0.378342 -0.4464960000000001 0.9960760000000001 -0.3495520000000001 -0.267366 -1.261337 0.02465399999999998 0.649738 -0.9577460000000001 -0.42436000000000007 0.895735 -0.352379 0.321705 -1.021847 -0.15512199999999998 0.6528200000000001 -0.320418 -0.773923 -1.278775 -1.469447 2.123677 -1.269929 1.745733 0.107348 2.450185 0.040636000000000005 2.4312009999999997 0.44524 1.531811 -1.302616 -0.832448 -0.6890729999999999 0.150377 0.149019 0.706671 0.7043659999999999 -0.09215199999999996 0.819699 -0.5178079999999999 1.704138 0.40956200000000004 -0.26972399999999996 -0.450828 0.22413099999999997 1.764518 -1.759194 -2.086766 0.712365 -1.88817 -1.0507339999999998 -0.151936 -0.11044800000000002 -2.3705030000000002 -0.26160000000000005 -0.923658 0.846199 0.35947799999999996 -1.616432 0.14096699999999998 -0.00032399999999999096 -0.8636199999999999 -1.308579 -1.304431 1.2107999999999999 -0.6362 -0.31470699999999996 0.23262299999999997 -0.142428 0.996512 -0.679859 -0.518879 1.209869 0.512396 0.25809200000000004 0.513304 -1.1218810000000001