freeweights 0.28122800000000003 0.27956 -0.883686 -0.583712 -0.444619 -0.543184 0.044513 -0.34455 0.629626 0.45001800000000003 1.490451 0.175048 -0.334364 -0.545524 -0.16936600000000002 -0.075437 -1.168833 1.146785 0.015473 -0.694396 0.26038 -0.294989 0.501515 -0.536061 0.522313 -0.465545 0.778537 -0.746072 -1.157063 0.272236 0.13022 0.023762 -0.701813 -0.318434 -0.522282 0.519885 -0.539405 0.8190230000000001 -0.5479419999999999 -0.162409 -0.441421 -0.265224 0.777024 -0.44798599999999994 -0.7057169999999999 -0.407816 -0.835989 -0.676588 -0.430014 -0.142586 -0.168677 -0.870932 -0.027861999999999942 1.155488 0.258277 -0.380138 -0.26083599999999996 -0.219918 0.928813 1.233749 -1.153276 0.7253189999999999 -1.165133 0.232215 0.08147299999999999 0.043245000000000006 0.5807059999999999 -0.597353 -0.674284 -0.328223 0.414961 0.38834599999999997 -0.950818 -0.568679 -0.579005 0.108407 0.19830600000000004 0.398157 0.100539 0.48138000000000003 0.7554679999999999 0.246009 1.185109 -0.068373 0.420183 -0.22723 0.616417 0.11857599999999999 0.294725 -0.077886 -0.0032019999999999826 0.236822 0.06533300000000002 0.459972 0.10367300000000002 0.182098 -0.59895 0.3138139999999999 -0.588985 -0.584386 -0.66334 0.012771000000000005 0.956935 -0.08982600000000002 -0.01664300000000002 0.052957000000000004 0.649459 0.26198099999999996 0.443571 -0.18954499999999996 0.20782899999999999 -0.458557 -0.17266099999999998 -0.29014199999999996 -0.375219 -0.368072 0.41882 -0.27682 -0.725615 -1.085129 0.48130399999999995 -0.411988 1.341431 0.177533 -0.22418700000000003 0.38498299999999996 -0.02815100000000001 -0.261326 -0.585046 -0.26831600000000005 0.38867 -0.5960620000000001 0.276063 -0.404492 0.019113999999999992 -0.62286 -0.36969199999999997 0.202436 0.51973 -0.17879 -0.577558 -0.5363060000000001 0.747545 -0.24916499999999997 1.0972300000000001 0.205943 -0.796795 -0.138967 -0.18141200000000002 -0.298407 -0.5711250000000001 -0.889131 -0.27185000000000004 -0.176202 0.310313 0.363565 0.09006000000000002 -0.413561 0.137301 0.36744 -0.6031139999999999 0.653529 -0.095148 -0.7438549999999999 -0.10362499999999997 0.386748 0.413706 -0.29043399999999997 0.490401 0.663081 0.831396 0.8350310000000001 0.392013 -0.288169 -0.648972 0.463308 0.26007199999999997 0.43133200000000005 -0.258749 0.147364 0.026146000000000003 -0.070298 0.610535 0.536206 -0.448759 -0.129741 -0.61808 0.7152780000000001 -0.14712900000000007 0.627949 -0.5524939999999999 -0.43684900000000004 -0.3226 0.174778 0.023342 -0.5263979999999999 -0.03907999999999999 -0.464782 0.286415 0.10406399999999999 0.006793000000000021 -0.429299 -0.200594 -0.561145 -0.911499 0.205957 0.09740900000000001 0.062536 -0.433422 -0.1777 0.09051300000000001 0.175227 -0.5373969999999999 0.781261 0.6058399999999999 -0.72538 0.298477 -0.004471000000000003 -0.30338200000000004 0.170448 1.6919399999999998 0.610416 0.7660290000000001 0.314175 0.464993 -0.19531900000000002 -0.09278600000000001 -0.587075 -0.19932399999999997 -0.9622630000000001 -0.84416 0.254535 0.539658 0.277731 0.115226 0.953731 -1.182391 -0.145628 -0.34335099999999996 -0.021623000000000003 0.47034 -0.469145 0.144312 -0.584238 0.234663 0.11619199999999999 0.115913 0.457284 0.08489999999999998 -0.14313700000000001 -0.42434900000000003 -0.71165 -0.288779 0.458595 -0.073544 -0.13841199999999998 -0.57519 -0.577863 -0.272632 0.12892900000000002 -0.14502299999999996 0.27661800000000003 -0.402511 0.215441 -0.400889 0.125712 -0.275794 0.18393800000000002 0.720293 -0.14773 -0.23337000000000002 -0.49947899999999995 -0.350928 -0.418854 0.11449700000000002 0.10412300000000002 -0.07390999999999999 -0.57086 0.13418299999999994 -0.727635 0.07280600000000004 0.9693050000000001 -0.695289 0.08216800000000002 0.609105 -0.592253 0.204228 -0.065655 0.160188 -0.5521659999999999 1.0257 -0.585448 0.47696400000000005 -0.234511 -0.328681 0.1439 0.453824 0.266778 0.281015 -0.32345