freeweight 0.312278 0.268298 0.358764 -0.179592 0.323974 -0.03256999999999999 -0.253972 -0.33997 -0.28512899999999997 -0.709863 1.006197 0.10367399999999999 -0.103744 -0.457637 -0.22844399999999998 0.22292 -0.914826 0.18474999999999997 0.878244 -0.460388 -0.022845999999999977 -1.057097 0.97291 -0.03576499999999999 0.530486 0.305294 0.24335999999999997 -0.29523999999999995 0.21721999999999997 0.16522000000000003 0.8880859999999999 0.345924 0.06749 -0.030882999999999994 0.342638 -0.159712 0.368679 0.948806 -0.202337 -0.22993 0.270713 -0.088356 0.52453 0.46397299999999997 -0.25596599999999997 0.355381 -0.882756 0.5281 0.364146 0.517355 -0.8816660000000001 -0.287931 -0.7404040000000001 1.349552 0.438561 -0.16758499999999998 -0.26941 -0.12290400000000001 0.329235 0.254832 -1.6213090000000001 1.5980560000000001 -1.3169 0.658548 -0.5146 0.5120129999999999 0.319599 0.004281999999999994 -0.06128800000000001 -0.210804 -0.8868929999999999 0.191598 -0.766786 -0.602013 -0.562751 0.6577310000000001 0.19165699999999997 0.165022 1.452115 -1.301068 1.082622 0.16394899999999998 0.585266 0.300717 -0.17374399999999998 -0.116147 0.427417 -0.149664 1.077636 0.246846 -0.7951079999999999 -0.496501 -1.0286499999999998 0.25582800000000006 -0.27923 0.179726 -0.847054 0.024097000000000007 -0.23213399999999998 0.2552 -0.823446 -0.45332500000000003 0.154072 0.04880800000000002 0.521024 0.45860999999999996 0.351203 0.35659799999999997 0.425809 0.35682800000000003 -0.364101 -0.321443 0.09145500000000001 0.242077 -0.600373 -0.7669060000000001 -0.08961399999999997 -0.245977 -0.40178800000000003 -0.755217 0.145834 -0.276965 1.355973 0.048838000000000006 0.170966 0.114802 0.523921 -0.501904 -1.40117 -0.704199 0.578777 -0.15586 0.836731 -0.16767700000000002 0.480468 0.184331 -0.48539 -0.06726399999999999 0.822909 0.067121 -0.036007000000000004 -0.987777 -0.24837599999999999 -1.0233780000000001 0.065581 -0.790479 -0.45725099999999996 -0.230337 0.312144 -1.030274 0.613909 -0.7496309999999999 0.29583599999999993 -0.15227000000000002 0.670326 0.9554719999999999 0.40058499999999997 -0.44639300000000004 0.132996 -0.036932999999999994 0.11676000000000003 0.531461 -0.440909 -0.909134 -0.33074000000000003 0.962846 -0.10444400000000001 -0.450957 0.040158 0.2829880000000001 0.339173 0.599186 0.507719 0.05388900000000002 -0.44921200000000006 0.5948800000000001 -0.035026999999999975 -0.35211299999999995 -0.9483010000000001 0.683306 -0.048378000000000004 -0.525713 0.545359 0.304215 -0.048526000000000014 -0.06822199999999998 0.504408 0.790857 -0.355143 -0.275713 -0.03646400000000001 0.381955 0.924191 0.264966 0.700241 0.020218999999999987 -0.12631499999999998 -0.08624299999999999 -0.466784 -0.017423000000000008 -0.670347 -0.47458200000000006 -0.555502 -0.7763300000000001 0.067436 0.14895 -0.14932 0.802578 0.25804 0.427511 -0.07331500000000002 0.064674 -0.25802099999999994 -0.271474 0.593372 -0.531204 -0.520272 0.148321 -0.529683 -0.09005999999999999 0.509 -0.294946 0.766822 0.941629 0.691373 -0.34575 0.213221 -0.224379 -0.05128 -0.387776 -0.5159750000000001 0.086306 -0.8182609999999999 -0.721051 -0.19360099999999997 -0.175027 -0.931521 0.247697 -0.23012500000000002 -0.7846759999999999 0.17921899999999996 0.242626 -0.30318799999999996 -0.409455 0.05146200000000001 -0.8048569999999999 0.22791899999999998 0.233062 0.332646 0.22552999999999998 0.400525 0.07564599999999999 -0.704637 0.205254 -0.731935 0.599573 -0.462721 0.010557999999999984 -0.690583 0.426948 1.0877560000000002 0.018001000000000003 -0.240784 0.042278999999999956 -0.659486 0.304667 -0.945316 -0.31481599999999993 0.550478 -0.36795 0.664567 -0.19679999999999997 -0.0014839999999999992 0.284966 0.32494999999999996 -0.7868040000000001 -0.119104 -1.081593 -0.620382 -0.539661 -1.348945 0.950555 -0.18298 0.447567 -0.681154 0.299441 0.427547 0.834201 0.484508 -0.41159199999999996 1.3252039999999998 -0.14020100000000002 -0.885084 -0.23447600000000002 -0.13756 -0.075818 1.031873 -0.419651 0.248239 -0.4135690000000001