handweights 0.5865819999999999 -0.11740400000000001 0.15206599999999998 -0.267409 0.273529 -0.33182300000000003 0.30926 -0.204626 -0.33188 -0.450552 0.123482 0.110426 -0.774341 0.47162099999999996 -0.797957 0.8182780000000001 -0.050145 -0.29020199999999996 0.306749 -1.056605 -0.15889399999999998 0.09166300000000001 0.15837400000000001 -0.196109 -0.361886 0.898558 0.15823399999999999 -0.246244 -0.175531 0.006227999999999997 -0.604195 -0.271506 0.16770200000000002 0.171831 -0.10954 -0.23754 -0.178475 0.049115 0.026239000000000012 0.327832 0.27261199999999997 -0.030150999999999983 0.11832000000000001 -0.0066669999999999785 -0.17618300000000003 0.06528300000000001 0.016369999999999996 -0.43131400000000003 -0.3432 0.568743 0.11973900000000001 -0.077085 -0.313013 0.49893299999999996 0.87776 -0.218 -0.017381999999999995 0.068608 0.738183 0.795093 -0.7049639999999999 -0.435135 -0.759833 0.14364500000000002 -0.229685 0.370039 -0.6421399999999999 -0.44824600000000003 -0.067686 -0.306672 -0.17791099999999999 0.822316 -0.884363 -0.008979000000000001 -0.112532 -0.27615500000000004 0.030383 -0.42318999999999996 0.330219 0.49487900000000007 -0.012243000000000004 0.001350999999999998 -0.5146189999999999 0.543937 0.057248999999999994 0.06585300000000002 0.03650899999999999 -0.577012 0.316417 -0.05568500000000001 -0.19842400000000002 -0.723239 0.013500000000000012 -0.030261999999999997 0.19680800000000004 0.401575 -1.022672 0.243655 -0.7371160000000001 -1.036776 -0.482715 -0.113232 0.554827 -0.21140299999999998 -0.6437120000000001 0.502848 0.601218 -0.234183 -0.220507 -0.053697999999999996 0.499847 -0.223218 1.058676 -0.003178 0.340453 0.071442 0.959297 -0.502353 0.430753 -0.815027 0.090561 -0.21985500000000002 0.131024 0.32975 -0.17002899999999999 0.151459 -0.200274 -0.356916 -0.541585 -0.784769 -0.074762 0.366344 0.406541 -0.395503 0.090729 -0.543507 0.07591400000000001 -0.456752 -0.43706100000000003 0.14782 -0.063493 -0.525738 0.549882 -0.243432 0.255493 -0.19164199999999998 -0.6382639999999999 0.265605 0.576249 -0.154592 0.42510000000000003 0.341787 0.0014119999999999688 -0.893172 -0.344783 -0.0034179999999999974 -0.460242 -0.358018 0.14095 -0.740416 -0.36101700000000003 0.13798999999999997 0.691164 0.244406 -0.239364 0.57253 -0.24493199999999998 -0.337157 0.109645 -0.875496 0.49309899999999995 0.020465999999999998 -0.27714 -0.19373600000000002 -0.022784 0.106948 -0.569409 0.01912899999999998 0.22237200000000001 0.468482 0.50451 -0.159575 0.507606 0.786877 -0.01727400000000001 0.119089 0.18183100000000002 -0.024306999999999995 -0.223715 0.807059 -0.32291000000000003 0.962707 0.231742 0.590341 -0.88034 -0.026392 -0.07783399999999999 -0.03931699999999999 0.40756800000000004 0.748634 -0.012991000000000003 -0.404671 -0.73568 -0.221107 0.632551 0.28841700000000003 -0.08157600000000001 -0.087802 -0.212728 0.525509 -0.381619 -0.50771 0.133743 0.051671999999999996 0.426842 0.265696 0.17384 0.49279 -0.535501 -0.33295 0.5982909999999999 0.6390349999999999 0.714474 -0.159747 0.128737 -0.326838 -0.298721 0.09817000000000001 -0.774901 -0.842638 -0.10315899999999997 -0.091832 0.005675999999999987 0.129767 -0.388312 -0.258676 -0.655833 -0.346503 -0.5932580000000001 -0.07078000000000001 0.881942 0.008224000000000009 0.27635 -0.6883360000000001 -0.240985 -0.7124400000000001 0.19002399999999997 0.221921 0.473504 0.429868 0.008638000000000007 0.27732 -1.068266 -0.172734 0.371053 0.14700099999999997 -0.206635 -0.10466500000000001 -0.47776399999999997 0.03495499999999999 -0.33944900000000006 0.43047599999999997 0.37781600000000004 0.123602 -0.9751029999999999 0.223099 -0.06527 -0.348304 0.5999049999999999 -0.24407600000000002 -0.423846 0.704298 0.077623 -0.502797 -0.06817299999999998 -0.411404 0.022646000000000013 0.469147 -0.699412 0.236131 0.460059 0.002235999999999988 -0.42095 -0.525503 -0.526239 0.6010329999999999 -0.173846 -0.09132700000000002 -0.16054600000000002 -0.441528 0.762652 -0.12448000000000001 0.058192999999999995 -0.12137299999999998 0.507662 0.063529 -0.007874000000000006 0.33974 0.416565 0.33719