heavyweights 0.128257 0.07010000000000001 -0.13346999999999998 0.341886 -0.417075 0.013840000000000005 0.192183 -0.380099 -0.246288 0.020809000000000022 0.039521999999999995 -0.304892 0.020573 0.070531 0.49269 0.11757700000000001 -0.537876 -0.05229500000000001 -0.44987299999999997 0.5280009999999999 -0.019778000000000004 0.05269300000000002 0.16040900000000002 0.573735 0.035192 0.005155999999999994 -0.085027 0.254316 0.23795499999999997 1.070968 -0.263199 -0.379986 0.09889899999999999 -0.115402 -0.370695 0.442208 0.0019470000000000043 0.133253 -0.23674299999999998 -0.134229 0.26831000000000005 -0.227651 -0.103356 -0.159588 -0.25791 0.897008 -0.170817 -0.032158 -0.25155500000000003 0.221507 0.17835499999999999 0.061735 -0.514857 0.274024 0.519303 -0.13573600000000002 0.22451000000000002 0.38061100000000003 0.016427999999999998 -0.005689 0.013827999999999993 0.23298 -0.15231399999999998 -0.264901 -0.34043199999999996 -0.540757 -0.385254 0.058543000000000005 -0.271376 0.676195 -0.062885 -0.105167 -0.24852100000000002 -0.033038 -0.268135 -0.249898 -0.194347 0.5158180000000001 0.46894199999999997 0.022736 0.7125509999999999 0.736146 -0.25864200000000004 0.115017 -0.225686 0.227161 -0.06516300000000001 0.217652 0.18002400000000002 -0.48345000000000005 0.06157 -0.609317 -0.29588400000000004 0.046719 0.05569000000000002 0.06810100000000001 -0.001374000000000014 -0.17087 -0.011735999999999996 0.25644900000000004 0.052464 0.072066 0.32016100000000003 0.007893000000000011 0.22369 -0.349031 0.457959 0.04277 0.602349 0.063126 0.341387 0.272557 0.05055799999999999 0.14987 0.246927 0.7005399999999999 -0.01872700000000002 0.012084999999999999 0.087628 -0.24875 1.1086070000000001 0.093278 -0.10592800000000001 0.04195599999999999 0.19405099999999997 -0.142845 0.09848299999999999 -0.08313700000000002 -0.016863999999999997 0.126095 -0.434689 -0.235724 -0.45196499999999995 0.09956399999999999 0.216018 -0.212988 -0.40290800000000004 0.02037999999999998 0.381301 -0.313643 -0.22842500000000002 -0.10639900000000001 0.031211999999999997 0.01815 0.30046700000000004 -0.106104 0.126 0.0024800000000000013 0.522302 -0.39080400000000004 -0.233931 0.00777499999999999 -0.389755 0.187657 0.035052 0.602062 -0.277891 -0.440312 -0.569419 -0.132877 -0.150773 0.012995000000000001 -3.067146 0.377606 -0.35593400000000003 0.9324589999999999 0.19481400000000001 -0.311392 0.205558 0.28924300000000003 0.180233 0.034807 0.05815500000000001 -0.579998 0.207754 -0.009546000000000013 0.362669 0.10092699999999999 -0.24947999999999998 0.38968800000000003 -0.163689 -0.402068 -0.0033080000000000054 0.017246999999999985 0.169578 -0.269468 -0.509712 0.374888 -0.315438 0.428477 0.03403800000000001 0.471449 0.337393 0.11646100000000001 -0.623944 -0.23448599999999997 -0.26087899999999997 0.197926 0.251118 -0.360692 0.54837 -0.754721 0.060221 -0.035564999999999986 0.448984 0.428122 -0.596584 -0.095242 0.194907 0.080095 -0.37938799999999995 0.39272 0.207307 0.367394 -0.027895000000000003 0.252303 0.145851 0.159212 0.260241 0.09607099999999999 0.08858500000000001 0.170817 -0.106869 -0.5042530000000001 0.587567 0.139216 -0.093867 -0.194789 0.8255269999999999 -0.076432 -0.090682 1.290058 0.239901 0.350546 -0.126356 -0.48608799999999996 -0.061516 0.35092500000000004 -0.07572799999999999 0.183984 -0.07579699999999999 -0.237307 0.135977 -0.82074 0.473434 -0.179468 -0.247197 -0.019119999999999998 -0.292721 0.0072379999999999944 -0.109367 -0.367869 0.12235000000000001 -0.258785 -0.15985700000000003 -0.370161 -0.032305 0.371144 -0.996219 -0.080127 0.305018 -0.174368 -0.747877 0.389469 0.32939799999999997 0.090734 -0.08772100000000001 -0.28685700000000003 0.05892 -0.067101 -0.189601 -0.5752900000000001 -0.143315 -0.686197 0.158777 -0.275342 -0.45464899999999997 -0.648525 0.17716700000000002 0.043715000000000004 -0.008543999999999996 -0.174798 -0.129361 0.19739199999999998 0.115191 0.233402 0.5827899999999999 0.452584 -0.266731 -0.769796 0.027427999999999994 -0.18634399999999998 0.16752499999999998 -0.118504 -0.294731 0.014314999999999994 0.429012 -0.118869 0.15787400000000001 0.241684