heavyweight -0.47070100000000004 -0.594545 0.240044 0.09273100000000001 -0.662356 0.06349400000000001 0.072507 -0.639773 0.31015600000000004 0.303944 -0.069631 -0.748085 0.480574 0.18237899999999999 0.021017 0.09716800000000002 0.31724800000000003 -0.251223 -0.141383 0.355068 -0.093659 0.34619900000000003 0.532054 0.887111 -0.004493000000000004 -0.453022 0.19703099999999998 0.0031990000000000005 0.640308 0.9502550000000001 -0.21612599999999998 0.035165 -0.020439 -0.389535 -0.206123 -0.30857100000000004 0.443874 0.284177 -0.29163300000000003 -0.038419 -0.12198300000000001 -0.116649 0.024912 0.08845700000000001 0.07722000000000001 0.312581 -0.153738 -0.578924 -0.067924 0.29984900000000003 -0.087287 -0.3758 -0.495033 0.383536 0.652343 0.055949 0.582123 0.41585099999999997 0.027999000000000003 -0.30349800000000005 -0.21962700000000002 0.702237 -0.557159 0.187887 -0.35505699999999996 -0.33040200000000003 -0.13037 0.031721 0.48799000000000003 0.795395 0.46391 -0.423138 0.12062999999999999 -0.18355 -0.20416700000000002 -0.151679 -0.199676 0.34144199999999997 -0.061902 0.565095 0.438697 0.572522 -0.509415 0.458078 -0.211632 -0.11794 0.511571 0.37445300000000004 0.552627 -0.358395 -0.135601 -0.192063 -0.200084 -0.254851 0.40331300000000003 0.31144099999999997 0.06939200000000001 0.230493 0.149948 0.188832 0.52947 -0.232966 0.664085 -0.215752 0.584434 -0.320913 0.277975 0.374388 0.814019 0.202545 -0.125141 -0.004008999999999999 -0.0010070000000000079 0.198942 0.08951799999999999 0.766112 -0.158231 -0.16421 -0.444723 0.057077 1.3879320000000002 0.371699 0.032657 -0.062458 0.429099 -0.145971 0.247572 0.290072 -0.531672 -0.11044799999999999 -0.784081 -0.30367999999999995 -0.909643 -0.332364 0.277226 -0.078572 -0.7134849999999999 0.342434 0.039262 0.269927 -0.353452 0.039584 -0.055258 -0.507748 0.453849 -0.556945 0.29942199999999997 0.18602000000000002 0.520069 -0.072471 0.015476999999999998 -0.0001229999999999981 -0.318319 -0.075341 0.214476 0.661763 0.05389999999999999 0.214597 -0.33649799999999996 -0.49439299999999997 -0.351685 -0.379117 -3.1804430000000004 0.002787999999999999 -0.173534 0.32203 0.09445 -0.509301 -0.194195 0.149642 0.419356 0.22792600000000002 0.021667 0.076048 -0.046853000000000006 -0.277902 0.030197 -0.529057 -0.293385 -0.174885 0.237188 0.038007999999999986 -0.495116 -0.12670299999999998 0.63824 -0.244118 -0.23986400000000002 -0.486051 0.28978400000000004 0.206657 0.539759 1.0570979999999999 0.237253 0.33025400000000005 -0.09243200000000001 -0.5146390000000001 -0.294799 -0.188829 0.5122519999999999 -0.621191 0.284184 -0.835465 0.530868 0.171111 0.274027 -0.375734 -0.49315 -0.211409 -0.38541000000000003 0.158053 -0.6000719999999999 0.6763870000000001 -0.00032700000000000784 0.337409 -0.586231 0.183231 0.260824 -0.025050999999999997 0.591988 -0.017308 0.22180899999999998 0.46326900000000004 -0.622591 -0.362712 1.273735 0.515737 -0.278164 -0.11015099999999997 0.333514 -0.24639699999999998 0.311942 1.722053 0.628735 0.23195000000000002 0.601206 -0.285539 0.059298 0.608792 0.14169199999999998 0.555617 -0.009333000000000001 -0.025408999999999987 0.41143799999999997 -0.50586 0.262922 -0.096526 -0.827175 0.213531 -0.05681399999999999 0.398928 0.29513900000000004 -0.09831000000000001 0.328786 0.30805 -0.504661 -0.493321 0.070432 0.162894 -0.7925819999999999 0.301998 0.456333 -0.069127 -0.300035 0.745071 0.20775100000000002 -0.101499 -0.388212 -0.358908 0.068193 -0.6255390000000001 0.05103 -0.7220010000000001 0.35703799999999997 -0.543642 0.330787 0.308791 -0.8258399999999999 -0.244593 0.492137 0.42054400000000003 -0.144852 -0.30822099999999997 0.09898299999999999 0.198199 -0.117002 0.412377 0.795461 0.744604 -0.40064 -0.888042 0.507467 -0.436117 0.594201 -0.561275 -0.518957 -0.296414 -0.22699 0.06249300000000001 -0.040047000000000006 0.471834