heightweight 0.08257000000000003 0.29090900000000003 0.43748200000000004 -0.597319 0.502067 -0.433657 0.643707 -0.386343 0.458433 -1.155778 -0.444225 -0.681929 0.25172799999999995 -0.32807 0.770518 -0.16350599999999998 -0.097955 0.47929299999999997 -0.14849800000000002 -0.472913 -0.40500500000000006 -0.324058 -0.091012 0.170344 0.5847659999999999 -0.079362 0.410366 -0.7000930000000001 0.175887 -0.553384 0.004118 0.7326630000000001 0.296971 -1.239289 -0.182587 0.5850059999999999 0.26632 0.27549599999999996 0.37151999999999996 0.233532 0.042069 -0.205298 -0.476302 -0.18168299999999998 -1.448544 -0.159981 -0.489363 0.7579579999999999 0.141299 -0.102938 0.087032 0.29262299999999997 -0.230837 0.533811 0.628153 0.413652 0.985599 1.160433 1.285415 1.578706 0.012920999999999995 0.251442 -1.209019 1.018979 -0.38340399999999997 0.412016 -0.111173 0.839305 -0.8984449999999999 -0.521212 0.638483 0.46953599999999995 0.46307 -0.370599 -0.08398600000000003 -0.461238 -0.068166 -0.142457 0.698075 0.466503 0.48833000000000004 -0.30205800000000005 0.12549500000000002 0.590911 -1.050719 0.685743 1.206964 -0.768391 0.521297 0.68052 0.77305 -0.050529 0.43248 -0.157612 -1.4823140000000001 0.82459 -0.486372 -0.15469899999999998 -0.515255 -0.066302 -0.6157170000000001 -0.10088200000000003 0.9561360000000001 -0.413219 0.33705399999999996 -0.09628200000000003 0.191371 1.045166 0.092625 -0.10955900000000002 0.054336999999999996 -1.3519450000000002 -0.5276190000000001 0.03359199999999998 0.239648 -0.549844 -0.15001899999999999 -0.5487190000000001 -0.768412 -0.506841 0.031031000000000003 0.18876300000000001 0.130078 0.03614899999999999 -0.640925 -0.202039 -0.528336 -0.570591 -0.540463 0.370652 0.007259999999999989 0.12524600000000002 -0.17395700000000003 0.13314600000000001 -0.09643 0.128827 -0.178752 -1.308862 0.240758 -0.240122 -1.057534 0.206071 -1.278738 0.181251 -0.18643700000000002 0.02174999999999999 1.317782 1.484022 -0.301852 1.623935 1.032826 0.06806100000000001 -0.09162799999999999 -0.779749 0.516213 -0.607449 0.5970160000000001 -0.305688 -0.355066 0.192959 0.36746999999999996 0.084268 -0.028273999999999994 0.026231000000000004 -0.75256 0.524631 -0.01251999999999999 -0.82649 0.479883 0.08080000000000004 0.10178000000000004 -0.6062179999999999 -0.870652 -0.650026 0.176197 2.124295 0.453785 -0.593292 -0.407797 -0.284762 -0.5648299999999999 -1.232281 -0.347846 0.858695 0.766133 0.850224 0.112633 -0.342439 0.397719 -0.489249 -0.088101 -0.31257500000000005 -0.19240000000000002 0.20708000000000001 0.44577 -0.326524 -0.775989 -0.22331099999999998 0.33499799999999996 0.230775 0.703072 0.37890599999999997 0.007420000000000003 -0.459173 0.482184 -0.021308999999999995 0.058096 -0.666998 -0.831902 -0.09660500000000002 0.14816300000000002 -0.10064700000000001 0.520138 -0.45051700000000006 -0.428698 -0.447367 0.63234 0.003951999999999983 -1.308957 0.671019 -0.524684 -1.7147549999999998 -0.323913 -0.47439000000000003 0.09569200000000003 -0.602927 0.372968 -0.03532400000000002 -0.673905 -0.6603650000000001 -0.101021 0.698549 0.278797 0.311806 -0.20001 -0.422357 -0.6862509999999999 0.517786 0.308805 0.29338200000000003 0.34534000000000004 0.70645 0.639341 0.14043100000000003 -0.12207599999999999 -0.598849 -0.076675 -0.561913 0.16402000000000003 0.1971 0.129808 0.5514760000000001 -0.9105810000000001 -0.547193 -0.24459999999999998 0.007516999999999996 -0.395092 0.915517 0.880447 0.447912 -0.842162 1.017404 0.597518 -0.304302 -1.0259019999999999 0.480353 -1.161842 -0.153902 -0.718213 -0.312165 -0.048479999999999995 0.26734399999999997 0.358543 0.392023 0.507615 -0.719139 0.277136 -0.226898 -0.03108099999999997 0.442795 -0.707813 0.94201 0.487137 0.257706 0.71512 -0.331383 -0.29276399999999997 -0.482633 0.5933 0.46646299999999996 0.26222 -0.049425 0.9388700000000001 0.885716 0.10460199999999999 -0.2091 -0.162692 0.088346 0.644486 -1.026772