highweight -0.04296 -0.163988 -0.24549900000000002 0.17985299999999999 -0.834314 -0.17620100000000005 -0.305502 0.41782400000000003 -0.817455 0.763818 0.762289 -0.455027 1.409642 0.07642299999999999 -1.143647 0.03904099999999999 -0.103188 -0.084062 0.376901 0.7511690000000001 0.351613 0.386077 0.48957100000000003 0.01746399999999998 0.10248099999999999 -0.85904 0.011911999999999999 1.327127 0.807009 -0.48798700000000006 0.059212000000000015 -0.398246 0.23474599999999998 -0.389483 0.921424 0.794686 0.929647 0.9094909999999999 0.5452239999999999 0.42934700000000003 -0.9612219999999999 0.260968 -0.144338 -0.11577600000000002 -0.032920000000000005 -0.36235500000000004 -0.842683 -0.800412 -0.156273 0.144099 1.053661 -0.476605 -0.222979 1.2586650000000001 -0.19148200000000004 0.745689 0.13286499999999996 -0.020506 0.297669 0.721233 -0.422132 0.19050899999999998 0.14498000000000003 0.496123 0.67436 -0.5662039999999999 0.657928 0.11513200000000001 -1.3813430000000002 0.5771999999999999 -0.603425 0.744884 0.0011280000000000179 -0.434473 -1.1924730000000001 -0.805923 0.14997499999999997 0.592046 0.542952 0.278861 -0.26298200000000005 0.11738000000000001 -0.552989 0.893065 -0.229916 1.0662260000000001 -0.412146 -0.179731 -0.07067499999999999 -0.461751 -0.547484 -0.120179 -0.287594 -0.677539 0.553384 -0.6222840000000001 0.499114 -0.283081 1.111863 0.153984 -0.8641949999999999 0.596058 0.984596 -0.733885 0.229324 0.21048 -0.08300000000000002 1.308176 0.059297 0.213593 -0.294134 0.732217 0.4247989999999999 0.909025 -0.533437 0.164335 -0.27924400000000005 -0.117619 -0.17392200000000002 0.6839569999999999 -0.168126 0.777632 0.05059199999999997 -0.38006500000000004 -0.79057 -0.7328250000000001 -0.15235700000000002 0.517298 -0.998216 0.179813 -0.402156 -0.279048 -0.290924 -0.6273880000000001 0.394551 -0.630648 -0.020418000000000006 0.609194 -0.038967 -0.747227 -0.0025300000000000045 1.786165 0.9297439999999999 -0.600938 1.01456 -0.015279999999999998 -0.34641900000000003 0.64685 1.471893 -0.032208 0.253488 0.06915900000000001 0.21128000000000002 -0.716502 0.102505 0.278275 -0.285002 0.103829 -1.11686 -0.46266799999999997 -0.382972 -0.240815 0.862725 -0.9375229999999999 -0.065715 0.04555899999999999 -0.7019219999999999 0.46031500000000003 0.416731 -0.913224 0.058246 -0.25156 -0.12552999999999997 0.162308 -0.359117 -0.571369 -0.687161 -0.24499899999999997 -0.10590699999999997 0.12187500000000001 0.361544 1.1293980000000001 0.011421999999999988 0.235934 0.582133 0.06704599999999997 -0.334955 0.749887 -0.109636 0.06351899999999999 0.10719400000000001 1.404598 0.7051419999999999 0.262552 0.07546900000000001 -0.32457800000000003 0.514756 0.198473 0.257761 -0.689408 -0.812226 0.260981 0.052063 0.17099400000000003 1.047281 0.221608 -0.655556 -0.24152399999999996 0.398369 0.07593699999999998 -0.06475800000000001 0.462333 -1.173717 -0.36335300000000004 0.11270799999999997 0.449907 0.28404399999999996 -1.073867 -0.07778999999999997 0.541963 -0.003578999999999999 -0.848293 -0.863213 -0.07624900000000001 0.43924399999999997 -0.271008 -0.831895 -0.341111 -0.565731 -0.8203579999999999 -0.535121 0.591976 -0.42559199999999997 -0.36759400000000003 -0.418521 -0.047896999999999995 0.667791 0.823571 -0.2915350000000001 0.119287 0.195227 0.256513 0.747952 -0.316339 -0.276798 -0.037203 -0.119382 0.358387 1.118106 0.265958 0.765097 0.358168 -0.430361 -0.508866 0.23371400000000003 1.062907 0.06839899999999999 0.254295 -0.787185 0.48144699999999996 -0.692842 -0.604417 -1.212032 -0.182423 -0.03326700000000002 -0.065721 -0.854463 0.26941099999999996 -0.10514 -0.010557000000000039 -0.05491299999999999 -0.557647 0.51081 -0.336125 0.37837600000000005 -0.07858699999999999 1.1160160000000001 0.478725 -0.630533 0.551777 -0.05532299999999998 -0.6524449999999999 -0.629146 0.379857 1.558631 0.807485 0.040852 -0.220559 0.18991499999999997 -0.530875 -0.36275899999999994 -0.266131 0.487081 0.232692 0.442871 0.546366 -0.542982 -0.34074 0.46443200000000007 -0.770437