https://www.reddit.com/r/bodyweightfitness/wiki/kb/recommended_routine -0.428871 0.755179 0.20366 -0.144559 -0.904165 -0.320229 0.05184999999999995 -0.621931 0.73733 -1.211374 0.788059 0.018084000000000003 0.80497 -0.609817 0.08796800000000002 0.2668 0.930916 -0.05804799999999999 1.162948 -0.6604329999999999 -0.033739000000000005 0.284126 0.13962600000000003 0.9695320000000001 -0.176908 0.352517 0.35606899999999997 -0.48153899999999994 -1.220722 -0.449737 0.7350110000000001 -0.682964 0.7702549999999999 -0.082976 0.322325 0.056726 0.21561599999999997 -0.433141 0.11271900000000001 -1.100131 0.002960000000000018 0.6807110000000001 0.804217 -0.154968 -1.422134 0.172603 -0.09945599999999993 -0.032310000000000005 -0.42880399999999996 0.6651940000000001 0.304214 -0.328698 0.996947 0.765895 -0.215943 -0.762651 0.9575720000000001 0.087261 0.510923 0.650953 0.737596 0.510301 0.551759 -0.20399099999999998 0.841858 1.014251 -0.597691 -0.6546719999999999 0.417362 0.728671 0.447136 -0.06144100000000002 0.24431799999999998 -0.574047 0.749518 -0.18069999999999997 0.24564499999999995 0.437183 0.342233 -1.524788 -0.279397 0.786679 0.740789 -0.8826609999999999 -0.015581999999999999 -1.0375290000000001 0.09163099999999999 -0.615071 -0.75833 0.709649 -0.600351 -0.511566 -0.689166 0.6335299999999999 0.42992400000000003 1.002968 0.21289600000000003 0.181427 -0.4551299999999999 -0.04175699999999999 -0.534437 0.7840469999999999 -0.077157 -0.096114 -0.417072 -0.316325 -0.20793299999999998 -0.16027000000000002 1.472275 -0.186075 0.484493 -0.6847449999999999 -0.514159 0.509185 0.6890239999999999 0.10855900000000002 -0.524967 -0.18213899999999997 -1.079919 -0.401569 0.958481 0.032805 0.28870300000000004 0.9205699999999999 0.463598 0.855544 -0.62015 -0.933942 -0.324431 0.126423 -0.19644999999999999 0.682821 0.203146 1.033229 0.30291500000000005 0.559408 -0.7358429999999999 0.592306 0.482082 -0.31800700000000004 -0.22852 -0.151879 0.07339699999999999 -0.8905890000000001 -0.6825220000000001 -1.336861 -0.042489 -0.20123500000000002 1.2524899999999999 -0.41289499999999996 1.031015 0.8368340000000001 -0.221671 -0.770146 -0.539859 0.689351 0.105958 -0.7803119999999999 -0.829665 0.25191399999999997 -0.558523 -0.364939 0.35047300000000003 0.492823 -1.103553 -0.037702 0.36160899999999996 -0.08756999999999998 -0.019353999999999996 -0.662184 0.35923700000000003 0.409832 0.019755999999999996 0.015106999999999982 1.295761 0.9922310000000001 0.484777 -0.222802 1.0926019999999999 0.21725999999999998 0.32332700000000003 0.96468 0.733632 0.190551 0.359083 -0.09631199999999995 -0.192463 0.688528 0.368675 -0.669211 0.342334 -0.117643 0.756688 0.824146 -0.015505999999999999 -0.405302 -1.3414890000000002 -0.430025 -1.6416650000000002 -0.10897799999999999 0.563037 -0.658605 0.595347 -0.209803 0.43612500000000004 -0.152529 -0.089783 0.23237800000000003 1.7491819999999998 -1.374974 -0.251728 0.072951 1.480442 -0.967571 0.9995470000000001 0.333845 0.192699 -0.196624 -0.432165 0.205117 -0.011796000000000001 -0.13494 0.300068 0.8966149999999999 0.15411000000000002 0.42832100000000006 -0.6283019999999999 -0.059787999999999994 -0.541262 2.841769 0.431519 -1.7122799999999998 -0.730425 0.31717300000000004 -0.5306649999999999 0.157906 -0.459276 -1.7079469999999999 0.716031 1.042305 -0.203181 -0.06048500000000001 -0.263567 0.003142000000000006 -0.323357 0.004621 1.061951 0.384031 0.790241 0.274976 -0.21873900000000002 0.6258429999999999 0.413409 -0.524389 0.41764999999999997 -0.2765699999999999 -0.013349 -0.34479699999999996 0.587993 -0.361804 -0.575851 1.557289 -0.47239200000000003 -0.26115499999999997 -0.23442499999999994 0.158806 -1.05134 0.803175 -0.398602 0.942005 -0.919535 0.7303649999999999 -0.145288 -0.05199200000000001 -0.818466 -0.8463609999999999 0.15078600000000003 0.819607 0.598843 -0.41242900000000005 -0.44294999999999995 -0.689723 -0.9643240000000001 0.5902620000000001 0.62221 -0.279326 0.313705 0.366655 0.796289 -1.015827 1.049588 -0.284857 -0.347692 0.40305199999999997 0.225556 -1.086635 -0.291497 0.60162 -0.638 -0.239814