http://en.wikipedia.org/wiki/confirmation_bias -0.9502189999999999 0.560828 -0.359468 0.020375000000000004 -0.29835900000000004 0.195608 -0.467964 -1.085544 1.119389 -1.994251 0.08706900000000001 0.21059699999999998 1.313194 -0.554435 -0.37643499999999996 -0.11316600000000002 0.410708 -0.953199 0.063854 -0.704678 0.401096 0.06958599999999998 -0.22951699999999997 0.77101 -0.431308 0.537224 0.7946949999999999 -0.28873 0.04133100000000001 -1.305464 -0.542055 0.5451090000000001 0.643003 -0.09451500000000002 -0.33224 0.400351 -0.581564 0.772067 0.157552 -1.2259250000000002 -0.367427 -0.017711000000000005 0.107287 0.15248499999999998 -0.247888 0.622106 0.73994 -0.506938 0.7861589999999999 0.384481 0.98126 -0.30974 1.28264 1.11525 0.08662599999999998 0.24803799999999998 0.952611 0.7710490000000001 -0.1365 -0.517611 -0.302564 -0.12043300000000001 1.256672 -1.183797 0.226909 1.4391820000000002 0.438251 -1.050768 0.947406 0.443483 1.525839 0.377806 0.024752999999999997 -0.491978 0.40006300000000006 -0.5094879999999999 -0.694459 0.089288 0.7898940000000001 -0.5529219999999999 0.48044200000000004 1.247862 1.340921 -0.21555800000000003 -0.25973100000000005 -0.443812 0.839781 -0.18742 -0.984529 0.8251729999999999 -0.157277 -0.18399900000000002 0.194166 1.345753 -0.04439399999999999 -0.7131850000000001 1.069836 0.510229 0.04652600000000001 -0.379533 -0.434075 0.6275010000000001 -0.03667300000000001 -1.1598519999999999 0.16544699999999996 -0.382524 -0.40735699999999997 0.948116 -0.817086 -0.286198 -0.613007 -0.40159500000000004 0.040322000000000024 0.721088 0.98987 -0.272676 -1.001231 -0.48033800000000004 -0.499448 -0.705437 -0.620699 0.012181999999999998 -0.323324 0.964399 1.066408 1.452502 0.31498000000000004 -0.797492 -0.21435200000000001 1.4388200000000002 -0.600354 0.344205 -0.081397 1.379136 0.292931 1.474957 -0.47568 0.206293 0.155369 -1.105487 -0.43293299999999996 0.17136500000000002 0.204553 -0.19627899999999998 -0.38479399999999997 0.498156 0.21004699999999998 -0.37723000000000007 0.860564 -0.680356 -0.132516 -0.14527900000000002 -0.713361 -0.25593499999999997 -0.5527839999999999 -0.02754899999999999 -0.083895 -0.366291 -0.036479000000000004 -0.185949 0.407588 -0.755281 -0.174439 0.695001 -0.761314 -0.30217499999999997 0.106149 -0.384156 -0.892902 0.072318 0.7172179999999999 -0.785716 -0.436633 0.793275 1.104433 0.092888 0.370067 -0.336821 0.09438399999999997 -0.967262 0.065521 0.725985 0.702781 -1.3242479999999999 0.43406900000000004 0.14558 0.069107 -0.554515 -0.352687 -0.549604 -0.268336 0.856097 1.168231 0.919341 -0.373556 -1.4332660000000002 -1.158553 0.045865 -1.411616 1.361536 0.30408199999999996 -1.188021 0.6322479999999999 0.218107 -0.524709 0.650836 0.426164 0.7684460000000001 0.780107 -1.649633 0.07453599999999999 -0.852149 0.8453890000000001 -0.410346 0.761693 -0.10267299999999999 0.402557 0.6624140000000001 0.087153 0.088576 -0.208355 -0.23084500000000002 -0.014869999999999994 1.133431 -0.715379 1.183915 -0.142488 0.7342310000000001 -0.715187 0.402855 1.001661 -1.209171 0.336175 -0.238432 -1.105434 1.420698 0.129073 -0.866803 0.33422700000000005 -0.572774 0.02323599999999998 0.08805299999999999 -0.07412600000000003 0.931318 -0.963203 -0.10749800000000001 0.9114599999999999 0.715158 1.282103 0.499224 -1.105513 -0.511835 -0.130134 0.057838999999999974 0.74209 0.676661 0.517479 1.013836 0.5384519999999999 -0.24668199999999998 -0.45836299999999996 0.65169 0.18638300000000002 -0.154185 -0.53865 -0.170037 -0.9712419999999999 0.482842 -0.226364 0.661235 -1.174655 0.222716 0.630089 -0.065473 -0.30992699999999995 -0.26487700000000003 -0.35566 -0.10253699999999999 -0.04890300000000003 -1.316258 0.641068 1.328813 -0.653201 0.5503089999999999 0.531063 -0.388895 -0.641418 -0.054124000000000005 1.004391 -1.425134 0.9541329999999999 -0.379775 0.021581000000000017 1.427659 -0.37864400000000004 -0.760248 -0.36925 0.426445 -0.373741 0.488411