hundredweights 0.30577 -1.2986179999999998 -0.497751 0.448753 0.31315499999999996 -1.686184 0.710171 -0.017202999999999996 1.5180660000000001 0.6203369999999999 0.698618 -0.930466 -0.701343 -0.200071 -0.598232 -0.21081899999999998 -0.288987 -1.031675 0.8423510000000001 0.049389000000000016 0.681457 -0.337511 0.405621 0.086459 -0.723077 -0.223205 0.430303 -0.680091 0.177971 -0.114157 -0.14900400000000003 -0.137957 0.79776 1.0290970000000002 -2.104424 0.109625 0.298573 0.30859 -0.18327700000000002 1.599269 -0.124211 -0.505335 0.35251200000000005 0.416321 0.32221900000000003 0.964774 0.197742 -0.133378 -0.022094000000000058 0.339318 0.319021 -0.434768 -0.43587699999999996 0.646512 -0.559296 -0.537357 1.016976 -0.09085199999999999 -0.927536 0.8506850000000001 0.3343290000000001 -0.09759600000000007 -0.282397 0.103787 0.2792410000000001 0.005064999999999986 -0.08677200000000002 1.119041 -0.22519599999999998 -0.060417 -0.346599 1.096088 0.48989099999999997 -1.116175 -0.38358400000000004 -0.006510999999999989 -0.8159130000000001 0.352909 0.03186899999999998 -0.948469 -0.10479100000000002 1.5332979999999998 -0.742973 1.043851 -0.555674 0.697201 -0.22084600000000001 0.16972900000000002 0.23689800000000003 -1.75801 0.116713 -0.656281 -0.10530699999999998 0.507475 -0.17894500000000002 0.5075 -1.515053 0.8559319999999999 -0.865829 0.09596000000000002 -0.05732000000000001 0.18426599999999999 0.058788999999999994 -0.029056999999999996 0.40381700000000004 0.207916 0.580133 -0.33180699999999996 0.39464999999999995 0.38809 0.167847 0.021430000000000005 -0.937027 -0.6164510000000001 0.5739289999999999 1.395559 0.797892 1.563619 -0.28164599999999995 -0.608664 -0.06563599999999997 0.73891 -0.272494 0.270551 -1.330277 0.068112 -0.061468 0.303201 -0.9959180000000001 0.8277939999999999 0.39111100000000004 0.465838 0.986162 0.345346 -1.887289 -1.071572 -0.82664 0.5150159999999999 -0.957827 0.05817099999999997 0.224075 0.34761200000000003 0.982328 -0.767785 -0.299329 -0.569798 0.489122 -0.24891199999999997 0.476149 -0.840975 -0.138187 -1.098443 0.7878959999999999 -0.28709799999999996 -0.11917499999999999 -0.180485 -0.49092399999999997 -1.147748 0.268853 -0.11229 1.1875570000000002 -0.18692600000000004 0.159462 0.342252 -1.236202 0.736664 1.4939419999999999 -0.061522999999999994 0.692825 -0.020578 -0.08471000000000001 1.000836 -0.858016 -0.066531 -0.11405799999999999 0.873786 0.905376 -0.23448 -0.328892 0.40947999999999996 -0.631259 -0.911844 0.043359999999999996 -0.6367389999999999 -0.8354159999999999 0.5894429999999999 -0.5891780000000001 -0.998703 0.7536609999999999 0.59172 -1.040012 1.367379 -0.725824 0.8293619999999999 -0.17475999999999997 -0.636734 -0.275799 0.280241 -0.01972099999999999 0.282971 -0.74165 0.7040630000000001 -0.436569 0.10052900000000001 0.19254300000000002 0.836371 -0.03723600000000002 1.26932 0.715324 -0.979499 0.04936499999999999 -0.22514599999999999 0.708343 -0.41870300000000005 0.7245570000000001 -0.375688 -0.6276349999999999 0.13445999999999997 -0.735313 0.6611159999999999 -1.265393 0.0009939999999999949 0.562727 0.896155 0.998612 -0.556254 1.120817 0.204012 -0.071095 0.325431 0.45316999999999996 0.17834 -0.829127 -0.18001899999999998 -0.241081 0.477315 -1.0153750000000001 -0.545769 -0.993359 -0.36341900000000005 0.46914799999999995 -0.09028999999999998 -0.600769 -0.134488 -0.652185 -1.215168 0.150069 -0.11066400000000001 -0.851748 -1.154537 -0.796484 -0.564741 -0.261517 0.224364 0.700311 0.31540599999999996 0.527119 0.094997 -0.393615 0.366374 0.427441 0.381975 -0.513344 -0.270359 -0.203133 0.5432800000000001 0.18261500000000003 -0.088082 0.004829000000000028 -0.21806999999999999 -0.701171 0.42206299999999997 0.578421 1.3534570000000001 -0.24946200000000002 0.712441 -1.8732320000000002 1.048387 -1.411191 0.695141 0.5339510000000001 0.038856999999999975 -1.049953 0.050292 0.09113299999999999 -0.9913049999999999 0.2503589999999999 0.248968 0.22065400000000002 -0.334376 0.375338 -0.513711 -0.20854 -0.12171799999999999 0.044159000000000004 0.6703870000000001 -0.579812 -0.295017 -0.730905 0.09959600000000002