hundredweight -0.408072 0.09007399999999999 0.10396099999999997 1.395709 0.464604 -0.187029 0.7134699999999999 0.778878 -0.56267 0.4009 1.3217020000000002 -0.585836 0.160843 -0.151254 0.22508299999999998 0.710118 0.800891 0.080587 -0.5758920000000001 1.1806839999999998 -0.21997900000000004 -0.666527 1.476329 0.32699 -0.30718599999999996 0.05379600000000001 0.45148900000000003 0.5488729999999999 -0.48578400000000005 -0.628277 -0.10198799999999997 0.103045 -0.228949 0.7606999999999999 -0.48889399999999994 0.623824 -0.7264010000000001 -0.971706 -0.342901 0.9946619999999999 0.328191 -0.458081 0.7681089999999999 -0.140146 -0.161692 0.43132899999999996 0.363884 0.38441000000000003 0.22785699999999998 0.852499 0.015473 -0.06689 -0.504299 0.316611 -0.83085 0.44172500000000015 0.834741 0.801814 0.636285 0.165628 -0.145312 -0.05538299999999999 0.320127 0.062805 0.016104999999999994 0.350526 0.741085 0.9414440000000001 -0.26671700000000004 0.411084 1.050004 -0.11637999999999998 0.301137 -1.46451 0.121714 -0.540603 0.07725300000000002 0.7085060000000001 0.661056 0.47662199999999993 0.152945 -0.452393 -0.613824 0.449542 -0.8505609999999999 0.18907799999999997 -0.613292 0.291317 1.305701 -0.729408 0.608993 -1.146882 0.35352300000000003 -0.48190099999999997 0.08363599999999999 0.232203 -0.913456 -0.140191 -0.33082700000000004 -0.446006 -0.414811 0.243125 0.7002839999999999 0.434017 -0.03602899999999999 0.177402 -0.27243000000000006 0.19097599999999998 -0.584896 0.06890299999999999 -0.21360300000000004 0.345478 -1.0846200000000001 -0.749335 0.01728099999999999 1.2517550000000002 0.696885 0.95236 -1.031828 0.467493 0.61746 0.8989069999999999 -0.13881300000000002 0.037886 -0.133368 0.080506 -0.111112 -0.119731 -0.807718 1.017587 0.09052300000000002 0.298025 -0.867285 0.535469 -0.803498 -0.719021 -0.658697 0.46643100000000004 -0.10394199999999999 -0.56072 -0.8723239999999999 1.659598 -0.03473 0.37922100000000003 0.751517 0.24839399999999995 0.42343300000000006 -0.192927 0.489272 0.448867 -0.106273 0.830703 0.489318 0.666168 0.50543 0.805307 0.468865 0.692667 -0.647332 0.7964390000000001 -0.756953 -0.44129300000000005 -2.337849 0.886549 0.430875 0.161521 0.07430599999999998 0.503661 -0.007481999999999989 0.422456 -0.14286 0.46317699999999995 0.21913300000000002 -0.285624 0.276413 0.42541400000000007 1.006492 0.462518 -0.524718 0.14433000000000007 -1.4021590000000002 0.29708 -0.646457 -2.0386290000000002 -0.12845799999999996 1.328141 0.677953 0.022239000000000002 0.552021 -0.04111899999999999 -0.720225 -0.02390199999999998 0.153207 -0.18575799999999998 -0.365875 -0.20082799999999998 -0.165804 1.044287 -0.571686 0.027639999999999998 -1.8208250000000001 0.346051 0.121818 0.545122 0.6509199999999999 -1.014805 0.507597 0.279471 0.345139 -0.185459 -0.76224 2.473661 0.89947 -0.624112 -0.262257 -0.999143 -0.217991 1.0691149999999998 -1.198313 0.32031200000000004 -0.331795 0.28578899999999996 -0.47948599999999997 1.03619 1.623285 -1.22761 -0.859165 -0.06521199999999994 0.7477560000000001 -0.763131 -1.064521 2.225404 -0.411252 -0.9896590000000001 1.223782 0.357101 0.07349100000000008 1.577393 -1.2101169999999999 0.387704 0.288885 0.044194 -1.007259 0.833964 -0.11003700000000002 0.093654 -0.260577 1.0405760000000002 -0.503556 -0.053223999999999994 -0.9525189999999999 -0.179556 -0.360827 0.015242999999999979 0.8666729999999999 0.351556 1.187438 -1.228396 -0.832989 -0.997057 0.992596 -0.571528 -0.186496 -0.35291600000000006 0.44595500000000005 0.08654499999999998 0.6274500000000001 0.110619 0.5567960000000001 -0.542541 -0.612539 -0.540807 0.266185 -0.10462300000000001 -0.8988 0.16342299999999998 -1.007002 1.2856589999999999 -1.574978 0.02443899999999999 0.044835999999999994 0.783866 -0.8043 -0.443333 0.085331 -0.9897849999999999 0.574746 0.09209600000000001 0.853314 -0.205487 0.20114600000000002 0.284845 0.840032 -0.870063 -0.037161000000000007 -0.07184 -1.1650230000000001 0.43975000000000003 -0.655675 -0.17357199999999998