journalweight 0.781944 0.44926699999999997 0.482942 -1.759431 0.398034 -0.659235 0.24456100000000003 -2.452224 -0.12184099999999987 1.9591410000000002 1.192444 0.76371 -1.5764790000000002 3.2261819999999997 -2.954066 -1.091945 -0.561665 -0.151135 -0.569059 -0.10890200000000005 -0.43814 -0.9143580000000001 1.856465 -1.847785 3.8745320000000003 -2.830357 -2.579954 -0.650477 -2.3671699999999998 0.07543900000000003 0.3539779999999999 0.802081 -0.05387099999999999 0.16213000000000002 0.767023 2.378218 1.062406 -0.533566 1.025775 -0.14361400000000002 0.5422739999999999 -0.291712 1.0684230000000001 -0.303921 -1.5883429999999998 -0.19368200000000013 1.450195 -0.740921 1.263129 -0.43903400000000004 -0.42713200000000007 -0.18147900000000003 -2.180478 1.612427 0.298832 -0.718997 -1.9660639999999998 0.6691169999999999 1.051013 0.7713240000000001 0.574975 -2.318506 -0.10810899999999996 3.637879 -0.21490199999999993 3.03606 0.20831299999999997 -2.4668 0.38642 -3.0304659999999997 0.586912 0.01883800000000002 0.28847 1.6222820000000002 0.562082 -1.196755 -1.2843879999999999 -0.5120800000000001 -1.350279 0.458712 -2.5541620000000003 2.746147 -0.83752 -0.20212100000000002 -0.544005 0.582851 1.858281 -0.261801 -0.363935 -1.929401 -0.238738 2.776549 0.8445479999999999 -0.134908 0.6711719999999999 0.8654919999999999 1.6166179999999999 0.558764 0.725951 0.6787989999999999 0.616921 -1.811623 -0.885999 2.4866070000000002 -0.030245000000000008 2.185486 0.30761000000000005 1.1917470000000001 1.0808659999999999 -0.800387 2.788864 0.10915299999999983 3.953753 1.3231319999999998 0.347971 -1.262254 0.504828 1.0556480000000001 0.09433200000000003 -1.2202060000000001 -0.7699900000000001 0.024874000000000007 1.5068030000000001 -0.7586179999999999 -0.6738290000000001 -0.486109 0.529874 1.159614 -0.71005 1.465208 -3.250887 0.458878 0.802224 -2.1062469999999998 -3.6466769999999995 -2.8137280000000002 -0.061264 2.458291 -1.698204 -0.46148700000000004 1.857426 0.949984 -2.387632 -1.975292 -2.91622 -0.870938 0.6750530000000001 -0.40463000000000005 0.432853 -0.43596499999999994 1.3907150000000001 -0.508847 2.470643 -0.05293799999999993 -2.675064 -1.048008 -0.029936000000000018 0.36025799999999997 1.760751 2.278821 1.254744 -0.872193 3.372673 -0.43629799999999996 -0.489304 0.063558 -3.5708979999999997 -3.7125120000000003 0.550223 -1.363712 0.815723 -0.30872599999999994 0.5582509999999999 -1.1191090000000001 0.563822 -0.746913 1.315243 0.03229900000000002 -0.49279000000000006 0.557826 0.40858700000000003 -0.5915420000000002 0.75607 0.58116 2.694947 -0.22262700000000002 -1.6582180000000002 -1.926993 -0.6586799999999999 3.141056 -0.593457 -0.30149899999999996 3.988661 -3.3349480000000002 1.483352 1.026422 -0.545129 -0.368519 -0.671409 -0.214426 -0.989993 -0.653447 0.894884 1.318721 -0.010623999999999967 0.771426 -1.133931 -0.825776 -2.501827 1.8111760000000001 1.053291 -2.321809 0.237782 -0.600895 3.793139 1.3149549999999999 0.6339159999999999 -0.990746 -2.602697 2.16345 0.33891099999999996 1.101394 3.715462 -1.000456 -2.758725 -0.605687 2.4878500000000003 0.5614549999999999 -1.9707309999999998 -0.325222 1.2327460000000001 -0.35879999999999995 -2.074326 0.8059000000000001 -0.875021 -0.969028 0.08673399999999987 -0.509891 0.44819599999999993 -0.31997600000000004 0.454285 0.6936820000000001 -0.6773929999999999 1.114201 -0.654582 1.122498 1.355341 -0.625401 2.621324 1.2591649999999999 0.7294900000000001 1.098395 3.190598 -1.038551 -0.364594 -0.24838000000000005 -0.43091199999999996 -1.408201 1.7105839999999999 -0.5450480000000001 1.02205 -0.524588 1.199239 -0.321711 0.9728469999999999 0.17173400000000005 0.939014 1.833614 2.926324 -1.329318 0.811762 -4.438489000000001 1.530411 -5.795349 0.460304 -2.389154 0.729385 -0.7170219999999999 0.474225 -2.31191 1.062428 -0.35602900000000004 0.3163480000000001 -1.015267 -0.39622900000000005 0.1959669999999999 2.529979 2.791769 0.875699 -0.5595589999999999 1.494964 -0.9827100000000001 -0.8206229999999999 0.26181599999999994 -0.8684609999999999 0.594089 1.366198 -0.566024 1.672784 -1.8239489999999998