kerbweight 0.069517 0.565129 -0.480889 0.7140489999999999 -0.06920700000000002 -0.595238 -0.018910999999999997 0.18790400000000002 -1.2798379999999998 -0.171973 0.532631 0.044396000000000005 0.146922 0.037809 0.186488 -0.340585 0.148417 -0.6477360000000001 0.621595 0.369664 -0.786054 -0.754643 -0.7621600000000001 0.157681 0.165246 0.11148000000000002 -0.603071 0.104114 -0.122271 0.325376 -0.26678100000000005 0.637597 -0.480074 -0.852346 -0.30068799999999996 -0.294188 -0.387482 0.06446400000000001 -0.6508830000000001 0.593981 0.112162 -0.512621 -0.465575 0.04753000000000002 -0.493906 -0.27266 0.704221 0.961967 0.34864900000000004 -0.270613 -0.23626 1.434626 0.515972 0.611571 -0.017004999999999992 0.201436 -0.463418 0.666131 0.314642 0.103611 -0.322422 -0.43102 0.14472100000000002 0.277092 -0.021531 0.882105 0.34732300000000005 0.13572800000000002 0.55028 0.017105 0.06295499999999998 0.007997000000000004 0.194198 -0.211134 -0.5207259999999999 0.261587 0.21256199999999997 0.5306040000000001 -0.41472 0.870746 0.47624999999999995 0.075681 -0.262516 0.224033 0.619979 -0.511182 0.468671 -0.18647 0.805979 0.139149 -0.056439 0.814341 0.029916000000000005 0.06130199999999998 0.372465 -0.080108 -0.256922 -0.422833 0.282053 -0.6993929999999999 -0.11343 -0.015840999999999994 0.0995 -0.473093 0.029432 -0.540765 1.010825 0.735363 -0.11464599999999997 0.45730000000000004 0.011465000000000003 0.338863 0.11812599999999998 -0.21190000000000003 0.329108 0.02490300000000001 0.236985 -0.018355999999999983 -0.284274 0.47507 0.127152 0.658987 0.455722 -0.786301 -0.045291 0.112519 0.294474 0.7544489999999999 0.137983 0.38665499999999997 -0.312741 0.754185 0.434616 -0.02011300000000002 -0.212832 -0.057600999999999986 -0.164249 0.6413230000000001 0.547253 -0.09366699999999997 0.31527700000000003 -0.938207 -0.420632 0.6940930000000001 -0.054268 -0.470843 0.552214 0.24948400000000004 0.6627190000000001 0.614161 0.148666 0.567489 -0.329007 0.05376399999999998 0.461785 -0.009420999999999999 -0.124741 -0.362832 -0.22297799999999998 -0.47687199999999996 0.353044 -0.61757 -0.18951400000000002 -0.37925000000000003 -0.27010500000000004 0.983312 0.008583000000000007 0.222304 0.103701 0.11404900000000001 0.541631 0.15425699999999998 0.176747 -0.128803 0.7427229999999999 -0.6304420000000001 0.251238 -1.03572 0.05172700000000001 -0.316604 -0.549758 0.334183 -0.776839 -0.466258 0.668499 0.27758400000000005 0.202192 -0.862897 0.659385 -0.08058699999999999 0.680015 0.586482 0.027347000000000003 0.938195 0.819777 0.525 0.324361 -0.6244999999999999 -0.329767 -0.37281400000000003 -0.539126 -0.054669999999999996 -0.669281 -0.32166500000000003 0.11939 -0.397915 -0.14348199999999997 -0.09179300000000001 -0.567772 -0.28019900000000003 -0.15202800000000002 0.8549329999999999 -0.257289 -0.379298 0.308621 -0.553888 0.682883 0.754763 0.11761100000000001 1.019117 0.40071999999999997 0.566064 0.193425 0.35552 1.526235 -0.23991500000000004 -0.754699 0.13321999999999998 -0.10542099999999999 -0.7604949999999999 -0.223236 0.22085000000000002 0.452168 -0.024307000000000002 -0.022091 -0.045399999999999996 -0.9263509999999999 0.021253999999999995 -0.530725 0.693204 0.474364 -0.459935 0.27846499999999996 0.456044 -0.03990199999999999 0.287999 0.550716 0.343918 -0.17931999999999998 -0.608118 -0.03950000000000001 -0.10992299999999999 -0.459056 -0.765141 0.599952 0.718486 0.353205 -0.499329 -0.10339600000000002 0.47448 0.10530400000000001 -0.51771 -0.5339689999999999 0.327544 0.20676899999999998 -0.078793 -0.850734 -0.164828 0.323441 0.294766 0.23714500000000005 -0.40303700000000003 -0.375441 0.001560999999999979 -0.41088199999999997 0.5819369999999999 0.23912099999999997 0.291517 -0.315317 0.09498200000000001 -0.571812 0.428644 -0.725508 0.355381 0.31104699999999996 0.22152599999999997 -0.241842 -0.006067000000000045 0.540574 0.109812 -0.302369 0.254935 0.50943 0.180735 -0.960954 0.065729 -0.6065590000000001 -0.0065920000000000145 -0.23354499999999997 0.480498