laceweight -2.133224 0.058223000000000025 0.7119500000000001 2.185709 0.15519799999999995 -0.427529 -0.37421399999999994 -1.1935769999999999 -0.242848 2.337894 0.28941000000000006 0.78576 -0.390012 0.641259 1.450477 -0.962157 -0.276672 1.3761619999999999 -0.0006770000000000387 0.19947900000000007 0.6390009999999999 -2.298324 0.4400559999999999 1.766669 -1.111366 -0.12051400000000001 -1.817355 -2.718198 -0.817012 -0.031761 0.575637 0.48540900000000003 -0.815357 -0.858025 0.409488 0.39427 1.062561 0.435802 -0.452806 2.7714429999999997 -1.1837630000000001 -0.8588850000000001 -0.03612100000000007 1.257776 0.2666759999999999 1.039903 -0.83194 -1.223119 -2.014143 -0.07884200000000001 0.322948 1.859096 1.079673 2.213393 -1.022505 1.0788389999999999 -1.981144 -0.7031559999999999 1.660241 3.189495 0.259301 -1.741563 -0.615032 -1.019699 2.09026 0.7251340000000001 -0.419756 0.865332 -1.0822059999999998 -0.483954 0.917371 1.522313 -0.23208699999999993 0.17947000000000002 1.3914780000000002 1.0356940000000001 1.031201 0.05451399999999995 1.466682 0.634736 -1.2959930000000002 0.143938 -1.326638 -0.47809799999999997 -1.771751 0.06168000000000001 -0.25798399999999994 1.890918 0.270733 -0.198164 1.047091 -0.09608400000000006 -0.598127 -1.610843 2.986516 0.529961 -1.030872 0.43592999999999993 -0.930062 2.290862 2.119832 0.14658499999999997 0.69153 -0.886069 2.272981 -0.08952700000000002 -0.464266 -0.992383 -1.2732 1.468941 -0.7223499999999998 -0.585328 0.481471 -0.9310160000000001 0.824757 1.316508 -0.45664 0.338658 -0.8862350000000001 0.04900199999999999 -0.307713 -1.55853 -0.621146 0.098497 -0.494577 0.5323599999999999 -2.5772269999999997 0.21743600000000002 -1.643197 1.7896800000000002 1.194561 2.476708 1.254673 -0.638976 -1.220647 0.2212130000000001 0.368759 1.716758 -0.3796029999999999 1.910083 -1.6300459999999999 -0.695523 -0.506654 0.775498 -0.34847799999999995 -1.011668 1.1545330000000003 -0.8402810000000001 1.1072760000000001 -0.29684499999999997 1.573801 0.69041 -0.747372 0.389076 1.019304 -0.2464240000000001 -1.092212 2.755941 0.37251499999999993 -0.766379 1.192799 0.006460000000000021 0.257778 -0.182904 1.039192 -0.3788290000000001 -0.33002599999999993 -1.813966 2.561264 2.177577 -0.41426399999999997 1.703276 -1.181201 0.8115669999999999 -0.475815 1.2288160000000001 0.9743409999999999 -0.413706 0.06966099999999997 -0.47928899999999997 1.185627 -1.185815 1.947409 -1.0613709999999998 0.432643 3.2184470000000003 0.08203899999999997 -1.4098609999999998 -0.64493 -2.496722 -2.285223 -0.08446999999999999 0.378769 -0.561958 0.275282 3.0553980000000003 1.4796529999999999 -1.412027 -0.29476899999999995 0.6492139999999997 -2.0653870000000003 -0.26848200000000005 -0.728655 1.085588 -0.5865819999999999 1.272904 -0.947866 0.048475999999999964 -0.276752 -0.141803 1.4487050000000001 1.7396029999999998 0.343986 -0.19509700000000008 -0.287131 0.567438 0.40938 -0.6975530000000001 -0.42685300000000004 3.017293 1.228518 0.283488 1.759907 2.732085 2.851662 -1.373527 -1.112803 -0.43031600000000014 -0.333563 1.411349 -0.06404300000000002 0.756208 1.289444 1.2275690000000001 0.116485 2.14533 1.447118 -1.396324 1.2531759999999998 0.7117020000000001 2.614921 1.621091 0.28775799999999996 0.034389999999999976 0.18865700000000007 -1.266662 -0.0071269999999999945 2.597593 0.138068 -0.602471 -1.105189 1.325609 0.49933599999999995 0.192411 1.17924 0.36731 0.40725599999999995 0.464294 -0.45067500000000005 1.371123 1.223202 -0.14053800000000005 1.41629 0.8155950000000001 1.514702 -1.2721969999999998 -0.229338 -0.40684300000000007 -2.0472900000000003 -3.178655 -1.759711 0.739717 0.344975 -1.355149 0.883845 -1.339715 2.228951 0.07928100000000005 1.237844 0.0005980000000000013 0.524232 0.441598 3.42377 0.161027 0.15175799999999995 -1.2726549999999999 -0.210345 -0.7680819999999999 -2.040335 -0.893109 -1.6713559999999998 -0.0018400000000000083 -0.5591299999999999 2.210353 1.054904 -1.8488030000000002 -1.2578870000000002 -1.116464 0.08894000000000002 0.14396100000000006