leightweight -0.244591 0.040246000000000004 -0.19343100000000002 -0.7683 0.41981 0.174242 0.19486 0.194191 -0.174755 0.167997 0.16075299999999998 -0.15606000000000003 -0.12290899999999999 0.078804 -0.14924300000000001 0.22078399999999998 -0.04765 0.237466 -0.181109 -0.336663 -0.309131 -0.13546600000000003 -0.260911 0.269314 0.74114 -0.031020999999999993 -0.33569099999999996 -0.324013 0.255903 0.32302200000000003 -0.389095 0.558759 -0.02530700000000001 -0.045009 -0.413625 0.535295 0.294492 0.028071999999999986 0.016199999999999992 0.665338 0.517683 0.5802839999999999 0.13625700000000002 0.5471509999999999 -0.476869 -0.440463 -0.26855 0.109389 -0.08393 0.033748 -0.213829 -0.641924 -0.33152 0.08792899999999992 -0.449014 0.017956 -0.08032800000000001 0.177183 0.027341000000000004 0.285863 -0.059317 -0.390736 -0.48836199999999996 0.084375 -0.5117499999999999 0.475605 0.079994 -0.10409399999999999 -0.07828399999999999 0.247464 0.565681 -0.452221 0.046814 0.338441 0.040218 0.122284 -0.032053000000000026 0.262596 0.097418 0.39591 -0.40420700000000004 0.328962 -0.009161000000000002 -0.10478699999999999 -0.570641 0.344162 0.26127 -0.432919 0.190006 -0.261025 -0.08886 0.148679 0.098382 0.403005 0.626018 0.013876 -0.011129 -0.16642 -0.765966 -0.051904000000000006 -0.959085 0.537601 0.407898 0.7017519999999999 0.11073499999999999 0.587872 0.05825400000000001 0.286063 0.005878000000000005 0.552997 -0.642842 -0.23331900000000003 -0.470985 0.28713700000000003 0.194755 0.18101299999999998 -0.324859 -0.218128 -0.6574679999999999 -0.148341 -0.184791 0.17408800000000002 -0.015302 -0.156862 -0.602752 0.34253100000000003 -0.485274 0.5668519999999999 -0.14019399999999999 0.564909 0.052733 0.031308 -0.05940599999999999 -0.23436699999999996 -0.264266 0.119517 0.636287 0.216015 -0.11472600000000001 0.381418 -0.045621 0.568592 -0.330695 0.261946 -0.34475800000000006 -0.03863900000000001 0.588877 -0.104377 -0.482538 0.621842 0.26229399999999997 0.281046 0.343057 -0.096082 0.303718 -0.905051 0.388698 -0.126246 0.31423900000000005 0.03693800000000001 -0.22836299999999998 -0.254919 -0.160134 -0.49305200000000005 -0.17681800000000003 0.575286 0.004466999999999999 -0.25410099999999997 0.619236 -0.31505099999999997 0.333146 -0.014693999999999999 -0.402329 0.09530000000000001 -0.543189 0.358208 0.729478 -0.389551 -0.47705400000000003 0.49591900000000005 -0.541578 -0.08654700000000001 -0.7340709999999999 0.481165 0.085738 0.49517599999999995 0.36435199999999995 -0.46197800000000006 -0.27804500000000004 -0.325094 0.08318099999999999 0.6180490000000001 -0.6946 -0.133528 -0.5159170000000001 -0.005473999999999993 -0.408135 -0.6231340000000001 0.030203 -0.05880700000000001 -0.494467 -0.10499999999999998 -0.18263800000000002 -0.15922 -0.19463599999999998 -0.8932070000000001 -0.580817 0.406617 -0.453719 -0.031444000000000014 0.43422499999999997 -0.450725 0.238387 -0.008655999999999997 -0.061876 -0.425373 0.8845620000000001 -0.035595000000000016 0.042143 0.8952840000000001 -0.130037 0.21301299999999998 0.41677 -0.5909869999999999 0.216727 -0.017817000000000006 -0.299214 -0.772637 -0.652507 -0.8617239999999999 0.179368 0.7844369999999999 0.411847 0.547069 0.23796699999999998 -0.286964 -1.040784 0.5266460000000001 -0.24724000000000002 0.366607 0.149843 0.215149 0.27425299999999997 -0.650246 0.07627 -0.261173 0.487143 -0.410535 -0.126242 -0.031835 0.07469600000000001 0.125585 -0.12791699999999998 0.5961160000000001 -0.17552500000000001 -0.247199 0.14460199999999998 -0.11086 -0.30887 0.736224 0.194857 -0.46320300000000003 -0.0033490000000000048 -0.12353199999999998 0.18440599999999996 0.153694 -1.373212 -0.04089899999999999 0.04128799999999999 0.731498 -0.393217 0.614966 0.343578 0.52521 0.234918 0.360255 -0.670828 -0.141903 -0.409895 -0.546412 0.346054 -0.596677 -0.280841 0.47401499999999996 -0.10817199999999999 -0.235786 0.40681599999999996 -0.279405 0.018364999999999992 -0.33184 0.434349 -0.29885799999999996 0.307181 -0.43809 -0.355045 0.639357 0.34542599999999996 0.34814500000000004 0.16958499999999999 0.20807199999999998