lightweightness 0.18585400000000002 0.177096 0.061420999999999996 -0.343407 0.265926 0.8169219999999999 0.608807 -0.698883 -0.514196 0.468886 -0.607199 -0.517581 -0.009379000000000026 0.23343100000000003 -0.494653 0.635157 0.030005000000000004 0.269098 -0.06534000000000001 -0.582855 -0.124892 0.085091 -0.318269 -0.476092 0.0061159999999999964 0.261882 0.153502 -0.15430899999999997 0.502053 0.129717 0.305718 -0.8618319999999999 -0.075032 0.07755100000000004 -1.113727 -0.587592 0.059213 -0.21943200000000002 -0.348889 0.538204 0.22575299999999998 -0.035342 0.24669200000000002 -0.39982700000000004 0.369492 -0.13491399999999998 0.168306 0.8449340000000001 -0.380474 -0.018006999999999995 -0.439798 -0.09839999999999999 -0.361654 -0.025279000000000024 0.21364899999999998 0.496064 0.088935 -0.21402200000000002 0.415827 0.06078400000000003 0.618652 -0.228487 -0.10599599999999999 0.0059039999999999995 -0.464114 0.180169 0.523547 0.538313 -0.19177300000000003 0.400733 -0.0013340000000000019 -0.49006 -0.207644 -0.527414 0.396279 0.357944 0.33754 0.294177 -0.11302699999999999 -0.16564800000000002 0.020773 0.097635 0.132766 -0.36534 -0.8194589999999999 0.43209600000000004 -0.133766 0.022733000000000003 0.349756 -0.30276899999999995 -0.21746900000000002 -0.68476 -0.132622 -0.16104200000000002 0.533427 0.167027 -0.24698399999999998 0.41819900000000004 -0.329137 -0.853458 0.223871 -0.074774 -0.258567 -0.036196 0.47396900000000003 0.30326699999999995 0.09473400000000001 -0.44122300000000003 0.21654900000000002 0.17088799999999998 -0.16363700000000003 -0.108147 0.309987 0.643481 0.035322 0.496078 -0.389404 -0.6864650000000001 -0.500779 -0.365356 -0.406053 0.179313 -0.26974 -0.32612399999999997 -0.142544 0.40062299999999995 0.047218 0.547806 -0.8799939999999999 -0.142971 -1.231716 0.193906 0.114147 0.527481 0.568967 0.881122 -0.037823999999999997 -0.294043 0.673714 0.13645900000000005 0.312839 -0.323041 -0.540602 -0.365178 0.241099 0.493532 0.114064 -0.391027 0.026521000000000017 0.030120000000000008 -0.022689000000000015 1.052171 -0.410626 0.77074 0.529422 -0.33032300000000003 -0.168539 0.316619 0.07023499999999999 -0.135666 0.09220500000000001 -0.6047720000000001 0.202232 0.228324 0.421306 0.315246 -0.7797160000000001 -0.03969199999999999 0.244189 0.12388400000000001 0.142233 -0.181773 -0.503512 0.49122299999999997 0.19245 0.029709000000000013 0.334496 -0.093918 0.321338 -0.036407 -0.802088 0.30587200000000003 -0.12976899999999997 -0.018452999999999997 -0.481912 -0.519796 0.35674 -0.03548 -0.619095 0.399301 0.02753300000000003 0.32131699999999996 -0.258515 0.506796 0.13451500000000002 -0.501186 0.098974 -0.563051 -0.46999799999999997 -0.448666 -0.6051759999999999 0.191258 0.32846200000000003 -0.641889 0.5681350000000001 -0.021957000000000004 -0.33403499999999997 -0.801576 0.276528 -0.518957 0.128152 -0.6917099999999999 -0.006309999999999982 -0.373784 -0.179672 -1.107396 0.433319 0.214579 -0.05896000000000001 -0.19328499999999998 0.198179 0.299079 0.31971 0.174085 0.415397 0.9750669999999999 -0.223834 -0.06706300000000001 0.17660700000000001 -0.851972 -0.24394800000000003 -0.34672000000000003 0.119536 0.329883 0.260547 -0.184644 -0.12127500000000001 0.24940400000000001 0.37861 -0.24052500000000002 0.324912 -0.552849 0.165626 0.445343 0.064735 0.197927 -0.44060200000000005 -0.11965600000000001 0.11753 -0.615109 0.019552 0.16053800000000001 -0.04004699999999999 -0.106208 -0.9569670000000001 -0.499254 -0.963755 -0.138101 -0.8683799999999999 0.769299 0.9424250000000001 0.348399 0.33699 -0.316982 -0.18272 -0.507969 0.20210299999999998 0.146594 0.102323 -0.06153900000000001 -0.283721 -0.145204 -0.263384 -0.14765799999999998 0.045176999999999995 -0.171792 -0.14453600000000003 -0.653964 -0.771085 0.518733 0.165851 0.424223 0.20155099999999998 0.135985 -0.520567 -0.6998949999999999 0.6071059999999999 0.614895 0.15611 0.729176 0.346389 0.551577 0.778752 0.393801 0.17171200000000003 -0.33230200000000004 0.278304 -0.310317 -0.060198 -0.24963199999999997