lightweights 0.258121 0.19556099999999998 0.38998099999999997 0.26814899999999997 -0.066012 0.08104599999999999 -0.068563 -0.49914200000000003 -0.157804 0.196237 0.311985 -0.424725 0.263591 -0.137666 -0.092083 0.14140599999999998 -0.365758 0.07999400000000001 -0.22219 0.213102 -0.10719400000000001 0.25441600000000003 -0.094503 0.6873180000000001 0.308551 0.04830200000000001 0.173607 0.17944899999999997 0.13015 0.125386 -0.473238 -0.288172 0.314064 0.007771 -0.397878 0.27104300000000003 0.226908 0.29886100000000004 -0.529799 0.5714 0.34756699999999996 -0.366368 0.310196 0.046362000000000014 -0.25579799999999997 0.427085 -0.310986 -0.07871 -0.45711799999999997 0.007583000000000006 0.221154 -0.059913 -0.418066 -0.166678 0.610764 -0.061079 -0.031371 0.609721 -0.13478400000000001 -0.017852 0.168985 0.22348800000000002 -0.24868500000000002 -0.09684900000000002 -0.016472 0.328062 -0.619324 0.36291999999999996 0.254779 0.648964 0.108944 -0.550241 -0.090339 0.366715 -0.15823700000000002 -0.643881 0.021575000000000004 0.580835 0.224815 0.42600099999999996 0.22371000000000002 0.07805700000000002 -0.03659 -0.050849 -0.388725 0.7529680000000001 0.206844 0.48462700000000003 0.761686 -0.671983 0.04419300000000001 -0.6981280000000001 -0.226037 -0.141281 1.089978 -0.543912 0.103672 0.26 -0.733997 0.063012 0.179785 -0.229679 0.394327 0.105913 0.429801 -0.533473 0.505288 0.45347099999999996 0.38693500000000003 0.18748700000000001 0.27174200000000004 0.170403 -0.020776000000000003 0.5275350000000001 0.013600000000000001 0.040104 0.121397 -0.317764 -0.064353 -0.09523 0.97732 -0.8117570000000001 -0.283642 -0.085948 0.317061 0.359116 -0.257332 0.238556 0.230815 -0.05144899999999998 -0.36164399999999997 0.01558799999999999 -0.565778 0.032336000000000004 0.12072999999999999 -0.348993 -0.472096 0.123198 0.187734 -0.027741000000000002 -0.214619 0.082699 -0.198451 0.039389999999999994 0.40982199999999996 -0.590367 0.7773110000000001 0.313499 0.600619 -0.363722 -0.180712 -0.12519999999999998 -0.21526299999999998 0.17882199999999998 -0.23288199999999998 0.37269800000000003 -0.353853 -0.020991999999999997 -0.168674 -0.273187 0.15890800000000002 -0.13132100000000002 -1.376299 0.480396 -0.7182930000000001 0.9281999999999999 0.04406099999999999 -0.607972 0.285419 0.193373 0.198296 -0.009080999999999999 0.102217 -0.673428 -0.07966200000000001 0.30159 0.521351 0.14811 -0.349794 0.284754 0.23873 -0.17626699999999998 0.332615 -0.02291500000000002 0.7951159999999999 0.641953 0.277688 -0.242213 0.17825400000000002 0.176231 -0.31358299999999995 0.452953 -0.102069 0.29730999999999996 -0.870641 -0.132663 -0.116976 0.028950999999999998 0.070223 -0.307176 0.354948 -0.647275 0.35255899999999996 -0.12037500000000001 0.38170699999999996 -0.433591 -0.16098600000000002 -0.65857 -0.33017799999999997 0.197899 -0.071569 0.590207 -0.060792 0.216511 0.340012 -0.20909 0.012103000000000003 -0.41036 -0.232335 0.442854 0.026096 0.09426399999999999 0.162939 0.212565 0.530212 -0.09872600000000001 0.074048 -0.318689 0.506127 -0.64786 0.200163 1.1891470000000002 0.14071200000000003 0.581367 -0.013379000000000002 -0.6384460000000001 -0.09182299999999999 0.375484 -0.275332 0.7284120000000001 0.07084399999999999 -0.649068 0.264816 -0.577081 0.482395 0.23532 -0.259166 0.017061000000000007 -0.259894 0.078767 -0.242196 -0.636683 -0.32158299999999995 -0.277553 0.0033140000000000114 -0.459575 -0.17898599999999998 0.339055 -0.133797 -0.029469 0.189248 0.16110200000000002 -0.438595 0.20206400000000002 -0.109488 -0.262535 -0.53444 -0.261278 0.17515999999999998 -0.397368 -0.511864 -0.23306699999999997 -0.190674 -0.315172 0.825009 0.168193 -0.580096 -0.14235399999999998 0.495054 0.062682 0.174377 -0.319537 0.021654999999999994 0.47963300000000003 0.355634 0.6289899999999999 1.088698 0.219018 0.049958 -0.14348299999999997 0.461187 -0.232032 0.36867399999999995 -0.184105 -0.940285 -0.388352 0.6173310000000001 -0.006891000000000008 0.512061 0.015481