lighterweight -1.1585100000000002 0.289331 0.796996 -0.490951 0.03845 -0.744323 -0.490374 0.099769 -0.509231 -0.13146200000000002 0.698036 0.136185 -0.580266 -0.6562600000000001 0.674608 0.447013 0.140121 -0.448876 0.054447999999999996 -0.117337 -0.554096 0.06540299999999999 0.300895 -0.655138 0.740078 0.52252 0.610677 0.147409 0.684566 0.653498 0.383142 -0.345471 -0.6251150000000001 0.089672 -0.501716 0.40957899999999997 -0.238199 0.467861 -0.362495 0.01652499999999999 0.8667529999999999 0.071544 -0.457546 -0.073235 -0.8444119999999999 0.039779999999999996 -0.70594 -0.43487699999999996 -0.780734 0.583306 -0.931144 0.289258 -0.845193 0.20779999999999998 0.288777 -0.025121000000000004 -0.177314 0.869876 -0.052944000000000005 -0.41038700000000006 0.123026 0.111877 0.254533 -0.05535100000000004 -0.028236999999999984 -0.04628700000000001 -1.124505 0.14447800000000005 -0.14115100000000003 0.340712 0.238513 0.307664 -0.371439 0.16456500000000002 0.891575 -0.343148 0.086223 0.13305100000000003 0.39413200000000004 0.5495099999999999 -0.198795 0.224694 0.9459679999999999 -0.5852839999999999 0.20512 -0.41640600000000005 -0.13500800000000002 0.35655000000000003 0.316507 -0.363821 -0.755887 -1.204302 -0.7748120000000001 0.588525 0.454779 -0.913917 0.26415700000000003 0.10250299999999996 0.017352999999999993 -0.593411 -1.0305360000000001 1.127629 0.225415 -0.620703 0.388496 -0.216762 0.8711030000000001 0.10892200000000002 -0.314367 0.14401 -0.869313 -0.03598900000000002 0.34642799999999996 -0.438856 -0.237006 0.096816 0.602955 0.336411 -0.08022300000000004 -0.17652600000000002 0.32676099999999997 0.040437999999999974 -0.8181229999999999 -0.528902 0.251877 0.035601999999999995 0.272599 -0.20482999999999998 -0.40885 0.850203 0.080705 1.3389570000000002 0.28442599999999996 -1.27108 -0.032642000000000004 -0.041141 -0.320532 -0.11098800000000003 0.08504 -0.32898700000000003 -0.8648990000000001 -0.21967799999999998 -0.731605 -0.0007989999999999942 0.5015809999999999 0.03375700000000001 0.09019200000000001 0.385284 0.420284 -0.078488 -0.9116569999999999 0.298262 -0.279392 -0.066875 -0.0983 0.24285600000000002 -0.266443 -1.039316 -0.32189200000000007 -0.6627959999999999 0.727104 0.314467 0.518232 -0.189206 0.392772 0.021851000000000002 -0.13937499999999997 0.09381399999999995 0.19822700000000004 0.454687 0.858515 -0.384873 -0.551682 0.366636 0.810263 0.558554 0.34856899999999996 -0.18399200000000002 0.080918 0.04399 0.35235299999999997 -0.14407999999999999 0.027227 -0.29812099999999997 0.56239 0.8179369999999999 -0.404517 0.098957 -0.23773599999999998 0.02514699999999999 -0.443116 0.010186 0.178408 0.852819 0.23561200000000002 -0.17018900000000003 0.49135300000000004 -1.183856 0.240341 -0.096 -0.48646 -0.560356 -0.7106619999999999 -0.023326 -0.746259 0.136716 0.014827000000000007 0.29409399999999997 -0.530179 0.40181100000000003 -0.44273100000000004 -0.77857 0.5820449999999999 0.480425 -0.966647 -0.405568 0.580264 -0.45104900000000003 -1.327623 0.5980939999999999 -0.362877 -0.423047 -0.198233 -0.511275 0.38666500000000004 -0.112514 -0.15649 -0.480964 -0.697702 -1.463187 -0.19028299999999998 0.530179 0.280395 0.31940999999999997 -0.03793800000000003 0.943188 -0.5734349999999999 0.683873 -0.12428099999999999 0.11587199999999998 0.021949 -0.209272 -0.5008630000000001 0.221776 0.47895899999999997 -0.669749 -0.552311 -0.649502 -0.160948 0.43586 0.09043 -0.662386 0.12856099999999998 -0.05537700000000001 0.11588900000000002 0.709024 0.383149 -1.0136 0.100935 -0.214758 0.392209 0.10858200000000001 -0.005680999999999992 0.241535 0.06548200000000004 -0.289061 -1.289115 -0.279292 0.260462 0.563063 0.17775 0.617831 0.002454999999999999 0.7378939999999999 0.13433900000000001 -0.027685999999999995 0.354964 0.40911 -0.6980770000000001 -0.307379 0.28509199999999996 -0.44197700000000006 -0.36748400000000003 0.821555 -0.661322 0.558034 0.314963 0.270694 0.410806 -0.187818 0.6871510000000001 -0.163051 0.11944900000000003 -0.6393329999999999 -0.044487000000000006 -0.233224 -0.142675 -0.00038699999999999846 -0.556924 -0.39654