lightweight 0.006750000000000006 -0.31655900000000003 0.493906 -0.23313899999999999 0.08135999999999999 -0.51938 -0.127965 -0.488279 -0.033472 0.544878 0.188568 -0.599673 0.11582400000000001 -0.105335 0.067505 -0.08685699999999999 0.23416399999999998 -0.089975 0.46732799999999997 -0.448445 -0.363301 0.26511399999999996 -0.308869 0.069524 0.076403 -0.333969 0.320737 -0.160746 0.519625 0.287221 -0.453847 0.239852 -0.156532 0.10023 0.07359000000000002 -0.087375 0.81675 -0.068799 -0.163628 0.579839 0.212595 -0.09332 0.16916599999999998 -0.341144 -0.500347 -0.341023 0.367422 -0.490552 -0.545134 0.142576 -0.343588 -0.177206 -0.304527 0.47546 0.09139399999999999 -0.196244 0.446553 0.410285 0.08690999999999999 -0.0005080000000000084 0.252134 -0.050958 -0.673568 -0.216257 0.032881 0.43412599999999996 0.17437999999999998 0.065286 0.7717050000000001 -0.074251 0.329046 -0.256877 -0.288253 -0.036828 -0.28815100000000005 0.34538199999999997 0.429647 0.420466 -0.449807 0.626736 -0.375626 0.224724 0.03071 -0.22582000000000002 -0.39049 0.25184300000000004 0.313122 0.111007 0.586544 -0.314208 -0.152298 0.09691799999999999 -0.221709 -0.455353 0.303936 0.23348299999999997 0.24901 0.16158299999999998 -0.188647 -0.18910500000000002 0.068318 0.052359 0.691943 0.286401 0.5999410000000001 -0.15118800000000002 -0.144949 -0.355053 0.555102 0.150334 -0.42656399999999994 0.03157099999999999 -0.355566 -0.062040000000000005 -0.3401 0.157439 -0.459283 -1.806819 -0.25995799999999997 -0.231522 1.02555 -0.025796 -0.035714 0.158059 -0.09669799999999999 0.22004200000000002 0.214062 0.415734 0.081218 -0.18375999999999998 -0.458202 0.12492199999999999 -0.257019 -0.438102 0.023904 0.207018 -0.0931 0.32721300000000003 -0.49439500000000003 0.42345 -0.289244 -0.005546 -0.27322599999999997 -0.040323 -0.097296 0.0038399999999999997 0.22509 -0.04385 0.213696 0.107348 0.019036 -0.170721 0.019951999999999998 -0.260815 -0.46058699999999997 0.057115 -0.20306200000000002 0.117097 0.027086000000000002 0.056393 -0.178271 -0.370845 -2.597378 -0.086829 -0.32771700000000004 -0.33817600000000003 -0.001794000000000004 -0.167988 -0.11305299999999999 -0.110497 0.176354 0.6786300000000001 0.07162700000000001 0.451196 -0.047722 -0.174533 0.294443 0.056562 0.220869 0.092656 0.261344 -0.030711000000000002 -0.629942 0.131629 0.092411 -0.063772 0.034860999999999996 -0.585012 -0.127557 -0.013367000000000004 0.52283 0.531413 -0.186481 0.209011 -0.409266 -0.352336 -0.486391 -0.184266 0.13028800000000001 -0.894918 0.236511 -0.5042789999999999 0.34167400000000003 0.049271999999999996 0.052201 -0.674887 0.017717999999999998 -0.112866 -0.220871 0.5827640000000001 -0.492723 1.130604 0.115166 0.367946 -0.41146099999999997 0.137535 -0.037169 -0.52014 0.324477 -0.085398 -0.051661 0.816132 -0.286217 -0.487966 2.933474 -0.055305 -0.082421 -0.455297 0.020963 -0.50031 0.900347 1.094291 0.8704689999999999 0.525214 -0.10408 -0.212055 -0.271164 0.5966180000000001 -0.320005 0.327513 0.482928 0.025104000000000005 0.153464 -0.314137 0.330775 -0.171655 -0.116518 -0.092762 0.038854 0.258716 0.258125 0.15612299999999998 0.5067 0.47609100000000004 0.092505 -0.445579 0.184476 -0.082378 -1.393746 0.571185 0.092978 0.48909 -0.131845 0.5612170000000001 -0.0014460000000000098 0.207946 -0.528383 0.181649 0.478975 -0.227731 -0.040445999999999996 -0.329491 0.472415 -0.122519 0.056035 -0.40690000000000004 0.020925000000000003 0.032791999999999995 0.21869299999999997 0.2384 0.21856799999999998 -0.198998 0.294588 0.278321 -0.521326 0.112746 0.351739 0.193721 0.23107300000000003 -0.6831240000000001 0.8562190000000001 0.28396 0.05910700000000001 -0.211232 -0.269358 -0.18015799999999998 -0.14896399999999999 0.465953 0.45063299999999995 -0.059311