lighweight 0.26485400000000003 0.060574 0.32982 -0.300257 0.09957400000000001 -0.44071299999999997 -0.35450800000000005 -0.425919 -0.507383 0.745235 0.430261 0.181034 0.480802 0.12819 -0.08464899999999997 -0.340434 0.105648 -0.23243 0.40214799999999995 -0.38816 -0.235588 -0.022095 -0.553269 0.10098599999999999 0.280787 -0.277233 -0.098725 0.139974 0.347777 0.50656 -0.440847 0.759841 -0.052317 0.39427900000000005 -0.25023799999999996 0.57597 -0.088238 0.117243 -0.44650100000000004 0.9658519999999999 0.236313 0.100821 0.348147 0.050399 -0.459284 -0.010574 0.08816000000000002 -0.006547999999999998 -0.831334 0.115158 -0.48583699999999996 -0.33267399999999997 -0.138997 -0.166524 0.596688 -0.185571 0.169985 0.762619 0.510757 0.108344 0.013377 -0.19927499999999998 0.32004 -0.293276 -0.842524 0.834237 0.14006000000000002 0.28927800000000004 0.985659 0.232981 0.451531 -0.318959 -0.369086 -0.802097 -0.376589 0.749118 0.0035580000000000056 0.463037 0.259945 0.37470600000000004 -0.12298500000000001 0.733427 -0.547444 -0.687638 -0.655915 0.24721500000000002 0.011460999999999999 -0.21491300000000002 0.340644 0.136883 0.202915 -0.12284300000000001 -0.010653 -0.146611 0.577019 -0.09032000000000001 0.17915699999999998 0.09123799999999999 -0.667578 -0.319287 -0.166842 0.512966 0.31389199999999995 0.115982 0.326932 -0.45509299999999997 -0.254897 -0.155445 0.395605 -0.063453 -0.822839 -0.035136 -0.067713 -0.43306599999999995 -0.191281 -0.215013 -0.024061 -0.299762 -0.491258 -0.11233199999999999 0.055337 0.026932000000000005 0.15735400000000002 -0.32344799999999996 -0.358165 0.168399 0.22664 0.510662 -0.06717899999999999 -0.378077 -0.51067 0.112389 -0.293122 -0.50736 0.286124 -0.05390400000000001 -0.001568999999999987 0.487356 -0.367272 0.40866 -0.325502 -0.025963999999999997 -0.368685 -0.26574 0.211423 0.8526990000000001 -0.08982699999999999 -0.044598999999999986 0.325988 0.104258 -0.026790999999999995 -0.037094999999999996 0.193359 -0.12398200000000001 -0.23007100000000003 -0.502301 -0.385622 0.35555000000000003 0.424512 -0.05252299999999999 -0.254923 -0.683002 -0.44986400000000004 -0.002611000000000002 -0.023867 0.4567589999999999 -0.07653700000000001 -0.440616 0.29613100000000003 0.509613 -0.27898999999999996 0.124301 -0.16663 0.47584800000000005 -0.139931 0.6412370000000001 0.745647 -0.021317000000000003 -0.26426299999999997 0.09805499999999999 -0.17289900000000002 -0.19348100000000001 -0.720399 0.269496 0.413227 0.112409 0.079171 -0.6697029999999999 0.120235 0.27594799999999997 0.583913 0.708298 -0.073514 0.15582900000000002 -0.45481299999999997 0.04946699999999998 -0.020904000000000006 -0.289486 -0.099574 -0.553812 -0.33625499999999997 -0.39948799999999995 0.405259 -0.639652 0.13860099999999997 -0.670613 -0.12248999999999999 -0.18840099999999999 -0.179423 -0.630161 0.694562 0.955194 -0.269692 -0.23126799999999997 -0.425244 -0.137216 0.428688 -0.385127 -0.07377799999999998 -0.01591999999999999 0.03429599999999999 0.22590300000000002 0.05794500000000001 0.019044 0.909226 0.241681 0.217188 -0.201924 -0.169696 -0.305418 0.177783 0.404714 0.627032 0.328165 0.251492 -0.391377 0.033085 0.669764 -0.29181300000000004 0.440843 0.280923 -0.22412500000000002 0.021726000000000002 -0.437457 0.45227 -0.440867 0.105847 -0.128865 0.286786 0.105762 0.704412 0.089499 -0.48248399999999997 0.300815 0.009842000000000004 -0.05717 0.210318 -0.226041 -0.494865 -0.052161999999999986 0.535012 0.27355999999999997 0.128588 -0.247546 0.281163 0.020320000000000005 -0.84684 0.365259 -0.01891799999999999 -0.344072 -0.339715 -0.15656799999999998 -0.00925200000000001 -0.072489 0.122908 0.42700299999999997 -0.024328000000000002 0.12057000000000001 0.41678 0.021330999999999996 0.349908 -0.08080799999999999 -0.04719700000000002 -0.219745 -0.300908 -0.636724 0.6254219999999999 -0.121228 -0.160839 0.19106 1.033648 -0.17003100000000002 0.228463 -0.126326 -0.053732 0.242112 0.04578300000000002 -0.181286 0.071501 0.058469999999999994