lineweights 0.784907 -0.10363499999999998 -3.721081 0.11616299999999996 -2.669232 0.287061 -0.49070900000000006 1.44077 0.091753 -2.834466 1.346508 1.217959 2.645434 1.61344 2.120761 -2.038113 -1.5329840000000001 -0.26247000000000004 0.43346799999999996 -2.5879589999999997 -0.6347039999999999 -0.944527 -2.180163 0.4020889999999999 0.17733199999999993 -2.019276 -0.44897699999999996 -4.535478 0.15024099999999996 0.289083 2.312392 0.989892 2.845053 3.4767140000000003 -0.846362 0.841264 0.9434480000000001 -3.489733 -0.934455 -0.623097 1.705665 -0.675642 -0.441239 1.570271 -1.625472 -1.968414 -1.205067 -0.16065299999999993 1.264507 0.823313 1.13482 -2.091241 0.24669599999999997 -2.53597 -1.004145 -4.414623 -0.08003199999999999 1.64841 -1.226891 4.425721 2.755741 2.30137 -1.5253929999999998 1.5208849999999998 0.595914 -1.133695 0.11414599999999997 -0.34266300000000005 1.8902729999999999 -0.643993 1.590565 0.23135899999999998 4.622498 1.1594790000000001 -0.9344350000000001 -0.030282000000000003 0.6656410000000001 2.060161 1.3278469999999998 1.616412 -1.198918 -1.37177 -2.1888300000000003 -0.33532499999999993 0.35886899999999994 2.228894 -0.645659 -2.758045 1.846822 -0.680364 -1.6511459999999998 -3.119022 1.717495 0.7156829999999998 0.9637950000000001 0.6040449999999999 0.05444300000000002 -1.649684 1.5196029999999998 -0.269173 -0.25553800000000004 1.666839 -0.999012 -0.14624199999999998 -0.9475369999999999 -1.240294 -1.5717189999999999 0.155848 -0.766721 3.7645589999999998 -0.41214500000000004 1.8640539999999999 0.992312 3.046356 0.8718119999999999 2.741167 1.184762 1.762158 4.450706 0.564894 0.521013 -1.434731 1.485669 2.458873 -1.104409 1.949477 -1.597607 -0.38356000000000007 0.24950299999999997 -2.279779 -2.2808349999999997 -1.227038 1.778488 -0.060892 -0.6511680000000001 -1.734979 -0.6033740000000001 -1.908279 2.775363 -0.493514 4.181706 1.1013519999999999 0.07630199999999998 2.592219 3.27237 2.477116 0.325983 1.359311 -0.074319 -0.27271100000000004 0.296228 -2.111059 -1.319754 -1.7022810000000002 -0.12931499999999999 -0.36597599999999997 -2.3549249999999997 -3.819479 0.2381899999999999 0.39166799999999996 0.40755200000000014 -0.5477550000000001 -1.3145470000000001 -3.794688 -0.474024 -0.533549 0.4636389999999999 1.266149 -3.56119 1.285523 -1.167745 0.500642 -3.0625679999999997 0.0816110000000001 -2.601033 1.46435 -0.282321 2.1373439999999997 -1.650984 0.52151 -1.746597 -1.654486 1.481883 1.008544 0.469194 -0.1624070000000002 1.706922 -1.2978669999999999 0.7504520000000001 0.9999009999999999 -3.605529 1.0741720000000001 1.2347510000000002 1.483912 -1.5879379999999998 -2.205413 -1.4115799999999998 0.6510670000000001 1.696139 -2.112759 0.7553130000000001 -2.1710949999999998 -1.964 0.377392 -0.18010499999999996 -1.530999 -0.09753700000000004 1.055761 0.45714500000000013 0.801288 -2.276034 1.307356 1.451659 -1.761811 0.9400369999999999 1.943271 1.0063080000000002 2.411998 -1.6433619999999998 0.68214 -1.756246 1.7691999999999999 0.420187 -0.103576 0.667365 -0.633745 -2.1377360000000003 0.43462900000000004 0.24173100000000003 2.0089360000000003 0.558659 -0.45278599999999997 2.055666 0.41528299999999996 -1.066567 0.494073 1.4170099999999999 3.405143 0.615051 -0.5963010000000001 0.238047 0.484634 0.44966700000000004 -1.3497759999999999 0.03712000000000004 0.04369999999999996 -0.843763 -1.899476 0.051086 -0.01705699999999999 -2.340465 -0.175219 0.108514 1.715329 -3.3362489999999996 -1.702787 -2.490633 -1.090043 0.44055599999999995 -2.045654 -1.991639 -1.405727 2.332225 2.416752 -1.9616850000000001 -1.584536 -1.4879269999999998 1.436042 -0.23090599999999994 2.1498369999999998 -2.710691 -0.187284 2.787478 -0.32117399999999996 0.01306099999999999 -2.18218 3.855922 2.75471 -0.115423 -0.6985240000000001 2.73957 0.221129 -0.007511999999999963 0.5395949999999999 -2.550815 0.6099569999999999 0.530418 -0.01645399999999997 -1.394595 0.9205819999999999 -2.338971 -2.565142 1.338473 -0.626737 -0.675069 3.077488 -1.317634 -0.06683199999999999 1.343903 2.421218