lineweight 0.42920499999999995 -6.249892 0.574373 1.2095829999999999 -0.126998 -0.08717800000000003 -0.16561000000000003 4.997203000000001 -0.9059070000000001 0.18787699999999985 -0.29971900000000007 -1.670693 -0.08252300000000001 -1.9553949999999998 0.20461600000000002 2.645523 -0.551643 -1.56187 0.519299 -0.3823429999999999 1.351701 5.7837119999999995 -4.233759 -1.472271 2.9713760000000002 -0.419208 -2.3051269999999997 0.3200909999999999 2.544405 0.39906699999999995 -0.9501809999999999 2.90554 -0.13902 -3.5928830000000005 0.869626 0.7718010000000001 -3.715246 -0.883837 1.246248 1.789459 -0.266702 0.206505 1.118562 -0.09222099999999989 -1.3076750000000001 5.074574 1.598958 0.147824 -0.181362 -1.28757 -0.5930040000000001 -1.288163 4.718401 -5.266381 -0.653113 -2.373399 1.589827 -1.507578 -0.7801079999999999 -0.059255999999999975 0.448243 1.845073 -4.24334 0.7983720000000001 0.8994089999999999 -0.795652 0.08766500000000005 -2.112156 0.012598999999999971 -0.433737 1.972004 0.6999270000000001 3.326397 -4.501127 -2.453723 -2.133303 0.314257 0.7575219999999999 -0.53714 1.292125 0.963579 -2.2071639999999997 -1.80816 -0.5289229999999999 0.48599100000000006 -1.71963 2.584833 -0.26926399999999995 1.872345 -1.502368 -0.3405389999999999 -0.2709069999999999 1.5482900000000002 5.2242750000000004 -1.751967 -1.102445 0.100321 -1.169464 0.614374 0.27949599999999997 -1.176978 -1.603036 -0.671431 -0.40785800000000005 -2.6004210000000003 -0.951127 0.35655800000000004 -0.7310679999999998 4.916466 2.018552 -0.654236 2.3790139999999997 1.880884 4.692747000000001 -0.08723999999999998 1.004334 1.050222 -1.434059 2.945697 -0.986904 3.766312 3.623221 4.309687 1.7803209999999998 -2.776257 -0.02027000000000001 1.498614 2.17851 0.81185 -1.7064120000000003 -0.6757029999999999 0.5292910000000001 -0.45456199999999997 1.192693 0.8940029999999999 -0.13915299999999997 -3.8617 -0.93161 -1.0156010000000002 -0.07701599999999997 1.24906 0.8440259999999999 2.482043 0.857331 -0.300425 -0.090476 3.824666 -0.947831 -0.957586 3.463437 0.5942 -1.746101 0.822681 0.3026230000000001 0.247157 0.9393380000000001 -1.561601 -4.325362 -1.682406 -0.06136800000000009 0.8401770000000001 -0.5929639999999999 1.215533 -0.589351 0.612685 -4.796583 -2.363558 1.408403 -1.3751799999999998 -0.998791 -0.890039 -5.221444 -1.324468 -0.09072499999999994 -0.5969260000000001 0.679849 -0.30641299999999994 0.8072919999999999 -0.05230400000000002 -1.220188 0.620557 -1.128008 0.334864 -0.556646 0.5019629999999999 -0.6875719999999998 0.455585 0.174682 2.022165 -0.4933789999999998 -4.358116 -1.508061 0.08135500000000001 -4.412908 2.996584 0.379772 -0.26389200000000007 -0.23016400000000004 2.571834 0.6003080000000001 2.180624 -0.605831 3.221733 -0.703471 0.9228080000000001 2.357022 2.465449 1.5797409999999998 -1.4632669999999999 -1.240999 0.7732049999999999 -3.581236 -3.826163 -1.809736 1.0222259999999999 4.617317 2.113901 2.111552 -1.905985 0.7450289999999999 -0.08638299999999988 1.839693 1.484569 -0.448742 0.045335 -0.604897 -3.037304 0.508409 0.02139000000000002 1.1681030000000001 -0.62266 -0.824104 0.129851 1.5339820000000002 0.977983 -0.14958399999999994 1.241287 4.3749 -0.45711499999999994 -0.8425309999999999 0.25024899999999994 3.7327719999999998 -0.45402300000000007 -0.734979 4.505806 1.920665 1.407343 -1.6976 -1.067666 -0.29221299999999983 0.13650600000000002 -0.38565499999999997 0.4811350000000001 -0.3955890000000001 -0.612603 -1.7337469999999997 -1.292916 -3.7844029999999997 0.779335 -3.829974 -0.22401099999999985 1.832316 0.670641 0.543144 -2.22246 -2.911057 -0.214167 0.9660360000000001 0.465765 -3.056962 -0.658773 -1.463925 1.3267220000000002 -2.163592 0.15519000000000002 0.265764 2.6338719999999998 -5.1369050000000005 -0.741439 1.9202339999999998 1.800863 -0.9754439999999999 0.915245 0.10672299999999998 -4.399502 0.269066 1.731245 -1.119909 -0.478996 -0.156534 -0.2369260000000002 -2.100905 -0.034518999999999966 1.141186 -1.292191 -0.22164399999999995 -0.05709199999999992 1.715136 2.119741 1.4217499999999998