liveweight 0.32920900000000003 0.688042 -0.612074 -0.29010400000000003 -0.065966 -0.533033 0.209374 0.282637 -0.379236 -0.10559800000000008 0.6927110000000001 -0.62563 0.5614560000000001 0.563608 -1.061904 -0.199365 0.623683 -0.449468 0.305186 0.658036 -0.964805 -0.31452399999999997 0.244163 0.181869 0.829588 0.057674 0.22558299999999998 -1.025766 0.143326 -0.47317 0.081148 0.042083 -1.029819 -1.564489 -0.822285 1.202407 0.11752300000000002 0.47260399999999997 -1.7248610000000002 -0.90034 0.278846 0.012347999999999998 0.047270000000000006 -0.15988 -0.12370700000000001 -0.26340399999999997 0.44743700000000003 1.473499 0.408207 -0.10383800000000001 -0.804925 0.425196 0.909278 0.758891 -0.03318399999999999 0.259432 0.039625999999999995 -0.11387000000000003 0.961625 -0.251372 -0.04128699999999996 0.195977 0.18087999999999999 0.322951 -0.08361199999999996 0.112927 0.4830610000000001 0.803167 0.24674799999999997 0.254763 -0.25391400000000003 -0.574883 -0.513674 -0.728488 -0.921584 -0.337807 -0.12613300000000002 0.04217399999999999 -0.050046 0.40371 -0.09573600000000002 -0.194386 -0.41549300000000006 0.539874 0.7910280000000001 -0.32015400000000005 0.670519 0.48281300000000005 0.3984519999999999 -0.325799 0.183613 0.302279 -0.149569 0.170882 0.035816 0.36887499999999995 0.7196359999999999 -0.007308000000000009 -0.12648500000000001 0.33228 -0.565052 -0.723419 -0.661967 -0.097807 -0.30350600000000005 -0.616595 0.225521 0.05208600000000002 -0.37103800000000003 0.474244 0.08457 0.06019100000000001 -0.07867299999999999 -0.78855 0.414387 0.151756 -0.516525 0.058616 -0.097696 0.24293 0.942269 1.132201 0.793129 -0.587362 -0.06756099999999998 0.069707 0.220408 -0.36721400000000004 -0.27854 0.39467599999999997 -0.295935 0.19862000000000002 0.07413399999999999 0.985171 0.005072000000000021 0.16672700000000001 -0.584202 0.6370020000000001 1.011844 0.132223 0.27392799999999995 0.08266899999999999 -0.8409570000000001 0.337266 0.044642 -0.501459 0.769931 0.186917 0.7384930000000001 -0.508206 0.476991 0.29529700000000003 0.595735 -0.791452 1.206088 0.702135 -0.41769200000000006 0.19492700000000002 -0.595661 -0.428793 0.20154399999999997 0.321338 -1.3337620000000001 -0.004373999999999996 0.09636700000000001 0.338537 -1.222476 0.352528 -0.056336000000000025 0.482757 0.780237 0.015825000000000006 0.135915 -0.244413 1.2257980000000002 0.27770100000000003 0.77854 0.047096 0.12065100000000001 -0.172043 -0.28399399999999997 -0.357052 0.586802 -0.14629799999999998 0.457891 0.220325 0.269105 -0.008050000000000002 0.538705 0.517779 -0.28714799999999996 -0.09400499999999999 -0.235116 0.31657599999999997 -0.002819999999999989 0.04932 0.850142 0.05324899999999999 -0.23005599999999998 -0.87764 -0.817877 0.255567 -0.03920500000000002 -0.727994 -0.12442 -0.653068 0.419157 -0.08781900000000001 -0.634985 -0.022954000000000002 0.40587799999999996 1.125776 -0.27591899999999997 0.201021 0.174273 1.010862 0.706523 0.018342000000000025 -1.228904 0.568847 -0.160351 -0.408472 1.54278 0.18815500000000002 1.67852 0.396416 -0.100474 0.8374510000000001 0.39736499999999997 -0.18281200000000003 -0.11106599999999998 -0.43032500000000007 -0.44426799999999994 0.13254500000000002 0.283548 0.410997 -0.738478 -0.2803999999999999 0.739286 0.43207 0.326829 -1.17088 -1.016874 0.569837 -0.983317 0.677781 -0.001516 1.30209 0.067353 -0.6709069999999999 0.755636 0.028325 -0.677821 -0.625224 -0.295388 1.1136490000000001 -0.19294400000000003 -0.501755 -0.162305 0.480362 0.22528899999999996 0.470147 -0.05404300000000001 -0.1409 -0.099119 0.202639 0.28953 -0.289936 -0.861162 0.043810000000000016 -0.603809 1.089132 0.479856 -0.097078 0.7029399999999999 -0.141142 -0.16322799999999993 0.43857399999999996 -0.42272000000000004 -0.159595 0.6390819999999999 1.304316 -1.142889 1.101992 0.21084 -0.244375 1.161986 0.30203399999999997 0.8545959999999999 0.919932 0.114651 -0.17591400000000001 0.500166 0.41433000000000003 -0.6800790000000001 -0.131029 -0.09701000000000001 -0.18072300000000002 0.9221079999999999 -0.15121