lossweight -0.8996379999999999 0.8614900000000001 -1.844994 -0.39185 -1.324473 1.163654 -0.38768199999999997 1.290261 0.926844 -0.44539399999999996 0.779387 -0.490773 1.584827 1.02514 1.0198180000000001 0.249854 -0.36516299999999996 -0.5860200000000001 -0.775272 -0.21688199999999996 -0.119483 0.931794 0.06121900000000002 0.63466 -0.02957999999999994 0.507163 2.347299 -0.02860999999999997 2.141927 -1.256272 0.345869 -0.554984 -2.842194 -0.09305799999999997 -0.296489 -2.336663 2.021016 1.2052049999999999 0.9211389999999999 -1.622459 -2.599868 0.007432000000000008 -1.239525 0.433925 -2.302857 0.217688 -0.6242950000000002 0.14392700000000003 -0.520881 1.040222 3.989453 0.486655 1.515317 0.27274899999999996 -0.7208019999999999 0.41790499999999997 0.292042 -0.379431 0.498953 0.332011 -1.133153 -1.024778 1.7518280000000002 0.415351 0.939451 2.2081109999999997 -0.507748 -0.9021049999999999 0.19752300000000003 2.725022 -1.109496 0.04955299999999996 0.19906600000000002 1.318051 -0.531005 -0.849133 -1.167648 1.363382 0.907867 1.518325 -1.220703 0.615356 0.28863099999999997 1.089798 -0.590603 -0.615238 0.430685 -0.929378 0.07752100000000006 -1.8919519999999999 0.8192429999999999 0.659217 0.45509 -0.825271 0.8681240000000001 1.545434 -0.641493 -1.522915 2.684565 1.060233 0.649952 0.9498930000000001 -1.158431 -1.139497 -0.9400570000000001 -1.9927169999999998 1.74079 0.038661 2.8007310000000003 0.1983 -1.874296 2.066267 -0.5729500000000001 1.209914 0.42604400000000003 0.34540200000000004 -0.593119 -2.18262 0.9676180000000001 2.142807 -0.018610000000000015 -0.193935 -0.40936999999999996 0.874807 1.006359 1.149994 -0.380379 1.590926 -0.7779510000000001 -0.20136700000000002 -0.958913 -0.54826 0.030185000000000017 -0.41814699999999994 -1.092147 1.1459380000000001 -0.614168 -1.282775 -1.0877700000000001 1.2116010000000002 -1.572737 -0.22040900000000002 -0.43824399999999986 -0.9393069999999999 2.5674 -0.222844 -0.6084390000000001 0.31340999999999997 0.06786500000000001 0.42850900000000003 -0.22197499999999998 -2.025325 -0.49921799999999994 1.245562 1.773886 0.16534900000000002 -2.62704 -0.396766 0.14264300000000002 1.5327510000000002 -0.9893240000000001 -0.554267 -1.15632 1.34325 -0.7970740000000001 0.63462 -0.262653 -2.564709 -0.337743 -0.017058000000000018 0.304335 2.346176 -0.220378 -1.190967 -0.12534599999999999 2.478174 -1.2074129999999998 1.5560559999999999 0.07469300000000001 0.7892870000000001 -1.104434 -0.15588500000000002 1.232791 -2.086342 2.95039 1.110284 1.09646 -0.200681 -0.04074699999999998 0.576003 -1.4082270000000001 1.381184 0.156002 -1.02319 -0.03703600000000001 0.465992 -0.478162 0.30907700000000005 2.3745060000000002 0.42669 -0.11996200000000001 -0.42534299999999997 -0.501474 0.182937 -0.441777 1.426736 0.275903 0.573442 -1.573924 0.639381 -1.264817 0.5260610000000001 -1.2845360000000001 0.48658499999999993 -1.338175 -0.9451729999999998 0.420251 4.112925000000001 -1.794022 -1.978869 -0.511116 -1.435518 0.24496300000000004 0.775624 -2.1890989999999997 -0.763228 -0.046525 -0.12040900000000002 0.5477650000000001 0.34948999999999997 0.029557 3.639919 0.09481400000000001 0.13376899999999997 -0.193139 0.39008299999999996 0.7980729999999999 -1.381332 -1.680139 1.358331 0.053121 -0.3036289999999999 0.8363449999999999 -0.44478399999999996 0.110361 0.948015 -0.975263 -1.822095 -0.5810109999999999 -0.771529 0.85013 1.520397 -0.5534939999999999 -2.2904359999999997 -0.20684499999999995 0.8960840000000001 0.783298 -0.084976 -0.4759499999999999 1.2774359999999998 -0.986421 0.479014 -0.21715400000000007 0.19018299999999994 -2.722123 -0.681731 1.927485 0.570276 -0.6723190000000001 -0.197129 -0.07988599999999998 4.163017 0.238942 -0.24861900000000003 1.2564600000000001 -0.029449999999999976 0.027379 0.406573 0.24083099999999996 -0.998124 -0.813938 1.51206 -1.114867 1.121098 1.462837 0.651615 -0.402257 -0.19241199999999992 1.663258 0.3901239999999999 0.857154 0.594336 -1.048873 0.005390000000000006 -0.186716 0.147268 0.237067 -0.349674 0.520041 0.058421