makeweight -0.04522000000000001 0.09020900000000001 -0.005059999999999995 0.2499 0.241796 -0.39106399999999997 0.073983 0.264604 -0.088871 0.613804 -0.108067 -0.5247299999999999 0.55986 0.204598 -0.039062999999999994 -0.298877 -0.274151 0.039290000000000005 -0.713546 0.050128000000000006 0.260378 -0.257575 0.8297730000000001 -0.18398399999999998 0.08784099999999999 -0.243579 -0.20640799999999998 -0.04646 -0.35276 -0.331423 0.21234599999999998 0.48319100000000004 0.099328 0.467178 -0.842487 0.787173 -0.609316 -0.572978 -0.720108 -0.400695 -0.529612 -0.39575400000000005 0.292177 -0.445911 -0.453078 0.11283599999999999 0.22029300000000002 -0.317675 -0.796791 0.344218 -0.7092569999999999 -0.385647 0.431645 -0.226404 -0.49583099999999997 0.225436 -0.230666 0.07020300000000002 0.43197399999999997 0.280111 0.323165 -0.12038099999999999 0.543862 0.220436 -0.093769 -0.399684 -1.355035 0.7133440000000001 -0.6847 -0.298841 -0.08838700000000001 0.698726 0.544653 -0.111262 -0.374253 0.148086 -0.142449 0.319702 0.35611499999999996 0.502433 -0.014678000000000024 -0.03604500000000001 0.409727 0.161914 -0.383674 -0.595963 -0.062964 -0.025972999999999996 0.541617 -0.460418 0.004789999999999961 -0.347282 -0.281618 0.323162 0.026406000000000013 -0.004623000000000002 0.38501 0.14733400000000002 -0.17061500000000002 -0.173879 -0.22609400000000002 -0.178189 -0.6074200000000001 -0.36311899999999997 0.151345 -0.060421 -0.117066 0.225306 0.215905 0.7936179999999999 -0.526263 0.7461409999999999 0.199586 -0.179879 -0.19352999999999998 0.36387400000000003 0.48684299999999997 0.174759 -0.611185 0.213632 -0.3235 0.08251900000000001 0.16382700000000003 0.08556500000000003 -0.585405 -0.407724 -0.42318999999999996 -0.165955 -0.247527 0.469721 -0.08670599999999999 -0.22839399999999999 0.614256 0.265478 -0.44369 0.698277 0.371439 -0.94091 -0.301781 -0.107797 -0.8669309999999999 0.773268 -0.274901 0.43131800000000003 0.308859 0.04245600000000001 -0.192581 -0.210486 -0.683834 0.03776200000000002 -0.229307 0.069069 -0.235614 -0.08700999999999998 -0.09036200000000003 0.19983800000000002 -0.12738799999999997 -0.672771 0.088272 -0.230727 -0.017968000000000005 -0.014388999999999985 -0.987843 0.012888999999999998 -0.182344 0.380243 -0.07502199999999998 -0.42975599999999997 0.446078 0.21143099999999998 0.198563 -0.34661899999999995 0.158792 -0.284036 0.060419 -0.065507 0.502341 0.10675300000000001 -0.738235 0.166974 -0.17053599999999997 0.331747 0.16208999999999998 0.703387 0.5821529999999999 0.428242 0.600253 -0.285273 -0.081924 0.194194 -0.03886899999999999 0.90766 -0.34417200000000003 0.766402 -0.112262 0.09541800000000003 0.412503 -0.03798100000000001 -0.09078699999999999 0.199523 -0.19540500000000002 -0.178912 -0.7334780000000001 -0.27294799999999997 0.39516 -0.407443 -0.193571 0.287993 -0.18087199999999998 0.04939599999999997 0.085926 0.673132 0.12138099999999999 0.028057 -0.692305 -0.32893 -0.398059 -0.763497 -0.739753 0.154957 -0.07440299999999998 -0.218684 0.144687 -0.37735 0.408312 0.21821600000000002 -0.16073200000000004 -0.054563999999999974 0.379506 -0.538799 -0.619624 0.07361 -0.35358300000000004 -0.059516 0.217442 -0.142913 -0.11154999999999998 0.568346 -0.925512 0.39816799999999997 0.560347 -0.07044900000000001 0.23943599999999998 -0.81806 -0.05614399999999999 0.50648 0.45917600000000003 -0.49539999999999995 -0.601804 -0.143445 0.798054 -0.15585099999999996 0.262588 0.14906600000000003 -0.402354 -0.016085000000000016 0.338808 1.215131 -0.852681 0.092052 0.0018330000000000013 0.5425 -0.027488999999999986 -0.328133 0.026326000000000002 0.14262500000000003 -0.08335300000000001 -0.46154999999999996 0.329704 0.931503 -0.090224 -0.013413000000000008 -0.171817 -0.042205 -0.225873 0.105044 -0.37978 0.275045 -1.144363 -0.256845 0.11529600000000001 0.10250299999999996 -0.459118 -0.21961400000000003 0.567068 -0.48249200000000003 0.38545599999999997 0.168932 -0.132512 -0.22602299999999997 0.028212000000000015 -0.5268189999999999 0.6732450000000001 -0.15904000000000001 -0.637926 -0.401576 0.286948 -0.32733900000000005 -0.10982800000000001 -0.5889629999999999