makeweights -0.21481799999999998 0.22902899999999998 -0.129128 -0.013405 0.35258500000000004 -0.231009 -0.44171000000000005 0.758132 0.246182 0.136071 -0.20149 -0.441765 0.48637600000000003 0.378814 0.26861999999999997 0.706535 -0.291713 -0.377533 -0.651228 -0.314295 0.445909 0.226213 -0.44310900000000003 -0.136807 -0.035801 -0.721677 0.01617099999999999 -0.326434 0.52894 0.08767 -0.08576800000000001 0.36034900000000003 0.063041 0.17405700000000002 -0.286411 0.47526 0.258078 -0.171901 -0.45071799999999995 0.026267000000000013 -0.352425 0.151477 -0.00833 -0.13725700000000002 -0.472101 0.190396 0.16642099999999999 -0.565845 -0.06557500000000001 0.741987 0.06718199999999999 -0.350074 -0.254073 -0.259554 -0.23852600000000002 0.081966 0.05887099999999999 0.040251999999999996 0.093966 0.203988 -0.336105 -0.073501 0.441759 -0.035441 -0.066922 -0.030743 -0.5839139999999999 0.614196 -1.114477 0.04487 -0.210293 -0.694642 0.19821 -0.431491 0.074574 0.12804099999999996 0.403508 0.113665 -0.230426 0.423258 0.074205 -0.169432 -0.184257 0.30204600000000004 -0.398479 -0.24960100000000002 0.22359 0.24733299999999997 0.360221 -0.04066799999999998 -0.15889699999999995 -0.30337 -0.796455 -0.067489 -0.152816 0.366817 -0.11947200000000002 0.32916 0.335535 0.347022 -0.193126 0.327572 -0.186114 -0.176064 -0.10013 0.059184000000000014 0.055360999999999994 0.09384499999999998 -0.16425 0.22689399999999998 0.400478 0.110828 -0.647607 -0.129512 -0.388426 -0.745358 0.400391 0.076955 -0.42400899999999997 0.230712 -0.676023 0.033324999999999994 0.270879 0.008517999999999998 0.381021 0.197091 0.025523000000000018 0.274968 -0.129179 0.446192 -0.404864 0.35395000000000004 0.414694 -0.30277699999999996 -0.5625220000000001 -0.20042899999999997 -0.133199 -0.48717699999999997 -0.895945 -0.840679 -0.467854 0.238977 -0.416311 0.11511199999999999 0.310039 0.050191999999999994 -0.111346 0.413389 -0.456872 -0.432299 0.714809 0.489685 -0.501983 0.107457 0.309795 0.35075199999999995 0.209478 0.203866 0.60412 -0.551752 0.09661 -0.042228 -0.533814 0.578215 -0.462825 0.445878 0.50951 -0.354393 0.33897 -0.161692 0.497533 0.16108 0.327699 0.275918 -0.146146 0.0454 0.05270600000000003 0.30472 -0.225295 0.276092 -0.679976 0.0017630000000000007 0.041326 0.345044 0.962361 0.269671 0.630803 0.36899899999999997 -0.5193409999999999 0.15506699999999998 -0.468382 0.671878 -0.39778100000000005 -0.139923 -0.289859 0.391608 -0.04993000000000003 -0.21141300000000002 0.7069179999999999 -0.036497 -0.643754 -0.501876 -0.07031 0.090441 0.73335 0.16157 -0.174599 -0.38154 -0.708122 0.232729 -0.02501500000000001 0.041533 0.389684 0.07556399999999999 -0.564223 -0.677075 -0.158232 -0.5892580000000001 -1.033352 0.5928960000000001 -0.152061 -0.539669 -0.494538 -0.458329 -0.302054 0.15154600000000001 -0.35816499999999996 -0.35051 0.38226200000000005 -0.256855 -0.563242 -0.392785 -0.804117 -0.20920300000000003 -0.0066990000000000105 0.101458 -0.13204100000000002 0.7410270000000001 -0.132838 0.197025 0.028995 0.22418499999999997 0.440315 -0.791115 -0.204377 0.26839900000000005 -0.0009610000000000035 0.073655 -0.187711 0.111278 0.417651 -0.283844 -0.16400499999999998 0.03281900000000001 -0.510432 -0.300825 0.389998 0.641934 -0.262009 -0.272981 -0.0042369999999999994 -0.189553 -0.076106 0.36846500000000004 -0.1973 0.16620000000000001 -0.552657 -0.052648 0.559577 0.36980999999999997 -0.12695599999999999 -0.176776 0.42131900000000005 -0.251977 0.275644 -0.189578 -0.11035599999999998 0.087188 -0.46727399999999997 0.085532 0.533552 0.417863 -0.775347 -0.180195 0.478742 -0.339542 0.674614 -0.363098 -0.6849540000000001 -0.244059 -0.46215799999999996 -0.555812 0.43576 -0.11429299999999999 -0.58727 -0.011202000000000004 0.19779200000000002 -0.25604000000000005 -0.020263000000000003 0.191421