mediumweight -0.104817 -1.0918329999999998 1.04629 -0.358813 0.63262 -0.197462 0.161783 -0.312019 0.605788 0.27193199999999995 0.12751700000000002 -0.031272 0.753313 0.24251999999999999 -0.48385100000000003 0.502053 0.389241 -0.141648 0.051207 0.03965399999999997 0.093361 -0.145529 -0.318254 -0.039305000000000034 0.425478 -0.554554 0.79941 -0.41523699999999997 0.5619460000000001 0.083866 -0.7903610000000001 -0.642802 -0.17495 -0.047167 0.5086189999999999 0.337843 0.523243 -0.43400900000000003 -0.41658599999999996 -0.385624 0.30577299999999996 0.380303 -0.074227 -0.14595999999999998 -0.08423400000000003 -0.6295040000000001 -0.328642 -0.072708 -0.97197 0.940848 -0.654003 0.188116 0.178629 -0.5959679999999999 0.09033 -0.6024400000000001 0.39511700000000005 0.676718 -0.008479 -0.389061 0.655992 0.28309700000000004 -0.348789 -0.450984 -0.841311 0.07916400000000001 0.16092700000000001 0.35391300000000003 0.97707 0.531533 0.580201 0.868933 0.24645999999999998 -0.09718199999999999 -0.221793 0.580806 -0.140856 0.47157299999999996 0.520401 0.39046200000000003 0.55104 1.4402409999999999 0.03368299999999999 0.117196 -0.459384 -0.36403399999999997 0.006714999999999999 0.37310699999999997 -0.09912399999999999 0.461914 0.7186330000000001 0.21385 -0.912662 0.406114 0.5651510000000001 -0.044877999999999994 0.50527 1.0750549999999999 -0.822252 0.813266 -0.247839 -0.41412899999999997 0.714931 -0.599656 0.638633 0.179955 -0.219685 0.12847199999999998 0.05751999999999999 0.407269 0.11555399999999999 -0.894119 -0.302894 0.61766 -0.15926099999999999 0.381992 -0.010921000000000004 0.11351499999999999 -0.152608 -0.004193000000000002 0.686712 0.358753 -0.266058 -0.434825 -0.333762 -0.353051 -0.155453 1.066097 -0.9511589999999999 0.8303560000000001 0.738548 -0.600639 -0.719435 -0.153791 0.045985 0.32995399999999997 0.247818 -0.46847099999999997 0.562386 -0.679712 -0.581467 -0.07785500000000001 -0.180159 -0.688357 0.45335 -0.23956 -0.35940900000000003 -0.816986 -0.13377 0.657778 0.482178 0.981619 -0.19474000000000002 -0.541004 0.769544 -0.111744 0.641197 -0.040447999999999984 0.348539 0.35805 0.0002449999999999952 -1.251692 -0.036303 -0.010616 0.431035 -0.586562 0.7422 -0.35253 -0.198737 0.628342 -0.11865699999999996 -0.41022000000000003 0.38840300000000005 0.6858960000000001 -0.0007670000000000038 -0.02671599999999999 0.5362089999999999 -0.8541799999999999 -0.49545399999999995 -0.19773999999999997 0.095654 -0.434724 0.77443 1.098352 0.5676640000000001 -1.050816 0.425912 -0.156476 0.262491 0.9903709999999999 -0.24455600000000002 0.044888999999999984 -0.589777 -0.580524 -0.76623 0.010671 0.07388399999999998 -0.021554000000000004 0.39596299999999995 -0.168165 -0.49915699999999996 -0.584364 -0.130687 -0.655234 -0.232755 -1.028169 -0.073417 0.636925 -0.8356680000000001 -0.24351899999999999 0.979693 0.26325600000000005 -0.31594199999999995 0.417336 -0.567069 -0.243734 0.060444 -0.06821500000000003 0.829402 0.40442 -0.559724 0.042473 -0.836013 -0.794636 0.641594 0.046185000000000004 -0.576033 -0.792997 0.03922200000000001 -0.07464399999999999 0.25415299999999996 0.198685 0.46013899999999996 0.21605400000000002 0.452489 0.259903 0.092582 0.574325 0.14981 0.704784 0.8443430000000001 0.30406 0.530014 -0.9423279999999999 0.43753800000000004 0.051140000000000005 0.192518 -0.22572500000000004 -0.32900799999999997 0.850765 0.281359 0.304174 0.607821 0.516463 -1.078969 0.09163300000000002 -0.206555 -0.29758 0.11694000000000002 0.12807 -0.05659800000000001 0.5818220000000001 0.973252 0.547746 0.403186 -0.48646600000000007 -0.616879 -0.232057 0.10932600000000003 -0.47931199999999996 -0.482517 0.24658200000000002 0.5760080000000001 -0.644193 0.913864 1.0854460000000001 0.46768400000000004 -0.605545 -0.55036 0.572701 0.238697 0.100737 -0.578777 0.458059 -0.9632499999999999 -0.17212 -0.24761099999999997 0.5890770000000001 -0.734038 -0.219144 1.090027 0.306544 0.6397360000000001 -0.19109600000000002 -0.878638 -0.664749 -0.41555000000000003 -0.551551 0.663002 -0.510194