mid-weight -0.34800699999999996 -0.520216 0.375208 -0.46189100000000005 -0.22722199999999998 -0.541042 -0.497329 -0.360189 -0.10159499999999999 1.128601 -0.340912 -0.44676899999999997 0.549226 0.171938 0.507612 -0.404059 0.35421400000000003 -0.71599 -0.049399999999999986 -0.360588 0.01794499999999999 0.407307 -0.088344 0.058367 0.22026399999999996 -0.175735 0.411258 -0.33463 0.6902280000000001 0.685996 -0.469622 0.262896 -0.673426 0.280084 -0.480294 0.12149499999999999 -0.24851499999999999 -0.47301400000000005 -0.028697999999999946 0.717083 0.37813399999999997 -0.246104 -0.380189 0.43791800000000003 -0.848809 -1.0264419999999999 0.43288800000000005 0.176569 -0.517167 -0.791632 -0.21833799999999998 0.384358 -0.309507 0.471626 0.348888 0.697162 0.419734 0.734216 0.36495500000000003 -0.46473 -0.630456 0.07369700000000001 -0.617319 0.253289 -0.180555 0.025509000000000004 0.14218 0.036701 0.343694 -0.198735 0.19428299999999998 -0.337853 0.49418799999999996 -0.060240999999999996 -0.294485 0.27922199999999997 0.0031020000000000006 0.052987000000000006 -0.03029499999999999 0.332577 0.013088000000000016 0.011769000000000002 -0.14398 0.113662 -0.36911700000000003 -0.633095 0.57336 0.11063200000000001 0.171759 -0.04417299999999999 -0.033263 -0.194803 -0.965166 -0.40295000000000003 0.6808939999999999 -0.167325 0.130387 0.25408000000000003 -0.215188 -0.365257 -0.769082 0.422516 0.814103 -0.369835 0.786516 -0.433957 -0.182025 0.017557000000000003 0.375516 0.47181899999999993 -1.004826 -0.373498 -0.462189 0.28794299999999995 0.09965600000000002 0.357652 0.013076000000000004 -0.429844 -0.442041 -0.118176 0.5101100000000001 -0.6079600000000001 -0.429564 -0.107223 0.31187299999999996 -0.7531370000000001 0.4436 0.25893900000000003 -0.233977 0.214493 -0.095473 0.615011 -0.460676 -0.207681 0.18657400000000002 0.182697 -0.817998 0.21629700000000002 -0.204587 0.223906 -0.365981 0.515003 -0.536286 -0.09489 -0.054734000000000005 0.24086900000000003 0.11723299999999999 -0.528845 0.8754630000000001 0.290386 -0.323554 -0.253497 -0.125369 -0.363728 0.008822999999999998 0.35893 0.14024999999999999 0.34718899999999997 -0.11434 -0.340747 -0.322671 -0.515482 -0.814983 0.18222 0.040126999999999996 0.205641 0.23818899999999998 -0.777676 -0.007508000000000001 0.23148999999999997 0.420582 0.134826 0.120389 0.66037 -0.666846 0.183585 0.984272 -0.6071930000000001 -0.09849899999999998 -0.495213 -0.258301 -0.981419 0.389036 -0.293253 0.05081600000000001 -0.23275400000000002 0.27739199999999997 -0.531884 -1.098574 0.43240300000000004 0.091001 0.571735 -0.206837 -0.189222 -0.364202 -0.30970000000000003 -0.018414999999999994 0.185105 -0.283498 0.40685099999999996 -0.56493 -0.40016299999999994 0.262149 0.040242 0.016871999999999998 -0.8154779999999999 -0.148984 0.142494 -0.7104079999999999 -0.44816999999999996 0.14432299999999998 0.9383589999999999 0.06994999999999998 -0.394227 -0.477418 0.40975000000000006 -0.218648 -0.664918 0.302143 -0.051827 -0.16088400000000003 0.263961 -0.39776500000000004 -0.60252 1.9908449999999998 0.629918 0.5389039999999999 -0.9260010000000001 0.5893120000000001 -0.7314240000000001 0.24288200000000001 1.32589 0.882888 0.11965100000000001 0.385156 0.238947 -0.07089 0.255172 0.001917000000000002 0.73967 0.30838299999999996 0.04921399999999998 -0.270518 -0.862887 0.659752 0.46947300000000003 0.18019400000000002 -0.249671 0.165763 -0.066362 0.793283 -0.36111499999999996 0.615421 0.648306 -0.450025 0.11432699999999998 0.296211 -0.24712 -0.30936600000000003 0.32511500000000004 -0.307037 0.321499 0.401999 0.576125 0.272186 0.724848 -0.28827 0.193433 -0.15926099999999999 -0.44131 -0.8387439999999999 0.284072 0.334591 0.148362 -0.022711999999999996 -0.158447 0.018680000000000002 -0.433501 -0.310758 0.326595 0.7808459999999999 -0.20385999999999999 0.28901099999999996 -0.06947799999999998 -0.654335 -0.786659 0.320726 0.402289 0.07208200000000001 -0.660204 0.13901099999999997 0.264667 0.794254 0.256501 -0.010155999999999998 -0.7641089999999999 -0.213907 -0.032110000000000014 0.49005899999999997 -0.106022