middleweights 0.283366 0.774768 0.35778 -0.072105 0.054646 -0.325959 -0.276426 -0.786373 -0.695709 -0.28305199999999997 -0.050954 -0.346298 0.31931 0.6914199999999999 -0.21735 -0.11654499999999998 -0.5907479999999999 -0.387156 -0.653776 0.27908299999999997 0.210866 -0.116381 0.197956 1.051661 0.37965499999999996 -0.298642 -0.301645 0.32478700000000005 0.274292 0.570017 -0.329469 -0.106107 -0.04955799999999999 0.251205 -0.42408 0.6164860000000001 -0.058917 0.322554 -0.486584 0.20502700000000001 0.388671 0.169783 -0.409692 0.002713999999999994 -0.163568 0.509093 -0.43330499999999994 -0.125344 0.173129 0.32515099999999997 0.540759 -0.161348 -0.7127380000000001 -0.210263 0.941758 -0.370951 0.22613899999999998 0.436625 0.54081 0.018385999999999986 0.22454800000000003 0.575521 -0.34168 -0.007678000000000004 -0.443793 -0.275788 -0.725752 0.12924200000000002 -0.17351999999999998 0.25149900000000003 -0.559026 -0.76666 0.061831 0.738467 -0.063385 -0.66351 -0.662702 0.716941 -0.250185 -0.03913699999999999 0.269322 0.403224 -0.065743 0.03941700000000001 -0.577762 0.650082 -0.438732 0.34186300000000003 0.202073 -0.486275 0.053181000000000006 -0.533261 -0.0029819999999999985 -0.217853 1.013329 0.421891 -0.165553 0.0004590000000000011 0.011687999999999997 0.197305 0.530705 -0.031752 0.558871 -0.189999 0.116862 -0.129392 0.12691000000000002 0.306418 0.209524 -0.227272 0.154395 0.0005840000000000012 0.146227 0.617333 -0.08539 0.269548 0.506697 -0.25767300000000004 0.061447 -0.10617400000000002 1.11184 -0.559817 -0.05638 -0.497943 0.400652 -0.043662999999999993 -0.438889 0.234866 0.055928000000000005 0.189849 0.029803000000000003 -0.223575 -0.42833099999999996 -0.155246 0.248349 0.32913000000000003 -0.255127 -0.050315 0.026250999999999997 -0.153392 0.13555 -0.30036399999999996 0.03576399999999999 0.561096 0.534356 -0.07905099999999998 0.677083 0.865774 0.48597100000000004 0.09408399999999999 -0.454653 -0.309648 -0.928164 -0.295105 -0.538249 0.117638 -0.308827 -0.08156700000000001 -0.028103000000000017 -0.428079 -0.753676 0.05971399999999999 -1.139122 0.152799 -0.44403099999999995 1.265845 -0.165289 -0.801451 0.14355699999999996 0.905351 0.848652 0.30548 0.08446300000000001 -0.9423870000000001 -0.04381700000000002 -0.024100999999999997 0.7337049999999999 -0.32327300000000003 -0.19810900000000004 0.259649 0.102096 -0.618781 0.623409 0.13367400000000002 0.025471999999999995 -0.031705999999999984 0.326553 -0.07513599999999998 0.720341 0.553036 0.300309 0.40362400000000004 0.309083 -0.13835999999999998 -0.512777 -0.382738 -0.08546400000000001 -0.084185 -0.357378 -1.207093 0.5771040000000001 -0.8231010000000001 0.7435430000000001 -0.153518 0.396065 -0.02172700000000001 0.06359299999999998 -0.367372 -0.697954 0.179058 -0.205274 0.769513 -0.421876 0.31230600000000003 0.139222 0.0012649999999999953 0.296302 -0.500722 -0.501275 0.7762509999999999 0.411434 0.7115400000000001 -0.228948 -0.322388 -0.022971999999999992 -0.140233 0.022261 0.102026 0.281505 -0.369027 0.009595999999999993 1.333883 0.31191599999999997 0.016853 -0.314176 -0.5447329999999999 0.127675 0.448967 -0.0024159999999999997 1.202079 -0.01030600000000001 -0.487549 -0.165437 -0.821439 0.35551 0.138897 -0.014057000000000014 0.163901 -0.291496 0.42334400000000005 -0.178531 -0.49787200000000004 -0.015418000000000001 0.15778299999999998 -0.20374399999999998 -0.318185 -0.25861 0.667646 0.012624 -0.018759 0.65997 0.365438 -0.712857 0.372899 -0.032404000000000016 0.090973 0.1125 -0.633716 0.497966 -0.140668 -0.20414 -0.49865400000000004 0.0036749999999999977 -0.8898679999999999 1.10988 0.6619200000000001 -0.727877 -0.246899 0.03713200000000001 0.017334000000000002 -0.08391800000000005 -0.16947099999999998 -0.061231999999999995 0.15602 0.073361 0.598096 0.957428 0.323621 -0.098696 -0.872444 0.32502200000000003 -0.02696699999999999 0.40688500000000005 -0.06059199999999999 -0.17917 0.17358600000000002 0.105647 0.420989 0.52628 0.407674