middleweight -0.494282 -0.11266400000000001 0.551277 -0.056986 -0.218993 -0.37994300000000003 0.210069 -0.903852 -0.195767 -0.212977 -0.23197299999999998 -0.711545 0.564396 0.21338200000000002 -0.9580759999999999 -0.404395 0.12344300000000002 -0.088834 -0.780206 0.5318080000000001 -0.090602 0.390454 0.250484 1.179409 0.303973 -0.6135390000000001 0.056228 0.7486999999999999 0.258207 0.7555799999999999 -0.022885000000000003 0.582374 -0.286564 -0.264183 -0.069556 -0.365373 0.87243 0.767773 -0.267446 0.137683 -0.33605700000000005 -0.121371 -0.383318 -0.08358499999999999 0.274308 0.5289619999999999 -0.20396399999999998 -0.7276389999999999 0.852043 0.04034599999999999 -0.44064000000000003 0.32254 -0.344717 0.594711 1.099348 -0.347131 1.02917 0.438929 0.5583549999999999 0.081767 0.14756199999999997 0.801458 -0.186118 0.079986 -0.631545 -0.007603000000000026 -0.473292 0.136816 0.310869 0.651311 -0.08138100000000001 -0.71477 -0.22517399999999999 0.140703 -0.624636 -0.23720299999999997 -0.354544 0.556657 -0.341945 0.254935 0.138224 0.11334799999999998 0.169949 0.657446 -0.33805199999999996 0.622654 -0.016049 0.261482 0.474534 -0.39218600000000003 -0.164298 -0.063433 -0.244721 -0.380317 0.574762 0.45677200000000007 -0.027144 -0.162358 0.065419 -0.121975 1.0528600000000001 0.00162 0.061307 -0.380176 0.40347900000000003 -0.327397 0.652218 0.383135 0.885907 -0.111531 0.182013 -0.047992 0.392847 0.449784 -0.38865 1.1392069999999999 0.431839 -0.23136 -0.407713 -0.066968 1.26939 -0.26006999999999997 -0.062382999999999994 -0.149333 0.701239 -0.238036 -0.337508 0.624678 -0.284647 0.18269000000000002 -0.076676 0.099191 -0.618946 -0.010509999999999992 0.249471 -0.084394 -0.446059 0.471946 0.06187899999999999 0.314399 0.323172 -0.162507 -0.148688 0.40177999999999997 0.49481699999999995 -0.406987 0.617469 0.718391 0.347791 0.08155200000000001 -0.025358 -0.112338 -0.22675 -0.5067010000000001 0.429384 0.777648 0.248158 0.534064 0.045335 -0.333335 -1.03402 -0.07804 -2.6869050000000003 -0.06099799999999998 -0.667442 0.675843 -0.30455299999999996 -0.965556 -0.03700300000000001 0.642595 0.6308469999999999 0.09800099999999999 0.37135 -0.353345 0.309339 -0.173215 0.32170699999999997 -0.623719 -0.172375 -0.6217820000000001 0.41319 0.313928 -0.380815 0.15992800000000001 0.025849999999999984 -0.347197 -0.469214 -0.68489 0.674679 0.12118799999999999 0.719947 1.129729 -0.15372899999999998 0.776234 -0.152224 -0.394256 -0.399932 -0.23325600000000002 0.138205 -1.102284 0.25954 -0.841321 0.345912 0.011179000000000001 0.461326 -0.6593519999999999 -0.297875 0.148349 -0.379456 0.10108199999999998 -0.35366200000000003 0.9268190000000001 -0.22540899999999997 0.659524 -0.07119399999999998 0.009112000000000009 0.277941 -0.850545 -0.356138 0.01247200000000001 -0.01577300000000001 0.801099 -0.44423 -0.220634 0.030238000000000015 0.38846600000000003 -0.895405 0.40877 0.505185 -0.35547300000000004 0.233138 1.870335 0.301734 0.236344 0.309861 -0.6363479999999999 0.753319 0.803102 -0.03820899999999999 0.29024700000000003 -0.199363 -0.13987100000000002 0.326747 -0.324716 -0.315709 0.292716 -0.32742899999999997 0.13830000000000003 -0.13598299999999997 0.614341 0.197666 0.250058 -0.08886900000000003 0.075245 -0.14572400000000002 -0.10656900000000001 -0.212802 0.439656 -0.096577 0.5197579999999999 0.557129 0.41842 -0.539691 0.49663 0.351445 0.13025 -0.259412 -0.477661 0.344136 -0.13805800000000001 -0.180169 -1.050671 0.053481 -0.174582 0.550833 0.412563 -0.8205330000000001 0.03608 0.087457 -0.02824 -0.350173 0.23986800000000003 -0.16876799999999997 0.155549 -0.05649 0.306456 0.8165150000000001 0.669156 -0.705935 -0.42902199999999996 0.28624499999999997 -0.095488 0.031244 -0.208213 -0.36459199999999997 -0.507895 -0.278732 -0.177587 0.434848 -0.27790000000000004