midweight -0.331834 -0.166579 0.49391299999999994 -0.725889 -0.15995700000000002 -0.430407 -0.6479729999999999 -0.47703300000000004 0.387926 1.242537 -0.007724999999999982 -0.940242 0.491973 -0.467962 0.563475 -0.187962 0.78107 -0.707634 0.222776 -0.58372 -0.36978 0.024713 0.108134 -0.206633 0.4793 0.283889 0.612363 -0.20744300000000002 0.55692 0.6442209999999999 -0.469406 0.510951 -0.53788 0.42343200000000003 0.04239500000000007 -0.274003 -0.129162 -0.421013 -0.016009999999999996 0.87981 0.24482900000000002 -0.634424 -0.359695 0.336287 -1.066846 -0.789209 0.548184 -0.007741000000000001 -0.835039 0.139491 -0.16616 0.162182 -0.662825 0.322391 0.439671 0.873566 0.768674 0.997525 0.457431 -0.527431 -0.583036 0.116435 -0.795784 0.24239300000000003 0.119307 -0.543582 0.38892100000000007 0.501906 0.924847 -0.423303 0.038579 -0.248481 0.180027 -0.47986100000000004 -0.25598299999999996 -0.05135999999999999 0.112919 -0.14853700000000003 0.58232 0.634026 0.101746 0.218553 0.12058200000000002 -0.005728000000000011 -0.093195 -0.54139 0.583576 0.05100300000000002 0.007266999999999996 0.420079 0.044733999999999996 -0.467657 -0.9387240000000001 -0.048406000000000005 0.319267 -0.22181800000000002 0.21843200000000002 0.672478 0.069548 -0.051743 -0.698865 0.301815 0.870181 -0.399175 0.779125 -0.304034 -0.5519130000000001 -0.04374 0.710596 0.33437900000000004 -0.065702 -0.7661640000000001 -0.702848 0.18891000000000002 0.063192 0.454223 -0.270916 -0.24343299999999995 -0.11765799999999998 -0.356701 0.340811 -0.696321 -0.737766 -0.208429 0.19100999999999999 -0.8184009999999999 0.09820899999999999 0.470966 0.105882 -0.099956 -0.25231499999999996 0.40998500000000004 -0.04982099999999999 -0.248798 0.451267 0.08570899999999998 -0.343336 0.142263 0.072547 0.355842 -0.16952099999999998 0.693998 -0.060916 -0.011164000000000007 -0.016215999999999998 0.785076 0.259554 -0.09283 0.903701 0.620367 -0.06963699999999999 0.015496000000000003 -0.339889 -0.096991 0.021726999999999996 0.50161 0.072906 0.258341 -0.466104 -0.20796000000000003 -0.04800199999999999 -0.5482309999999999 -1.245808 0.272914 -0.09328900000000001 0.13608199999999998 -0.023365999999999998 -0.5735899999999999 0.019324999999999995 -0.040750999999999996 0.173533 0.343015 -0.125584 0.772046 -0.191019 0.527811 0.934461 -0.287648 0.214153 0.090483 0.11874399999999999 -0.471788 0.092362 0.341097 0.05382099999999998 -0.297624 0.152429 -0.948418 -0.876962 0.661547 0.455152 0.429999 -0.142953 -0.32202499999999995 -0.639558 -0.363223 0.44211100000000003 0.7410220000000001 -0.155858 -0.038835999999999996 -0.03176899999999999 -0.493101 0.776188 0.530419 0.36326400000000003 -0.207921 -0.253866 0.180013 -0.555187 -0.587741 0.542016 1.281655 -0.020491999999999982 -0.45262899999999995 -0.7794209999999999 0.43828000000000006 0.049989000000000006 -0.853625 0.12606900000000001 0.11624200000000001 -0.08263200000000001 1.0135100000000001 -0.113209 -0.728259 1.807161 0.791791 0.459433 -0.903731 0.5412440000000001 -1.044503 0.35350800000000004 1.468364 0.768418 0.397023 0.675769 0.011709999999999998 -0.409313 0.38578199999999996 0.027658999999999996 0.87971 0.9163939999999999 0.04683700000000002 -0.512275 -0.491745 1.011525 0.418351 0.424191 0.194087 0.723919 -0.125818 0.167964 -0.449767 0.40353 0.555269 -0.515 -0.347269 -0.12353400000000003 -0.21314600000000003 0.0002030000000000018 0.04971800000000001 -0.015054000000000012 0.35318499999999997 -0.17142000000000002 0.47406400000000004 0.762544 0.648907 -0.145231 0.163228 0.209825 -0.28828600000000004 -0.616328 0.38641 0.499401 -0.28993599999999997 0.230221 0.383741 -0.638941 -0.470052 0.050055 0.209931 0.595093 -0.320165 -0.10147199999999998 -0.22977999999999998 -0.7651030000000001 -0.486677 0.44115 0.577456 0.453739 -0.373158 0.22079100000000002 0.05182199999999999 0.5328649999999999 0.05838600000000001 0.074569 0.089136 0.134019 -0.019037000000000002 -0.15086699999999997 0.21040499999999998