minimumweight -0.083894 -1.128522 0.833969 0.371165 0.15786 0.304534 0.961818 0.15996700000000003 -0.47690899999999997 -0.287052 1.018718 -0.04916600000000004 0.42061000000000004 0.5291619999999999 -0.22618700000000003 0.350765 -0.42291500000000004 -0.831279 -0.274059 0.220341 0.254784 0.183866 1.057031 0.411226 0.583352 0.25609899999999997 0.16676300000000005 1.229358 0.3976679999999999 0.46258 0.7924500000000001 1.105127 -0.10384699999999997 0.28745600000000004 -0.839654 -1.179112 0.018913000000000003 0.57131 -0.573868 -0.061894000000000005 -0.401303 -0.9419449999999999 -0.876556 0.7443230000000001 -0.7206049999999999 0.89413 -0.051294000000000006 -0.06869800000000001 0.029509000000000007 -0.497275 0.8537859999999999 -0.6062810000000001 -0.24179 0.371465 1.3295569999999999 0.663853 1.01413 -0.37839100000000003 0.015664 -0.830876 -0.351177 0.718605 1.395887 0.46776399999999996 -0.636872 -0.100378 0.422646 0.711341 0.31586800000000004 -0.635584 0.16812699999999997 0.04036600000000001 0.417479 0.14660799999999996 -0.543784 -0.02327199999999996 -1.111745 0.501915 -0.304426 0.17406 0.708437 0.683137 -0.08327999999999999 1.4918 0.21110399999999999 1.655561 0.10247499999999998 -0.06678299999999998 0.119838 -1.03811 -0.215912 0.384325 -0.348483 0.34474499999999997 -0.007560999999999998 0.231486 -0.568764 -0.47841900000000004 -0.40262000000000003 -0.799662 1.452598 0.37861300000000003 0.09695400000000004 -0.567885 1.815145 -0.06841499999999999 0.652985 -0.606669 0.018643999999999994 0.866402 -0.655184 -1.085311 -0.80668 0.433021 -0.6279159999999999 0.0012550000000000061 0.45925900000000003 0.615111 -0.42069300000000004 0.015527 0.880277 0.30736800000000003 0.581447 -0.09141200000000001 0.082625 0.572489 -0.10312900000000003 0.334104 -0.273099 -0.43409499999999995 -0.32275600000000004 -1.2827060000000001 -0.16638800000000004 0.6388750000000001 0.811961 -0.63526 -0.10230500000000003 -0.306666 -0.36749499999999996 0.039167 -0.064721 -0.06975799999999993 -0.24948099999999998 -0.670838 -0.9547669999999999 0.893286 0.31074999999999997 0.817565 -0.476761 0.471761 0.5239480000000001 0.061348000000000014 0.555199 -0.046488 0.00350700000000001 0.838174 0.772259 0.19210400000000005 -0.948118 -0.245934 -1.2816809999999998 -0.300673 -0.987104 -0.957356 -1.057657 0.36294099999999996 0.362545 -0.40826300000000004 -0.358586 -0.2565 0.292056 -0.162848 0.524404 -0.180876 0.028919000000000028 -0.07302 -0.187013 -1.298822 0.04135900000000001 -0.07705300000000001 0.37794099999999997 -0.475734 -1.1117569999999999 -0.23103200000000002 1.151893 0.275862 -1.314246 -0.844378 1.1472829999999998 0.097788 0.12339899999999998 1.3164529999999999 -0.578116 0.14280299999999999 0.651513 -0.281365 -0.498358 0.4447040000000001 -0.381842 -0.450186 -0.288446 -0.21507200000000004 0.588546 0.031344 0.13778800000000002 -0.458581 -0.338602 0.002696000000000004 -1.342004 -0.902995 0.159806 0.992334 0.41748999999999997 0.454032 -0.10164000000000001 -0.332992 0.557745 0.355882 -0.10504799999999997 0.20709299999999997 -0.10506399999999999 0.332408 0.06961300000000001 0.101883 -0.303108 0.625057 0.041133 -0.10297300000000004 0.863603 0.06150799999999998 -0.671507 0.489127 0.148397 0.519746 0.047353000000000006 0.461193 0.25769899999999996 0.845349 0.6919160000000001 0.6078079999999999 -0.050305 0.118576 -0.773532 0.033112 -0.319118 -0.362679 -0.813678 0.03222199999999997 1.908007 0.41991599999999996 1.172547 0.9099700000000001 -0.8986020000000001 -0.04759599999999997 0.10165000000000002 -0.39077 -0.277831 0.16397 -0.19178499999999998 0.26277300000000003 -0.315678 -0.19599800000000003 0.10333600000000001 -0.14426899999999998 -0.5081169999999999 0.779046 1.796095 -0.583547 -0.007263999999999993 -0.284068 -0.329132 -1.4170220000000002 -0.536955 -0.2502 0.5622119999999999 -0.192405 0.04442299999999999 0.41896599999999995 -0.5085189999999999 0.756445 -0.9980479999999999 0.383518 0.07927700000000004 -0.46820700000000004 0.805849 0.686198 -0.05987899999999999 0.520411 -0.11284399999999999 0.25927300000000003 0.128579 0.7505900000000001 -0.09501000000000001 -0.275312 -1.068779 0.496076 -0.103012 0.09590900000000001 0.24042200000000002 0.08088499999999998