mmweight -0.764932 -1.7426299999999997 4.629125999999999 0.059599999999999875 -3.129977 -0.622618 2.386567 1.820328 2.003907 0.601603 -1.358758 2.388234 -0.022845999999999922 -0.9990699999999999 2.4920999999999998 2.910184 0.2960769999999999 -0.185099 -0.619621 -0.52985 0.80402 1.602935 0.534879 1.747721 1.310532 -1.413071 -2.491482 2.292421 0.6276889999999999 2.311387 0.246576 0.37419900000000006 0.013938000000000006 2.200705 -1.638901 -2.242444 0.791789 0.34767999999999993 0.522616 -0.46671399999999996 1.119022 3.2581409999999997 -0.439669 -0.397379 -1.218911 0.622679 -2.040655 1.6774870000000002 -2.46062 2.028812 0.15717599999999998 -1.660677 -2.019497 2.4339199999999996 -0.039146 -2.552842 0.29064199999999984 0.959129 1.713391 -1.277393 0.799067 3.4123780000000004 2.520047 -2.131697 0.757821 -0.955957 -0.477918 -1.758813 0.814324 -0.16829099999999997 0.923232 -0.860933 -0.39485099999999995 0.753528 2.31968 0.184867 0.408045 2.456442 -0.720344 -0.640865 0.09168699999999999 0.483235 -0.980382 -0.1255719999999998 3.434777 -0.732418 0.211079 3.8131709999999996 2.353141 -0.14450300000000005 1.27344 2.1111009999999997 1.771386 -0.22619200000000006 -0.14003400000000002 0.005760999999999905 0.44110000000000005 -1.873465 0.37608099999999994 -1.105777 1.143285 1.109422 -0.6299460000000001 2.681563 -1.5913430000000002 1.349286 -0.09058 1.400319 -2.688535 -1.203378 0.946156 -1.4578829999999998 -2.991597 0.659891 0.3555980000000001 0.930937 2.857259 -1.39455 -0.778031 0.8502850000000001 0.10077 0.375796 2.158855 2.8265849999999997 1.005296 -0.15541500000000008 0.589804 -0.7029770000000001 0.5231870000000001 0.00933700000000004 0.491549 1.5856489999999999 -0.8628310000000001 -0.023536000000000015 0.195588 0.39339199999999996 -0.50357 -1.010325 -0.576174 -0.8591599999999999 0.601979 1.8366850000000001 0.743093 0.462839 0.27599799999999997 -0.078668 -0.508921 0.83431 0.770329 -1.538591 0.06942700000000013 -3.754881 -1.089763 1.326022 0.616838 -3.3119 0.508945 -0.602263 -0.12699900000000008 -1.6006230000000001 -1.1269390000000001 -0.51725 -3.040766 -3.251773 -1.643091 -0.40195600000000004 -3.153918 1.457623 -1.3383219999999998 -1.6144880000000001 2.374984 0.100231 -2.5727130000000002 -1.265405 -0.10035899999999998 -0.6067069999999999 5.171518 -2.832546 1.222914 -2.127199 -2.275693 -0.793034 1.671058 0.527231 -0.8317760000000001 -0.2633669999999999 -0.9561630000000001 2.057165 2.104542 0.5588089999999999 -2.6523309999999998 -0.539828 -0.9715989999999999 0.21552100000000002 3.6339319999999997 -0.5852269999999999 0.17306699999999997 -1.0473210000000002 -1.668778 -0.8118930000000001 1.100791 -1.069937 0.34829599999999994 0.537011 0.10686499999999999 -0.7623589999999999 1.1133629999999999 2.261192 1.679865 -0.51713 -0.116973 3.276034 1.795325 -0.906619 0.829612 1.760371 -0.2677 -1.7110400000000001 -0.21003900000000003 0.7796409999999999 -0.23389099999999996 -0.281875 -1.7741980000000002 -0.058064000000000004 2.296571 -0.08138499999999993 2.410483 -0.357562 0.013627999999999973 -1.204628 -0.14013499999999998 -0.28458500000000003 2.026953 1.296274 -2.38394 -1.093612 2.277323 0.9878210000000001 -0.392978 0.8492899999999999 0.9453469999999999 -1.9888710000000003 1.133116 -0.9235429999999999 -1.7159719999999998 -1.238664 -0.340967 0.5873459999999999 -0.103569 -2.370969 0.060785000000000006 -0.9387590000000001 -3.911446 -0.957729 -1.7193969999999998 -1.367702 -1.5365799999999998 -1.765029 0.6142810000000001 -0.958587 -1.367321 4.55307 0.7086049999999999 0.731375 0.39857200000000004 -1.844046 1.490763 0.40220599999999995 -2.131634 1.2480749999999998 0.04627200000000009 0.35324500000000003 -0.598352 -0.8335210000000001 -3.070884 -0.6248090000000001 1.8292580000000003 0.040210000000000024 -0.388961 -1.8593250000000001 -0.13646899999999995 0.8758319999999999 -1.79592 -3.296546 -0.221771 0.908832 1.840043 -0.943971 1.416468 1.071875 -1.3570010000000001 1.46239 1.474774 -0.20190599999999992 -2.2384560000000002 -0.109342 2.678483 -1.456962 1.484429 -0.11785000000000001