multi-weight -0.233132 -0.491168 -0.045631 0.426264 0.219275 -1.188944 0.701586 -0.117069 0.20585 -0.30030599999999996 -0.063414 -0.24888100000000002 0.46418800000000005 0.362193 0.7276119999999999 -0.642992 -0.15037 0.08483500000000001 -0.581082 0.325253 -0.883664 0.26694200000000007 0.177485 0.36176800000000003 -0.681217 0.372715 -0.111456 -0.691553 0.1582 1.081851 -0.6381830000000001 0.24335 -0.613012 -0.816297 0.034848000000000004 0.33443 -1.3931170000000002 0.105221 0.330751 -1.055655 -0.43411600000000006 0.798727 -0.20395699999999997 0.32037099999999996 0.029412 -0.006790000000000018 -0.493573 0.362019 -0.37259699999999996 -0.195356 0.04625699999999999 0.748644 0.460909 -0.27585099999999996 0.012406000000000028 0.537246 1.737206 0.522405 -0.386792 -1.528097 -0.652286 0.638579 -0.34721599999999997 0.28826300000000005 -0.156974 0.042846 -0.0012840000000000074 0.551327 -0.682154 -0.374848 0.18242200000000003 -0.622037 0.621413 0.065134 -0.029989000000000016 -0.009706999999999966 -0.19170900000000002 0.592115 -1.030718 -0.164342 -0.145615 0.416977 -0.176722 -0.40266199999999996 0.136112 0.816325 0.549262 -0.041891 0.572487 -0.167012 -0.139428 0.335728 0.721274 0.040874999999999995 0.40034200000000003 1.045972 -0.331185 -0.587969 0.249084 -0.021247000000000016 0.686151 0.07991599999999999 0.6280169999999999 -0.19251000000000001 0.17818 0.32345 0.11393599999999998 -0.33300399999999997 -0.067305 0.30378499999999997 0.151467 -0.19917600000000002 0.53061 0.244552 0.098657 0.7394 0.398053 -0.005993999999999999 0.14315000000000005 0.17763 0.403258 -0.672748 0.8123819999999999 0.428159 0.819296 -0.41558100000000003 0.11512800000000001 -0.13478 -0.8106990000000001 0.107207 0.276048 0.152657 -0.969544 0.235553 -0.615755 -0.6052649999999999 -0.06466099999999997 0.14838099999999999 0.417099 1.035693 0.255566 0.782101 -0.04418999999999995 0.483897 -0.043095999999999995 0.136841 -0.383834 1.3078319999999999 -0.20445999999999998 -0.308017 0.154549 0.595349 -0.255403 0.251449 0.294486 0.849844 -0.078461 -0.5031049999999999 0.22274 0.029341 -0.5921580000000001 0.298633 -0.008267999999999998 -0.15179499999999999 -0.149758 0.524172 0.06842599999999999 -1.073195 -1.180814 0.770343 0.11732100000000001 -0.206692 -0.918524 -0.41953799999999997 0.06532000000000002 0.43291 0.149167 -0.546381 -0.24183299999999996 -0.370315 -0.248035 0.8523550000000001 -0.426312 0.075281 0.723668 -1.031672 0.27039399999999997 -0.133889 -0.847938 0.430677 -0.08136100000000002 0.353174 -0.912853 0.586502 0.11579899999999999 -0.05051 -0.392635 0.727798 0.22298700000000002 -0.42950900000000003 -0.09370800000000001 0.11855700000000002 -0.756368 -0.901233 -0.14865099999999998 -0.160897 -0.131806 0.448929 0.07850099999999999 -0.443462 -0.258251 0.044353000000000004 -0.078652 0.147178 -0.544496 -0.41822000000000004 0.815179 -1.1372900000000001 -0.016950999999999994 0.19491599999999998 0.21159700000000004 0.399678 -0.986382 0.628409 0.890698 -0.411049 -0.30257 -0.6346579999999999 -0.366032 -0.635522 -0.681848 0.139271 0.555145 -0.014679000000000001 0.6721739999999999 -0.4978 0.214371 0.472243 0.093813 0.580639 -0.8569899999999999 -1.045936 -0.6744779999999999 -1.012031 0.308401 -0.724445 -1.457564 0.11539500000000001 1.0121660000000001 -0.181395 0.803254 -1.094178 0.5682720000000001 -1.337983 0.247193 0.07417300000000002 1.034019 -0.700347 -0.581129 1.094455 -0.452612 0.698608 -0.9978279999999999 0.545868 -0.34397599999999995 0.234922 -0.168538 -0.06894699999999998 -0.003637999999999999 0.014525999999999983 0.34790099999999996 -0.144019 -0.779903 0.951141 0.41515199999999997 1.014055 0.44143600000000005 -0.198523 0.6328229999999999 -0.38633100000000004 0.000342000000000002 -0.319873 -0.09621400000000001 -0.073456 -0.49342199999999997 -0.110573 0.277285 -0.08077899999999999 -0.428315 -0.579224 0.9999950000000001 -0.044076000000000004 -0.06616899999999998 -0.701155 -0.22128199999999998 -0.466188 -1.179857 -0.806784 -0.469756 -0.357105