non-overweight -0.47716899999999995 -0.36756500000000003 0.938662 0.717498 -0.342074 -0.298168 -0.297936 -0.9195009999999999 0.0023219999999999977 0.28506 0.482068 -0.228716 0.136963 -0.732913 -0.086399 -0.25091199999999997 -0.611453 -0.141376 0.17341099999999998 0.21133299999999997 -0.23501599999999997 -0.24097200000000008 0.561693 -0.19377999999999998 -0.02725299999999997 -0.054479 0.542542 0.846097 0.064499 -0.6632979999999999 -0.693559 0.219993 0.21164299999999997 0.323447 0.177654 0.334433 -0.059225 0.012391000000000013 -0.257171 0.190615 0.44560500000000003 -0.712001 -0.431497 -0.12231600000000001 -0.40047 0.809417 0.678998 0.125405 -0.45114200000000004 0.9516070000000001 0.716481 -0.240976 -0.542897 0.17214000000000002 0.694643 0.338767 0.125968 0.50397 -0.361749 0.004000999999999977 -0.668601 0.195165 -0.540564 0.549411 0.005909999999999999 -0.05219300000000002 -0.6633439999999999 -0.177506 -0.6684969999999999 0.009010000000000004 0.053335999999999995 0.31402199999999997 0.49459699999999995 0.154713 -0.39052499999999996 -0.632193 -0.020171 -0.5569999999999999 0.445048 0.40746699999999997 -0.062383999999999995 1.0463179999999999 0.055293999999999954 -0.394984 0.988247 0.454054 -0.188662 0.178722 0.05363200000000001 -0.268081 0.467693 -0.149618 0.231269 0.256088 -0.14305400000000001 -0.04149599999999999 -0.606628 -0.22813199999999997 -0.17143799999999998 0.030523 -0.328356 0.543162 0.12473800000000002 -0.46721900000000005 0.09161400000000003 -0.022939000000000008 0.9309559999999999 -0.087282 0.8047570000000001 -0.228659 0.266059 -0.942688 0.178533 0.8900600000000001 0.319631 -0.717177 -0.761279 0.5727260000000001 -0.73795 0.007672000000000012 0.591543 -1.002217 -0.209364 -0.152371 0.417476 0.44701399999999997 -0.415935 0.730187 -0.030684000000000045 0.295971 -0.691269 0.84939 -0.073532 -0.287245 0.213508 0.918723 0.146324 0.6495420000000001 0.06045299999999998 -0.101157 -0.8760870000000001 0.03622900000000001 0.128467 0.017116999999999993 -0.03975 -0.203678 0.888182 0.153893 0.25131000000000003 0.873307 -0.23347600000000002 0.47165 0.072702 -0.11226499999999999 -0.098746 0.636791 -0.272511 0.573126 0.24987399999999993 -0.604134 -0.193745 -0.786408 0.138489 0.151432 0.11615 0.296298 -0.138621 -0.596975 0.38791000000000003 -0.108521 0.14851899999999998 0.092748 0.175179 -0.20330499999999999 -0.24419400000000002 1.1883240000000002 -0.03576299999999999 -0.03756899999999999 -0.36096100000000003 0.128718 -0.626995 -0.485946 0.242733 0.30430199999999996 0.182898 1.2786499999999998 0.228965 0.038382 -0.47196099999999996 0.242254 -0.537556 -0.558261 -0.21101999999999999 0.24056300000000003 0.820152 0.0038640000000000063 0.021999000000000005 -0.24241200000000002 -0.265489 -0.9181220000000001 0.460415 -0.17642399999999997 0.03359 -0.199853 -0.178646 -0.9940419999999999 0.32108499999999995 -0.039838000000000005 -0.32644700000000004 -0.479309 -0.322577 -0.665729 -0.23862999999999998 0.07818599999999998 0.035707 0.449868 0.600978 0.34197900000000003 0.301683 -0.015000999999999999 0.071049 -1.142576 0.615604 0.10556199999999999 1.16078 -0.417848 -0.519523 0.413621 0.415324 -0.4551 0.447258 1.139873 -0.6274649999999999 0.486986 -0.173124 -0.130571 0.315709 -0.30415600000000004 0.197305 0.25852699999999995 -0.605093 0.383687 -0.27963699999999997 0.20135 -0.49994400000000006 0.337391 0.661481 0.22613499999999997 -0.443862 -0.689813 0.030308 -0.485097 -0.05961099999999997 -0.287949 0.395286 -0.17250900000000002 0.660501 0.569674 -0.147109 -0.24667 0.294715 -1.040913 0.037689 -0.08710200000000001 -0.715951 0.868844 0.230219 -0.328622 0.6552370000000001 -0.39398299999999997 -0.236234 0.14260699999999998 -0.137519 0.251316 1.223691 -0.130112 0.02354999999999996 -0.126315 0.360991 -0.535226 -0.30797599999999997 -0.6496679999999999 -0.649077 0.532922 -0.063384 -0.5760069999999999 0.24741 0.295945 -0.11164000000000002 0.029531 0.18094 0.489179 0.37989700000000004 -0.182767 -0.47397900000000004 -0.056184 0.199497 1.100192 0.462673 -0.533757