non-weightbearing -0.6362599999999999 -0.624371 0.393641 -0.589406 0.38154 -0.5151 0.002000999999999975 -1.020601 0.491259 0.012552999999999995 0.576426 -0.470684 0.13173700000000002 0.593353 -0.60535 -0.084342 -0.278097 -0.301039 0.400177 -0.337606 -0.46753200000000006 -0.39168400000000003 -0.6609240000000001 -0.8936310000000001 -0.07641300000000001 0.7623310000000001 0.226738 -0.134803 0.5626369999999999 -0.282131 -1.053665 0.7578170000000001 -0.562358 0.014388999999999985 -0.331106 0.655979 0.45528599999999997 0.040535 -0.287514 0.39016800000000007 -0.46453800000000006 -0.450148 -0.06104 -0.019226999999999994 -0.33873 0.822389 0.792921 -0.13899399999999998 -0.050198 0.850507 -0.145965 -0.552233 0.14960199999999998 0.605687 -0.48756900000000003 1.428587 0.803385 -0.604309 0.365265 1.049021 -0.275334 0.032606 0.646243 -0.6914589999999999 -0.14759999999999998 0.458105 -0.511139 -0.351408 -0.105217 -0.10617599999999999 0.43977 0.454613 -0.247583 -0.21797300000000003 -0.406571 -0.495813 -0.27144599999999997 0.192356 -0.08408500000000001 0.581004 -0.179243 0.047097999999999994 -0.334053 0.09293900000000002 -0.460706 -0.937157 0.26838700000000004 0.13574200000000003 0.272159 -0.006814000000000001 0.42601600000000006 0.121822 0.18403799999999998 -0.548557 -0.34456600000000004 -0.263493 -0.824119 -0.0010340000000000002 -0.366441 0.20534500000000003 -0.241886 -0.600302 -0.940671 0.30276000000000003 -0.11785099999999998 0.51224 -0.5543009999999999 0.011969000000000007 -0.13655499999999998 -1.139159 0.922438 -0.017716999999999983 0.172179 0.21431899999999998 -0.262674 0.558731 -0.512668 0.35963 0.455523 -0.24351299999999998 -0.273514 0.360222 0.403199 0.9723809999999999 -0.674731 -0.47052 -0.459518 -1.064425 -0.859398 0.31669 -0.139135 0.11359399999999999 0.848322 -0.15096800000000002 -0.8071539999999999 0.3052 -0.515044 -0.03322499999999999 -0.39985600000000004 -0.302532 -0.555466 -0.03318399999999999 -0.17768899999999999 -0.561167 -0.384076 -0.813428 -0.004392 0.008252000000000002 -0.451921 0.456806 0.407785 -0.302529 0.11333599999999999 0.19152999999999998 0.6362939999999999 0.842515 -0.32467399999999996 -0.24057799999999996 -0.09145400000000004 -0.254416 -0.6803910000000001 -0.2182 -0.042513999999999996 0.387629 0.292848 0.5783480000000001 -0.172075 -0.746823 -0.071797 -0.041828 -0.715654 -0.518134 -0.34206000000000003 -0.19722099999999998 0.233964 0.05543299999999998 0.356368 -1.162912 -0.512505 -0.064271 0.9518030000000001 -1.2301630000000001 -0.296601 0.174015 -0.051376000000000005 0.634417 0.13124200000000003 0.10721400000000003 -0.849921 -0.17767100000000002 -0.249884 0.026785000000000003 -0.122669 1.051464 -0.08745399999999998 0.483225 -0.646796 -0.697373 0.23094599999999998 0.253402 -1.179009 -0.400381 -0.214584 -0.829332 0.572557 -1.332723 1.247447 0.067023 0.956414 0.09287000000000001 -0.305485 0.09917000000000001 0.31151300000000004 -0.11329 0.045107999999999995 -0.8766160000000001 -0.416753 -0.11806000000000003 -0.740312 0.10303600000000002 0.17610099999999998 -0.9692080000000001 1.802577 -0.453551 0.21451199999999998 0.320032 -0.24851099999999998 -0.467978 -0.424122 -0.40941500000000003 -1.3051300000000001 0.37879799999999997 0.364875 0.337456 -0.35657 0.38604099999999997 0.21863500000000002 0.34070100000000003 -0.387285 0.139474 0.5776279999999999 0.2633709999999999 0.24085600000000001 0.205853 -0.08730500000000001 0.119011 -0.467493 -0.289242 0.5620459999999999 -1.028408 0.209592 0.711633 0.453983 -0.366118 0.48697399999999996 0.417449 0.107061 0.39317 -0.15948299999999999 0.072818 0.46514900000000003 0.014242000000000032 0.092109 -0.035474000000000006 -0.573625 0.127615 -0.141124 0.13474 -0.044541 -0.29689899999999997 -0.193279 0.395534 -0.8513569999999999 0.054443000000000005 0.589346 -0.0007109999999999964 -0.13915299999999997 0.552503 -0.234279 -0.580577 0.232051 0.09855199999999999 -0.137882 0.17486999999999997 0.346199 0.38886 0.355622 0.665993 -0.71499 -0.09242700000000001 0.365102 0.600441 0.289743 0.10928399999999999 0.009960000000000024 0.5083329999999999 -0.002255 -0.325329 -0.7606310000000001 0.106266