non-weight 0.169186 0.317906 0.449804 -0.473279 0.400952 -0.5508540000000001 -0.16753800000000002 -1.811712 0.49884300000000004 -0.206716 0.6700539999999999 -0.542701 -0.639377 -0.18127000000000004 -0.31655500000000003 0.5893539999999999 -1.748757 -0.792077 -0.416281 0.021992 -1.5257049999999999 -0.9858199999999999 0.400065 -1.0486739999999999 0.276078 0.042263999999999996 0.382135 -0.539614 -0.48621800000000004 0.483688 -0.745294 1.367998 -0.11581400000000003 0.710048 0.127206 0.5662470000000001 0.523493 1.3924150000000002 -0.04879499999999998 -0.175117 0.230283 -0.729033 -0.830881 0.364115 -0.702809 0.7807330000000001 0.780017 0.70416 -0.574149 0.6034349999999999 -0.24933499999999997 -0.907432 -0.211833 -0.003465999999999997 -0.033637 0.07380900000000001 -0.246763 0.179113 0.531207 1.123948 -0.147429 -0.293398 0.6959 -0.9833020000000001 -0.21923 1.014792 0.169821 1.213164 0.593323 -0.689227 -0.268915 0.246348 0.586165 -0.019145999999999996 0.362567 -0.574188 -0.42928 0.061180999999999985 0.558849 -0.73211 -0.023160999999999987 -1.009944 -0.5226149999999999 -0.37264800000000003 -0.7320720000000001 -0.75072 0.17197099999999998 -0.038787000000000016 0.210843 0.8025070000000001 0.7930159999999999 -0.292941 0.051344999999999974 0.46431000000000006 0.6680780000000001 -0.209603 -0.404765 0.160248 -0.789681 -0.08343499999999993 0.16888800000000004 -0.203811 -1.106803 0.486239 0.141654 0.914013 -0.131008 -0.277314 -0.947263 -1.2946890000000002 1.21277 0.36446000000000006 0.29247599999999996 0.201938 -0.676396 0.746308 0.25870899999999997 0.074718 0.15218600000000004 0.610087 0.507041 0.22823200000000002 0.424352 -0.149356 -0.800956 0.049419999999999964 -0.638918 -0.966027 0.380573 0.323819 -1.216818 -0.14010999999999998 0.6686810000000001 -0.186656 -0.574144 -0.190203 -0.592287 -0.47769300000000003 -0.19702299999999998 0.696079 -0.7307250000000001 -0.370179 0.35443500000000006 -0.074471 -0.355281 0.175272 0.317758 -0.464746 -0.181096 -0.16915799999999998 0.140213 -1.241723 0.484424 -0.008671000000000012 0.149638 0.7239490000000001 -0.16966499999999995 -0.075322 -0.054311 -0.369668 -0.441759 -1.535364 -0.594049 -0.42992400000000003 -0.13103400000000004 0.06647900000000007 -0.961705 -0.36462300000000003 1.045021 0.1342 -0.047308 -0.302608 0.23762 0.622363 0.15478500000000006 0.331729 -0.286361 0.301891 -0.137014 0.10386799999999996 0.10396899999999998 -0.662308 0.532903 0.977172 -0.360419 0.239339 -0.8079000000000001 0.11028500000000002 0.27268700000000007 -0.618844 -0.145634 -0.249701 -0.03728999999999999 1.105235 -0.07181499999999996 0.838365 -0.105401 -0.187037 0.05813299999999999 -0.495657 -0.10630999999999996 -0.718885 -0.570956 -1.549598 0.849308 -1.192567 1.217979 -0.671755 0.447882 0.405319 -0.13279799999999997 1.071825 -0.015625 -0.335436 0.286038 -0.7052970000000001 -0.132356 0.06952100000000003 -0.73051 0.060527000000000004 0.373285 -0.285497 1.3157159999999999 -0.532909 0.821912 0.208401 0.8967639999999999 -1.220894 0.284147 -0.606569 -1.395842 1.0754730000000001 -0.509561 -0.05848500000000001 -0.282324 -0.234339 0.033995 -0.035744000000000005 -1.370851 -0.19061899999999998 -0.06474 0.40626 -0.8646720000000001 -0.551202 0.83985 0.26027500000000003 -1.4980930000000001 0.800964 0.236316 -0.672976 0.07736499999999999 0.510287 0.527751 -0.25433700000000004 0.734313 0.597472 0.02579300000000001 -0.687694 -1.1286749999999999 0.17293399999999998 0.7842009999999999 0.764589 0.8091269999999999 0.06038399999999999 -1.1994150000000001 1.0717050000000001 0.2602129999999999 0.23194700000000001 -0.156534 -0.587233 -0.352138 -0.708734 -0.284906 -0.344243 0.290856 0.690124 0.186691 -0.07159100000000002 -0.439917 0.32211 0.292204 0.581743 0.03801700000000002 -0.241538 -0.070083 -0.262826 0.806691 0.334719 -0.07359899999999997 -0.586134 0.125002 0.9054660000000001 -0.356732 0.35510899999999995 -0.816996 0.06181800000000004 0.029507999999999993 0.052588000000000024 -0.006278000000000001 0.669257