non-weight-bearing -0.5948519999999999 -0.35274099999999997 -0.16968499999999997 -0.30577299999999996 0.938524 -0.142044 0.035947 -1.562997 -0.11216899999999999 -0.206426 0.197654 -0.399665 -0.42694600000000005 0.09526899999999999 -0.28172 -0.086807 -0.94425 -0.8877029999999999 -0.106326 -0.097099 -0.7746299999999999 -0.492894 -0.747146 -0.393034 0.19744899999999999 0.138128 1.094188 -0.283606 0.384033 -0.003514000000000017 -0.536915 0.18256899999999998 0.31366499999999997 0.792772 -0.051668000000000006 0.7441150000000001 0.297456 0.104154 -0.733059 0.429373 -0.450214 -0.897017 -0.125396 -0.36809000000000003 -0.460083 0.631344 0.327915 0.596291 0.06894 1.07446 0.038209 -1.300079 -0.137064 0.213246 0.40520700000000004 0.832584 0.256424 -0.29718500000000003 0.439578 0.755438 0.31471699999999997 -0.36985999999999997 0.44599 -0.320158 -0.247752 1.061952 0.015778 0.280476 0.19560100000000002 -0.838236 -0.619769 1.225308 -0.13411599999999996 -0.435119 -0.32401100000000005 -0.468922 0.41922500000000007 0.182587 0.030275 -0.547706 -0.053067 -0.211482 -0.6822130000000001 -0.28183099999999994 -0.9565440000000001 -1.421875 0.883405 -0.302425 0.081722 0.779317 0.7478750000000001 -0.153153 -0.155715 0.328195 0.455615 -0.024214000000000006 -0.018566000000000027 0.147633 -0.15911399999999998 0.00509699999999999 -0.22023700000000002 -0.21082499999999998 -0.9264939999999999 0.309448 0.013614000000000015 0.612438 -0.8396539999999999 0.011548000000000003 -0.569767 -0.589595 1.169148 0.40817499999999995 0.0013089999999999977 0.378114 -0.283293 0.492322 -0.555764 0.090501 0.357387 0.44344 -0.051711999999999994 0.31111200000000006 0.027559 0.505003 -0.623089 0.423111 0.14498399999999997 -0.04619500000000001 0.320295 0.06486700000000001 -0.695356 0.29883800000000005 0.942964 -0.29114399999999996 -0.776367 -0.322611 -0.795454 -0.562436 -0.311577 -0.210537 -0.28912499999999997 0.519973 0.414808 -0.14545799999999998 -0.810093 -0.5893390000000001 -0.03612699999999999 0.013030999999999987 0.020448 0.007997000000000004 0.29258500000000004 -0.36170199999999997 0.248449 -0.36901900000000004 0.8810830000000001 0.492744 -1.080941 -0.42721400000000004 0.269891 -0.578512 -0.264718 -0.531212 -0.485919 0.322349 -0.361322 0.667359 -0.614409 -0.776602 1.0141740000000001 -0.7349450000000001 -0.636641 0.137263 -0.322123 -0.037447 -0.15777300000000002 0.391042 0.693736 -0.09173300000000001 -0.321068 -0.434629 0.291919 -1.057263 -0.13753899999999997 0.750914 -0.6147090000000001 0.23192500000000002 -0.407866 0.141583 0.144576 -0.360851 -0.06123999999999999 -0.163382 0.209194 0.8791899999999999 -0.290991 0.419183 -0.886966 -0.061773999999999996 0.627244 -0.184684 -1.238745 -0.04278200000000004 -0.9614480000000001 -0.670431 0.07539699999999999 -1.067774 0.768243 0.160501 0.211018 0.026998 -0.38904799999999995 0.898828 0.40253700000000003 -0.14601099999999997 0.542942 -0.461705 0.009086999999999998 -0.6223719999999999 -0.145956 0.547656 0.21665600000000002 -0.631192 0.25324800000000003 0.15135900000000002 0.929046 0.409264 -0.013110999999999984 -1.409881 0.24089499999999997 -0.923081 -1.412383 0.8594059999999999 -0.17846199999999995 -0.094506 -0.441279 -0.549953 0.4953010000000001 0.323812 -0.8845080000000001 0.08378000000000001 0.504988 -0.046545 0.019358000000000014 -0.49556599999999995 -0.11624299999999999 -0.337515 -0.856839 0.6017239999999999 0.4127 -0.973042 -0.14388700000000001 0.294161 -0.020334999999999992 -0.467994 0.362403 0.242417 0.660825 -0.584872 -0.843582 -0.08543499999999998 0.06606799999999999 0.867683 0.7244269999999999 -0.6903549999999999 -0.610997 0.802218 -0.405771 -0.115847 -0.17310999999999999 -0.07535900000000001 -0.514091 0.062338000000000005 0.21931099999999998 -0.562479 0.282934 0.44171000000000005 -0.019046000000000007 -0.230157 -0.38566 -0.08763400000000002 0.08026799999999998 0.379318 -0.526016 -0.099203 -0.351569 -0.04199 1.077701 0.6938679999999999 -0.12279099999999998 0.552779 0.233748 0.430154 0.435298 -0.31213 0.0012220000000000009 0.09393 -0.06868500000000002 -0.250606 -0.595858 0.679168