nonweight -0.372142 -0.15008800000000003 0.177753 -0.913609 0.20324399999999998 -0.229742 -0.135762 -1.240324 0.377085 0.007030999999999996 0.103199 -0.02565299999999998 -0.238435 0.01909299999999997 -0.614016 -0.092015 -0.41063700000000003 -0.422435 -0.069824 0.276007 -0.446153 -0.15581799999999998 0.270617 -0.389953 -0.056518 -0.207917 -0.321376 -0.318797 0.749665 0.379425 -0.933433 0.938753 0.23857399999999995 0.525018 0.324755 -0.62157 0.8231419999999999 0.373709 -0.03354399999999996 0.445395 0.291576 -0.6185930000000001 -0.394586 -0.315495 -0.527353 0.442735 0.5907709999999999 -0.044975000000000015 -0.184509 0.797243 0.132477 -0.7641560000000001 -0.266137 -0.306618 -0.41233699999999995 0.23671899999999998 -0.522145 0.083641 0.16714 0.603516 -0.11029100000000001 0.154379 0.032431000000000015 -0.199407 -0.46530299999999997 -0.0033159999999999995 0.524628 0.342555 -0.53692 -0.28694600000000003 -0.27684 0.485406 0.800747 -0.260471 -0.471371 0.16257799999999997 -0.162752 0.261884 0.491119 0.11077000000000001 0.16904699999999998 -0.157009 -0.43565099999999995 0.217162 -0.09090499999999996 -0.7640969999999999 0.10069099999999997 0.009562000000000015 0.146721 0.218329 0.710023 0.304553 -0.898512 0.249344 0.120133 -0.20155299999999998 0.33572899999999994 0.654731 -0.023617 0.106382 0.332735 -0.593402 -0.479039 0.7227899999999999 0.162853 0.752276 -0.18262399999999998 -0.024903 -0.21440499999999998 -0.040296 0.560326 0.440306 0.21543 0.07245 0.049616999999999994 0.272511 -0.15257400000000002 0.105316 -0.03947800000000001 -0.09492000000000002 -0.303411 0.082363 -0.03020199999999998 -0.443612 -0.67649 -0.12262399999999998 -0.057365 -0.8007420000000001 0.009031000000000011 0.15201800000000001 -0.402028 0.41435500000000003 0.747065 0.095073 -1.12591 -0.473334 -0.488543 0.029826000000000005 0.049466 0.986093 -0.389964 0.34251 0.0009599999999999609 -0.34287100000000004 0.025844000000000034 -0.04962899999999999 0.711171 0.247581 0.026887999999999995 -0.11636700000000001 0.07644800000000002 -0.763056 0.04699000000000003 -0.349511 0.027591000000000004 0.427501 -0.04713300000000001 -0.003654999999999964 -0.159635 -0.7065790000000001 0.115308 -0.19289499999999998 -0.047924 0.25487899999999997 0.44925400000000004 0.9702660000000001 -0.447886 0.319296 0.08718999999999999 -0.349717 -0.076015 -0.038953 0.16318100000000002 0.677761 -0.088558 0.36494 0.09726499999999999 0.182126 -0.17516199999999998 -0.352411 0.19134500000000002 -0.265127 -0.766149 0.239574 -0.115627 0.97975 -0.319275 -0.079872 -0.561706 -0.22004 0.192975 -0.083014 -0.255332 0.592204 0.356944 1.043497 -0.493439 0.16967100000000002 0.380191 0.16157300000000002 -0.962097 -0.22678800000000002 -0.9052600000000001 -0.655151 0.34087199999999995 -0.647071 1.0015 -0.283724 -0.10400699999999999 0.37338400000000005 -0.47106000000000003 0.538667 -0.436802 -0.340482 -0.08305699999999999 -1.032807 0.35168200000000005 0.10425200000000001 -1.160636 0.141456 0.633117 -0.387555 -0.036100999999999994 -0.305004 0.7376119999999999 0.031478 0.45164699999999997 -0.645654 -0.056012000000000006 -0.500544 -0.666106 0.193357 -0.449343 0.36929500000000004 -0.386904 -0.11912800000000001 0.525438 -0.133383 -0.864502 -0.660271 0.48834599999999995 -0.219058 0.08532100000000001 -0.45416200000000007 0.451612 0.384179 -1.063767 0.33926100000000003 0.12506899999999999 -0.202104 0.8078730000000001 0.051423000000000024 -0.04757899999999998 -1.091688 0.550829 0.263423 0.228248 0.12772099999999997 -0.186767 0.12215499999999999 0.03262 0.33129200000000003 0.94064 0.27241600000000005 -0.273868 0.095248 -0.612481 -0.158971 0.058795999999999994 -0.602946 -0.250939 0.151496 0.68062 -0.47116800000000003 0.225268 0.9314290000000001 0.776167 -0.11135099999999998 -0.35882400000000003 -0.526134 0.15265800000000002 0.120884 -0.38066700000000003 -0.384982 -0.655655 0.6425540000000001 0.8305260000000001 0.148928 1.108944 -0.360479 0.086039 0.05273100000000003 -0.23803000000000002 -0.07205600000000001 0.012213000000000002 -0.15106699999999998 0.090563 -0.318877 -0.271217 0.09178000000000001