noseweight 0.759853 -1.3177610000000002 -0.71684 -0.42006400000000005 -1.2803140000000002 -0.6511560000000001 1.329437 -1.487752 0.29979399999999995 -1.0454029999999999 -0.30307100000000003 0.35055500000000006 1.9258709999999999 0.845291 -0.030965999999999994 0.09006800000000004 -0.6239520000000001 -0.771867 1.432062 -0.318614 -1.4118909999999998 -1.6834900000000002 0.622445 1.224306 -0.20498899999999998 0.77834 -0.833071 0.892083 0.446136 -0.544416 1.026116 0.844999 0.391854 -0.626358 0.9673039999999999 -1.1032929999999999 -0.269192 -0.33295399999999997 0.22250000000000003 0.484573 -1.407894 0.35289600000000004 0.6675030000000001 -0.276099 -0.474958 -1.095097 -0.9921360000000001 1.7497900000000002 0.20054 -1.124402 0.15923400000000001 0.977873 0.350815 1.928418 -0.974831 -0.7732 -1.018825 0.598091 -0.310009 -0.7124050000000001 -0.48516 0.29616000000000003 0.753633 0.36782899999999996 -0.345158 0.28631300000000004 0.7302109999999999 -0.894019 1.064195 -1.124454 -0.141769 -1.4793740000000002 -1.204551 1.6494119999999999 -0.154512 0.6822889999999999 0.413524 0.815713 -1.066348 0.93848 0.537247 1.316753 0.352593 1.250243 -0.251896 0.663517 0.304535 -0.276096 1.223932 1.109867 -0.902092 -0.915369 0.771658 0.13243100000000002 0.27005500000000005 2.099364 0.08260600000000001 -0.720329 -0.034511000000000014 -0.704746 -0.48344699999999996 0.34739200000000003 0.09135399999999999 -1.5541070000000001 0.451244 -0.451935 2.1564449999999997 -0.336957 -1.03451 0.5009 -0.693939 -0.102022 0.326204 0.402819 0.03738999999999992 0.789689 -1.2425709999999999 0.20487 -0.444841 0.525201 -0.602326 1.2338040000000001 0.9997940000000001 0.156375 -0.063092 -0.5736540000000001 -0.7924070000000001 1.367188 -0.423245 0.712966 1.619848 0.54303 -0.681674 0.6643169999999999 0.849615 -0.945699 -1.045272 -0.935242 0.5716749999999999 1.41178 0.012161000000000002 -2.140037 1.599429 -0.280858 0.452671 0.268083 -1.650929 -0.26983500000000005 1.0586950000000002 -0.681668 0.942714 -0.18759199999999998 1.189712 0.933332 0.358894 -0.05857899999999999 -0.018469999999999986 0.49723999999999996 -0.918423 -0.499173 0.416811 -0.31756999999999996 0.5591229999999999 -0.392192 0.39313 1.166833 0.392061 -0.845549 0.183235 0.641594 1.33921 0.300273 0.674965 -0.34474399999999994 1.8445970000000003 0.27063400000000004 0.5769110000000001 0.52342 -0.5885290000000001 0.19735599999999998 1.082968 0.29444899999999996 -0.515352 -0.12625800000000004 2.094193 -0.04034199999999999 0.44305300000000003 -1.100803 0.692434 -0.32055599999999995 0.299543 0.9708979999999999 -1.190292 -0.93811 1.117971 0.7175159999999999 -0.408152 -0.069023 0.006984000000000018 1.1917170000000001 -1.673148 0.7515750000000001 -0.646524 0.17868099999999998 0.61303 -0.755042 1.510813 0.139066 -0.04852799999999999 -0.7989799999999999 -1.939237 0.123922 -0.820029 2.339493 0.627108 -0.599281 0.257639 0.165229 0.047652999999999945 -1.327329 0.41520199999999996 0.02313000000000001 -0.302085 -1.113912 2.022506 1.050265 0.351027 0.818945 -1.212234 0.719734 -0.907248 -0.49187499999999995 -0.560203 -0.862784 -1.505445 0.130068 -1.560362 0.33513500000000007 -0.629025 0.9352779999999998 1.378028 0.206672 -0.414057 0.46899 -1.103939 0.450279 -1.1728399999999999 0.42225300000000004 1.8806289999999999 -1.40916 -0.525861 0.48677099999999995 -0.07314700000000002 -1.3771520000000002 -0.704573 1.7261650000000002 -1.227023 -1.774625 -0.618305 0.853719 -0.567853 1.7684570000000002 0.127024 -1.016777 0.43236699999999995 1.032452 0.7802640000000001 -0.04289299999999996 1.186829 -0.915822 0.609048 0.04743800000000001 0.228524 1.876345 1.098703 -0.3963519999999999 1.2562859999999998 0.723068 0.800341 -1.2865449999999998 -0.872263 0.433623 0.638729 0.566199 0.587261 -0.25143400000000005 0.08354600000000001 0.822663 -0.285261 0.378931 -0.577927 1.3272119999999998 -0.085407 0.823478 0.896483 -0.698443 -0.11261299999999996 -0.18551300000000004 -1.273299 -1.046482