openweight 0.18872100000000003 -0.557238 -0.081043 0.52039 -0.24501499999999998 0.056616 0.42571000000000003 -0.720221 0.07003399999999993 0.470414 -0.612055 -0.673163 0.5130020000000001 -0.315773 -1.158537 0.202228 0.678213 0.032196999999999996 -0.711191 0.516815 0.528336 -0.142133 -0.663925 0.7862520000000001 0.235538 0.12391300000000002 0.37853000000000003 0.442975 0.21472199999999997 0.8849039999999999 -0.769144 -0.543397 0.028065000000000007 -0.36417 0.07984799999999999 -0.43794 0.30190900000000004 0.172709 0.585738 0.27003 -0.835975 0.492972 -1.493024 0.51734 0.48253799999999997 0.22987600000000002 0.546327 0.383517 -0.44024 -1.8219599999999998 -0.374128 -0.49062300000000003 0.705328 0.643308 0.47855400000000003 -0.10576800000000003 0.21371600000000002 1.034055 -0.230113 -0.173598 -0.26894999999999997 1.316491 0.338849 0.69907 -0.695614 0.054694999999999994 -0.657945 0.996318 -1.500445 2.090208 0.6379630000000001 -0.647007 0.338706 0.321839 -0.69463 0.93702 0.09754000000000002 -0.12453500000000003 -0.366496 -1.046177 0.47839600000000004 -0.21908800000000003 -0.43907500000000005 0.823404 -0.658606 0.9536439999999999 0.537408 0.04108999999999996 -0.361655 -0.362246 -0.005965999999999999 -0.470261 -0.08113500000000001 -0.36204200000000003 -0.530015 -0.007694000000000006 0.532022 -0.16471799999999998 1.069804 0.76449 0.727453 1.05987 0.6400450000000001 0.419461 0.399617 0.370046 0.454273 0.177817 -0.180496 -0.675657 0.255315 -0.47933 -1.2954379999999999 1.1329200000000001 0.768321 -0.246005 0.18018499999999998 0.18594900000000003 -0.890158 -0.14393 0.539853 -0.010083000000000009 -0.496343 -0.159055 0.4746560000000001 -0.011536999999999964 0.106493 0.21133500000000005 -0.372321 -0.670003 0.042936 -0.470147 0.40916199999999997 0.045593999999999996 0.15728200000000003 0.6138309999999999 -0.370427 -0.334139 -0.65747 2.252789 -0.21979800000000002 -0.253808 -0.65574 0.100544 0.972044 0.014960000000000001 -0.14669600000000002 -0.271738 0.791926 -0.259599 1.6654330000000002 -0.21243900000000004 0.327077 -0.504502 0.609768 0.538085 0.13062800000000008 0.32238100000000003 0.7906070000000001 -0.12830199999999997 -1.0126 -0.496526 -1.8024399999999998 0.840565 0.630995 -0.278817 0.358498 0.08926100000000001 0.04929300000000003 0.186162 -0.869514 -0.43287200000000003 -0.026933000000000012 1.039208 -1.37248 0.559064 0.0012300000000000089 -1.42889 0.927214 0.022373000000000004 0.7636160000000001 1.229494 -0.34497900000000004 -0.05089499999999997 0.957626 0.02762600000000001 0.23511800000000005 -0.812207 0.693784 0.351817 0.149564 0.814222 0.8222510000000001 0.826098 -0.601982 0.753739 -0.596806 -0.47508300000000003 -0.23491299999999998 -1.05375 -0.6031409999999999 -0.9712879999999999 -0.063638 0.35279099999999997 -0.576163 -0.39130800000000004 -0.09464299999999999 0.22712100000000002 0.12518200000000002 0.015029000000000015 1.705214 1.625832 0.45127 -1.265776 0.541272 -0.091306 0.6924939999999999 -0.659506 0.40288 -0.27048300000000003 -0.219793 0.5865469999999999 -1.326432 0.527828 0.165593 1.873312 -0.25876299999999997 -0.80144 0.831476 0.108418 0.046192999999999984 1.671722 0.18403999999999998 0.16675300000000004 0.492295 -0.941046 0.606015 0.009443000000000007 0.5486420000000001 0.970122 0.611321 0.710893 -0.035268999999999995 -0.260285 0.23956399999999997 1.3076219999999998 -1.292077 0.17134500000000003 0.782681 0.519368 0.287852 -0.632328 0.260437 -0.002450999999999981 0.930422 0.522404 -0.257819 0.155513 0.6691 0.277111 0.928276 -0.012082999999999997 -0.244562 -0.6085379999999999 -1.1251470000000001 -0.34343199999999996 0.748158 -0.028854000000000005 0.39394399999999996 -0.329396 0.5012880000000001 -0.963262 1.4062459999999999 -0.966446 0.1422 0.554691 0.48936499999999994 0.42255 1.3560249999999998 0.306134 -0.108955 0.277543 -0.23104800000000003 1.10399 0.162379 -0.001863 0.051783 0.13130499999999995 -0.956752 -0.667608 -0.063726 -0.403202 0.101176 0.15641000000000005 0.3791439999999999 -0.33711800000000003 0.15084399999999998 -0.06703399999999993 -0.08977000000000002 0.039727999999999986