outweight 1.132502 0.45445099999999994 0.05718000000000001 -0.30275399999999997 0.667593 0.242095 -0.418354 0.389038 -0.9882540000000001 0.370251 0.5468569999999999 -0.43995300000000004 0.500861 -0.596844 0.6450629999999999 0.070607 0.10034800000000002 -0.210527 -0.591835 -0.15496500000000002 0.480302 -0.38186400000000004 0.19904 0.528558 1.185487 -0.432858 -0.475311 0.322387 0.538909 -0.022207999999999978 -0.043764 -0.206936 -0.025509 -0.14481799999999997 -0.195529 -0.5784860000000001 -0.890347 0.25014800000000004 0.270653 0.06564799999999998 -0.33243100000000003 -0.05803 0.40270100000000003 -1.215087 -0.505753 0.757108 0.255044 0.270752 -0.322684 0.147127 -0.792638 0.356358 0.327802 -0.7750859999999999 0.134873 -0.5748759999999999 0.003401000000000008 0.269257 0.344576 0.7378830000000001 0.167796 -0.295533 -0.25170000000000003 -0.23626899999999998 -0.31668699999999994 0.7014180000000001 -0.23119 0.887814 -0.285468 0.125269 0.678563 -0.266883 -0.098666 -0.07391500000000001 -0.08024699999999999 -0.543652 0.15111399999999997 -0.38075800000000004 -0.341487 0.343821 0.17829200000000003 -0.16309400000000002 0.35113599999999995 0.169035 -0.24467999999999998 -0.17802800000000002 -0.591495 0.645931 -0.73026 -0.155808 -0.717179 -0.577777 -0.39381700000000003 0.685757 0.223354 -0.145287 0.6852290000000001 0.268515 -0.40673200000000004 0.363808 0.08699399999999999 0.515629 -1.169987 -0.37167 0.11879099999999998 0.5355219999999999 0.334568 0.8722030000000001 -0.044433 -0.25038199999999994 -0.268775 -0.460868 -0.322239 0.23979399999999998 -0.057705000000000006 0.09420300000000001 0.479392 0.15370999999999999 -0.653925 -0.12212600000000001 0.581905 0.180657 0.720959 -0.696756 0.502713 -0.588918 0.184155 -0.6904049999999999 0.023065999999999975 -0.04939199999999999 -0.433572 0.298713 0.209628 -0.81917 0.50271 0.240827 -0.7491840000000001 -0.257929 0.172145 -0.527715 -1.021503 0.100664 -0.399151 0.34879400000000005 0.487549 -0.93862 0.20572600000000002 -1.069083 0.120635 0.21075899999999997 -0.15247499999999997 -0.6482760000000001 -1.0219399999999998 0.8090890000000001 0.172795 -0.26608 -0.468607 0.296185 0.146875 -0.193239 -0.317359 -0.175586 -0.687389 0.265281 0.348943 0.7845580000000001 -0.523702 -0.149876 0.45804599999999995 0.283788 -0.147221 -0.661154 -0.646617 0.548859 -0.17624299999999998 0.40667600000000004 0.966393 -0.022327999999999997 0.5630240000000001 -0.245854 -0.521528 -0.16801900000000003 0.186703 0.8666119999999999 -0.38087499999999996 0.665727 -0.014990000000000003 -0.115626 0.07967199999999999 -0.407013 -0.614201 -0.118778 -0.822405 0.537053 0.06965099999999999 -0.05060099999999999 0.333973 -0.056811 -1.036208 0.351524 0.108897 0.542322 0.535702 0.154452 0.302471 0.586157 0.034196 -0.834079 0.07142700000000002 -0.28075300000000003 0.351424 0.39147400000000004 0.022187000000000005 0.006804999999999992 -0.45613200000000004 -0.7069110000000001 0.15006799999999998 0.24436999999999998 -0.853621 0.6169450000000001 0.475067 -0.789193 -0.045185 -0.0027950000000000197 1.0370219999999999 -0.731573 -0.746155 0.405389 -0.07292399999999999 0.639341 -1.16498 0.9219849999999999 0.5615870000000001 -0.151347 0.574966 0.619143 -0.16492099999999998 0.413684 -0.405702 -0.33345400000000003 0.11537100000000002 0.594109 -0.218019 0.185933 0.21138400000000002 0.644944 0.018151 0.722854 -0.17440499999999998 0.010643999999999987 -0.365638 0.515902 0.348648 -0.581402 -0.251083 0.14794100000000002 -0.16282600000000003 0.73335 -0.464859 -0.279548 -0.229651 0.611964 0.161617 0.189867 -0.681312 -0.11229399999999999 -0.093474 0.560706 -0.43473399999999995 -0.18769000000000002 0.33375999999999995 0.431179 -0.496035 0.18115199999999998 -0.2311 0.654376 -0.48822499999999996 -0.27745000000000003 -0.630739 0.835271 0.18495899999999998 -0.9212450000000001 0.12318400000000002 -0.05469400000000002 0.270465 -0.265905 0.145311 -0.655305 0.7505850000000001 -0.07426900000000003 0.43467100000000003 0.358183 -0.39624100000000007 -0.016755999999999993 -0.324361 0.203972 0.73666 0.209625 0.570254 0.16750299999999999