outweights 0.232631 1.131782 -0.335023 -1.287872 -0.419637 0.046794 -0.086984 -0.474263 -0.37441 0.5461 0.77492 -0.38080200000000003 0.085758 -0.440167 0.593233 0.24491300000000002 -0.185667 0.162586 -0.646342 -0.16221699999999997 -0.07425300000000001 -0.930157 0.063995 0.36026400000000003 1.439157 -0.562504 -0.147564 -0.29802 0.394169 0.564424 -0.407092 0.026652999999999996 -0.878919 -0.021226000000000023 -0.313842 -1.104331 -0.314814 -0.508338 0.011872999999999995 -0.32942 0.182304 -0.22948200000000002 0.07919 -1.313992 -0.540361 0.572101 -0.019415000000000016 0.080287 0.573937 0.76599 -0.7965059999999999 0.24191700000000002 0.23312700000000003 -0.363822 0.468959 -1.115116 -0.371306 1.067406 -0.027221999999999996 0.483274 0.631648 0.241785 0.324853 -0.9160360000000001 -0.694644 0.675228 0.251357 0.421622 -0.635005 0.5525420000000001 0.59553 -0.04877100000000001 0.11856600000000002 -0.152435 -0.30627499999999996 -0.14350100000000002 -0.22055800000000003 -0.475879 0.14946700000000002 0.761155 -0.5269079999999999 -0.38627100000000003 0.7497670000000001 0.311386 -0.344094 -0.214382 -1.180653 0.400368 -0.102435 -0.492865 -0.635866 -0.44362700000000005 0.05354100000000003 1.019396 0.834046 -0.7842439999999999 -0.057876999999999984 -0.20632399999999998 -0.45140399999999997 -0.037776000000000004 0.104964 0.5264730000000001 -0.679878 -0.156915 -0.084819 1.541318 0.39893 0.8040560000000001 -0.285893 -0.40274499999999996 -0.683855 -0.033313999999999955 0.303497 -0.38517799999999996 -0.144984 1.120855 0.547356 0.30015400000000003 -0.698986 0.647046 0.140365 0.014354 0.057666999999999996 -0.40191699999999997 0.771507 -0.48654600000000003 0.014401999999999915 -0.9448110000000001 0.859932 0.152878 -0.029681 0.413781 0.862771 -0.034003000000000005 -0.319756 -0.215152 0.25052699999999994 0.455822 0.50251 -0.839709 -0.648962 -0.051301000000000006 -0.40736700000000003 0.15158500000000003 0.48045199999999993 -1.135865 0.878926 -0.222732 -0.15586199999999997 0.47069500000000003 -0.565453 -1.533565 -0.662546 0.185427 0.017456 -0.264398 -0.16603 -0.051130999999999996 0.047355999999999995 -1.144247 0.174379 0.239885 -0.257265 0.201098 -0.052558 1.1329150000000001 -0.47760899999999995 0.252411 0.058827 0.229325 0.304883 -0.059338 -0.137202 1.473032 0.710482 0.5407150000000001 1.223085 0.015042 -0.04589300000000002 0.32018100000000005 0.08341799999999999 0.38771599999999995 0.58507 0.670528 -0.010292999999999997 0.05269099999999999 -0.099617 0.485481 0.057146 0.155196 -0.985417 -0.22174300000000002 -0.324835 0.548481 -0.276223 -0.300966 1.1417860000000002 0.177311 -0.709322 -0.042301000000000005 0.480762 0.313741 0.086261 0.46343300000000004 -0.055249999999999994 0.081794 -0.361091 0.250233 -0.391289 0.22328599999999993 0.731605 0.071603 0.152994 0.15541099999999997 0.285826 -0.283896 0.005346000000000017 0.255093 -1.106326 0.542072 0.493873 -0.009112999999999982 0.298814 0.358135 0.602785 0.131026 -0.7637700000000001 -0.033648999999999984 0.07580300000000001 0.002717000000000025 -1.234341 0.303699 -0.12501 0.318625 -0.382858 0.30810800000000005 -0.30257900000000004 0.9502600000000001 -0.302771 -0.402014 0.44189999999999996 0.294425 -0.039962 0.19572299999999998 0.514812 0.816273 0.149429 0.10477300000000003 -0.64737 0.18939300000000003 -0.813469 0.465241 -0.220499 -0.972688 0.203333 0.301563 -0.052464999999999984 0.017298000000000008 -0.476137 -0.631337 0.24718600000000002 0.11394300000000002 0.435162 -0.11414600000000003 -0.0034250000000000114 0.40673400000000004 0.6444989999999999 -0.050211 -0.303532 0.200816 0.802574 0.367072 -0.976675 0.538984 -0.38800199999999996 0.04699500000000001 -0.15070500000000003 0.551427 -0.970316 1.0623019999999999 0.5182100000000001 -0.09230799999999999 -0.02321099999999998 -0.42591399999999996 0.04036 -0.835993 0.27660399999999996 -0.286321 -0.22922599999999999 0.39596600000000004 0.40388999999999997 0.524895 -0.37986200000000003 0.450378 -0.555368 -0.210428 0.9575980000000001 1.0621369999999999 -0.277451 0.47028899999999996