over-weight -0.03956399999999999 -0.43434300000000003 -0.21276499999999998 -0.186263 0.431343 0.359529 -0.49522299999999997 -0.203868 -0.246081 -0.698896 0.641588 0.09745100000000001 0.45928099999999994 -0.009404999999999997 -0.46706400000000003 -0.632111 -1.448172 0.048548 -0.295639 -0.161634 -0.402855 -0.575587 0.316724 0.536216 0.433793 -0.845704 0.532357 0.099013 0.478025 -0.49776999999999993 -0.574862 0.969971 -0.36635399999999996 -0.218543 -0.512587 0.583651 -0.009019 0.65287 0.370091 0.39744999999999997 -0.027526999999999996 0.2466 0.06711099999999999 -1.003937 -0.6445810000000001 -0.18026 0.8571 0.016994999999999982 0.749745 -0.03286699999999998 0.109853 0.217663 0.270189 0.171402 0.05935700000000002 0.5767369999999999 0.193084 1.18209 0.11614499999999997 0.388012 0.361136 0.391046 -0.108684 -0.24426000000000003 -0.155221 0.678987 -0.197648 1.472089 -0.35827200000000003 0.029326000000000005 -0.31498400000000004 0.903321 0.144486 -0.391123 0.650938 -0.17541499999999993 0.195881 -0.22664499999999999 0.37295100000000003 0.33383 0.179977 0.837164 -0.236037 -0.263407 -0.210101 0.157497 0.37702800000000003 -0.291008 -0.06494499999999999 1.017941 -0.962324 -0.536996 -0.390113 0.27662200000000003 1.010501 0.26284 0.820195 -0.15765899999999997 -1.001914 -0.7078260000000001 0.169552 0.8604149999999999 -0.55753 0.254286 0.27109 -0.356104 1.138155 -0.07397900000000002 -0.682653 1.2022629999999999 0.170127 -0.662436 -0.700868 -0.45996299999999996 -0.23630400000000001 1.223357 0.670697 -0.0523499999999999 -0.04677199999999998 0.682434 0.57405 -0.13292800000000002 -0.323279 -0.172036 0.029866000000000004 0.297109 0.05405099999999999 0.6678470000000001 -1.358306 0.223206 -0.457846 0.7810010000000001 0.103669 -0.955321 0.980394 1.209718 0.131197 0.956548 -0.23258199999999998 0.392795 -0.195633 0.417022 -0.323062 0.34057000000000004 -0.332939 -0.23934200000000005 -0.084754 0.03562399999999999 -0.062109 0.624968 -0.811829 0.470614 0.44045900000000004 0.808562 -1.108181 0.04558799999999996 -0.881123 0.039514999999999995 -0.119246 -0.6701630000000001 -0.23219299999999998 -0.040667999999999996 -0.527896 0.420388 -0.255612 0.212949 -0.854291 -0.41905 0.381258 -0.21492500000000003 0.623489 0.473843 0.175085 -0.657338 -0.4683959999999999 0.616337 0.508819 -0.533585 0.12918599999999997 0.10661299999999996 -0.467538 -0.873323 -0.310432 0.663446 0.3725069999999999 0.9415009999999999 -0.411015 0.125544 -0.211853 0.224983 -0.47461899999999996 -0.23377 -0.25810600000000006 -0.033468 0.238191 -1.195364 0.02384599999999998 -0.830867 -0.455495 -1.3639459999999999 0.678745 0.266405 1.0671970000000002 0.10209000000000001 0.04289800000000002 -0.42434 0.442083 -0.06600600000000001 -0.91885 -0.517916 1.454657 1.8146550000000001 -0.665986 1.09618 -0.12587399999999999 -0.5671900000000001 0.23626199999999997 0.139926 -0.7504759999999999 0.390223 0.43821299999999996 -0.7198249999999999 0.707504 -0.16990700000000003 0.683338 -0.529243 0.06123300000000004 0.052835999999999994 0.733151 -0.042645 -0.737568 0.691659 -0.34446 1.120432 0.13743199999999997 -0.47586 -0.628125 0.329046 -0.524922 -0.20842300000000002 -0.416367 0.101853 -0.13290899999999997 0.510967 -0.06995500000000002 0.384962 -0.07060800000000003 -0.391033 0.165001 1.154881 0.555212 -0.257385 0.08188499999999999 -0.613083 0.014941999999999983 -0.209568 0.49198000000000003 0.239467 -1.065134 0.13895600000000002 0.194568 -0.754893 0.036632 0.50936 0.184465 -0.35853599999999997 -1.203181 -0.34799500000000005 0.341782 -1.642701 0.819461 0.25822500000000004 -0.973958 0.245417 0.962005 -0.9951510000000001 0.48898600000000003 0.514244 -0.136791 -0.127296 -0.223948 0.05226999999999998 -1.400912 -0.14027799999999996 0.655748 -0.10245399999999999 0.36319999999999997 0.987468 -0.45919800000000005 0.010587000000000013 -0.466158 0.802655 0.609796 0.7476900000000001 0.19062500000000004 -0.251045 0.19698700000000002 0.469856 0.057014999999999996 0.16766799999999998