overweight -0.45703 -0.265531 -0.406691 0.08812900000000001 0.08106799999999999 -0.5417350000000001 -0.031175000000000008 -0.076571 0.6658390000000001 -0.140515 0.169586 -0.980877 -0.024130000000000006 -0.295733 -0.13785 -0.70158 -0.732145 -0.237231 0.266138 0.273457 -0.661373 -0.140821 0.20711000000000002 0.25699 -0.6483639999999999 -0.51173 1.0080399999999998 0.49496700000000005 -0.076098 -0.582695 -0.8574299999999999 0.489084 -0.5433950000000001 0.17388399999999998 -0.063703 -0.265811 -0.022965 0.874047 0.12349800000000001 -0.443604 0.39169699999999996 -0.031141 -0.121966 -0.602343 -0.12906700000000002 0.02634 0.9705950000000001 0.50069 -0.145894 0.544013 -0.21232499999999999 0.045376 -0.148352 0.181954 0.615814 -0.176846 0.11721100000000001 0.09797700000000001 -0.664914 0.473784 -0.154679 0.648039 -0.765061 0.6920440000000001 0.21111 0.772218 0.412327 0.445843 0.177416 0.278403 -0.225317 1.100474 0.178954 -0.477445 0.071268 -0.1563 -0.342753 -0.778859 0.46330000000000005 0.313264 0.12175100000000001 0.73514 0.137764 -0.263802 0.30461900000000003 0.369458 0.179373 -0.145062 0.337948 -0.386552 -0.471022 0.110904 0.269578 0.12660700000000003 0.178153 0.172537 -0.351154 0.112268 0.232734 -0.628398 0.505531 0.585125 -0.063385 0.105186 -0.26396600000000003 -0.034978 0.990382 0.077289 -0.29836799999999997 0.010032 0.387684 -0.24325800000000003 -0.606897 0.203457 0.272491 0.145461 -0.194396 -0.6315040000000001 -0.155637 0.6732819999999999 1.954085 -0.594748 0.040424 -0.048533 0.024674 0.547706 -0.48704 0.6202030000000001 -0.824659 -0.101496 -0.435598 -0.056011000000000005 -0.023783 -0.258683 0.320127 0.419767 -0.317573 0.41915899999999995 -0.262304 0.136597 0.102747 0.309326 0.221814 -0.21579600000000002 -0.6753709999999999 -0.22146 0.369001 0.084781 0.103075 0.7963629999999999 -0.552125 0.318821 -0.022662 -0.14894499999999997 -0.180097 0.154296 -0.561803 0.6199049999999999 -0.613667 0.313031 0.09232699999999999 -0.079787 -1.925857 0.072481 -0.5512699999999999 0.613497 0.163653 0.098412 -0.037571999999999994 -0.423793 0.688612 0.337357 0.727228 -0.335288 -0.18614 0.30778700000000003 0.216083 -0.115176 0.382058 -0.320475 -0.47845400000000005 -0.058363000000000026 -0.421608 0.151308 -0.037180000000000005 1.0300449999999999 0.453459 0.206494 0.06250599999999999 0.17879 -0.109424 -0.662121 0.21456399999999998 -0.142812 -0.274527 -0.253118 -0.482104 -0.350838 -0.016711999999999998 -0.628238 0.208292 -0.010339000000000004 0.209979 0.234985 0.679681 -0.464663 0.32085 -0.6403110000000001 0.564039 -0.37560899999999997 -0.123667 1.505979 -0.263695 0.084597 0.07704399999999999 -0.021707000000000004 0.361794 0.445496 -0.463662 0.086981 0.430885 -0.837728 0.212337 0.11695599999999999 1.8358240000000001 -0.44163399999999997 -0.187437 -0.303487 0.24990999999999997 -1.0428929999999998 -0.51681 1.005363 0.330453 0.58804 -0.06292600000000001 0.34403500000000004 -0.0017340000000000012 0.104662 0.125591 0.298479 -0.211211 -0.03783 -0.724442 0.303618 -0.335926 0.176671 -0.087302 0.413395 -0.567263 -0.292639 -0.405054 -0.215628 0.696555 -0.197442 0.081887 0.122749 0.305224 0.23809699999999998 -1.1273710000000001 0.347645 0.222464 0.5571280000000001 -0.521482 -0.107914 -0.617228 0.27375299999999997 -0.118207 0.009430999999999981 0.309483 -0.202301 -0.334671 -0.22022099999999997 -0.424577 0.464876 0.27697700000000003 -0.17830000000000001 0.6076550000000001 -0.628331 0.141127 -0.070973 -0.117763 -0.112182 -0.286947 0.11605300000000002 0.18149600000000002 -0.05312800000000001 0.107853 0.34213 0.281819 -0.373037 -0.19342399999999998 0.638645 0.46440000000000003 0.28601 -0.571932 -0.159134 0.455082 0.444239 -0.214676 0.07350800000000002