overweightness -0.6624349999999999 -0.17272400000000002 0.398671 -0.116062 -0.390937 -0.58585 -0.78518 -0.004123 0.15973100000000007 -0.686345 0.523682 -0.430701 -0.05765799999999999 0.158704 -0.004127000000000006 -0.758588 -0.6786920000000001 0.6161129999999999 -0.19427400000000003 0.041552 -0.300639 -0.866906 0.794321 0.22143399999999996 0.28473000000000004 0.480892 -0.05175500000000001 0.10952500000000001 -1.021281 0.6307689999999999 -1.212156 -0.487625 -1.129275 0.191613 -0.339647 -0.591133 0.149489 0.308946 -0.635068 0.70512 0.987378 -0.034694 0.50626 -0.520424 -0.040713 0.946891 0.9583059999999999 0.05311500000000002 0.303669 0.558011 0.23136400000000001 0.07018700000000001 0.491014 0.14244400000000002 1.267146 0.12492400000000001 -0.23972599999999997 -0.031908000000000006 0.006573999999999969 0.551839 -0.397147 0.573012 -0.345347 0.6966289999999999 -0.225039 0.04502299999999998 0.854193 0.120891 -0.028303999999999996 0.991944 -0.401521 0.415792 0.575831 0.527721 0.900813 0.877148 -0.459029 -0.680987 0.948008 0.496341 -0.6465160000000001 1.019097 0.856334 -0.739562 0.628947 0.780156 -1.249819 0.22496699999999997 0.22437200000000002 -0.633248 0.26322100000000004 -0.109998 -0.33197299999999996 -0.267672 1.3443 -0.17505199999999999 -0.568111 -0.237035 -0.112701 -0.621283 0.055961999999999984 1.032196 -0.16784 0.695758 -0.759223 -0.807085 0.919703 0.04685 0.37756 0.127838 -0.006209999999999993 0.319343 -0.631701 0.680264 -0.230893 -0.05926300000000001 0.493677 -0.564088 -0.9513 1.06439 -0.035443 -0.295709 -0.983176 -0.07613900000000001 -0.8226169999999999 1.173753 -0.11594399999999999 0.156193 0.38073899999999994 0.495342 0.14728200000000002 0.281441 -0.28066100000000005 -0.948326 -0.017137999999999987 0.352024 -0.11535100000000004 0.42042 -0.829881 0.09915700000000001 -0.11898199999999999 0.139948 -0.501397 -0.89512 0.19335000000000002 -0.16293200000000002 -0.354633 0.49131600000000003 -0.40811200000000003 0.9906590000000001 0.6611009999999999 0.520583 0.320813 -0.595965 0.19527799999999995 -0.6515390000000001 -1.078603 0.07244100000000003 0.690267 0.177307 0.32112 -0.07134000000000001 -0.027576000000000003 0.040172 0.606943 0.08902 -0.14692700000000003 -0.5706089999999999 -0.515424 -0.035732 0.562506 -0.598849 0.05612600000000001 -0.25315699999999997 0.071773 -0.115645 0.877589 0.02609499999999998 -0.20208400000000004 -0.48663799999999996 0.20909699999999998 -0.039900000000000005 -0.30761499999999997 0.205046 -0.053101999999999996 0.5064150000000001 0.820573 0.271102 -0.682901 0.5684100000000001 -1.3847390000000002 -0.6921759999999999 -0.2792 0.06278 0.879892 -0.380971 -0.133229 0.201299 -0.44196900000000006 0.09753700000000001 1.014071 -0.371514 0.03328400000000001 0.570177 0.236651 -0.7512369999999999 0.613519 -0.692477 -0.339965 0.004734999999999989 0.04399600000000001 -0.665757 -0.285403 1.0064380000000002 -0.04608399999999999 -0.723788 0.200064 0.37074399999999996 -0.22074099999999997 0.26282300000000003 1.413878 -0.43779799999999996 0.13880900000000002 -0.08739299999999997 -0.07224800000000003 -0.09102 0.02083299999999999 0.308696 -0.126612 0.10269700000000001 -0.37508199999999997 0.43499 -0.618228 0.541755 -0.185204 -0.738539 0.990619 -0.17368699999999998 0.6265850000000001 0.50369 0.10295700000000002 0.389032 0.048904 -0.010009999999999963 -0.198146 1.5446790000000001 0.272825 -0.02650899999999999 0.14705300000000004 -1.090177 -0.523546 0.486038 -0.16569300000000003 -1.1386049999999999 -0.18818100000000001 -0.06022900000000003 -0.174825 0.464341 -1.097853 -0.247604 0.36731400000000003 0.090895 0.144602 0.317808 0.12183699999999997 -0.46346 1.117968 0.8513609999999999 0.929854 -0.791948 -0.283072 -0.04936499999999999 -0.987552 -0.67722 -0.12276899999999999 -0.182755 -0.232217 -1.46584 -0.324571 -0.099346 -0.5334099999999999 -0.20742300000000002 -0.22862600000000002 0.654065 0.619964 -0.524969 0.252623 0.42238699999999996 0.14912299999999998 -0.151103 -0.155026 -0.23774 -0.110655 -0.41922000000000004 -0.643193 0.337228 0.51539 -1.339192 -0.24599 -0.658047