overweights 0.115856 0.301291 -0.818883 -0.081175 0.07526699999999999 -0.252348 0.19440799999999997 -0.964692 0.468306 0.121494 0.49586899999999995 -0.29124700000000003 0.102318 -0.967686 0.873071 -1.072492 -0.14467499999999997 -0.022876000000000007 0.032803 -0.054400000000000004 0.20099199999999998 0.271722 0.17529 -0.020873000000000003 -0.022507999999999972 0.059006 0.03449999999999999 -0.021799000000000013 0.425032 -0.229575 -0.334933 -0.423613 0.38112799999999997 -0.08652299999999999 0.06420100000000001 -1.165947 -0.717352 0.387686 -0.241442 -0.016382999999999998 -0.0006829999999999892 0.446326 0.614434 -0.174699 -0.511189 -0.002951000000000009 0.13446 0.543284 0.16605999999999999 0.010523000000000005 0.055926000000000003 0.212618 0.068451 0.545004 0.74186 0.140468 -0.24589 0.29619300000000004 0.27815100000000004 0.229824 0.48066600000000004 -0.42739 -0.790489 0.211311 -1.03818 0.47201400000000004 -0.10915699999999995 1.2757100000000001 0.168371 0.9657359999999999 0.306395 -0.627569 0.5012 -0.434574 0.25381000000000004 -0.09215600000000002 -0.03724899999999998 0.69739 0.260368 -0.74936 -0.13682 -0.25876899999999997 -0.246283 0.05745700000000001 0.488182 0.335584 -0.120797 -0.961827 -0.345674 -0.14566700000000002 -0.35475900000000005 -0.012424000000000004 -0.43771200000000005 0.660192 0.77608 0.25497000000000003 -0.20078300000000002 0.243976 -0.498662 0.03529499999999999 0.204238 -0.608538 -0.100499 -0.027365 -0.143994 -0.907787 0.088974 0.198143 -0.875084 -0.58676 0.0019659999999999955 -0.139234 0.202377 -0.668631 -0.13777499999999998 0.941976 -0.014037999999999995 -0.23886500000000002 -0.054581 0.17351599999999995 -0.098651 -0.57576 -0.14318600000000004 -0.531371 0.063476 -0.505207 0.485107 -0.177004 -0.424555 -0.588949 -0.5511550000000001 1.061947 0.127811 0.17929800000000004 0.081766 0.091591 0.048038 -0.377697 -0.108166 -0.8244819999999999 -0.560197 -0.18962400000000001 -0.199595 -0.30125399999999997 0.139488 -0.787941 0.494488 0.04985200000000001 0.014068000000000025 -0.042478 0.024450000000000003 0.27104399999999995 -0.372977 0.11750799999999997 -0.36109 -0.382461 -0.711862 0.303421 -0.20499599999999998 0.646408 -0.141907 -0.699107 -0.608854 0.20591299999999998 -0.097539 1.305345 0.115825 0.178598 -0.132797 0.555168 0.16941699999999998 -0.24806199999999998 -0.45079500000000006 -0.468551 -0.319673 0.543589 0.09973699999999999 -0.23613299999999998 -0.08930199999999999 -0.255909 -0.017679 -0.17535099999999998 0.281938 0.223233 -0.191933 -0.183697 0.023706000000000005 0.006342 -0.086674 -0.098989 -0.652166 0.12179699999999999 0.5938 0.438471 0.095247 -0.37483 0.33776999999999996 0.307796 -0.080751 -0.396862 0.122917 -0.256542 0.15612900000000002 0.22707400000000003 0.255852 0.401439 -0.037575 0.094833 -0.452856 -0.6512699999999999 1.1790159999999998 0.171435 -0.12640099999999999 -1.182536 0.224114 0.060098 -0.048915999999999994 -0.35131100000000004 -0.0031130000000000047 0.282094 0.34169499999999997 -0.7233069999999999 0.276522 -0.07012499999999999 0.710713 0.19211900000000004 -0.271409 -0.46009599999999995 -0.126566 0.399792 -0.817454 0.411621 0.058818999999999996 0.40234699999999995 0.07693200000000001 -0.05216500000000002 0.328793 0.421732 -0.054067000000000004 -0.07303099999999998 -0.026718 0.351203 -0.597526 -0.322134 -0.426871 0.245265 -0.279252 0.33855900000000005 -0.12215200000000001 -0.181846 0.431949 0.24698900000000001 -0.34349399999999997 -0.224969 0.07557600000000002 -0.060188000000000005 0.03883500000000001 0.276054 -0.526078 -0.173425 0.224063 0.216113 -0.254016 -0.254651 -0.230259 -0.03373699999999999 -0.051084 0.8689180000000001 -0.378126 -0.33553900000000003 -0.49838499999999997 0.22801099999999996 -0.7230639999999999 0.224019 0.22050999999999998 -0.9017379999999999 -0.17171800000000004 -0.6222369999999999 -0.935641 0.313023 -0.250883 0.159167 -0.33664499999999997 0.254614 -0.289552 -0.267484 0.13898900000000003 0.10296899999999999 -0.165244 0.03370199999999998 0.5773539999999999 -0.23820999999999998 0.02163799999999999 -0.088292 0.764772 0.56918 -0.06060700000000002 0.601927 0.00692799999999999 0.519145