paperweights 0.364392 0.265603 -0.07516 -0.24111 0.647041 -0.057210000000000004 -0.217418 0.202548 -0.067997 -0.34075 0.32577900000000004 -0.031539 -0.263577 -0.298842 -0.027109 0.288503 -0.183633 -0.757934 -0.14485699999999999 -0.17757 0.7412099999999999 0.40572800000000003 0.11805299999999996 -1.264077 -0.04894200000000001 0.00042999999999998595 0.9081779999999999 0.30502399999999996 -0.36468300000000003 -0.021137000000000003 0.037514 0.17503200000000002 0.061053000000000024 0.05559999999999998 -0.25690500000000005 1.032944 -0.437813 -0.568638 0.773431 0.050783999999999996 -0.652998 -0.293641 0.723703 0.30361 -0.540301 0.16917500000000002 -0.620989 -0.850317 -0.5030049999999999 0.41039800000000004 0.24177099999999999 0.481835 -0.44043899999999997 -0.250421 -0.0044399999999999995 0.014064 -0.06081800000000001 0.115787 0.053201 0.280777 -0.33631300000000003 -0.7313259999999999 -0.0029329999999999634 0.213122 -0.501794 -0.471078 -0.28796 0.345249 -0.9496180000000001 0.8666210000000001 0.07817299999999999 -0.680007 -0.553092 -0.083141 0.500443 0.676336 -0.044646 0.315137 -0.12545699999999999 -0.22081599999999998 0.470514 0.279858 -0.30586 0.189825 -0.508461 0.17128100000000002 -0.61051 0.28499399999999997 -0.034853 -0.486167 -0.358991 0.23955700000000002 0.411333 -0.11123499999999999 0.59491 -0.039168999999999995 0.301556 -0.43599899999999997 -0.485047 -0.899148 0.627659 -1.01707 0.083597 -0.208146 -0.540655 -0.49268 0.04741 0.62331 -0.008279999999999996 -0.223738 -0.45979500000000006 0.211939 0.13090600000000002 0.785753 -0.745484 0.496164 0.570302 -0.462781 -0.20152599999999998 -0.20771299999999998 0.22962100000000002 0.04041800000000001 0.222857 -0.292891 0.934582 0.14176499999999997 -0.065827 -0.137956 -0.080822 -0.303709 -0.857793 0.492052 0.434293 -0.5789949999999999 -0.898331 -0.533779 -0.524769 -0.877365 -0.6179929999999999 -0.6702520000000001 0.339156 0.524042 -0.839882 0.665025 0.630866 0.062469 0.018715000000000002 -0.064719 0.161262 -0.363437 0.11416100000000001 -0.072378 0.34994 -0.867815 -0.125813 0.23561300000000002 0.38165699999999997 0.08976500000000001 -0.05558799999999997 -0.788462 0.08411599999999998 0.232398 -0.5966859999999999 0.287177 -0.514606 0.13558499999999998 0.42819799999999997 -0.38286899999999996 -0.199008 -0.893609 -0.09154000000000001 -0.21490499999999998 -0.575553 -0.092175 0.35525000000000007 0.604447 -0.061084 0.475758 0.052811 -0.10578 -0.411231 -0.04691200000000001 0.21471799999999996 0.708045 0.369433 1.044306 -0.223791 0.14532500000000004 1.405914 0.84934 -0.765617 -0.425327 -0.578157 0.070443 -0.675964 -0.729309 -0.22476799999999997 -0.22114 0.969123 -0.198655 0.200234 -0.057923999999999996 0.557584 0.002102999999999966 -0.31353200000000003 -0.5465990000000001 0.542698 -0.419465 0.240398 -0.228172 0.18200300000000003 0.592017 -0.286041 -0.12871 -0.07266600000000001 -0.6215249999999999 0.279989 -0.35806800000000005 -0.19921 0.23841700000000002 0.413803 -0.170564 0.0002869999999999956 0.28272699999999995 0.6276820000000001 0.678156 -0.013242999999999977 -0.271108 0.224063 -0.571634 -0.512419 0.585448 0.27456 -0.081317 0.0021849999999999925 -0.238361 0.7235199999999999 -0.556373 -0.084381 -0.01553400000000002 -0.35696700000000003 -0.39452600000000004 -0.27745800000000004 -0.342754 0.29418500000000003 -0.14293699999999998 -0.25717700000000004 -0.394148 0.058298 0.547686 -0.845436 -0.204878 -0.017394999999999997 -0.48483899999999996 -0.135328 0.08155400000000002 0.7454069999999999 0.38779299999999994 -1.291717 0.378263 -0.420113 0.082183 -0.367191 0.706994 0.224499 -0.542874 -0.19655599999999998 -0.088975 0.11868699999999999 0.250892 -0.217076 -0.81965 0.45756199999999997 -0.225933 0.359982 0.198351 -0.683479 0.569005 -0.29622299999999996 0.064037 0.29741 -0.305783 -0.08364900000000003 -0.08995900000000001 0.13257400000000003 0.6146429999999999 -0.108915 -0.28599800000000003 0.38521900000000003 0.7195929999999999 0.263688 -0.09658499999999999 0.350389 -0.09693500000000001 -0.338216 -0.647635 0.41856499999999996 -0.01660500000000001 0.902542 0.495004