paperweight 0.04408999999999996 -0.23420000000000002 -0.519137 -0.220582 0.527473 0.276994 0.053703 0.423529 -0.383644 -0.298588 0.256366 -0.059036 -0.398965 0.19779799999999997 -0.06675900000000001 -0.10339899999999999 -0.30616699999999997 -0.754364 0.163683 -0.17427499999999999 0.182178 -0.158375 -0.688812 -0.107704 0.433172 0.026536 0.004414 0.408912 -0.411905 -0.253205 -0.251685 0.26132 -0.68223 0.136896 -0.09198599999999998 0.370601 -0.31795799999999996 -0.174651 0.716658 0.04319999999999999 -0.7723289999999999 -0.154332 0.441175 0.43635199999999996 -0.334394 -0.021136000000000016 -0.7403230000000001 -0.833193 -0.9009 0.42329700000000003 0.331985 0.374402 -0.483582 0.283248 0.133848 -0.126191 0.039135 -0.079511 -0.0011820000000000025 -0.003823000000000007 -0.037956 -0.605268 0.476341 0.044205999999999995 -0.298753 -0.506069 -0.32556799999999997 0.199517 -0.541436 0.70329 -0.903593 0.193782 -0.279131 -0.292814 -0.037216 0.41296499999999997 -0.032322000000000004 0.510779 -0.035703 0.46530699999999997 0.7785399999999999 0.5176970000000001 -0.20061299999999999 0.009231 -0.48202100000000003 -0.13118199999999997 -0.358185 0.173471 0.281372 -0.381584 0.03181499999999998 0.616258 0.510759 -0.419031 0.149803 -0.03760500000000001 0.24971600000000002 -0.362881 -0.347272 -1.076861 0.728067 -1.427948 0.127689 -0.488618 -0.02346899999999999 -0.16227799999999998 0.18433500000000003 0.32501599999999997 -0.284689 0.117199 -0.556915 -0.18349200000000002 -0.496158 0.568 -0.826346 0.586623 0.324002 -0.873999 -0.08147700000000002 0.387062 0.573098 0.653335 0.10995 -0.447964 0.858342 0.15291 0.071936 0.12781700000000001 -0.40643999999999997 -0.18028299999999997 -0.21536999999999998 0.666425 0.198577 -0.38631 -0.335506 0.264215 -0.141513 -0.484154 -0.807623 -0.698079 0.2854 0.141283 -0.693945 0.813763 0.103011 -0.05720700000000001 -0.18412800000000001 0.180808 0.57625 0.18260700000000002 0.13311800000000001 -0.01969599999999999 0.142942 -0.6648700000000001 0.037165000000000004 -0.303033 0.511421 0.04472899999999999 0.06551399999999999 -0.9732750000000001 -0.068062 0.25895199999999996 -1.225581 -0.188314 -0.366417 -0.079296 -0.24948800000000002 -1.023531 -0.247852 -0.730324 -0.34636 -0.407397 -0.220638 -0.637464 0.34912499999999996 0.58925 0.045129 -0.084378 -0.568515 -0.16128 0.151942 -0.017907000000000006 -0.570481 0.371267 0.270049 0.208681 0.332935 -0.30786600000000003 0.303568 0.620599 -0.13770100000000002 -0.045699000000000004 -0.38840399999999997 0.613367 -0.49641599999999997 -0.798067 0.353953 -0.561004 0.5274179999999999 -0.04628700000000002 -0.32999100000000003 0.43869800000000003 0.141895 0.07719999999999999 -0.163029 -0.487166 0.411097 -0.127353 0.289581 -0.028044 0.334209 1.2651979999999998 -0.841643 -0.7503230000000001 -0.077545 -0.62777 0.251402 0.13179800000000003 -0.058327000000000004 0.236752 0.283194 0.034655000000000005 -0.09806699999999999 -0.11860799999999999 1.288509 0.146088 0.251011 0.35797 0.07504600000000002 -1.042786 -0.034481000000000005 0.79325 0.46040099999999995 -0.040352 -0.262923 -0.237313 -0.08745 0.10396599999999999 -0.015593999999999997 -0.268955 0.144403 -0.646609 -0.346314 -0.37829799999999997 0.141174 -0.614039 0.538247 -0.11631200000000001 0.12153499999999999 0.20941900000000002 -0.197907 -0.312681 -0.211541 0.03494699999999999 -0.075157 0.457995 0.829004 0.210013 -1.1186889999999998 0.551504 -0.019890999999999992 0.358535 -0.007153 0.40918699999999997 -0.13049 -0.1023 -0.202402 -0.355794 -0.227512 -0.26957 -0.235318 -0.267303 0.139682 0.045554 0.673244 0.144477 -0.10094799999999998 0.615149 -0.12148700000000001 -0.257264 0.440446 0.158377 0.011362000000000011 0.402023 -0.660659 0.083454 -0.269755 -0.239837 0.284978 0.5003770000000001 0.116475 0.024079000000000003 0.303857 -0.15890600000000005 -0.04197500000000001 -0.368242 0.174896 -0.127481 0.332598 0.6100340000000001