pennyweights -0.45280400000000004 0.13387499999999997 1.7009050000000001 0.49825099999999994 0.954356 -0.952977 0.49509800000000004 -0.40642599999999995 -0.155509 0.653497 0.998244 0.977805 -0.508908 -0.131864 -0.9667760000000001 -0.690334 -0.149767 -0.304832 0.008960000000000003 -0.555087 -0.31177599999999994 0.716761 1.8175430000000001 0.31795100000000004 -0.273049 -1.373917 0.17439100000000007 -0.85039 -0.803284 -0.14132799999999998 1.144198 -0.589648 0.444377 0.248287 -0.143076 -0.594673 -0.689389 -0.044496000000000036 0.304592 0.04130500000000001 -0.2158969999999999 0.044052 -1.0299 0.09519 -0.17587199999999997 -0.27254999999999996 -0.03675300000000001 -0.380011 -0.20134300000000005 -1.181592 0.29515600000000003 0.16049200000000002 0.73485 -0.30059400000000003 0.421441 0.159691 0.347742 -0.392832 -0.11246299999999998 1.177899 1.260713 -0.244436 -1.706378 0.45801400000000003 -0.001461000000000004 0.877264 -0.9553740000000001 0.44696199999999997 -0.347705 -0.539451 -0.402449 0.43248100000000006 -0.505317 -0.164885 -0.934704 -0.177116 0.180812 0.6730119999999999 -0.852135 0.42948699999999995 -0.461808 -0.005618999999999985 -0.07808299999999999 0.508671 0.583036 1.51027 -0.262231 -0.028925 1.082316 -0.05327799999999999 0.9354669999999999 -0.450794 0.22511199999999998 -0.086657 0.999935 -0.7874749999999999 -0.30633999999999995 0.48914799999999997 0.152011 -0.22213800000000006 1.408644 0.09902600000000003 -0.6798569999999999 -0.310796 0.50754 -0.818493 0.795984 -0.136516 -0.7696609999999999 -0.161525 0.655308 -0.896884 -0.131025 0.489319 0.24063600000000002 0.08181 0.077506 0.658192 0.629403 -0.724243 0.5777990000000001 -0.7063360000000001 -0.556536 -0.42944899999999997 -0.453918 0.40606999999999993 0.46810300000000005 -0.647824 -1.362866 -0.018297000000000008 0.41668299999999997 0.336013 -0.22169399999999997 0.022909 0.643039 -1.142753 0.044092000000000006 0.544173 -1.84273 1.090822 0.413347 -0.013678000000000023 -0.8490420000000001 1.248255 0.16099800000000003 -0.14826999999999999 0.650412 0.5181979999999999 1.452037 -0.22666799999999998 -0.193115 -0.372391 1.8487589999999998 0.5699799999999999 -0.46490600000000004 0.9459409999999999 0.8395520000000001 0.7061310000000001 -0.552469 -0.060394 0.23687999999999992 0.692844 0.47350000000000003 0.42368700000000004 -0.30004299999999995 -0.144108 -0.466206 -0.6383949999999999 0.06559999999999999 -0.027954000000000034 -0.35522 1.040036 -0.831412 -0.21720899999999999 -0.651953 0.513282 0.758281 -0.240289 -0.46457200000000004 -0.40863499999999997 0.233983 -1.559837 -0.26425899999999997 -0.03221099999999999 1.1749290000000001 -0.34856899999999996 -0.18655000000000002 -0.069245 0.866749 1.4468610000000002 -0.458314 1.562371 0.41149800000000003 0.033479999999999996 -0.7439610000000001 -0.10607999999999998 0.207577 -0.269818 0.09375099999999997 0.31931800000000005 0.838768 -0.041491 0.285255 1.002522 -0.9292180000000001 0.679435 0.143857 0.234922 0.019670999999999994 -0.14508999999999994 -0.42911499999999997 0.59958 0.6385080000000001 -0.995282 -1.21774 -0.830681 0.695349 0.475043 0.153712 0.039017 -1.396932 -2.101694 -0.477366 1.062968 1.640402 -0.014249999999999985 -0.751541 0.850725 0.14090600000000003 0.075401 0.31530600000000003 -0.683096 0.304104 -0.15425299999999997 0.33936299999999997 0.10919400000000001 1.964972 -0.08317500000000005 -0.409932 -0.31974 0.984136 0.566538 -0.07844300000000001 1.107904 0.8735679999999999 -0.443675 -1.111031 0.312411 0.21750400000000003 0.023818000000000006 0.044588000000000017 0.05471100000000001 -0.567307 0.127958 -0.165936 0.29861299999999996 0.8439110000000001 -0.11795299999999997 -0.7661560000000001 0.199972 -0.29443700000000006 -0.771296 -0.375548 -0.439917 -0.764724 -0.636305 -0.292918 0.488475 0.292611 0.427511 -1.2818289999999999 0.68769 -0.288995 -0.011348999999999998 -1.1624590000000001 0.30021000000000003 0.04331800000000002 0.722766 -1.2425540000000002 0.07516099999999998 0.174074 0.33070900000000003 0.42388499999999996 -0.329405 0.031112999999999946 -0.405357 0.08398800000000001 1.212844 0.010493000000000002 0.309347 -0.735411 -0.896113 0.48903700000000005 -1.414293 -0.83588 0.631291 0.656421 0.03548899999999999 -0.643239 0.339598