pennyweight 0.377975 -0.8847079999999999 0.305971 -0.22941 0.52611 -0.7873189999999999 0.179181 0.655598 -0.374962 -0.062562 1.171075 0.221157 -0.607156 0.46311599999999997 -0.295645 -0.090114 0.137907 0.443241 0.39967600000000003 0.16895499999999997 1.162286 -0.7345809999999999 -0.102248 -1.560834 -0.10238599999999998 0.02758100000000001 1.5408749999999998 -0.736361 0.27335000000000004 -0.16789300000000001 0.7101109999999999 0.417533 -0.738675 0.659017 -0.6246940000000001 -0.382408 0.13282699999999997 -0.618256 0.47068699999999997 -0.127635 -1.506888 0.841232 0.9476249999999999 0.341517 -0.35982100000000006 -0.7918470000000001 0.956694 0.140438 0.449309 0.48348199999999997 -0.112728 0.5206780000000001 -0.563858 0.02091400000000001 -1.7181700000000002 0.132716 0.174155 0.15394799999999997 0.932896 -1.125221 -0.250219 0.45709299999999997 0.177867 0.41773899999999997 1.339166 -1.235317 -0.583696 0.32417799999999997 0.9615389999999999 -0.087536 0.152764 1.524606 1.5813620000000002 -0.689783 0.532842 0.198759 0.539156 0.13210100000000002 0.149384 0.49301500000000004 -0.19563199999999997 0.600262 0.103337 -0.759352 0.273129 -0.073629 1.4535079999999998 -0.133871 0.29054800000000003 -0.759652 0.388067 -0.206055 -0.126939 0.105408 -0.569108 0.473857 -0.42658900000000005 0.947891 -0.676782 -0.9778450000000001 0.515748 -1.003111 -1.214177 0.66874 -0.831755 0.8278840000000001 -1.407963 -0.033526999999999973 -0.24009999999999998 -1.353448 -0.957581 0.351173 -0.8075049999999999 -0.09818 0.06572699999999998 0.15076900000000001 -0.03823300000000002 0.1732 -0.361369 1.276824 1.180635 -1.526862 0.44111500000000003 -0.24049000000000004 -0.236165 0.38789799999999997 0.06888700000000003 0.037381 -0.7713920000000001 -0.754031 0.311739 0.39844500000000005 -0.5689 0.22263499999999997 -0.417595 1.123114 -0.331839 0.6285970000000001 0.248518 -0.423991 -1.131642 0.081791 1.352207 0.24194300000000002 2.795317 0.06261499999999998 0.017432000000000003 0.29009199999999996 0.272528 0.808154 1.118434 0.7460650000000001 0.564393 0.495355 0.634281 0.24621600000000002 -0.460707 0.591577 -0.23728500000000002 0.071425 -1.0093269999999999 -0.547508 -0.763695 1.110034 -0.5294920000000001 -0.231925 -1.2191239999999999 1.193438 0.09861 -0.529493 1.420007 0.31778 0.548955 0.12461499999999998 -0.031257000000000035 1.361048 1.01571 0.010814999999999991 -1.034613 -0.08894399999999997 0.14596899999999996 0.130726 0.485188 -0.035850999999999994 -0.827603 0.36795100000000003 0.30605699999999997 -0.312136 0.398428 0.58292 -0.7719849999999999 0.8508020000000001 -0.926687 -0.338851 -0.8036030000000001 -0.8648170000000001 -0.07166600000000001 -0.246837 -1.136236 0.24760599999999994 0.040183 -0.34370100000000003 0.842943 -0.20106599999999997 1.143491 -0.5523210000000001 -0.566955 1.336497 -0.19981800000000002 0.19160499999999997 -0.580991 0.452227 -1.0404879999999999 -0.4712120000000001 0.11648700000000001 -0.487389 0.047985 -0.134422 -0.193061 0.169701 -0.23210800000000004 -0.44737800000000005 -0.9993099999999999 -0.630694 0.6557050000000001 -1.898615 0.42064 0.303039 0.43571899999999997 0.36325399999999997 -0.010376000000000003 1.067526 -2.000962 -0.46939699999999995 0.5652820000000001 -0.649309 0.381649 0.39364699999999997 0.821644 -0.18110900000000002 -0.020496 -1.647042 -0.377482 -0.18837700000000002 0.141073 -0.004585000000000006 -0.692875 0.041655 -1.111501 0.261555 -1.149435 0.157636 0.14436900000000008 -0.48485500000000004 -2.147068 0.167376 0.583183 0.27686499999999997 -0.526375 -0.570392 0.921316 0.377661 0.17033100000000007 0.010333000000000002 -0.043341000000000005 -0.8332259999999999 -0.956361 1.1554630000000001 0.04185899999999999 -0.596519 0.09393599999999996 -0.47531899999999994 0.788211 -0.6377430000000001 0.621855 0.02921499999999999 -1.171439 -1.014462 -0.042231000000000005 0.257739 -0.156713 0.184266 -0.7825439999999999 0.488551 -0.970488 -0.7096250000000001 0.22542500000000001 -0.755106 -0.24682 0.107582 -0.037383 -0.198564 1.5185240000000002 0.622538 0.008407999999999971 1.0023710000000001 -0.6793089999999999 -1.394342 -0.6241369999999999 -1.09409