post-weight -0.378764 0.138357 0.653618 -0.681217 -0.12375900000000001 0.19708099999999995 -0.29737399999999997 -0.874121 -0.037143 -0.643178 0.75237 -0.406127 0.458518 -0.452 -0.918123 -0.347165 -0.9660690000000001 -0.860484 0.21137099999999998 -0.054505000000000026 0.149279 0.134085 0.489015 0.331171 0.392227 0.5930610000000001 0.612262 -0.174105 -0.653961 -0.79796 0.173108 0.27 -0.351898 -0.22061499999999998 -0.573874 -0.45050499999999993 0.13234500000000005 1.5267089999999999 0.53161 -0.01711199999999996 1.119538 -0.555228 0.25230299999999994 0.117396 -0.9532579999999999 0.41591 0.16908599999999996 0.633995 0.45546700000000007 0.48934 -0.410282 -0.329011 0.6209260000000001 0.366764 -0.0034349999999999936 -0.506891 1.247643 0.046838000000000005 0.273585 0.8178230000000001 -0.04954000000000003 -0.07684200000000001 0.409501 0.235238 -0.769659 0.841178 0.323865 1.180172 -0.30706100000000003 -0.334386 -1.050919 -1.064874 -0.050765 -1.179976 -0.507566 0.36540700000000004 -0.820275 0.080262 -0.07542400000000002 -0.121552 -0.534979 -0.77125 1.296521 0.38308300000000006 0.469861 -0.542362 0.414068 -0.021391999999999994 -0.0071359999999999965 -1.1382750000000001 0.6537769999999999 0.066306 -0.44730100000000006 -0.867467 1.011773 0.42302100000000004 0.297964 -0.16369399999999998 -0.032892000000000005 -0.131562 0.138268 0.643155 -0.50087 -0.770684 0.6327860000000001 -0.488657 0.8637870000000001 -0.609671 -0.28463099999999997 -0.245855 0.478708 0.143757 -0.20399599999999998 0.05681999999999998 0.967949 0.010391000000000011 -0.060274999999999995 -0.451318 -0.35242799999999996 0.46847500000000003 0.628558 -0.431398 -0.18285099999999999 0.49230000000000007 -0.24552200000000002 0.49753200000000003 0.302358 -0.036986000000000005 -0.6782750000000001 0.37723100000000004 -0.429458 -0.06770199999999998 -0.210948 -0.062053 -0.073822 0.402129 -1.019489 0.638067 0.579835 0.209885 0.6104280000000001 0.7860990000000001 -0.916564 -0.7484569999999999 1.15282 0.358556 -0.383931 -0.643432 0.835019 -0.016069 -0.71829 -0.447844 1.274616 -0.173234 0.8520540000000001 0.200647 -0.265834 0.6330089999999999 -0.30901999999999996 -0.152748 0.153323 0.844043 0.256496 -0.49510299999999996 -0.285725 0.16773899999999997 -1.221183 0.45502699999999996 -0.20248 1.070688 0.624615 -0.024956000000000006 -0.465857 -0.37252599999999997 -0.18762600000000001 -0.046816000000000024 0.43012 -0.15623700000000001 -0.138872 -0.47906599999999994 0.181237 0.198732 -1.04839 -0.333738 0.115428 -0.163471 0.340294 0.19165500000000002 0.15858899999999998 0.39740299999999995 -0.862664 0.405646 0.05340500000000001 0.132823 -0.867182 -0.5730930000000001 0.811816 0.60558 -0.23090700000000003 -0.14669699999999997 -1.005159 -0.633153 -0.97257 -0.568584 -0.326048 0.05552299999999999 -0.109739 -0.070921 -0.13561499999999999 -0.09111100000000001 0.730347 -0.103936 -0.264543 0.774627 0.738075 0.523362 1.148695 -0.957412 -0.632848 0.229047 -0.8753139999999999 -1.0518800000000001 0.9262090000000001 -0.910255 -0.009868000000000002 -0.01605300000000001 0.565572 0.292288 0.8796999999999999 0.247952 -0.141289 -0.118481 -0.23732100000000003 -0.169248 -0.49602500000000005 -0.644981 -0.229304 -0.24228899999999998 -0.961417 -0.08991199999999999 -0.439757 0.185478 0.14259 -0.529067 -0.300943 0.12795399999999998 0.03282499999999999 0.14179999999999998 0.13231300000000001 -0.319913 0.412547 1.083469 0.18482699999999996 -0.33966 0.49655400000000005 0.313123 -0.14938099999999999 -0.395207 -0.420516 0.437538 -0.15574500000000002 -0.00783600000000001 0.578605 0.109261 -0.9157569999999999 0.855119 -0.15034499999999998 -0.245761 -0.195727 -0.880401 -0.601243 0.518566 -1.080327 0.933797 0.43422900000000003 -0.05510500000000007 0.768401 0.246789 0.6209420000000001 0.09837300000000002 -0.800198 -0.331465 0.19358899999999998 0.366105 -0.793088 0.376446 0.09296399999999999 -0.412921 0.505125 0.277945 1.00586 -0.19608300000000004 -1.137839 0.115706 -0.858275 -0.135834 0.99421 0.047349 0.149105 0.11224800000000001