pre-weight -0.35686999999999997 0.34503700000000004 0.583813 -1.347129 -1.206717 -0.257112 0.263403 0.12324000000000002 -0.020148 -0.287999 0.237066 0.20606 0.21100799999999997 -0.32363 -0.036212999999999995 -0.08998 -0.361347 0.11494599999999999 -0.584256 -0.24569999999999997 -0.640934 0.064969 0.518821 -0.16996499999999998 0.37486800000000003 0.421635 1.166862 -0.8112630000000001 0.159975 -0.371886 0.218058 -0.369206 0.256506 -0.31813 -1.014183 -0.298652 -0.9870650000000001 1.0322399999999998 0.449706 -0.02098 0.5506409999999999 -0.685907 0.33342 -0.8751140000000001 -0.64748 0.1996 0.16578899999999996 1.473976 0.15363300000000002 0.508162 -0.092709 0.09093899999999999 -0.06229299999999999 0.725068 0.12352400000000002 -0.215634 1.1426720000000001 0.036518999999999996 0.312048 1.1270850000000001 -0.640069 0.14137100000000002 -0.35854700000000006 -0.014545999999999948 0.294578 0.527599 0.268409 0.726613 0.12101400000000001 0.127306 -0.094314 0.236082 -0.415548 -0.8781540000000001 0.043665 -0.78844 -1.693372 -0.15009 0.5052530000000001 -0.028722 0.13633299999999998 -0.789622 0.874418 0.11985099999999999 0.322789 -0.165828 0.769003 0.91718 -0.40163199999999993 -0.771611 -0.093667 0.31599900000000003 0.23719300000000004 0.14947899999999997 0.698573 -0.14861000000000002 -0.121201 0.036975000000000036 0.535587 0.496105 0.281141 -0.6334789999999999 -0.9621850000000001 -0.5560700000000001 1.040794 -0.403415 1.537897 0.526384 -0.113424 0.279568 -0.304131 -0.00506899999999999 -0.20212599999999997 -0.586317 0.823515 0.028537 0.48052500000000004 -0.29838600000000004 -0.352512 -0.59595 0.7340519999999999 -0.38191 0.895708 -0.8237789999999999 -0.975779 -0.953255 0.277511 -0.21603100000000003 -0.591938 0.581814 -0.581529 0.24247200000000002 0.783908 0.28763700000000003 0.034207000000000015 0.571512 -0.197461 0.768839 0.824373 0.17292399999999997 0.485267 0.10868500000000003 -0.153598 -0.336847 0.7204550000000001 -0.49334999999999996 -0.100835 -1.064727 -0.115646 -0.39612899999999995 0.07904899999999998 -0.08644699999999994 0.45676900000000004 0.15045400000000003 0.07306499999999999 0.112869 0.120213 0.6216229999999999 0.481061 0.103735 0.494115 -0.171365 -0.350017 0.039142 -0.036392000000000035 0.636287 -1.288884 0.466314 -0.23864400000000002 0.988853 0.173005 -0.25704199999999994 -0.674501 -0.267923 0.22346300000000002 -0.71761 -0.091835 -0.235722 -0.103603 -0.21096000000000004 -0.5973890000000001 0.7297279999999999 -0.719309 -0.416849 0.328642 -0.879696 -0.401606 -0.151123 0.32933300000000004 0.659275 -0.890653 -0.144696 -0.661416 -0.7868649999999999 -1.1794879999999999 -0.19118300000000002 0.7267220000000001 -0.00023300000000001098 -0.416599 0.44031499999999996 -0.315833 0.090582 -0.621206 -0.548969 0.24618600000000002 0.121737 -0.35111 -0.03541700000000003 0.03567799999999999 -0.414823 0.597747 -0.401083 -0.046983 1.026577 1.452252 0.729231 0.44672100000000003 -0.21623599999999998 -0.6984899999999999 -0.016472999999999988 -0.6414960000000001 -0.5994649999999999 1.658453 -0.472491 -0.135117 0.13259899999999997 0.267584 0.443048 0.654399 0.132548 -0.785167 -0.400511 0.047402 0.39293200000000006 -0.170931 0.40447 -0.28981199999999996 0.334987 -0.189891 -1.065186 -0.38793700000000003 0.583693 -0.10244900000000001 0.358125 0.113636 0.324413 -1.077841 0.444322 0.641903 -0.326137 1.555251 0.989295 0.30516 -0.423013 0.059513999999999956 0.694048 -0.106518 -0.639632 -0.481535 0.6328130000000001 0.776457 0.006986999999999993 -0.308793 0.599382 -0.05139900000000003 0.26011 0.44615 0.120945 0.07306200000000002 -0.42941300000000004 -0.110526 0.21714799999999998 0.9106270000000001 0.26416700000000004 0.842147 0.027208999999999983 0.36221 -0.23475600000000002 0.291798 0.029736000000000012 0.849885 0.405549 0.07571800000000001 -0.0071770000000000445 -0.86398 -0.340091 0.857157 0.962561 0.739503 0.961223 0.561169 -0.39244 -1.252129 -0.19480199999999998 -1.241568 -0.781662 0.633208 -0.438761 0.11551399999999999 0.612615