re-weight 0.06689600000000001 0.308834 -0.326032 -0.29872099999999996 0.030432000000000015 0.20813 0.24430599999999997 -0.475503 0.608811 -0.37311099999999997 0.25906399999999996 -0.507836 -0.34891 0.082508 -0.36568999999999996 0.280863 -0.209596 0.204615 0.18699100000000002 -0.113433 0.039424 -0.18966 0.57992 -0.0022839999999999805 0.413546 -0.492413 0.09551200000000001 0.53339 0.754302 -0.358481 0.331071 -0.127154 0.053871 -0.221491 -0.38244900000000004 0.7679469999999999 -0.70955 0.34951499999999996 0.137709 -0.461758 -0.47706800000000005 0.608169 -0.034546999999999994 -0.185307 -0.170682 0.45698 0.18517699999999998 0.5905199999999999 0.788137 -0.632822 0.542413 -0.30986199999999997 0.249543 0.48107500000000003 0.284983 -0.8408629999999999 0.510048 -0.153695 0.39217599999999997 0.293709 0.210433 0.386534 -0.47101499999999996 0.334123 -0.5253829999999999 0.46144300000000005 0.19766000000000003 0.489984 -0.365867 0.06367900000000001 0.253588 -0.443322 -0.08241599999999999 -0.57997 -0.434498 -0.644251 -0.06765 -0.023629000000000004 -0.400605 -0.299823 0.458002 0.028979999999999978 0.470944 0.9618980000000001 -0.9745240000000001 0.385885 0.071189 0.2652190000000001 -0.211943 -0.132078 -0.374846 0.063426 -0.457501 0.7341 0.17112100000000002 -0.035414 0.06928300000000001 -0.11013099999999999 0.326657 0.841384 0.52618 -0.152763 -0.458579 -0.323912 0.289727 -0.364093 0.941894 0.688052 0.031652 0.16076899999999997 0.086125 0.381661 -0.348622 0.56058 -0.04338900000000001 -0.31194900000000003 0.07547 -0.164299 -0.28783 0.135143 -0.037515999999999994 0.163512 -0.06515000000000001 -0.192886 -0.07068199999999997 0.398474 0.185531 0.08598100000000003 0.32546699999999995 0.347706 -0.6017870000000001 0.232674 -0.1053 -0.062644 0.019153999999999997 0.094915 -0.573497 -0.46815700000000005 0.126371 0.226409 -1.024442 0.13430699999999998 0.476005 -0.6283540000000001 0.07102799999999998 -0.007816999999999998 -0.740161 -0.906069 0.074242 0.422334 0.447778 -0.085843 0.633935 0.029085 0.369354 -0.029278 -0.23476999999999998 -0.049009 0.37758200000000003 0.604803 0.125749 -0.848532 0.181565 0.264085 -0.347746 -0.17996299999999998 -0.47230399999999995 -0.241276 -0.288193 0.453584 0.20900299999999997 -0.538374 -0.396968 0.072436 0.15776600000000002 -0.959001 0.5547139999999999 0.582613 0.171435 -0.47874099999999997 0.32709 -0.32049 0.573403 -0.006046999999999969 0.20618799999999998 0.322566 0.013149999999999995 0.385754 0.3235 0.472499 -0.716338 -0.093831 -0.23649799999999999 0.355025 -0.556846 -0.382684 0.431238 0.046284000000000006 -0.776905 0.164001 -0.25722599999999995 -0.09855500000000002 0.02941499999999997 -0.032896999999999996 0.160253 0.555879 0.23742000000000002 0.17253799999999997 -0.608248 0.42315 0.298608 -0.691127 0.198286 0.320405 0.223846 0.37671299999999996 0.107337 0.613046 -0.277713 -0.07082400000000001 -0.329579 0.409815 0.545338 -0.6066819999999999 0.185095 0.27105100000000004 -0.163859 -0.08737399999999998 -0.069544 0.6617230000000001 -0.260324 0.01125699999999999 -0.717679 -0.156792 0.8942140000000001 -0.18078200000000003 -0.36408799999999997 -1.608139 0.07347600000000001 0.590571 -0.27903900000000004 0.04841799999999999 -0.492821 0.006901 0.189587 0.243482 -0.184144 -0.256879 0.00761400000000001 -0.825788 0.784057 0.09724 0.258259 -0.255323 0.388283 0.163772 0.698492 0.33968200000000004 -0.31946800000000003 0.428009 -0.483578 -0.699497 -0.072513 0.064078 -0.547847 0.039385 0.7764220000000001 -0.006416000000000005 0.17397200000000002 -0.0008509999999999907 0.12277999999999999 0.320164 -0.008230999999999988 -0.03256500000000001 0.263708 0.15115699999999999 -0.19672800000000001 -0.447313 -0.807207 -0.422518 -0.085403 0.18941599999999997 -0.31234700000000004 0.14775199999999994 -0.31383700000000003 0.84748 -0.41439899999999996 0.12670800000000002 0.197084 0.124672 -0.554457 -0.272555 0.629621 0.21070699999999998 0.432689 0.187741 0.12742400000000004 -0.132089 0.542835 -1.32975