rewardsweight 0.46762100000000006 0.8502830000000001 -3.500293 3.6817469999999997 -2.161426 1.471882 -2.184777 8.986381000000002 3.8373850000000003 -3.354995 -1.09952 -2.819844 -0.46348199999999995 0.569787 1.3465220000000002 1.875068 -0.09012300000000006 -3.730241 0.814562 3.088393 -2.483912 0.27069200000000004 -0.660664 -2.340147 6.782437 -2.167125 -2.417248 1.644027 -3.210136 -0.293464 -0.6946660000000002 1.321281 2.3893709999999997 4.118955 0.648315 0.924355 -1.471162 -3.4993179999999997 -1.871546 -5.5470559999999995 3.9095950000000004 1.4309020000000001 0.09216900000000006 -1.7839479999999999 -3.2618989999999997 2.242524 5.442731 -2.8718529999999998 -1.957212 4.898451 1.0278 -3.227131 -3.9001729999999997 0.192843 4.025857 -2.023681 -3.7436490000000004 -1.233492 -2.53896 -0.31501999999999997 2.895027 -3.3325570000000004 1.328395 4.422693 3.573715 -4.2157789999999995 -1.068745 0.22039399999999998 2.397213 -4.349657 2.497514 0.03953200000000001 -2.022588 -1.137086 -0.5901649999999999 -0.3803399999999999 0.5093970000000001 1.5771309999999998 1.032057 0.31774900000000006 -4.151443 5.308235 -0.9701139999999997 4.23297 -0.955125 -2.321717 -0.924295 -4.311894 -1.324047 2.382203 1.937266 -1.8380089999999998 0.280663 1.8702230000000002 -0.7310409999999999 -1.353558 2.9831760000000003 -0.175573 4.637886 1.940979 -4.564033 -3.047019 -1.138049 3.187029 -2.878933 -2.598392 -2.430151 -1.6390120000000001 -3.1931339999999997 -0.573412 4.776894 2.212504 -4.935149 -0.5421590000000001 2.05088 1.781501 -1.1340379999999999 1.4735179999999999 1.561526 0.12097699999999995 1.644818 -1.5458180000000001 -1.4978120000000001 1.554642 0.27886299999999997 2.9564709999999996 1.4967709999999999 -0.9169710000000001 2.150442 -2.85108 -2.435404 2.747846 -0.333262 1.646352 -4.974029 -3.3767630000000004 -0.4250360000000001 2.290427 -4.216435 2.122751 -1.730143 -1.5945520000000002 -4.975203 -5.1893650000000004 -3.1001130000000003 3.187807 -6.983278 -0.3719800000000002 -1.488219 0.47672099999999995 -1.2604739999999999 -0.560075 3.575461 0.311305 -1.064335 2.999217 1.0127540000000002 -3.5337259999999997 -1.117481 1.792319 -1.793787 1.317394 -3.345935 -2.344003 0.12985800000000003 1.941071 -6.001835 -3.0050620000000006 -0.753671 1.3430490000000002 2.774976 -1.4794219999999998 -1.596409 1.886201 -2.047886 -2.3640849999999998 -1.710648 -2.5278460000000003 3.077223 1.910423 -0.787106 -0.9724510000000002 -2.977151 -4.543633 2.050511 2.978484 2.055787 -1.8622340000000002 1.7894230000000002 -0.7971349999999999 -2.390196 1.360613 -6.220836 -4.651751 1.933453 2.220588 3.4925580000000003 1.930505 -3.884119 0.26598200000000005 2.550316 0.020986999999999978 -1.768922 -1.335153 -2.521152 2.341228 0.41841300000000003 -1.171332 -2.882965 -0.21954299999999982 -2.56805 3.1783539999999997 -3.912474 4.914238 -1.471108 1.989064 -1.506297 -4.022747 5.156898 -2.997684 2.392789 2.667723 8.683807999999999 4.918565 1.715164 0.051079000000000006 -2.790431 -1.891483 -2.109696 0.524257 -1.739087 2.1654220000000004 6.949596 -2.368738 1.951424 2.136501 0.885134 0.511727 -1.89071 0.88069 2.043748 -1.6547920000000003 3.8246379999999998 0.6187670000000001 2.801007 4.852135 -2.363469 0.27858399999999994 1.680387 -3.008973 -2.740003 4.07951 -2.7598499999999997 -0.7718010000000001 3.328562 0.31830200000000003 2.541184 1.251309 2.052571 -0.182673 0.194038 -2.46669 -2.6938389999999997 -0.497783 -0.24295 -0.36763 5.2543869999999995 0.20091199999999998 5.198412 0.180621 -0.5277810000000001 -4.2680810000000005 4.399347 4.333532 -1.2328009999999998 -4.887405 -0.9381140000000001 0.41959800000000014 -0.9578999999999999 -3.479819 2.822118 -1.558913 2.9249140000000002 1.693735 3.268324 -0.281784 4.8578589999999995 5.791619 -0.06976300000000002 2.781861 1.356246 3.981678 0.386973 3.2385010000000003 1.582096 -1.016459 4.67319 1.377291 -1.951228 -2.715877