reweight 0.27206 0.289519 -0.218011 -0.819048 0.489415 -0.08771999999999999 -0.616833 -0.464863 0.083697 -0.32389 0.25174700000000005 -0.6519330000000001 -0.29858799999999996 -0.006753999999999982 -0.012392 0.6730879999999999 -0.005239999999999995 0.15191100000000002 0.292978 -0.47669100000000003 0.060705999999999996 0.715792 0.615545 0.263911 -0.329276 0.376344 0.025162000000000004 0.17096099999999997 0.575405 -0.592565 0.008088999999999999 0.280761 0.455777 0.24279 -0.45801899999999995 0.579493 -0.268971 0.616963 0.132889 -0.087055 0.5249 0.41751299999999997 0.130654 -0.5118320000000001 -0.713322 0.124233 0.14255500000000002 0.06917699999999999 0.364537 0.734099 -0.270602 -0.622438 -0.06489 0.022384999999999988 0.235124 -0.12970800000000002 0.37936499999999995 0.115588 0.31579999999999997 0.18566 -0.13473 -0.033696000000000004 -0.23350200000000002 0.046277 0.17591199999999999 0.524775 -0.36361 0.05288699999999999 -0.29076599999999997 -0.294418 0.718024 -0.5045350000000001 -0.528241 -0.25073100000000004 0.028474 -0.034092000000000004 -0.798346 0.526405 0.252807 -0.04523699999999997 0.366201 0.131461 0.27580400000000005 0.384834 -0.841974 -0.392891 0.11980000000000002 -0.396488 -0.125744 -0.46596499999999996 0.167744 0.582856 -0.892275 0.141972 -0.070467 0.041051000000000004 -0.15233799999999997 0.300297 -0.37543800000000005 -0.001574999999999993 0.033216 -0.209984 -0.476421 -0.6582129999999999 -0.158997 -1.0776189999999999 1.212757 0.572631 -0.13129600000000002 0.032443999999999994 -0.366818 0.321272 0.164012 -0.135968 -0.164599 -0.13096400000000002 0.22294999999999998 -0.144442 -0.42818 0.354074 -0.004131999999999997 0.03317300000000001 -0.574106 -0.09448699999999999 0.224156 0.400082 0.010670999999999986 0.547743 -0.550284 0.7230540000000001 -0.233357 -0.226073 -0.41908 0.478897 0.17887 0.615885 -0.247008 0.334473 -0.009945000000000037 -0.228256 -0.463036 -0.188555 -0.06543099999999999 -0.488946 0.163155 -0.34742399999999996 0.36939299999999997 -0.683058 0.107057 -0.055147 0.308907 0.48495299999999997 0.884211 -0.208003 -0.43903899999999996 0.014498000000000011 -0.18182099999999998 0.308341 0.348781 0.883727 0.291551 -0.18811699999999998 -0.45111599999999996 0.46033999999999997 0.213124 0.33332 0.360975 0.172885 -0.44725 0.32554900000000003 -0.043217 -0.33260700000000004 -0.9733080000000001 -0.121672 -0.396565 -0.9606140000000001 0.285015 -0.256981 -0.16865000000000002 -0.984169 -0.112005 -0.028507000000000005 0.033651000000000014 -0.35082800000000003 0.417565 0.511917 -0.530752 0.65557 -0.067075 0.8416589999999999 0.60751 0.344723 0.230868 0.665906 -0.56431 0.009269000000000027 1.095849 -0.38813800000000004 -0.49656500000000003 0.038495999999999996 -0.703969 -0.095002 0.06634599999999999 -0.308624 -0.116591 0.099275 0.14254399999999998 0.7106439999999999 -0.187464 -0.20769300000000002 -0.037946000000000035 -0.344709 0.649076 0.05347300000000001 0.109406 0.023504999999999998 0.261467 0.17212299999999997 -0.697445 -0.496967 -0.548468 0.201133 -0.08336700000000001 -0.562064 0.353647 -0.268645 -0.165178 -0.05305399999999999 -0.089758 0.966297 -0.371676 -0.267695 -0.662282 0.417455 1.070819 -0.571885 0.008549000000000001 -0.6266430000000001 -0.644612 0.06558999999999998 -0.562158 0.107877 -0.510493 -0.020945999999999992 -0.19751799999999997 0.909041 0.310082 -0.05253 -0.145821 -0.60563 0.16131199999999998 -0.246614 0.128349 -0.662396 -0.35575 -0.29354199999999997 0.626186 -0.5242519999999999 0.136711 1.0596100000000002 0.022541 -0.276861 -0.219971 -0.024324999999999996 -0.05227000000000001 -0.11531599999999997 0.394035 -0.233641 0.016126 0.34981399999999996 -0.021450000000000025 -0.5049380000000001 -0.410558 0.39837 -0.595672 0.7738400000000001 -0.064743 -0.43093 -0.844952 0.021448000000000002 -0.15634699999999999 0.400296 -0.502937 0.09017 -0.361207 0.672426 -0.13079600000000002 0.10319700000000001 0.252801 0.9693729999999999 0.139786 0.007593000000000016 0.357577 -0.427485 0.00757 -0.0022519999999999762 0.9192469999999999 -0.5998859999999999 0.13688499999999998 0.008109000000000005