runweight -0.7253529999999999 -0.6046670000000001 0.597575 -0.8990690000000001 -0.14774400000000001 0.11088899999999996 0.362085 0.336421 0.819887 0.07739299999999999 -0.456567 0.20542 0.942777 0.24018 -0.180392 0.11897200000000002 0.5380780000000001 -0.7297020000000001 0.0007400000000000184 0.499288 -0.19764800000000002 -0.580375 -0.20944999999999997 0.23761699999999997 -0.20201999999999998 -0.15691600000000003 -0.203258 0.237773 0.26731499999999997 0.14740399999999998 -0.804337 -0.44301500000000005 -0.074887 0.07918899999999998 -0.945357 -0.649521 -0.712729 0.673691 1.066838 -0.022768999999999998 -0.803146 -0.142879 0.017832 -0.432932 0.09556400000000001 0.479393 0.46680299999999997 0.25558099999999995 0.41581500000000005 0.09158 -0.536054 -0.23249199999999998 1.120711 -0.406301 0.174483 -0.319212 -0.15048000000000003 0.657017 -0.03722400000000001 0.42841799999999997 -0.955636 -0.6331410000000001 0.736402 0.401628 -0.491109 -0.5501940000000001 0.18304600000000004 0.15606 1.158767 0.08022599999999999 0.38993900000000004 0.501342 0.16547499999999998 -0.29242 0.17642 0.7565729999999999 0.11394599999999999 -0.5424370000000001 0.38468399999999997 -0.5412469999999999 -0.925569 -0.752939 0.19112600000000002 0.32721100000000003 -0.803491 -0.43377299999999996 1.0848689999999999 -0.743582 0.069721 0.357349 -0.10707 -0.21112899999999998 -0.440226 0.217995 -0.306212 -0.018307000000000004 0.24451399999999998 0.381636 0.40699799999999997 -0.942264 0.326393 -0.339174 0.43628500000000003 -0.055004000000000025 -0.241566 -0.616039 0.28853 -0.33516700000000005 1.5188000000000001 0.050402 0.11212700000000003 -0.511055 0.029367 0.14476799999999998 0.6388990000000001 1.0741070000000001 -0.41156 0.393321 -0.898509 -0.239208 0.14836300000000002 0.688376 -0.761195 0.202871 0.39014899999999997 -0.376961 -0.39644 -0.9167449999999999 0.273337 0.400853 -0.9300160000000001 -0.129876 0.286358 0.8542050000000001 0.638956 -0.354731 -0.421349 0.545567 0.637408 0.375862 -0.90986 -0.315541 -0.21052900000000002 -1.604256 -0.584854 0.932372 0.217474 -0.585892 -0.080081 -0.46413699999999997 0.041280000000000004 -0.41567 -0.47616800000000004 0.30727499999999996 -0.174382 0.437824 -0.591707 -0.351927 0.301377 0.175964 0.08823799999999998 0.11597200000000002 0.147342 -0.304054 0.03042499999999998 0.20451600000000003 0.206381 1.148662 -0.47897 -0.764757 -0.34619900000000003 0.314927 -0.112227 0.033031000000000005 0.650662 -0.115982 -0.33225000000000005 -0.008944 -0.308276 -0.774314 -0.345896 0.66397 -0.284699 -0.385644 -0.9411449999999999 -0.036955000000000016 -0.729427 -1.0739960000000002 -0.688787 -0.15258999999999998 -0.757567 0.35260800000000003 0.548832 0.550222 0.13866699999999998 -0.023691000000000018 -0.467526 1.1824109999999999 -0.778178 -0.50141 0.080731 -0.7981849999999999 -0.45703099999999997 0.958719 0.37873 -0.052693 -0.04878 -0.469648 0.26139999999999997 -0.389578 1.1332980000000001 0.15455 -0.267609 -0.283655 0.32413899999999995 -0.487398 -0.581673 -0.449091 0.46975700000000004 0.239493 0.152649 -0.30038899999999996 0.21693399999999996 -0.16574 0.43503900000000006 0.9380040000000001 -0.017817000000000003 -0.258417 -0.813599 0.402374 0.44631 0.39001300000000005 0.328421 0.022870999999999975 0.699848 0.5469660000000001 0.020073999999999995 0.332101 0.308812 0.271657 0.17864200000000002 -0.32104 -1.040513 -0.9945160000000001 0.306688 -0.681524 0.074677 0.270214 0.875298 0.824255 0.09993899999999999 0.767803 0.367959 0.06969700000000001 -0.09882099999999999 -0.515316 -0.66667 0.32796 -0.020439 0.804789 -0.423858 0.928096 -0.285724 -0.48247700000000004 0.21889499999999995 0.950542 -0.321673 0.001460999999999997 -0.43171 -0.611595 -0.09102000000000002 0.91675 -0.112374 0.7145279999999999 0.17738 0.033027 -0.189465 0.313518 -0.714906 0.20088899999999998 0.685635 -0.181725 -0.834275 1.081846 0.732103 -0.019334 -0.04806099999999999 0.129515 1.085344 -0.9205270000000001 0.250189 0.107942 0.588901 -0.18341 0.687403 -0.43278 -0.715013 -0.017064000000000024 -0.6226670000000001 0.522879