sizeweightmodel -0.044677999999999995 1.148166 -0.355139 1.030011 0.06752899999999995 -0.0036999999999999256 -0.741808 -0.8131470000000001 -0.151088 0.504033 -0.526147 -0.896119 1.58576 -0.287889 -1.152757 0.5677629999999999 -0.619997 -0.17534099999999997 0.9586060000000001 -0.585459 -0.11039199999999999 1.7220330000000001 2.052696 1.473008 -0.7986610000000001 0.0018259999999999943 0.9746490000000001 -0.005143000000000002 0.240882 -0.64656 -0.09775 0.47011800000000004 -0.117155 1.149999 -1.585006 0.221009 1.324354 0.68687 0.867341 -0.5366070000000001 -0.40791 -0.368088 0.40788100000000005 0.858318 -0.356505 -0.634966 0.839651 2.110637 -0.139015 0.228901 -0.970351 0.14573600000000003 -0.06968 -1.639821 0.822209 -1.232064 -0.48223499999999997 -0.421859 -0.280446 -0.410429 1.064712 -0.535787 -0.6573479999999999 -1.249049 -1.109703 0.41562 0.49787200000000004 0.837722 -0.33467 -1.38586 0.452754 1.354781 0.490498 -0.344155 -1.056024 1.357443 1.23115 1.11666 0.399153 0.8350040000000001 -0.653689 0.242094 0.141127 -3.0411989999999998 0.211294 -0.015627000000000002 0.91039 -2.0988629999999997 0.11803300000000001 0.764184 0.697203 -1.015695 0.466715 1.096323 1.036653 0.826884 0.726423 -1.353161 -0.229757 0.657564 -0.406157 0.17220500000000002 -0.21706699999999998 -0.21171 -1.513142 0.857447 1.077069 -1.319794 -0.09678799999999999 -0.559946 -0.441395 0.31940599999999997 -1.119281 0.433655 0.136438 0.6565909999999999 0.762192 0.121877 0.8907320000000001 0.03822500000000001 0.41105100000000006 -0.649979 -0.19633299999999998 -0.521232 -0.589454 0.950529 1.029151 1.324933 0.030107 0.704604 -0.08123000000000001 -1.036515 -0.891732 -1.2973919999999999 1.203917 0.26266 0.603174 0.407809 0.31546 0.64295 -1.737483 0.199005 0.048873 0.19428900000000002 -0.22817699999999996 -0.9271670000000001 -0.403638 -0.144642 -0.435534 0.297239 0.9638019999999999 0.116757 -0.655763 -0.026075999999999988 0.651761 0.005188999999999999 0.05297099999999999 -0.7815840000000001 1.189244 -1.3189170000000001 1.662617 -0.6944049999999999 0.522711 0.07845800000000003 -0.37005099999999996 -1.324123 -0.007849999999999996 -0.10602600000000001 0.185894 -0.397687 -0.7876270000000001 0.921311 -0.081815 0.17000099999999999 1.100268 -0.407767 1.4910869999999998 0.318653 -1.437386 0.46091299999999996 -0.340958 -0.47328600000000004 -0.410553 -0.24714999999999998 -0.410952 -0.059666 0.675188 1.115576 -0.7368920000000001 -0.907361 -0.721344 -0.19112800000000002 -0.918903 2.911805 1.243824 -1.532473 0.061727000000000004 0.461648 1.06303 -0.17028 -0.08776099999999999 0.009677 -0.160114 -0.165894 1.464664 0.06806699999999999 -0.615248 -0.24524900000000002 -0.513951 -0.472393 -0.584792 -0.537532 1.329746 1.011701 0.23949 -0.457551 0.446662 0.984971 0.114077 -0.6855990000000001 -0.157578 -1.39024 0.419781 -1.295869 -0.167497 0.631076 0.901076 0.257459 0.726667 1.009693 -0.08231899999999999 -0.23758300000000002 0.259162 -0.09652900000000003 0.18543600000000005 -0.406304 -1.177569 0.0007560000000000067 -0.426096 -0.791888 0.71555 -0.109028 0.392872 -0.6259969999999999 -0.383366 -0.183525 0.028356999999999993 0.7087749999999999 0.657308 -0.5136160000000001 -1.343599 0.26998 -0.05167999999999999 0.774876 0.609673 0.44988 0.466125 0.15672899999999998 -0.35270599999999996 0.7016530000000001 1.4972180000000002 0.308637 0.031634999999999996 0.087612 0.22800700000000002 0.043711 0.225957 1.0227870000000001 0.676745 -0.787628 1.147457 0.563359 0.42215800000000003 -0.170465 -1.084952 -0.327311 -0.446766 0.120553 -1.139499 -0.180977 -0.866181 0.359061 -0.557879 -0.833523 -0.120283 0.477191 -0.8690370000000001 -0.085449 -0.717079 0.802022 -0.19974799999999998 -0.30086500000000005 0.090665 0.668809 -0.520417 -1.0516 -0.106019 0.345926 0.988462 -0.246638