sportweight -0.11954300000000001 -0.47096099999999996 0.308087 -0.105988 0.470517 -0.192516 -0.09190500000000001 -0.18438 0.109348 -0.12328800000000001 0.600519 -0.053299999999999986 0.303405 -0.36274999999999996 -0.827075 0.138866 0.551129 0.119927 -0.279805 -0.65387 -0.301681 -0.707245 -0.015060999999999991 0.00947300000000001 0.216815 -0.129493 -0.024501000000000023 -0.049908999999999995 0.5657760000000001 -0.17088499999999998 0.14326300000000003 -0.22148600000000002 0.23362300000000003 -0.217755 0.286313 -0.39833 -1.192741 -0.601494 -0.8552179999999999 -0.096438 0.16335000000000002 0.614231 0.45600299999999994 -0.5579 -0.11853199999999997 -0.627034 0.491503 -0.381074 -0.499399 0.765549 0.290793 -0.15803999999999999 -0.752864 1.071264 -0.371354 0.5864769999999999 0.590332 -0.04695300000000002 0.11064200000000002 0.133271 -0.42411600000000005 0.18365299999999996 -0.8824219999999999 0.957944 0.05597699999999997 -0.532204 -0.465809 0.375749 0.468529 -0.5204200000000001 -0.18132700000000002 -0.367529 -0.108816 0.35787199999999997 -0.20087699999999997 0.275675 -0.0618 0.233981 0.578715 -0.00675000000000002 0.699648 -0.37964999999999993 -0.495463 -0.33255999999999997 0.09385800000000001 0.49736199999999997 0.027860999999999997 0.714429 0.373821 0.579116 0.45152699999999996 -0.11722999999999999 -0.43623 -0.125739 -0.081377 -0.273835 -1.077169 -0.17559 0.6543049999999999 -0.690974 0.550987 0.361049 0.093996 0.077928 0.29566800000000004 0.262538 0.63871 0.023363999999999996 0.8460559999999999 0.507317 -0.862627 -0.760002 -0.5957859999999999 -0.01743199999999999 0.46430400000000005 -0.19084099999999998 -0.31901 0.6124499999999999 0.399206 0.12654100000000001 0.406837 0.661223 -0.594134 -0.50917 0.230308 0.09443200000000002 -0.30550999999999995 -0.476538 -0.641198 0.23526399999999997 0.417567 0.16177300000000003 0.027591000000000004 0.21196500000000001 -0.581877 -0.785235 -0.11731200000000001 -0.616169 0.992496 0.212728 -0.317678 -0.07369999999999999 -0.094097 -0.470607 -0.45510500000000004 -0.202554 0.282868 -0.5953729999999999 -0.016462 0.157107 -0.702191 -1.185785 0.182588 0.017262000000000055 -0.07442099999999996 -0.36523 -0.210001 0.9251339999999999 0.208203 0.37305900000000003 -0.152419 -1.042412 -0.16670400000000002 -0.11424799999999999 0.009965000000000002 -0.33528699999999995 -0.761952 0.212421 0.7331620000000001 -0.484817 0.079471 0.5586420000000001 -0.21445599999999998 0.136318 -0.734392 -0.122145 1.3311739999999999 -0.778356 -0.978495 -0.348112 0.741587 -0.192908 -0.26285400000000003 -0.508454 -1.028502 -0.6226269999999999 -0.16643299999999997 -0.863123 -0.543169 0.40445200000000003 -0.087384 0.388531 0.288709 -0.0019470000000000043 0.004486000000000018 0.467271 -0.005318000000000003 0.524351 -0.7340439999999999 0.551701 -0.041665 0.06584399999999999 -0.687936 0.08407999999999999 0.509751 -0.453955 0.486654 -0.02600600000000003 -0.300506 -0.528108 0.7344630000000001 0.226134 0.5500619999999999 0.48382600000000003 0.36378200000000005 0.743844 0.771753 -0.578125 -0.543395 0.433251 -0.05696699999999999 -0.05799099999999999 0.44510900000000003 -0.46654199999999996 0.560389 0.271864 -0.186093 0.25300300000000003 -0.394308 0.208183 -0.18349100000000002 0.19641200000000003 -0.573374 0.182757 0.5711740000000001 0.5316029999999999 0.8740939999999999 -0.19378499999999999 -0.044927999999999996 -0.027888000000000003 -0.029937000000000002 -0.7934910000000001 0.14734 -0.802575 -0.18303 0.322525 0.6984090000000001 0.37967300000000004 -0.509973 0.5053570000000001 0.07874500000000001 -0.18720900000000001 -0.5963339999999999 0.05152899999999999 -0.45443799999999995 0.728885 0.58641 0.16435300000000003 -0.592149 0.257467 -1.002603 0.859695 -0.717649 -0.137463 -0.172565 -0.354371 -0.467426 0.145941 0.31044900000000003 -0.826228 -0.546616 -0.15004 0.373626 -0.27366199999999996 0.009698999999999985 -0.07915000000000001 0.377292 -0.404867 -0.603434 0.39014899999999997 -0.15407300000000002 0.0015519999999999978 0.10041 0.17374 -0.37082400000000004 -0.682957 0.023204999999999976 0.442037 -0.33491 -0.611656 0.757031 1.0402909999999999 1.439953 -0.22177799999999998 -0.043 -0.539373 0.413005 0.043895 0.407801 0.030812000000000006