strawweights 0.504737 -0.532397 0.875211 0.278485 0.218792 -0.17364000000000002 0.074961 0.040629 -0.13505499999999998 0.7247330000000001 -0.0020830000000000015 0.10714900000000001 0.28987999999999997 0.108327 0.439022 -0.278436 -0.47251600000000005 0.17493799999999998 -0.254164 -0.28711 0.115732 0.9953589999999999 0.13695000000000002 0.254438 0.610232 -0.463467 0.516455 0.048020999999999994 -0.17803999999999998 0.576011 0.487251 0.03486 -0.249436 -0.456388 0.194758 -0.09449300000000001 0.378212 0.585043 -0.435442 -0.015167 -0.516434 -0.287314 0.749386 -0.417279 -0.5726 0.301716 -0.447689 0.092655 0.38751599999999997 0.653788 0.11411200000000002 -0.029811 -0.157919 0.751714 0.288572 0.16359 -0.483803 0.459528 0.311683 -0.10681199999999999 -0.5228590000000001 0.325052 0.222572 -0.432056 -0.560941 -0.003275 0.170698 0.20962000000000003 -0.21258700000000003 0.356503 0.063067 -0.18451399999999996 -0.630271 0.611243 -0.7904329999999999 0.292022 -0.880892 0.293161 0.391991 0.9407539999999999 0.445167 0.019556 -1.047145 -0.273562 -0.655321 1.051445 0.6700109999999999 -0.40357400000000004 -0.495769 -0.297908 -0.21152700000000002 -0.760895 0.490746 -0.26713 -0.06500999999999996 0.197605 0.627765 0.498196 0.463426 -0.006167999999999979 -0.286216 0.075154 -0.07716500000000001 -0.335077 0.23572799999999997 -0.31402199999999997 0.652218 0.13810799999999995 0.11286600000000002 -0.5709310000000001 0.511215 -0.09436699999999992 0.248714 -0.183631 0.015478000000000006 1.07311 0.304967 0.0022850000000000092 0.285836 -0.191919 0.966199 -0.872366 0.5527960000000001 0.4810539999999999 -0.294478 0.24749300000000002 -0.302342 0.24398699999999998 0.0013269999999999983 0.972744 -0.516792 -0.18376399999999998 -0.269246 0.404714 1.031052 -0.273322 0.083677 0.443425 -0.09086699999999998 -0.531069 -1.7973 -0.11802799999999997 0.529728 0.019102999999999995 0.47219800000000006 -0.175487 -0.304191 -0.241562 -0.062377 0.475131 1.302838 0.49916800000000006 -1.205452 0.230937 0.028488 0.10945500000000001 0.167274 0.314722 -0.549126 0.121427 -0.734579 0.65016 -0.331732 -0.184756 -0.00854100000000002 0.00889799999999999 -0.06428 -0.290119 0.6194249999999999 1.61354 0.378245 0.20648500000000003 -0.654851 -1.122979 -0.38023799999999996 0.165721 0.22458400000000003 0.26903900000000003 -0.6697339999999999 0.572052 -0.289472 -1.198523 0.01051599999999997 -0.340954 1.2538960000000001 0.02319099999999996 0.20826300000000003 0.1492 0.09087200000000001 0.550647 0.33293500000000004 0.40093 -0.062517 1.5763289999999999 0.023687999999999987 -0.244272 0.651917 0.8075300000000001 1.479867 -1.16316 0.642185 -1.09842 0.25874800000000003 0.44800400000000007 0.24167100000000002 0.562697 -0.20299299999999998 0.148449 -0.08615300000000001 -0.407934 -0.317222 0.571927 0.33142699999999997 0.708483 -0.5205759999999999 0.40872699999999995 -0.023655999999999996 -0.410815 -0.23098100000000002 0.287458 0.39095 -0.7510600000000001 -0.678146 -0.607909 -0.05011199999999999 0.21553400000000003 0.289809 0.41556499999999996 0.04938099999999998 -0.577556 -0.985625 -0.044587000000000016 -0.012087999999999988 0.640042 -0.477244 -0.292515 -0.267981 -0.232383 0.492351 0.15772000000000003 0.053528000000000006 0.19753 0.073577 -0.26249 -0.232629 0.48282600000000003 -0.131494 -0.01710200000000006 0.0022829999999999795 0.387214 -0.553014 -0.6779919999999999 0.325918 -0.195962 0.566474 -0.361795 0.97927 0.46205799999999997 0.23952 -1.1234 0.00845 -0.9739420000000001 0.424343 0.247278 -0.683203 0.628517 0.7840640000000001 -0.069911 0.789857 -0.397796 -0.013359999999999983 -0.684679 -1.000317 0.18418099999999998 0.7693570000000001 -0.637765 -0.44220800000000005 0.34394800000000003 -0.621591 0.7440709999999999 0.286655 -0.025630999999999987 0.066692 -0.11287799999999998 0.4184 0.5122 0.701537 0.556583 0.426172 -1.419097 -0.742678 0.882212 1.171707 0.03864699999999999 -0.43091 0.36018 -0.7381810000000001 -0.098629 0.861964 0.321642