strawweight 0.7541850000000001 0.190527 1.186711 0.295567 0.461124 0.270306 -0.673316 -0.7765690000000001 0.376229 0.318333 0.198238 -0.144887 0.37493000000000004 -0.469696 0.01779799999999998 -0.25592400000000004 -0.5534079999999999 0.362552 -0.284118 0.999949 0.177631 0.7608969999999999 0.566904 0.647554 0.6687 -0.329979 0.517088 0.56043 0.37322 0.6238539999999999 1.318213 1.066298 -0.269336 -0.90276 0.526817 -1.0953810000000002 -0.100636 0.694078 -0.503978 -0.42321699999999995 -1.648383 -0.10167799999999999 0.047271 0.703503 0.28221399999999996 0.823072 -0.580117 0.030851999999999997 0.498718 0.248351 0.199052 -0.005796999999999997 -0.37365400000000004 1.666382 -0.004935999999999996 -0.502132 0.309572 -0.551665 -0.291011 -0.9160470000000001 0.6465569999999999 1.1331950000000002 0.293452 -0.492288 -0.443268 -0.13946900000000007 -0.37642600000000004 0.222773 1.026978 -0.02451299999999998 0.03469999999999998 -0.041030999999999984 -0.240245 0.007571999999999995 -0.7342559999999999 -0.327554 -0.5499529999999999 0.43891600000000003 -0.052764000000000005 0.10690200000000001 0.871558 0.543893 -0.350474 0.887678 -0.644372 0.10119299999999998 0.670262 -0.642278 0.460913 -0.297554 -0.16968800000000006 -0.37538799999999994 -0.5307769999999999 -0.9772730000000001 -0.03744900000000001 0.153671 0.763355 0.112732 -0.056704000000000004 -0.487097 1.279504 -0.049806 -0.143297 -0.37526800000000005 0.5029129999999999 0.022895 0.5455220000000001 0.5982409999999999 0.9686450000000001 0.782787 0.203263 -0.26782300000000003 0.75136 0.716178 -0.566101 1.1552129999999998 -0.100225 -0.348415 0.03323300000000001 0.022322999999999982 1.173641 -0.11778899999999999 0.461265 -0.322144 0.22721900000000003 1.292151 -0.245934 -0.385768 0.256038 0.6023080000000001 -1.095307 0.289883 0.530258 0.750988 0.568443 0.15811599999999998 -0.8588039999999999 0.007152999999999965 0.032359999999999944 0.07252700000000001 -0.774308 0.612537 -0.31352 -0.502737 0.879864 -0.371723 0.623261 0.61946 0.02155 0.318625 0.87142 0.18207099999999998 -0.072765 -0.688828 -0.06848700000000002 -0.40650299999999995 -0.391812 0.53055 0.104099 -0.545722 -0.229631 -0.06282599999999999 -1.093798 0.249785 -0.8886480000000001 0.7056439999999999 -0.383973 -0.8263210000000001 -0.195258 1.4405649999999999 0.877898 0.154664 0.49146899999999993 -0.291145 -0.016907000000000005 0.176731 0.568963 -0.216621 0.226471 -0.345815 -0.25631699999999996 -0.051793000000000006 -0.41676399999999997 -0.431772 0.38942 -0.08999 -0.768311 -0.737586 0.8148340000000001 0.584974 0.726538 0.6301380000000001 0.3754700000000001 1.462119 -0.19584000000000001 -0.8815339999999999 0.10636 0.53547 0.523647 -1.1895820000000001 0.159515 -0.961353 0.9509050000000001 0.564643 0.6183609999999999 0.727619 -0.7757350000000001 -0.05891899999999997 -0.207021 0.125574 -0.8466359999999999 0.968442 -0.5251939999999999 0.324638 -0.34970300000000004 -0.171437 0.624097 -0.01357 -0.230921 0.31645599999999996 -0.7780229999999999 0.30291100000000004 -0.66906 0.11763499999999999 -0.642871 0.403904 0.014517000000000002 0.181398 0.211333 -0.010218999999999999 -0.29396100000000003 1.2099360000000001 -0.0013090000000000046 0.18741600000000003 0.776675 0.060901 0.5693379999999999 -0.193654 0.06221399999999999 0.612644 0.396925 -0.21812700000000002 0.24454199999999998 -0.21898199999999998 -0.630639 1.23749 -0.42121600000000003 0.27181800000000006 0.20836700000000002 0.433292 0.475133 0.135637 0.014693999999999985 -0.11349299999999998 0.33152000000000004 -0.690479 0.21874600000000002 0.668308 -0.011665999999999996 0.5249949999999999 0.24874100000000002 -0.26831299999999997 -0.4198299999999999 0.58933 0.10741800000000001 0.937408 0.764705 -0.563357 -0.092576 -0.742614 -0.20946800000000002 -0.865669 -0.369271 -0.44002399999999997 0.266266 0.13903100000000002 -0.35353500000000004 0.164589 0.097646 0.552069 -0.193832 0.593346 0.233425 0.563193 -0.10758599999999996 0.7501960000000001 0.5054940000000001 0.6888359999999999 -0.43823199999999995 -0.416285 0.356958 0.881176 0.331952 0.552063 -0.06296199999999999 0.138542 -0.5758920000000001 0.158355 0.254736 -0.32339300000000004