summerweight -0.5893889999999999 -0.289968 0.19579 -0.644234 0.327764 -0.426548 -0.904821 0.324376 0.37788 0.10586600000000002 0.7422390000000001 -0.5083489999999999 0.36584099999999997 -0.898547 -0.523962 0.42150200000000004 0.15247300000000003 0.162902 0.263783 -0.087582 -0.338013 0.040185 0.6081019999999999 -0.6913670000000001 -0.373191 0.24985600000000002 0.647994 0.556447 0.600277 -0.508962 0.10533199999999998 0.10430699999999998 -0.245771 0.857009 -0.23314200000000002 -0.50824 -0.362381 -0.079803 0.03515700000000001 0.49100299999999997 0.152318 0.060346 -0.066915 -0.161323 -0.52494 -0.568111 -0.059211000000000014 -0.318933 0.20717799999999997 -0.339025 0.50877 0.309596 -0.17118799999999998 -0.199893 0.483251 -0.743165 0.007349999999999995 0.537544 0.7108920000000001 -0.13248100000000002 -0.229691 -0.401763 -0.194065 0.511979 -0.610824 0.34984499999999996 0.619803 0.48066899999999996 -0.132532 -0.706075 0.267674 0.151888 0.39097400000000004 -0.833273 -0.188918 0.279308 -0.160248 0.40217400000000003 0.24685600000000002 -0.31159800000000004 -1.114017 0.438095 0.283711 0.12886 0.00590400000000002 -0.542902 0.331634 -0.120325 0.619848 0.20384299999999994 -0.597898 -0.449404 -1.0274869999999998 0.10690299999999998 0.43852199999999997 0.39743799999999996 -0.08557899999999999 1.277273 -0.415927 0.136368 0.122354 0.034746 0.696833 -0.40137199999999995 -0.24746 -0.076596 -0.252257 -0.04062199999999999 0.26211 0.28707499999999997 -0.7687229999999999 -0.7225109999999999 -0.341263 0.533733 -0.375693 0.239651 -0.61216 0.572948 0.098082 -0.23659399999999997 0.07078700000000002 0.012283 -0.530785 0.223739 -0.41219800000000006 -0.692632 -0.255124 0.357819 0.026600000000000013 -0.769548 -0.20690599999999998 0.7249319999999999 0.274719 -0.09363099999999999 -0.8326259999999999 -0.09254399999999999 -0.557882 0.727518 0.47640400000000005 -0.225108 -0.833715 0.014091 0.11034599999999999 0.09868000000000002 0.132154 0.509616 0.265949 0.470417 0.13727899999999998 -0.805809 0.168773 0.116696 0.15676400000000001 -0.126334 -0.68059 -0.25211 0.03462 -0.271637 0.351312 -0.794659 0.30573000000000006 -0.290651 -0.180931 0.157122 0.055737 -0.02971600000000002 -0.113635 -0.273068 -0.082997 0.5268820000000001 0.289007 0.34002999999999994 0.906984 0.310407 0.38537699999999997 0.61831 -0.108869 -0.59212 -0.288957 0.518502 0.42121400000000003 0.42635 -0.07535399999999998 -0.335943 -0.14775300000000002 0.049401999999999946 0.1645 -0.324829 -0.6259870000000001 0.253658 0.353809 0.051984 -0.090269 0.189997 -0.09108799999999997 0.27407400000000004 0.049359000000000014 -0.515455 -0.10608100000000001 -0.20315299999999997 -0.166482 0.13662 -0.130179 0.262515 0.41247100000000003 0.769884 -0.24634599999999998 -0.47857399999999994 -0.11774700000000002 -0.127659 0.754846 -0.34363299999999997 0.20655600000000002 -0.26659900000000003 0.006565000000000015 0.262981 -4.200000000000037e-05 -0.60579 -0.911527 0.376813 -0.08195300000000001 -0.16273 -0.091798 -0.684717 0.39634500000000006 -0.585934 0.400881 -0.477821 0.12276500000000001 0.15460800000000002 -0.13078 0.042754 0.449954 -0.728335 0.8404119999999999 -0.015208 -0.8321280000000001 1.174229 -0.6345069999999999 0.419708 0.7169509999999999 -0.153603 -0.535363 -1.017742 0.17128500000000002 -0.183648 0.017819 0.118396 1.317754 0.456562 0.335177 -0.533264 -0.20727 0.080422 -0.297909 0.233354 -0.14202599999999999 -0.518909 0.8173549999999999 0.265876 0.37557700000000005 0.45002300000000006 -0.259888 -0.22772899999999996 -0.00166299999999997 -0.20156400000000002 -0.027802999999999994 -0.034054 0.487485 0.27009400000000006 0.287426 0.260941 0.917851 -0.489633 -0.107908 0.421584 -0.178284 0.049950999999999995 -0.058675000000000005 0.566165 0.195166 0.5515140000000001 0.094476 0.211705 -0.172213 -0.382918 -0.5866939999999999 -0.145067 0.194747 -0.653272 0.101572 0.241886 -0.138166 -0.21096700000000002 -0.234408 -0.356317 -0.391903 0.143827 0.288633 -0.49726499999999996