super-bantamweight -1.071027 -0.416048 -1.602405 2.123712 0.747163 0.533404 -0.723583 -0.541899 -1.1547589999999999 -0.06619900000000001 -1.9899429999999998 0.821093 0.010573999999999972 -1.8680980000000003 -1.671828 0.10806999999999989 -0.266117 1.557553 -0.293824 0.9795069999999999 0.358834 0.382289 1.288074 0.429933 0.133017 0.061728 1.42365 1.282568 -0.24714999999999998 0.7797130000000001 1.4922849999999999 0.5475260000000001 0.310411 1.1733950000000002 -0.02139000000000002 -0.24919500000000006 0.156563 -0.067079 -0.7934300000000001 0.846085 -0.037135 0.784166 -0.691415 -0.23373200000000002 1.801959 0.365926 1.032751 0.561099 -0.003459999999999963 0.19313799999999998 0.37941300000000006 -0.211768 0.751706 1.686484 0.494442 -1.004422 1.074404 1.02383 -0.8134870000000001 0.564562 0.697356 1.205738 0.8533949999999999 -0.37481699999999996 -0.311727 0.12952300000000005 0.912487 1.562095 -0.800032 1.327585 0.01799100000000009 0.834416 0.8537140000000001 -1.642156 0.6287909999999999 0.746984 -0.528689 -0.21268399999999998 -0.33077999999999996 2.3502989999999997 0.03466799999999992 -0.32103499999999996 -0.24018300000000004 0.311476 -0.977418 1.265728 0.5641010000000001 -0.011251999999999984 1.998669 1.10399 -0.15484700000000007 0.135798 -2.319032 0.333233 0.761368 0.695377 -0.13812 0.13318200000000002 0.07518199999999997 0.5144219999999999 -0.493445 -0.006961999999999996 0.398312 -1.18757 1.3026849999999999 -0.36316899999999996 -0.436467 0.21167199999999997 1.27209 1.449316 -1.001828 1.117689 0.44716700000000004 0.18152100000000004 -0.812435 -0.54582 -0.049761000000000055 0.732827 -0.816941 -0.422853 0.8017190000000001 0.397164 1.147742 -0.395021 1.211508 -0.304237 0.221962 -0.424164 1.3088410000000001 -0.849701 -0.374046 -1.484186 0.19235800000000003 1.301178 -0.25486800000000004 -0.14274399999999998 -2.392893 0.435809 0.345381 -0.19289399999999998 0.429009 0.945688 -0.46449300000000004 1.235053 -1.425303 -1.982777 0.541035 -0.39546300000000006 0.847342 0.12580200000000002 -1.401818 -1.0405090000000001 -0.374147 1.786812 -0.854143 -0.36879800000000007 0.53232 0.214501 1.289206 -1.61132 -0.31094 0.14688400000000001 -1.095116 -1.6083159999999999 -0.667346 0.029351999999999934 0.881834 0.06586500000000006 0.9972570000000001 -0.41698599999999997 1.979015 -1.108494 -0.556794 -0.020065 0.2871499999999999 1.307196 -0.21847100000000003 -0.40786199999999995 2.063902 0.24929200000000007 1.0806850000000001 1.7636189999999998 -1.161336 0.36425699999999994 0.539188 -1.8181249999999998 -1.405579 -0.26301599999999997 0.471154 -0.066552 1.7452070000000002 -0.959004 1.1058029999999999 0.19085000000000002 1.209732 -0.07061 0.7196089999999999 -2.204218 1.536324 -0.33425099999999996 -0.871857 -0.3373370000000001 -0.064633 0.791125 -0.190238 -0.394519 0.387848 0.07860400000000001 0.49722900000000003 -0.04328599999999999 0.08372400000000002 -0.785671 -3.133465 0.5130910000000001 0.6624329999999999 0.07600799999999996 0.736021 0.12234 0.07341499999999998 -0.7964340000000001 1.625966 -0.757256 0.11917 0.38912399999999997 -1.1101619999999999 2.4694409999999998 0.11939399999999994 -1.223236 -0.08239499999999998 0.387965 -0.697924 1.814856 0.7340789999999999 0.5196500000000001 -0.722076 -1.4243519999999998 1.85079 -0.395671 1.141902 2.709887 -0.788356 0.923045 0.455467 0.609606 0.735999 0.16010899999999995 -0.255145 -0.943379 -0.009895000000000001 0.6448450000000001 0.6611560000000001 -0.191903 1.016386 1.8812989999999998 1.4655610000000001 0.8602369999999999 -1.58357 0.592913 -0.939852 0.849604 0.9931669999999999 0.28046899999999997 -0.307026 -0.009095000000000002 -1.173683 1.157411 0.446739 0.6149609999999999 -0.07357300000000001 -1.047703 -1.2753510000000001 -0.304873 -1.119177 0.06803800000000002 0.238983 1.238076 -0.641229 2.147661 0.6244460000000001 0.759755 -0.64641 0.131117 -1.033821 0.9945550000000001 -2.2099450000000003 0.04714099999999999 -0.785458 0.922577 -1.0941420000000002 -0.914258 -0.22462400000000002 -0.418898 0.262892 -1.041726 0.7748980000000001 -0.19674 -0.8852639999999999 0.289796 4.659148 -0.218892