superheavyweight 0.017399000000000005 0.43574399999999996 -0.234454 -0.142288 -0.08899699999999999 -0.042387 -0.440095 -0.9501740000000001 0.298367 0.27360500000000004 0.7958620000000001 -0.276723 0.320534 -0.429398 -0.342082 -0.43936600000000003 0.368795 0.644176 0.568593 -0.33862099999999995 -0.9556100000000001 -0.4444159999999999 0.476576 0.42543400000000003 0.7351730000000001 0.13516399999999998 -0.229767 0.45201 -0.22358499999999998 0.189854 0.37353800000000004 -0.37984300000000004 -0.09908900000000001 -0.082255 -0.137765 0.26290199999999997 0.20747500000000002 0.219212 -0.131874 -0.697233 -1.140638 -0.057330000000000006 0.9478660000000001 0.359965 -0.808702 0.25697200000000003 -0.13076300000000002 -0.40203 -0.28284699999999996 -0.816336 0.129253 0.088387 -0.8125910000000001 0.68377 0.504696 -0.208098 0.078938 0.99385 0.300348 -0.530873 0.06743799999999997 0.36857 -0.6360319999999999 0.94533 -0.373397 0.569627 -0.171568 0.066807 0.03195200000000001 -0.187905 0.137857 -0.05286 0.43768399999999996 -0.619653 0.063641 -0.09072999999999999 0.14268 0.299415 -0.25824400000000003 -0.685324 0.471286 0.5189509999999999 0.5048349999999999 0.465172 -0.233422 1.0123010000000001 0.26685499999999995 1.040507 -0.392011 -0.127051 -0.382428 -0.297431 -0.791426 0.10937500000000003 -0.322328 -0.622776 -0.5757030000000001 0.363272 -0.333576 -0.5861860000000001 0.481889 -0.833153 0.18346 -0.617668 -0.042422 -0.444877 0.929538 0.436033 0.534197 0.093916 0.12015399999999998 -0.327963 0.116561 0.420146 -0.314178 -0.658426 -0.494836 -0.205198 -1.0839539999999999 0.530041 -0.028182 -0.283711 -0.07053399999999999 -0.26330600000000004 0.036619 0.603517 0.42724199999999996 -0.603084 -0.16207400000000002 0.274822 -0.48869999999999997 -0.0011150000000000049 -0.5273610000000001 -0.12522299999999997 0.134314 0.853495 0.20838300000000004 -0.044673000000000004 -0.07368399999999997 0.060418999999999994 -0.23853599999999997 0.5877829999999999 -0.850627 0.3919119999999999 0.654584 -0.837618 0.14507299999999998 0.07842400000000002 -0.16132799999999997 0.273413 0.833027 -0.158679 0.22442399999999998 0.337787 -0.285267 -0.038206000000000004 0.40951800000000005 -0.113828 -0.001355999999999996 -0.205676 -0.512368 0.401541 -1.289547 0.161168 -0.545286 1.048592 -0.474602 -0.47828400000000004 -0.6408149999999999 0.023193999999999992 1.165314 0.636525 -0.14326300000000003 -0.18088600000000002 0.06667299999999998 0.50884 -0.171692 -1.023236 -0.41049900000000006 -0.306754 -0.537874 -0.009775999999999993 -0.377617 0.18285399999999996 0.207219 -0.029673000000000005 0.30584300000000003 -0.638104 -0.31807199999999997 0.17968 -0.680851 0.49072200000000005 0.370961 0.6886140000000001 0.160889 -0.006394000000000011 -0.051314 0.103665 0.21666000000000002 -0.508314 -0.779745 -0.5119290000000001 -0.025287999999999998 -0.830923 -0.248229 -0.276999 -0.120583 0.733742 -0.524611 -0.415856 0.094261 0.371545 -0.44475200000000004 -0.254968 -0.270249 -0.4811 0.36103199999999996 -0.070358 -0.457515 0.7849809999999999 -0.338377 0.03929900000000003 0.10890900000000003 -0.177754 0.23279699999999998 0.7604500000000001 -0.34719700000000003 0.16342800000000002 0.21768700000000002 -1.2263359999999999 0.546295 1.008936 -0.35841999999999996 0.23658200000000001 0.05004 -0.16525299999999998 0.20740699999999998 0.21411400000000003 0.069963 0.958767 -0.302519 -0.8371989999999999 0.15249800000000002 -0.182954 -0.451369 0.124752 -0.695749 0.296376 0.283681 0.075566 0.202707 -0.009089999999999987 -0.793478 0.14087699999999997 -0.163212 0.37649900000000003 0.35823900000000003 -0.174091 0.231589 -0.40343599999999996 1.449671 -0.706443 -0.8541470000000001 -0.022164 -0.06928900000000002 -0.31662599999999996 -0.7023360000000001 0.16634200000000002 -0.128836 -0.18949 -0.953289 -0.857819 0.08050000000000002 0.007627999999999968 0.543322 0.7247969999999999 -0.20387099999999997 -0.19377900000000003 0.44859000000000004 0.326217 -0.150355 0.376127 -0.195504 0.061285 0.048988 0.20242100000000002 -0.089949 0.338485 -0.41607099999999997 -0.666835 -0.488647 0.8235380000000001 0.02652299999999999 -0.376013 -0.23106600000000002 0.487414 -0.031678 -0.27050399999999997 -0.223724 0.312089