super-featherweight 0.465918 0.964224 0.264824 0.95351 -0.582092 0.31060100000000007 -1.034433 -0.278192 -0.558082 -0.712051 -0.620331 0.11618400000000001 0.585399 -0.38073399999999996 -0.48655300000000007 1.12542 -0.5561940000000001 0.115343 -0.7450110000000001 0.605685 -0.9730810000000001 1.6104999999999998 0.173954 -0.8591550000000001 0.734032 0.748312 -0.343378 -0.515761 0.157518 1.737484 0.868303 0.524405 -0.6204689999999999 1.522832 1.1497570000000001 -0.002564999999999984 1.2434880000000001 1.042383 -0.416257 0.08243600000000001 0.044278000000000005 -0.938793 -0.730556 0.20975500000000002 0.321071 1.253331 -1.184614 1.596592 -1.35391 0.5717540000000001 0.45728499999999994 -0.27559900000000004 0.184718 0.298142 0.43632499999999996 0.847469 0.067268 0.664571 0.6533 0.488048 -0.676356 1.590134 0.167191 1.005393 -0.771161 -0.43401500000000004 0.496992 0.368119 0.21386 1.335963 0.656593 -0.134947 0.10611400000000001 -0.821418 0.037714 1.13348 0.428626 0.869301 -0.9005799999999999 0.887931 -0.273965 1.201508 -0.888008 0.079065 0.047772999999999996 1.45633 1.224477 -0.5708059999999999 1.6719149999999998 0.125414 0.334631 1.2072319999999999 -0.096153 -1.85975 -0.43672200000000005 0.063522 -0.750885 0.41467600000000004 0.17177300000000006 -0.262774 0.16327999999999998 0.714585 0.889694 -0.5103329999999999 0.449504 -0.6257429999999999 0.09287000000000001 -0.611146 0.119053 0.222159 -0.058971 2.1604110000000003 -0.55869 -0.5979410000000001 -0.251959 1.276233 0.127965 0.398208 -1.3598210000000002 -0.559959 0.134347 -0.7480950000000001 1.182719 0.532114 0.636057 0.246534 2.5677839999999996 0.31701499999999994 -1.410596 -0.14566500000000004 -0.094659 0.48532299999999995 -0.44528399999999996 -0.322962 -0.42453199999999996 -0.26366 -0.7843180000000001 -0.520599 0.808474 -0.923745 -0.119058 0.782804 0.05491700000000002 -1.324415 0.126775 0.318859 0.730192 0.320323 1.992931 -0.41461600000000004 -0.020952000000000026 -0.135678 0.546558 0.770573 -0.05236799999999997 -0.47412599999999994 0.8744829999999999 0.0011649999999999994 0.202186 -1.0716709999999998 -0.29982699999999995 -0.8060729999999999 -0.512971 -0.44742499999999996 0.16400200000000004 -0.560793 -1.433829 0.7847770000000001 -0.5777140000000001 -0.130377 1.243389 0.307365 0.527603 0.689923 -0.488649 -1.650231 -1.136185 -1.8568669999999998 0.14863700000000002 0.028426000000000007 -0.31853699999999996 1.6075430000000002 -0.529126 0.796283 1.261483 -0.623245 -0.9046740000000001 -0.105601 0.380208 -1.455274 1.7046489999999999 0.877014 0.418019 0.014145999999999992 0.996488 -0.393745 0.53505 0.09645799999999999 0.96139 -0.744564 -0.483584 -1.96407 -0.797745 0.09422499999999999 -0.790403 -1.662337 -0.377844 0.423469 0.11021699999999995 -0.10811400000000002 0.7152149999999999 0.661468 0.716461 1.682973 -0.788381 0.689902 1.379222 -1.755009 0.537324 -0.138377 0.160881 0.15234199999999998 -0.890248 1.0545660000000001 -0.31558800000000004 1.1923469999999998 -0.12827100000000002 0.215623 0.442417 -0.7339819999999999 -1.132384 1.759361 0.26390499999999995 -0.6907610000000001 -0.07239799999999996 -0.362444 -0.38746800000000003 1.1976229999999999 1.577952 2.332122 -0.7038249999999999 -1.315689 0.435044 0.730213 0.100235 0.142873 0.330013 0.9997 0.32043200000000005 0.179651 0.787931 -0.11735299999999999 0.035422000000000065 0.6321669999999999 1.441742 0.596808 2.185623 0.715667 1.844511 0.010263999999999995 1.272042 -0.879494 -0.761402 0.17151 0.530326 -2.195429 0.149967 0.048936 -0.553928 0.6820240000000001 -0.9374210000000001 -0.234246 0.7971670000000001 -0.08726299999999998 1.528998 0.850668 -0.438597 0.530323 -0.377571 1.743573 -0.786385 -0.149773 0.6767500000000001 0.8059179999999999 1.521783 0.26890400000000003 -0.39552299999999996 1.01047 -0.612618 -0.319324 0.7556780000000001 0.687726 1.3929580000000001 -0.16638000000000003 0.13021300000000002 1.075424 -0.01695000000000002 0.9867469999999999 1.128404 -0.736343