super-middleweight -0.774525 -1.10956 0.24274 -0.621643 0.368143 1.680343 1.8657020000000002 0.32321500000000003 -0.395227 -0.684226 2.232773 0.22074500000000002 1.040346 1.27096 -1.1009660000000001 -0.251234 -0.824826 -0.61794 0.743484 0.973958 0.367481 0.6412760000000001 0.521813 0.655511 1.008783 -0.751161 -0.9425530000000001 0.7805909999999999 0.237292 0.865229 0.042038 1.297625 -0.253271 -1.2781689999999999 -0.47025300000000003 -0.563492 -2.046348 0.11031000000000002 -1.702887 -0.390611 -0.535836 -0.710391 0.925945 0.008902999999999994 1.624116 0.592529 -0.353116 -1.630736 -0.11452299999999993 -2.033708 -0.48515100000000005 -0.569653 -0.33105599999999996 -0.800718 -0.34804100000000004 -1.2919420000000001 1.0380690000000001 1.193253 -1.207931 -0.250531 0.650528 -0.30534300000000003 -0.655457 0.023497 0.045731999999999995 0.308027 -1.7431459999999999 -1.031113 -1.7514090000000002 0.6079699999999999 0.30688400000000005 -0.195292 -0.618252 0.234226 -0.22392099999999998 -0.41168099999999985 -0.6209709999999999 -0.6868569999999999 -0.8213809999999999 0.07188199999999997 0.159024 1.5530279999999999 1.022292 0.449547 0.731733 -0.010763999999999996 1.0041570000000002 -0.187981 -0.17320999999999998 -1.6023960000000002 -0.322687 -0.340449 0.6202570000000001 1.287488 -0.090291 0.356024 -0.73296 -0.858375 -1.246674 1.289747 0.30946799999999997 -1.354633 -0.40438799999999997 -0.7870940000000001 1.117845 1.52754 0.6253 -0.28554599999999997 0.21173300000000003 0.007162000000000002 -0.412906 0.119778 -0.454191 1.5920889999999999 -0.478539 1.918229 0.8237829999999999 1.042595 -0.922647 -1.394804 0.045688000000000006 -0.30277 -0.40021599999999996 -1.367625 1.724897 -0.5183899999999999 0.40300800000000003 0.8545389999999999 -0.025849 -0.290237 0.126936 -0.03255999999999998 0.39164600000000005 -0.26430000000000003 0.33364900000000003 -0.352474 0.13372100000000003 1.070702 -0.495622 0.05390700000000004 1.473906 -0.6748460000000001 -0.638483 1.1498979999999999 0.35408400000000007 -0.191703 -0.153785 1.0857809999999999 -0.025480000000000003 -0.256999 0.5169569999999999 1.121699 0.32497700000000007 -1.863835 0.14028400000000002 1.457673 -0.897646 0.880847 1.427613 -0.6312 -1.963402 -0.28771500000000005 -1.16828 1.156823 -2.009626 0.399332 -0.18509000000000003 -0.19553700000000007 0.6934819999999999 -0.959622 0.271266 1.753863 0.760537 0.06757099999999999 0.063263 1.031824 1.170523 -2.241446 -0.260714 -0.6337630000000001 1.8019450000000001 0.23937799999999998 -1.976868 -1.339512 -0.686143 -1.017021 -0.6582739999999999 -0.4366380000000001 0.6471699999999999 1.461438 0.594501 0.15380900000000008 0.263254 0.012943999999999999 -0.32285800000000003 0.90448 -1.309431 -0.923823 1.69082 -0.70905 -2.190018 -1.339378 0.922491 -0.30470299999999995 -0.744593 0.09927099999999994 -1.489639 -0.256394 -0.326364 0.30423100000000003 0.06486400000000003 0.24184800000000006 0.25340199999999996 -0.33224200000000004 -0.258547 -1.223315 -0.159886 -0.945381 -0.40980199999999994 -0.46677499999999994 -0.500771 0.651625 1.004755 -0.318543 -0.405062 0.05788300000000002 -1.526131 -0.29763300000000004 -0.511005 -0.971886 -1.376088 0.723162 0.243081 -0.08934399999999998 1.212548 -2.3820360000000003 0.927075 -0.8098 0.399177 0.922037 0.508495 0.8568560000000001 -0.239798 -1.252675 -0.943904 0.892879 -0.922579 -1.373088 -0.7545679999999999 0.6598120000000001 -0.014797999999999978 -0.940591 -0.693985 -1.341855 0.6065240000000001 -1.051469 -0.618751 0.706785 0.167379 1.056791 -1.550613 -0.424788 -0.49038099999999996 1.337321 0.87513 1.0154100000000001 -0.649421 0.8083710000000002 0.109047 -0.826219 2.1399179999999998 -0.162225 -0.6803690000000001 -0.12719700000000003 1.365629 1.168898 -0.38461599999999996 0.765506 -1.7293409999999998 0.627245 -1.0638560000000001 -0.09442 0.01199399999999995 0.592864 0.589491 0.717708 -0.231686 -0.31878399999999996 -1.158412 -0.735941 0.680146 0.41033200000000003 0.803917 0.524465 -0.325377 -0.9495690000000001 0.785879 -1.0991840000000002 0.44089300000000003 1.3880309999999998