super-lightweight -0.18890800000000002 -0.013169000000000004 0.609849 0.00564199999999998 0.40450200000000003 0.028802999999999995 -0.464812 -1.063872 -0.0035510000000000055 0.103182 0.358754 -0.29473499999999997 0.42741 0.284885 -0.126172 0.122335 0.38290799999999997 -0.152079 0.090361 0.478829 0.139718 0.198797 -0.08959600000000001 0.398059 0.40215500000000004 -0.434893 0.05569600000000001 0.004876999999999999 0.599171 0.649081 -0.015030000000000002 0.977328 -0.221308 0.020562999999999998 -0.33437700000000004 0.04146400000000001 0.8551009999999999 -0.07626799999999997 -0.05135999999999999 0.18134899999999998 -0.39040600000000003 -0.19644299999999998 0.357334 -0.221342 -0.611254 0.495166 0.469212 -0.7715259999999999 -0.076714 -0.032376 -0.38388999999999995 -0.130255 0.051923 0.5106379999999999 -0.08548 0.088433 0.578533 0.813364 0.263637 -0.400549 0.20231200000000002 0.43216 0.051871 0.293503 -0.11792700000000002 0.162777 0.20778000000000002 -0.02330600000000002 0.5492319999999999 0.372792 0.09653299999999998 -0.834344 -0.643025 -0.237716 0.073321 0.232772 -0.20572000000000001 0.898118 -0.03486299999999999 0.601392 0.086139 -0.036809 -0.04419 0.25642200000000004 -0.34137 0.662784 0.295074 -0.450272 0.571572 -0.33789899999999995 0.09152300000000001 0.304434 -0.024127999999999997 -0.461915 0.6343920000000001 0.39435999999999993 0.322195 -0.096361 -0.5422469999999999 -0.849216 -0.029141 0.449042 0.425661 -0.33598 0.836992 0.352587 0.431782 -0.306002 0.341931 0.679155 -1.084284 0.20572400000000002 0.048497 0.24707399999999996 -0.361728 0.44690199999999997 0.6247510000000001 -0.134513 -0.667377 -0.155087 -0.31920099999999996 -0.050378000000000006 0.19955699999999998 -0.210007 0.21219100000000002 0.052899 0.396083 0.475145 0.257301 0.07318500000000001 -0.562783 0.23799199999999998 -0.330211 -0.24637900000000001 0.432273 -0.04424099999999999 -0.06958600000000001 0.179227 -0.117805 0.354551 -0.084813 -0.245453 -0.254026 -0.148987 0.043625000000000004 0.097956 0.265707 0.385297 0.615842 0.16253900000000002 -0.00995 -0.256704 0.04441999999999999 0.240662 -0.226892 -0.282602 -0.370854 -0.15178 0.079979 -0.003961999999999993 -0.7238060000000001 -0.732696 -1.06291 0.21685 -0.613874 0.189337 -0.523065 -0.6096630000000001 -0.111367 0.25073100000000004 -0.545282 0.610108 -0.09745899999999999 0.284585 0.520684 0.640955 0.21592799999999998 -0.086699 -0.226725 0.17889000000000002 0.118191 -0.02940100000000001 -0.343998 -0.062006 0.09772199999999998 -0.16244799999999998 -0.574759 -0.5245679999999999 0.221536 0.05530200000000002 0.324141 0.603455 -0.229382 0.5237620000000001 -0.63043 0.014991999999999991 -0.31901 -0.681539 0.08541399999999999 -0.478348 -0.139013 -0.675783 0.069407 -0.340822 0.0014960000000000112 -0.9263790000000001 0.077604 0.038099999999999995 -0.7545900000000001 -0.391936 0.039945999999999995 0.893662 0.308254 0.393349 -0.533043 0.081018 0.758191 -0.459127 -0.060131000000000004 0.13389299999999998 -0.19312900000000002 0.699295 -0.375302 0.007664999999999998 0.686334 0.7491490000000001 -0.554531 -0.20923399999999998 0.773321 -0.679593 0.38776 0.700999 0.526609 0.534802 0.10833 -0.908727 0.209735 0.693416 -0.33193100000000003 0.6025210000000001 -0.22715400000000002 -0.21007299999999995 0.46321 0.153693 0.172617 0.74739 -0.501158 -0.172315 0.203069 0.278239 1.192774 0.135748 0.05584 0.21944200000000003 0.25017 -0.45255199999999995 0.301607 0.483427 -0.26488 0.370346 0.30028 -0.245429 -0.38671300000000003 0.5274260000000001 0.314595 -0.08191300000000001 -0.423605 -0.08187399999999999 0.534681 -0.242369 -0.01339199999999996 -0.577727 -0.11744299999999999 -0.095048 0.363719 0.194729 -0.34169000000000005 -0.16195 -0.338974 -0.023797 -0.390178 0.12917599999999999 -0.187048 -0.045283000000000004 -0.440427 0.306998 0.644173 0.49618399999999996 -0.474466 -0.409601 0.46988699999999994 -0.080527 0.31572999999999996 -0.349287 -0.118416 0.026869999999999977 -0.42627000000000004 -0.541057 0.07787 -0.182624