super-flyweight -1.647597 1.8955089999999999 0.147957 -0.337802 0.83539 -0.41557900000000003 -0.11885100000000001 0.7574080000000001 -0.44844300000000004 -0.736409 -0.28617300000000007 1.029952 -0.128741 -0.45132500000000003 -0.748123 -0.449411 -0.642838 -0.919298 -0.550073 0.6015240000000001 0.514197 0.14028100000000004 0.641275 1.414831 1.188928 -0.6856150000000001 0.402088 0.641624 -0.28865700000000005 -0.343194 0.814591 1.151597 -0.5892310000000001 -0.310794 0.140566 0.39040600000000003 -1.6984730000000001 0.42001299999999997 0.407355 0.665335 0.627452 -0.335365 0.20140000000000002 -0.555882 0.815271 -0.03730100000000003 -0.018046000000000006 0.638724 -0.739862 0.030750999999999973 1.235021 0.44752000000000003 0.47917 0.449715 1.586429 -0.41058700000000004 1.3608099999999999 0.719506 -0.137832 0.376104 0.8023720000000001 0.45804100000000003 1.23824 1.1992099999999999 0.745023 0.148001 -0.543559 0.603559 -0.37749 -0.558345 0.02316499999999999 -0.06437899999999999 -0.5320250000000001 0.17107300000000003 1.764756 0.401316 -1.258597 -0.20270100000000002 -0.39034399999999997 -0.375371 0.36012 0.049173999999999995 -0.447334 0.768212 0.83338 1.181772 0.350888 -0.04596700000000001 0.8396779999999999 -1.0367899999999999 0.719857 1.668095 -1.1085319999999999 -0.327251 -1.574171 -0.266004 0.7480239999999999 -0.371497 0.5369470000000001 1.9698339999999999 1.147435 -0.834653 0.399162 -1.383453 -0.23755899999999996 0.864992 -0.0072030000000000705 -1.5624440000000002 0.46967899999999996 -0.872098 -1.820274 -0.666667 -1.068154 -0.09400900000000001 0.020969 0.48485900000000004 -1.234728 0.794224 -1.327644 -0.311818 0.18801 -0.01389 0.358999 -0.09111499999999999 0.39552 1.419914 -0.08244500000000002 1.176482 -0.526988 0.06498500000000007 -0.531651 0.709814 0.5208200000000001 -0.6284 -0.214087 -0.7360880000000001 -1.904717 1.141998 -0.698381 1.0252620000000001 1.2042080000000002 -0.36111 -0.548292 1.6434079999999998 -0.178559 1.072638 -1.133667 -0.057759000000000005 0.598006 -0.16197499999999998 1.036442 -0.607233 -0.554294 -0.338378 0.44493 0.8658589999999999 0.758603 1.204173 -0.556434 -1.617562 -3.159748 -0.971209 -1.909478 -0.784058 -0.864646 -0.5664100000000001 1.475853 -0.15827599999999997 0.112207 -0.279949 0.985876 0.04688099999999998 -1.360042 -0.46506099999999995 1.741265 -0.8027409999999999 -0.8166580000000001 -0.80811 1.4927709999999998 -0.703176 1.430687 -0.086308 0.019471000000000016 -0.766493 0.9608049999999999 -0.9996539999999999 -1.27149 -0.432794 -0.11742399999999999 0.5054529999999999 0.23112899999999992 1.0912490000000001 -0.05593399999999993 0.858818 -0.9544809999999999 0.596857 0.640841 0.04580699999999999 2.760421 0.498159 -0.793277 -0.7913209999999999 0.6152110000000001 -0.556816 1.644687 0.9468 -0.956234 -0.527839 -0.776439 0.6739459999999999 -0.062209000000000014 0.58551 -1.02087 0.10871999999999998 -0.877296 -0.458429 0.0024729999999999995 0.369599 1.1565539999999999 -0.070909 0.916521 0.29095100000000007 0.47481300000000004 0.12218299999999999 -0.104977 -0.19270200000000004 -0.9291070000000001 0.9524680000000001 1.067267 0.07427100000000003 -0.031965999999999994 0.653905 -0.268366 -1.2118229999999999 -0.209439 0.294472 0.46796 0.31804899999999997 -0.5280639999999999 0.713662 0.226865 0.157314 -0.856175 -1.769354 1.161779 1.3106799999999998 -0.537848 0.054734000000000005 -0.08048200000000005 0.226549 -0.454419 1.009588 -0.099091 -0.442447 -0.038061000000000005 0.936813 0.03075699999999998 0.29458100000000004 0.993129 -0.31577500000000003 0.753166 -0.842857 -0.126442 1.14477 0.743094 0.2855620000000001 0.100639 1.813671 -0.8632829999999999 1.2596509999999999 0.495312 -0.320152 -1.157589 -0.341542 0.5776319999999999 0.623766 0.37821699999999997 0.31885399999999997 -1.318251 1.071145 -1.157673 0.443911 -0.303755 0.772027 -1.181681 -0.963564 0.883641 0.257069 0.09008400000000005 -1.299529 0.258461 -0.540944 0.17352299999999998 -0.26559 -0.786151 0.436852 0.8567250000000001 -1.4528249999999998 -0.20130200000000004 1.510495