super-welterweight 0.15206199999999997 0.5565140000000001 -0.009940999999999978 1.162857 -0.2355 -0.9238230000000001 -0.260383 -1.675538 -1.348209 -0.146636 -1.295781 0.29952700000000004 0.21142399999999995 -0.199662 -0.24002800000000002 0.307069 0.049151 1.419167 -0.7546889999999999 1.335782 -0.341383 0.957024 0.9707239999999999 -0.431067 -0.10755999999999999 0.269335 -0.617728 -0.30599600000000005 -0.7372259999999999 0.6862900000000001 0.504031 0.023418999999999968 -0.792934 -0.16228 -0.38336000000000003 -0.283243 0.392653 0.9523539999999999 -0.696586 0.648873 -0.275449 -0.47264799999999996 0.742869 -1.153296 0.15976700000000002 1.073332 -0.539115 0.050386000000000014 0.5592 0.6669229999999999 0.755771 -0.292778 -0.638358 -0.075382 0.48012200000000005 -0.026607999999999993 0.244857 0.923513 0.753208 -0.311622 0.15569099999999997 1.702874 -0.9119970000000001 0.380497 -0.213756 -0.205626 0.42370800000000003 1.2794379999999999 -0.4657279999999999 0.096085 0.758618 0.140594 -0.586498 -0.687878 0.30635500000000004 0.208463 0.608675 0.8534740000000001 -0.9749639999999999 -0.32814899999999997 -0.283719 0.795042 -1.495148 0.981066 -0.315212 0.8910319999999999 0.048160999999999995 0.24854800000000002 1.17966 -0.16768 0.164865 0.7992239999999999 -1.468877 -0.849294 -0.357841 0.8829119999999999 -0.547609 0.236232 -0.13483399999999998 -0.773396 0.15287399999999995 0.229462 0.503637 -0.8657349999999999 0.5435989999999999 -1.2086789999999998 0.269217 -0.05072299999999999 0.221234 0.687468 -0.034307000000000004 -0.12364000000000001 0.349461 0.745112 -0.13239499999999998 1.167038 0.625886 -0.283723 -1.340436 0.555381 -0.051432000000000005 0.13692500000000002 0.801587 0.168338 1.251199 -1.057435 0.747422 -0.193818 -0.8602920000000001 0.378857 0.13413 -0.603784 -0.097702 0.08388499999999999 -0.7846839999999999 0.9991909999999999 -1.133802 0.9612319999999999 1.234059 -0.18301500000000004 0.20638900000000004 0.747478 0.696836 0.25268399999999996 0.41610800000000003 0.347609 0.7380040000000001 0.338975 0.686601 -0.103293 -0.00038699999999999846 -0.19236599999999998 0.6778740000000001 0.161222 0.753218 -1.1249330000000002 0.22528299999999998 0.665429 0.385612 -1.3183280000000002 -0.631512 -0.48860899999999996 -1.557382 0.19120399999999999 0.663785 -0.335004 -0.335132 -0.5425439999999999 0.23081200000000002 0.140543 0.57241 0.8358289999999999 0.5572 -1.095331 -0.47880599999999995 0.470244 -0.575278 -0.403111 -0.685964 -1.039457 0.07266799999999995 -0.249307 -0.02328299999999997 0.126608 -0.20023299999999994 0.261974 -0.3040559999999999 0.032877 0.346409 0.683854 0.397682 -0.270884 -1.1495030000000002 0.43026499999999995 0.41976199999999997 -0.239426 -0.639377 -1.054522 0.40428 -2.050366 -0.590776 -0.261797 -0.87073 0.712941 0.696068 -0.44928100000000004 0.447568 0.25100100000000003 0.9967149999999999 -0.29401 -0.249434 0.370068 -0.580766 0.737385 -1.293319 -0.49221600000000004 0.07280200000000003 -0.204867 0.31346799999999997 0.352684 -0.136149 0.5324679999999999 0.085346 0.973638 -0.008118999999999987 1.148944 0.5673710000000001 0.5482309999999999 0.945465 -0.276631 -0.419292 1.425901 0.091327 0.514723 0.881686 -1.013606 0.370772 0.08814900000000002 0.391921 1.223207 -1.846393 -0.16675100000000004 0.370181 1.1865240000000001 0.376599 0.815728 0.332174 0.492841 -0.167023 0.38070699999999996 0.07902399999999998 0.487645 0.21299099999999999 -0.42687 0.665925 -0.653569 -0.092832 0.6456890000000001 0.481659 -0.11693400000000001 -0.263278 0.025818000000000008 -1.012587 0.297145 1.225109 0.237601 0.786913 -0.290088 0.8480589999999999 0.39432 -0.5435180000000001 -1.387576 0.726084 0.027046000000000014 0.17466 0.642089 0.11410900000000002 0.760129 -0.7526390000000001 -0.027837 -2.1943099999999998 0.76692 -0.21302300000000002 0.932219 -0.625531 0.383503 -0.793046 -0.0014879999999999893 -0.676922 -0.06754100000000002 -0.280016 -0.983201 0.03161 0.8575320000000001 0.34504500000000005 0.697118 -0.001424999999999954 -0.13824399999999992 2.196276 -0.49178