super-heavyweight 0.265772 0.938924 0.16200299999999995 0.47061200000000003 0.125693 -1.004117 -0.145434 0.032047 -0.043544 0.527192 0.612531 0.12559199999999998 -0.03632099999999999 -0.465995 -0.105974 0.41773499999999997 0.137054 0.50991 -0.387175 -0.322793 -0.726904 0.478204 0.407159 0.7904129999999999 0.756103 0.128898 0.026754 0.41654599999999997 -0.137235 0.874737 0.833148 0.619093 0.019239000000000006 -0.061067 -0.467171 -0.916511 0.570996 0.016046999999999978 -0.30993400000000004 -0.931712 -0.6426050000000001 -0.02246699999999996 0.5548230000000001 0.10888400000000001 -0.093146 -0.488981 -0.466722 -0.76137 0.225193 0.41019500000000003 0.11549700000000002 0.459697 -0.004237000000000001 0.691604 0.687519 -0.078844 -0.383357 1.246138 -0.38969 -0.406094 0.304296 0.35972 -1.0224259999999998 -0.279655 -0.182095 0.11382999999999999 0.359667 -0.430728 0.253878 0.49530699999999994 -0.5516099999999999 -0.300249 0.537089 0.207453 -0.479786 -0.387586 -0.07278799999999999 0.680139 0.196834 0.01924300000000001 0.580405 0.607565 -0.272408 0.488016 -0.8279030000000001 0.859558 -0.44387199999999993 0.9302269999999999 0.568208 -0.04888200000000004 0.22149600000000003 0.25902200000000003 -0.8675459999999999 -0.504724 0.41039400000000004 -0.34996700000000003 -0.44305300000000003 0.434196 -0.30138 -0.48861899999999997 0.640236 -0.646658 0.394077 0.147199 0.43953200000000003 -0.172493 0.21261199999999997 0.047545000000000004 0.276756 0.781265 0.080509 0.372 0.254874 0.45106500000000005 -0.255256 -0.46248000000000006 0.026114000000000026 0.21537 -0.36383999999999994 0.987913 0.018241 0.300228 -0.29661200000000004 -0.834924 -0.012720999999999982 0.951799 -0.309998 0.35228800000000005 -0.28057899999999997 0.744537 -0.424634 -0.389795 -0.360224 0.0022769999999999735 0.374592 0.366281 0.13788799999999998 -0.054591 0.03281600000000001 0.44801599999999997 0.632137 -0.18727299999999997 -0.555566 0.7856510000000001 0.7614989999999999 -0.318814 -0.07070499999999996 0.468641 0.37489599999999995 0.5637449999999999 0.226819 -0.32289999999999996 -0.8674950000000001 -0.449568 0.912984 0.177756 0.713794 -0.6017440000000001 -0.44190799999999997 -0.572763 0.017103999999999994 -0.446123 -0.970689 0.297026 -0.872762 0.379231 -0.009591000000000016 -0.65219 0.30417299999999997 0.129551 0.454604 0.550578 0.04323599999999997 0.541177 0.591875 -0.36428499999999997 0.081221 -0.545719 0.325651 0.203899 -1.044624 -0.506962 0.173805 0.35346600000000006 0.8555710000000001 -0.10242399999999999 0.33795299999999995 -0.06628 0.5437 0.706885 0.084946 0.776152 -0.157806 0.778748 -0.794709 -0.183283 -0.030844 -0.426943 0.293234 0.7932319999999999 -0.83631 -0.265839 0.06888500000000002 -0.485693 -0.308157 -0.472661 -0.816426 0.29279299999999997 -1.274007 -0.9105730000000001 0.228679 0.697528 -0.123637 0.9668650000000001 -0.218401 -0.595727 0.37523199999999995 -0.30597 -0.393049 0.527231 0.605958 0.156938 -0.966661 0.750906 0.0047589999999999855 0.9626729999999999 -0.118687 -0.04213 0.724682 -0.149644 0.396536 1.054194 0.658146 -0.026136999999999994 0.886971 -0.16519699999999998 -0.05001799999999999 -0.382619 -0.07814299999999999 0.492155 -0.620695 0.068135 0.354158 0.27880399999999994 0.307901 0.34515399999999996 -1.1998419999999999 0.7143729999999999 0.22515200000000002 -0.180852 0.720962 -0.464888 -0.688436 0.189852 -0.641738 -0.031697 0.321504 -0.76632 -0.26849 -0.028157 0.297752 -0.933967 -0.721076 -0.22212299999999996 0.016043 0.11757399999999998 -1.083029 0.6478349999999999 -0.542261 0.041785 -1.1872150000000001 -0.985573 -0.07633200000000001 0.179419 0.349593 0.613896 -0.5855319999999999 -0.167045 0.84815 0.404551 -1.213274 0.31713 -0.167389 0.866404 0.446962 0.795045 0.73338 -0.18729600000000002 -0.120435 -0.056166999999999995 -0.581153 0.39420700000000003 -0.14621699999999999 0.189581 0.052441000000000015 -0.154825 0.221485 -0.520431 0.355951 0.720012