swingweight -0.27438199999999996 0.276077 -0.22724 -0.38605 0.7817510000000001 -0.093082 -0.332659 0.558302 -0.500405 -0.482227 -0.417817 -0.280733 0.368371 1.031001 -0.044405 0.5410790000000001 -0.047048 -1.636028 -0.45192499999999997 -0.38282099999999997 -0.52912 0.808075 0.320812 0.10652400000000001 0.310689 -1.3314219999999999 0.541625 -1.150553 -0.09992599999999996 -0.292424 -0.34689499999999995 0.19670100000000001 0.07320800000000001 0.562067 -0.9379629999999999 0.18924000000000002 -0.309268 -1.311866 0.261791 -0.154985 -0.032611 -0.528653 -0.35421400000000003 -0.27339199999999997 -1.373496 0.413506 -0.522817 0.9220489999999999 -0.05743999999999999 -0.461155 -0.046015 0.481123 -0.008661000000000002 -0.311037 0.5574490000000001 -0.276715 0.337837 0.10816100000000001 -0.57744 -0.42625 0.710324 0.24855200000000002 0.06363299999999998 0.03702899999999999 0.549035 0.617006 0.335299 0.520835 0.468169 0.670296 1.446061 0.594276 -0.05808300000000001 -0.39439299999999994 -0.49337699999999995 -0.842564 0.202047 0.40644 -0.19963399999999998 0.90462 0.014903999999999917 -0.043283 -0.436702 0.005102999999999969 0.513613 0.264778 0.237205 -0.01705100000000001 0.65916 -0.814913 -0.188802 0.337349 0.463257 -0.012583999999999998 -0.167292 0.19420600000000002 -0.45800099999999994 -0.49960199999999994 -0.5837330000000001 -0.606052 0.22287 0.224767 0.05135400000000001 -0.446737 0.48396100000000003 -0.403961 1.2096550000000001 0.025155000000000004 -0.08450699999999997 0.059597 0.49753899999999995 0.018110999999999988 0.14514500000000002 -0.6807399999999999 0.7827930000000001 0.363818 0.698695 -0.28668 -0.545237 0.046514 0.270195 0.081854 0.48238699999999995 -0.183241 -0.03562199999999999 0.180285 0.858644 -0.15773400000000004 0.483521 -0.32955999999999996 0.069994 0.14204 -0.13352 0.444666 0.699029 -0.597601 0.144667 0.115855 0.430014 0.393349 -0.184586 -0.313068 0.24055 0.6174310000000001 0.121029 -0.6354949999999999 -0.422614 0.292562 0.811968 0.23691099999999998 1.075576 -0.12230099999999999 -0.32127 0.808387 0.829113 -0.891751 -1.0257800000000001 1.396643 0.460703 0.316029 0.532089 0.93671 -0.741463 -0.821137 -1.016116 -0.499034 0.136607 -0.25315699999999997 0.834903 0.773874 -0.12076899999999996 -0.04960399999999998 0.100872 0.881818 0.673141 -0.697431 1.305779 -0.6011529999999999 -0.29492799999999997 0.013321999999999973 -0.381143 0.09106999999999998 0.180599 0.646258 0.080874 -0.47585099999999997 0.19547199999999998 0.6729080000000001 -0.7924 1.045944 -0.7620720000000001 -0.473452 -0.8959509999999999 0.7660480000000001 -0.14651800000000004 0.923472 -0.369811 -0.503073 -0.685922 -0.018372 -0.514822 0.073717 0.558383 0.13364800000000004 0.5837570000000001 -0.46151 0.635303 0.400331 -0.94998 0.389768 0.507556 0.773037 0.282704 -0.856543 0.888691 -0.5211939999999999 0.741989 0.859167 0.343152 0.0069110000000000005 -0.274517 0.901295 -0.6907059999999999 -0.750479 1.4128 -0.10214300000000001 -0.36085100000000003 0.510406 -0.620546 -0.583574 -0.94348 0.542461 1.157676 0.6908529999999999 0.09756399999999998 -0.141835 -0.039462 0.722975 0.39071500000000003 -0.432423 0.523536 -0.907189 0.266651 -0.720888 0.829245 1.7777880000000001 0.329982 -0.32438700000000004 0.287375 -0.546531 -0.39515500000000003 0.230423 -0.747811 0.340522 0.034559000000000006 -0.36601 -0.2648940000000001 -0.12403900000000001 0.592865 -0.284845 0.33725399999999994 0.611889 -0.330936 0.39862899999999996 -0.470882 0.213746 0.935154 0.124984 0.328105 0.11569600000000001 1.275637 0.23918500000000004 0.632356 -1.351724 0.48410200000000003 0.623453 -0.42919799999999997 0.330787 -0.256677 0.12245899999999998 0.401262 -0.272095 -0.17157299999999998 0.300285 -0.4033420000000001 0.571006 0.548986 0.11628 0.767196 -0.18487400000000004 -0.649076 1.741544 -0.43766000000000005 -0.347189 -0.462309 -0.48912 0.799228 -0.77238 1.5187499999999998 0.274858