topweight -0.277887 0.343848 -0.726457 0.500869 -0.005989000000000008 -0.37355099999999997 0.292373 -0.29179 -0.32531 0.920879 0.820857 -0.623626 -0.26180699999999996 -0.550279 -0.288565 -0.23316099999999998 0.918513 -0.005103999999999997 -0.288601 0.236823 -1.08887 -0.425091 0.133674 0.019594 0.630564 0.144479 0.0003770000000000162 -0.258399 -0.890514 -0.336218 0.099104 -0.44188299999999997 0.06179899999999999 -1.104576 0.18550999999999998 -0.7216180000000001 -0.39680800000000005 -0.031032999999999977 -0.200055 0.140846 -0.10468599999999995 0.812837 0.39722500000000005 -0.389389 0.465343 -0.19585299999999997 -0.257005 0.44483399999999995 -0.79262 0.8957809999999999 -0.8167089999999999 -0.38787499999999997 0.216278 0.274796 -0.158293 -0.34839899999999996 -0.5546899999999999 -0.581698 0.08178799999999999 0.610599 0.181671 0.196881 0.18687199999999998 -0.5350710000000001 1.499314 0.06608999999999998 -0.13328 0.645366 -0.693589 0.267621 -0.177917 -0.22632599999999997 0.386994 -0.11379299999999999 -0.7553259999999999 0.063219 -0.012794999999999987 0.011953999999999992 -0.516322 -0.075907 -0.23272500000000002 -0.692372 -0.469008 0.769992 -0.556392 0.028731 -0.21406700000000004 -0.39356 0.7697510000000001 0.568507 0.610199 -0.24080000000000001 0.055753000000000004 -0.449872 -0.25525000000000003 0.26833799999999997 -0.08608499999999997 -0.404922 0.329076 -0.0006749999999999812 -0.6678930000000001 0.0006169999999999995 -0.24307 -0.683111 0.517454 -1.015939 0.485313 0.21036 -0.105213 0.84447 0.553761 0.061106999999999995 -0.854484 -0.392967 -0.263209 -0.103671 0.054869 -0.28612000000000004 -0.41866400000000004 0.147802 -0.34649 -0.058175000000000004 1.077455 -0.11986 -0.44779599999999997 0.795164 0.040716 -0.022978 0.624782 -0.98445 0.06889200000000001 -0.037022 -0.10278999999999999 -1.0891359999999999 0.941568 -0.21552200000000002 -0.415683 0.326397 -0.036826000000000025 -0.262066 -0.620237 0.270441 0.4809 -0.43217099999999997 0.089336 0.07380599999999998 0.15327600000000002 -0.100518 -0.810216 0.686933 0.9236089999999999 0.480113 -0.753589 -0.003047000000000008 0.422461 0.526104 0.7354860000000001 -0.182494 0.5665720000000001 -0.766861 0.272252 -0.459423 0.008987000000000009 0.07893700000000001 -0.357426 1.743553 -0.33224899999999996 0.261781 0.470122 0.619503 0.759393 0.501573 0.12506700000000004 0.58814 -0.527468 -0.268208 0.6133 -0.5816790000000001 -0.165138 -0.17799800000000002 -0.106308 0.6968589999999999 0.392321 0.159571 0.683116 -0.054182999999999995 0.45567499999999994 0.46684400000000004 -0.561725 0.33721999999999996 0.593967 0.287872 0.18808899999999998 0.458338 1.151008 0.272936 -0.44022500000000003 -0.521011 0.250927 -0.6320760000000001 -0.27641800000000005 -0.6848540000000001 1.023374 -0.618495 1.044948 -0.08614000000000001 0.50274 0.355097 -0.8565229999999999 -0.793616 -0.371672 0.9666809999999999 0.13109500000000002 -0.180952 -0.033176 -0.429929 0.322286 -0.265657 -0.661858 0.49081300000000005 0.18181 -0.08940300000000001 0.533669 0.038839999999999986 0.7984439999999999 -0.515796 -0.571246 -0.866066 -0.04391 -0.129486 -0.565882 -0.10370399999999999 -0.663099 0.142129 -0.357379 -0.333347 0.029080999999999996 0.756219 -0.869279 0.057334000000000024 0.11541300000000002 -0.449715 -0.111519 -0.396316 -0.31488000000000005 -0.06945199999999999 0.114996 0.52164 -0.691285 -0.058866 -0.33751699999999996 0.03389199999999998 -0.38701800000000003 -0.330128 -0.218315 0.7687379999999999 0.134826 -0.548335 -0.030400999999999984 0.0011649999999999994 -0.560266 -0.489409 -0.48319799999999996 -0.23962099999999997 -0.128395 0.265866 -0.985638 0.298633 0.018420000000000006 0.24506499999999998 -0.29463300000000003 -0.233277 -0.309374 0.118784 -0.08207700000000001 0.236763 0.096773 -0.443211 0.356715 0.228979 -0.404073 0.563009 -0.881248 0.273381 0.334959 -0.03801100000000002 -0.707239 0.04192199999999999 0.14334000000000002 -0.497794 -0.288638 -0.097105 0.182089 0.579295 -0.3921 -0.02649 -0.9169160000000001 -0.07847099999999999 0.446419 -0.204122