truweight -0.414364 -0.644111 -0.193662 0.823689 -0.922636 -0.11480299999999999 1.077695 -1.683041 0.621735 -0.372145 0.254553 -0.645991 -0.580642 -0.403965 -1.492762 -0.811603 0.03587999999999997 0.034219 1.0713590000000002 -0.166276 -1.2047569999999999 0.22801 -1.011725 0.41267999999999994 0.15743700000000002 0.784331 0.19853800000000005 0.213901 0.15688999999999997 0.871243 0.27678600000000003 -0.006863000000000001 -1.03514 -0.432507 -0.477713 -0.521755 -1.121907 0.842862 -0.05071200000000001 0.129237 0.735634 0.42644899999999997 -0.389806 -0.346883 -0.670895 -0.30569300000000005 -0.05729799999999996 -0.501662 -0.07089699999999999 0.410294 1.113678 -0.519791 -0.03043600000000002 -0.17772 0.679001 -0.924345 -0.990903 0.8525329999999999 0.17444199999999999 -1.09149 -0.010342000000000018 0.9148670000000001 -0.149525 -0.15991 -0.445894 1.835506 -0.772268 -0.0014959999999999973 0.310363 -1.4640920000000002 -1.042039 -0.605476 0.946243 1.129976 -0.057640000000000025 -0.815186 -0.569604 0.09232200000000002 -0.276103 0.14495100000000002 0.009711999999999998 -0.16031 -0.144401 1.194483 -0.414904 0.325369 0.912091 -0.881582 0.224282 1.042097 0.47633600000000004 0.818775 -0.192311 0.027872000000000008 0.174036 0.19634600000000002 -0.224939 -0.53205 0.37233799999999995 -0.733662 -0.22658 1.0536889999999999 -0.561489 0.414724 0.29982299999999995 0.40193599999999996 0.961002 1.022836 0.837755 0.385536 0.6760390000000001 0.7996560000000001 0.27994600000000003 -0.23077499999999998 1.36798 0.9010940000000001 0.850939 0.354913 0.25131200000000004 1.267102 -0.951418 -1.93671 -0.112035 0.19522299999999998 -0.18165199999999998 -0.14568299999999995 -0.023834999999999995 -0.035999 -0.518743 0.24811000000000002 0.743154 -0.5455099999999999 -0.42860600000000004 0.545333 -0.424795 -0.412188 -1.677011 -0.145775 -0.09789400000000004 0.7442309999999999 -0.405714 0.013426 0.65805 -0.365403 0.313853 1.117562 -0.619928 -0.16865499999999997 0.507624 -0.7462759999999999 -0.8206249999999999 -1.305513 0.16291899999999998 -0.434628 -0.129189 -0.422352 -0.9121859999999999 0.299317 0.948264 -0.017998000000000014 -0.620182 -0.45776000000000006 -0.028754000000000002 -0.590545 0.013719999999999954 1.2397369999999999 0.6171989999999999 -0.117969 -1.062789 -0.504496 -0.302744 1.651091 -1.2712 -0.052437 0.741989 -0.0071089999999999764 0.12223300000000004 -0.060655000000000014 -0.833507 -0.198675 1.334858 -0.126299 -0.10203199999999998 -0.840731 -0.055313999999999974 0.310437 -0.371061 0.003577999999999998 0.46153799999999995 0.871033 0.241949 0.087812 0.723125 0.11639 -0.060283 -1.118088 0.140599 1.194502 -1.206667 0.17642200000000002 -0.22017599999999998 -0.734755 1.216432 0.09158300000000001 -0.602679 -0.642846 -0.550759 0.272932 -0.298813 0.04542399999999999 -0.14398100000000003 0.5867330000000001 -0.578466 0.254945 0.025672 -0.639267 0.853855 0.618677 -1.161752 -0.908284 0.522788 -1.000153 0.9807870000000001 0.377684 0.015769000000000005 -0.810608 -0.404777 -0.320119 0.597137 -1.077207 0.703616 -1.168453 -0.686768 0.298207 -0.986253 -1.407134 -0.5792660000000001 -0.197307 0.202413 -0.36714 -0.307372 -0.49242500000000006 0.844637 0.555669 0.035246 0.827389 0.23794500000000002 0.474293 -0.9678370000000001 -0.934399 0.7999780000000001 0.6814169999999999 -0.27294 0.1258 -0.018098000000000003 0.6506890000000001 0.27968299999999996 0.277236 -0.538929 -0.635637 -0.14205600000000002 0.349418 0.002579999999999999 0.068369 -0.465931 1.303254 0.661574 -0.444082 0.349768 -0.253014 -0.156468 -0.352138 -0.6406980000000001 0.12503799999999998 0.14819300000000002 -0.25776 0.11212299999999997 0.189584 -0.42564599999999997 0.891752 0.330337 -0.145428 -0.030210000000000015 -0.011146 -0.26950399999999997 0.198522 -0.9317799999999999 0.17246399999999998 0.34152499999999997 0.6832800000000001 0.107368 0.794026 0.677958 0.12639 -1.439753 0.414397 0.20876 -0.06329000000000007 -0.156506 0.560538