ultra-high-molecular-weight 1.04608 -0.543045 0.308888 -0.694974 -0.26375400000000004 -0.5134230000000001 0.326026 0.05284 0.380104 -2.770911 0.35529600000000006 -1.707054 1.793564 -2.864796 -1.40617 -0.007435999999999998 -0.9365589999999999 -0.496689 -0.536694 0.017138 0.8919969999999999 0.501923 1.105071 -0.007964999999999993 1.111373 0.842797 0.8108690000000001 3.68771 0.529095 -0.9091210000000001 -0.06200800000000001 1.2543240000000002 -0.405074 1.267052 0.708358 -0.70771 3.170671 -0.11910799999999999 -0.16622599999999998 1.149883 0.10322500000000001 -1.4284080000000001 1.5746259999999999 1.335516 -0.512314 -1.008866 -0.764954 -0.5920110000000001 0.431484 -1.533733 0.270013 -2.131009 1.173986 1.9971729999999999 1.643018 1.321243 -0.325399 0.996903 0.628157 -0.9937060000000001 0.126526 -0.319936 -0.983298 -0.32800300000000004 -0.5622 0.766249 2.058449 -0.410542 0.17498599999999997 -0.137847 0.581825 -0.5150710000000001 -0.29657100000000003 -1.27103 -0.25136899999999995 1.2631000000000001 -1.058735 0.074566 0.394807 -0.31250399999999995 -0.186473 2.112568 0.5260969999999999 -2.010866 1.589599 1.461961 -0.237952 -0.38813299999999995 0.185434 -0.21752100000000002 -0.678221 1.005976 -1.062723 1.69788 0.556853 1.1057730000000001 1.385266 1.166433 0.08957700000000002 -0.788572 0.457164 0.7011200000000001 -0.2513749999999999 -1.459821 0.5351539999999999 0.150319 -0.728625 0.15007200000000004 0.992664 2.303048 -0.042636999999999994 0.851073 -1.950894 -0.673489 -0.891786 2.1048039999999997 -0.751003 -1.049229 0.683585 0.515401 0.17538 -0.636271 0.20859099999999997 0.390215 -0.751243 0.631085 0.299195 0.31208299999999994 0.474445 2.2188250000000003 0.41822299999999996 1.116323 -1.548232 -0.852974 -1.914434 -1.113558 0.831494 -0.053590000000000027 -0.986957 -0.612762 -0.09631399999999996 -0.17272900000000002 0.875419 -0.251144 0.392698 0.556728 -0.962946 0.72832 0.184376 1.03415 -0.37431299999999995 -0.338397 -0.7528090000000001 -0.929435 0.03792299999999999 -0.13066 -1.866755 -1.5292679999999998 0.31826099999999996 -0.6312490000000001 3.879114 -1.830514 1.596272 -1.074446 -0.38007599999999997 -0.631875 0.504352 0.9622760000000001 1.942412 -1.4057039999999998 -0.26803600000000005 0.14328600000000002 0.9444600000000001 0.321808 0.559577 0.736212 0.667683 -0.252958 0.192299 -3.4069580000000004 -1.503328 0.3267429999999999 0.11858 -1.3281269999999998 -0.408644 -0.9111929999999999 -0.10570100000000004 -0.08424300000000007 0.537185 2.0620149999999997 -1.207362 0.32932399999999995 0.13128 -0.8825780000000001 1.7597269999999998 0.015934999999999977 0.07267699999999999 -2.832316 0.320403 -1.086407 -0.177529 -0.07471899999999998 0.15811299999999995 0.09995299999999996 0.805601 0.490104 1.5759 0.06259300000000001 0.04731500000000001 0.32176699999999997 -0.40086 0.009811 0.458944 -0.64819 0.5177879999999999 1.9869970000000001 0.236391 0.03018900000000002 -1.65154 0.616655 -0.415149 -1.070734 -0.165265 0.6412439999999999 0.11344900000000002 0.6638379999999999 -1.253144 0.534036 0.41517499999999996 1.529413 1.680056 0.404416 0.99228 0.13473000000000002 0.990419 0.8592390000000001 -1.4375589999999998 0.5095810000000001 1.125826 -1.4398469999999999 -0.764883 -0.19957699999999995 -0.221027 -0.7768760000000001 0.7437849999999999 -0.855987 -0.130405 0.482214 -0.801636 -1.656547 0.444553 -0.7521100000000001 1.298117 -1.836258 0.218681 0.902433 0.11091499999999999 -0.646923 0.408949 0.15158599999999994 0.560143 0.35952399999999995 -1.639955 1.696877 -0.6395979999999999 0.283005 -0.6329910000000001 -1.397993 0.8250930000000001 1.430977 -0.904092 0.341677 -1.7621099999999998 -1.238385 -1.9994770000000002 -1.117063 -0.046904 -0.968577 -0.747911 0.420286 1.3536139999999999 -0.8999739999999999 0.856099 -1.3681519999999998 -1.272109 0.49253800000000003 0.589487 -0.09466300000000005 0.409189 -1.535635 0.570948 -0.5832820000000001 -0.648293 1.506822 0.9953319999999999 0.8086380000000001 -1.289636 0.9018759999999999 0.17355299999999996 -0.49582800000000005