ultralightweight 0.8518009999999999 -0.31275200000000003 2.036145 -0.484912 -1.2560740000000001 -0.347904 -0.786913 -0.445315 -0.437282 -0.370487 0.561964 -0.15699100000000002 0.140956 0.18945700000000001 -0.386423 -0.145463 -0.14172400000000002 -0.736514 -0.664076 -0.354151 -0.806481 0.921784 1.4776559999999999 0.432063 0.954343 -0.710967 0.16541999999999998 1.698558 0.127627 -1.192747 -1.027854 0.388278 0.45108899999999996 0.16415199999999996 -0.025593000000000032 0.019808999999999993 0.927256 1.059373 -0.874276 0.365214 0.180664 0.712164 1.1368129999999999 -0.840354 -0.854932 0.13423799999999997 -0.011302 -0.759464 0.60798 -0.602648 0.560029 -0.8576590000000001 -1.041018 0.735707 0.789393 -0.38872300000000004 -1.447962 -0.297389 -0.20539500000000005 0.06686 0.994528 -0.813074 0.414483 -0.457055 1.264289 0.1871299999999999 -0.43597300000000005 1.192925 0.71921 -1.043261 0.582101 0.376434 0.744074 -0.688354 -0.04980800000000002 -0.646624 0.510648 -0.026156999999999986 -0.21528000000000003 0.13469 -0.21627099999999996 1.758842 1.267827 0.023744000000000015 -0.143349 0.7125250000000001 1.776256 0.6725369999999999 -0.636786 0.05491399999999999 -1.258308 -0.046762 0.321618 -0.979068 1.349297 0.533964 -0.18383100000000002 0.436906 -0.68083 -0.13812600000000003 -0.470658 0.830497 0.8896660000000001 -1.487373 -0.23920599999999997 0.6584840000000001 -0.922716 0.624852 2.355698 1.224419 -1.354387 -0.17740599999999998 -1.782688 -0.008971000000000007 0.07699600000000001 -0.255866 0.262336 -0.14127999999999996 -0.301245 -0.99228 0.020320000000000005 0.16457100000000002 -1.265549 1.523031 -0.344247 1.121083 -0.624884 -1.096839 -0.533915 0.20284100000000002 -0.558195 0.51268 0.033715999999999996 0.687553 -0.626795 1.17922 -0.461967 -0.950635 -0.04491199999999998 0.531682 0.81787 0.403001 -0.37641800000000003 0.684411 -0.6986459999999999 0.066413 0.08167400000000002 -0.32827700000000004 0.293599 -0.9898939999999999 -1.270411 0.07455300000000001 0.46479899999999996 -0.28395899999999996 0.07664199999999999 -0.294106 -0.930677 -0.128251 -0.13131899999999996 -0.14978400000000003 0.42520300000000005 -1.394367 -1.130066 1.585679 0.665671 0.41974999999999996 -0.137944 0.29188499999999995 -0.622676 0.508211 -1.030135 -0.04540500000000001 -0.10364000000000001 -0.406441 -0.597758 1.001792 -0.042393000000000014 0.047217 -1.389813 -0.8281179999999999 0.463073 -1.2709840000000001 -1.841179 -0.507741 1.956507 1.05797 -0.17326700000000006 -0.365522 0.14470300000000008 -0.019541000000000003 0.06789500000000001 2.029691 -1.445817 -0.62557 -0.6916720000000001 0.269672 -0.08429299999999995 -0.259935 -1.064946 0.544937 0.898947 0.531534 0.6515580000000001 -1.073889 -1.0515379999999999 -1.6283279999999998 -0.558131 -0.21948 0.19821899999999998 -0.7683850000000001 0.510302 0.701075 0.284414 0.09351999999999999 -0.63009 -0.8352310000000001 0.72797 0.520959 0.017916 2.1788559999999997 -1.4952189999999999 -0.695145 0.405674 -0.7418 1.225095 0.40963900000000003 -1.96114 -0.086532 -0.012282000000000015 -1.2511560000000002 -0.439076 0.39891499999999996 -0.193684 1.006332 -1.0143360000000001 0.940926 -1.1025729999999998 0.09218200000000001 -0.9964890000000001 -0.492371 0.550279 1.37564 0.017065999999999998 0.621766 1.3278530000000002 -0.8933909999999999 0.502823 -1.1336089999999999 0.806303 -0.820377 -0.778719 0.687799 0.2536 -0.13674799999999998 -0.40416599999999997 1.361878 0.47212699999999996 0.02885 0.557326 -0.23224300000000003 0.706328 0.007684999999999997 -0.22113400000000002 -0.34049999999999997 0.13667 1.1730520000000002 0.10755300000000001 1.644908 0.30815899999999996 -0.08296900000000001 0.31878100000000004 -0.6786969999999999 1.905666 -0.361902 0.20725699999999997 0.8060350000000001 -0.264015 0.484152 0.438116 -0.398312 0.186888 0.060143999999999975 1.1105939999999999 -0.792699 -0.9185650000000001 1.35163 1.224796 0.7466659999999999 1.308209 0.523566 1.4038680000000001 0.6475869999999999 0.05369899999999997 0.13806299999999996 0.36979799999999996 -0.013790999999999998 -0.259916 -0.915285 -0.722825 0.766444