ultra-lightweight 0.031526 0.019883 0.676349 0.101356 0.5042 -0.426173 -0.302115 -0.649562 0.054785 0.8331139999999999 0.266951 -0.2985 0.599421 0.134596 -0.033854999999999996 -0.26941600000000004 -0.08199099999999998 -0.06528800000000001 -0.028066 -0.43775699999999995 -0.167584 0.264378 -0.281989 -0.103858 0.257235 -0.39869200000000005 0.09169600000000001 -0.161844 0.572501 0.321393 -0.8771089999999999 0.019909000000000003 -0.396403 -0.264428 -0.307574 0.347229 0.7030430000000001 -0.47297400000000006 -0.179248 0.915366 0.284167 0.267959 0.159787 -0.49237800000000004 -0.7614339999999999 -0.180329 0.19333 -0.33501400000000003 -0.451329 0.47321799999999997 -0.281257 0.08501700000000001 0.031152 0.158767 0.111588 -0.062367000000000006 0.478003 0.490261 0.611409 -0.11434 0.326636 -0.550199 0.313859 -0.26645399999999997 0.33501000000000003 0.48685100000000003 0.19984800000000003 0.07602999999999999 1.1028380000000002 -0.249367 0.26132500000000003 -0.27246000000000004 0.08507400000000001 -0.12215400000000001 -0.030896 0.410092 0.157604 0.670377 -0.358541 0.42192799999999997 -0.32404900000000003 0.016804999999999994 0.213985 -0.163348 -0.235069 0.5677460000000001 0.19850700000000002 0.217648 0.47594600000000004 0.07963500000000001 0.213719 -0.389254 -0.12087200000000001 -0.120629 0.433454 0.225748 0.11648700000000001 0.382017 -0.065894 -0.786894 -0.083132 0.077981 0.400768 0.121441 0.20170700000000003 -0.350091 -0.485438 -0.366932 0.427676 0.431909 -0.925679 0.300918 -0.26061599999999996 -0.03587700000000002 -0.04583699999999999 -0.020546999999999996 0.297334 -1.207726 0.03850399999999998 0.171098 -0.016707 0.015714000000000006 0.082272 -0.24558400000000002 -0.326904 0.369335 0.34022800000000003 0.161635 0.526402 -0.19666 -0.154841 0.321178 -0.175386 -0.339243 0.327045 0.564641 0.22999799999999998 -0.0011339999999999961 -0.244116 -0.0024540000000000117 -0.10668 0.278185 -0.25882499999999997 0.338618 -0.28076900000000005 0.06436800000000001 0.363025 -0.202237 0.546165 0.0034609999999999997 0.5100819999999999 0.106435 -0.151583 0.34827800000000003 -0.25151599999999996 -0.13226 -0.781487 0.10508200000000001 0.466281 0.332454 -0.263413 -0.31009299999999995 -1.035765 0.36526200000000003 -0.235064 0.063301 -0.609974 -0.043784000000000003 -0.06445400000000001 -0.008690000000000003 -0.13847299999999998 0.43026 -0.106353 0.31295300000000004 -0.159041 -0.10219 0.527755 -0.32464800000000005 0.0087 0.10420700000000001 -0.10344 -0.975244 -0.79674 0.06509 -0.114922 -0.095089 0.137569 -0.577269 -0.086114 0.130558 0.339167 0.331639 0.053121 0.181145 -0.773609 -0.168046 -0.6474530000000001 -0.011199999999999998 -0.266843 -0.8456619999999999 0.045345 -0.176164 0.608759 -0.586209 -0.338635 -0.999227 0.275311 -0.26320699999999997 -0.45799 -0.50124 0.220105 1.3780350000000001 -0.180322 -0.12306999999999998 -0.291207 0.06262699999999999 -0.273707 -0.23241200000000004 0.372347 0.291242 -0.317831 0.325077 -0.40226799999999996 -0.357023 2.215146 -0.365464 0.170907 -0.467473 0.35694499999999996 -0.7193940000000001 0.733494 0.79387 0.366524 0.6840310000000001 -0.284636 -0.253964 -0.36278900000000003 0.8000229999999999 -0.474468 0.155917 0.302612 -0.14717499999999997 0.327528 -0.042016 0.25733300000000003 0.19677899999999998 -0.12312999999999999 -0.01772900000000001 0.19852 0.06493800000000001 0.7480150000000001 0.196731 0.45633100000000004 0.679742 0.191313 -0.594663 0.075177 -0.016359 -0.870379 0.485964 0.11880800000000001 0.28766400000000003 0.063856 0.434662 0.31641899999999995 0.03395100000000001 -0.687836 0.060289 0.71188 -0.23550100000000002 -0.362526 0.206291 0.321824 -0.115524 -0.10799299999999999 -0.010674000000000003 0.08477599999999999 0.031619999999999995 0.177162 -0.165691 0.11448300000000002 0.14949300000000001 0.33006 -0.017238000000000003 -0.462651 -0.04980700000000002 0.456248 0.23368300000000003 0.564395 -0.407025 1.005099 0.632138 -0.007834000000000008 0.220123 -0.17069900000000002 -0.018535999999999997 -0.11125200000000002 0.174105 0.15748299999999998 -0.229825