underweights 0.295354 0.7220219999999999 -0.433292 0.222645 0.476782 -0.50887 0.561752 -0.989181 -0.066558 -0.145292 0.10413199999999999 0.001800999999999997 -0.30524 0.612551 0.403883 -0.68774 -0.12507400000000002 -0.669316 0.146154 -0.272957 -0.08438399999999999 -0.07357199999999998 0.401775 -0.11912299999999999 -0.295775 0.07567200000000002 -0.08217500000000003 0.4548 0.950799 0.273509 -0.522991 -0.173028 -0.290056 0.216787 0.028916999999999998 -0.30738699999999997 -0.331788 0.642606 -0.152074 -0.129917 0.254125 0.30517700000000003 0.400339 -0.6651980000000001 -0.502579 0.07677600000000001 0.449701 -0.23277 0.30032400000000004 0.36172400000000005 0.03582 -0.35781399999999997 -0.034451 0.398455 0.637815 0.19923999999999997 -0.708583 -0.06077099999999999 0.869827 0.14336 0.14362399999999997 -0.568203 -0.844479 -0.01049399999999999 -1.028174 0.10667199999999999 -0.010665000000000036 0.803694 -0.206391 0.5152880000000001 -0.590249 -0.206718 0.401528 -0.483278 0.049093 0.381262 -0.03874400000000001 0.16793 0.19528 -0.331969 -0.152678 0.273062 0.08966900000000003 0.731077 0.172008 0.06111899999999998 0.942543 -0.592873 -0.252945 -0.723021 -0.5765020000000001 -0.249178 -0.543948 0.19384400000000002 -0.08889 0.500519 0.09367600000000001 0.688482 0.020995 0.14232100000000003 0.086811 -0.030935000000000004 -0.198639 -0.14281100000000002 -0.7285699999999999 -0.757837 0.265816 -0.31777 -1.016368 -0.41156099999999995 -0.049487 -0.272493 -0.09090300000000001 0.02831299999999999 -0.09376999999999999 0.44485199999999997 -0.28471700000000005 0.14063799999999999 0.08396999999999999 0.745437 -0.32763000000000003 -0.6911039999999999 -0.37495900000000004 -0.44737099999999996 0.276368 -0.9825059999999999 0.483969 0.019663999999999987 -0.384502 -0.5034810000000001 -0.430395 0.231572 0.053534 -0.07583400000000001 0.11363599999999999 0.355969 -0.23973899999999998 -0.233181 0.21520499999999998 -0.99067 -0.39149300000000004 -0.402599 -0.355331 -0.509709 0.565791 0.374853 0.71383 -0.21791999999999997 0.015501000000000015 0.165692 -0.325797 -0.39087 -0.371384 0.160236 -0.261015 -0.28583800000000004 -0.689716 -0.12768900000000002 0.13387500000000002 0.6043179999999999 -0.0071289999999999965 -0.822573 -0.40488500000000005 0.649852 0.30959400000000004 0.726721 0.09806800000000002 0.436313 -0.227415 -0.227517 0.025959999999999997 -0.49704499999999996 -0.38538100000000003 -0.587966 0.443966 0.287204 -0.26860700000000004 -0.173766 0.04788 0.06726199999999999 0.12249 0.11098200000000003 -0.183855 -0.660946 -0.287733 0.344265 0.143733 0.49604299999999996 0.2158 0.009377999999999997 -0.551639 -0.34226100000000004 0.950878 0.06389900000000001 0.522975 -0.09458000000000001 0.17365 -0.085142 0.069331 0.147098 0.06926600000000002 -0.5804659999999999 0.243794 0.455717 0.287943 0.5846009999999999 -0.301393 0.197867 -0.700957 0.03436 1.200216 -0.179977 0.119113 -0.8482620000000001 0.306548 0.460886 0.432652 -0.022787 0.135608 0.271759 -0.0006999999999999923 -0.9267400000000001 0.526358 -0.35823699999999997 0.941657 -0.254645 -0.010768 0.18273499999999998 -0.11112000000000001 0.03933599999999998 -0.653064 -0.091593 -0.35970599999999997 0.025171 0.245363 -0.584247 0.107793 0.68031 0.09540900000000002 0.167499 -0.322785 0.002670999999999993 0.007486 -0.46076700000000004 0.192252 0.226663 0.182487 0.918442 0.273631 0.052107000000000014 0.131669 -0.40572600000000003 0.060106999999999994 -0.11121399999999998 0.275337 0.186474 -0.055255 -0.17370200000000002 -0.668979 -0.069766 0.6262939999999999 0.120973 -0.41548799999999997 -0.42510499999999996 0.195974 0.014234 -0.044462 0.46214299999999997 0.5780460000000001 -0.08852600000000001 -0.38593900000000003 0.03586499999999998 -0.043906 0.08907499999999999 0.5025 0.165248 -0.046865000000000004 -0.38771 -0.7898919999999999 0.09676499999999999 0.04286199999999998 0.473359 -0.627446 0.11677700000000002 -0.05574 0.11740600000000001 -0.206405 0.869321 -0.10950700000000002 0.196909 0.22359099999999998 -0.05735199999999999 0.036590999999999985 0.47031300000000004 0.50929 -0.011581000000000008 -0.41884499999999997 0.46391699999999997 0.283015 0.25634