underweight -0.342151 -0.18987300000000001 -0.712508 0.112838 0.006721000000000005 -0.5485450000000001 0.362258 -0.545078 0.592413 -0.057967000000000005 0.414127 -0.627861 0.07026 -0.04368699999999999 -0.102852 -0.16344699999999998 -0.947443 -0.229052 0.447672 0.27757200000000004 -0.725084 -0.417302 -0.202648 0.130102 -0.708621 -0.051563 1.366153 0.114944 0.13439500000000001 -0.484492 -0.885356 0.316804 -0.5342990000000001 0.32930899999999996 -0.323846 -0.576534 0.126156 1.009916 -0.326679 0.03739700000000001 0.217644 -0.05989100000000001 0.24645999999999998 -0.935246 -0.328492 -0.282489 0.133521 0.564894 -0.108774 -0.302496 -0.015278999999999987 0.171242 -0.0064139999999999996 0.195105 0.799098 -0.354927 -0.014697999999999989 -0.408341 -0.570881 0.390649 -0.24946 0.628014 -0.241399 0.553723 -0.450645 0.286397 0.25487000000000004 0.40120300000000003 0.231587 0.717999 -0.532019 1.311709 0.05449899999999999 -0.0934 -0.158339 0.041456 -0.040066000000000004 -0.274471 0.48331599999999997 0.280555 -0.056811 0.763568 0.537303 -0.12479 -0.15087199999999998 0.7567919999999999 0.368693 -0.5873109999999999 0.33424 -0.526772 -0.351251 0.19262 -0.070431 -0.098536 0.12094500000000001 0.02579 -0.01388600000000001 0.24688799999999997 -0.156621 -0.779822 0.6399790000000001 -0.234188 0.086534 0.535048 -0.377252 -0.20649299999999998 0.8962030000000001 0.331092 -1.018377 -0.654955 0.7790630000000001 -0.403107 -0.787898 -0.327859 0.292841 0.299442 0.045376 -0.657219 -0.118617 0.780429 1.938839 -0.412814 -0.003483 -0.33698100000000003 0.097503 0.47737 -0.8369260000000001 0.06729500000000001 -0.682194 0.068879 -0.419724 0.12254 -0.187477 -0.097464 0.415168 0.5633729999999999 -0.369618 0.43061699999999997 -0.010134000000000004 -0.127962 0.623657 0.177705 0.345812 0.089184 -0.396186 -0.183277 0.187132 -0.120283 0.24315900000000001 0.992116 -0.7017089999999999 0.272292 0.216438 -0.710365 -0.213643 -0.07046000000000001 -0.9551769999999999 0.9869330000000001 -0.7133430000000001 0.49161099999999996 0.039423 -0.541974 -1.256259 0.30812500000000004 -1.1170499999999999 0.8613789999999999 -0.5160129999999999 -0.036088999999999996 0.232231 0.010895999999999989 0.140389 0.068121 0.259847 0.274383 0.20211500000000002 0.217882 0.107114 -0.354646 0.311303 -0.413885 -0.5544049999999999 -0.7239070000000001 -0.520792 0.19895200000000002 0.081433 0.970137 -0.135637 0.161029 0.554443 -0.108659 0.34452699999999997 -0.248612 0.253776 -0.206262 -0.208282 -0.067625 -0.23921 -0.435751 -0.06192 -0.961692 0.28747500000000004 -0.27922199999999997 0.275728 0.005822000000000001 1.364875 -0.408052 -0.03833 -0.6837679999999999 -0.11838399999999999 -0.8085150000000001 0.166298 1.364232 -0.402245 0.068578 0.338778 0.426802 0.655442 0.187785 -0.67735 -0.293696 0.405973 -1.127853 -0.20500100000000002 0.142524 1.252388 -0.5840479999999999 -0.325443 -0.09263799999999997 0.292047 -1.134204 -0.8774249999999999 0.681915 0.030198000000000003 0.849993 -0.141916 0.447006 -0.37473900000000004 -0.076804 -0.03769599999999999 0.579931 -0.20654899999999998 0.19211899999999998 -0.496153 -0.07487600000000001 -0.352618 0.571412 -0.033016000000000004 0.37111700000000003 -0.31801999999999997 -0.11139199999999999 -0.109973 0.304968 0.399445 0.092145 -0.310336 0.18989099999999998 0.257352 -0.41175900000000004 -1.422768 0.211468 0.19855699999999998 -0.132598 -0.770601 -0.43722099999999997 -0.63813 0.5140979999999999 0.345916 0.024040000000000006 0.028690999999999994 -0.19651200000000002 -0.634875 -0.22930999999999999 -0.442124 0.348499 0.31284500000000004 -0.027583000000000003 0.06393399999999999 -0.425006 -0.0072519999999999946 -0.37027499999999997 0.07336499999999999 -0.281298 0.20011400000000001 0.088176 0.319407 -0.092146 0.283447 0.212373 -0.057637999999999995 0.0021100000000000008 -0.287834 0.134338 0.318078 0.399832 -0.814323 -0.06199000000000002 0.7083980000000001 -0.266107 -0.088203 0.014443999999999999