unweight 0.451183 0.164361 0.178682 0.132005 0.628674 0.044417 -0.124007 -0.17117 -0.218809 -0.75461 0.855544 0.17457100000000003 0.343057 0.16233599999999998 -0.52487 -0.811198 0.265694 -0.22959700000000002 -0.69164 -0.970164 -0.33512200000000003 0.23697300000000002 0.351808 0.37987400000000004 -0.45238900000000004 -0.548817 -0.46715999999999996 0.6003040000000001 -0.020069000000000004 0.237629 -0.12170099999999998 0.524472 0.054145000000000026 1.4645139999999999 -0.562734 0.7754380000000001 -0.043893999999999996 0.8863890000000001 -0.251505 -0.228071 0.440699 -0.050091 -0.114801 -0.815808 -0.691365 0.123805 0.444032 -0.0005909999999999804 0.298605 0.38133200000000006 -0.12147300000000005 0.200729 0.510839 0.281419 -0.24023999999999998 -0.326025 0.224057 -1.419263 0.5562940000000001 0.007544999999999996 0.409362 0.674779 0.585501 -0.562181 -0.72804 0.764037 -0.039681999999999995 1.013302 -0.382552 -0.21567999999999998 -0.01571900000000004 -0.646908 0.024026999999999965 -0.391631 -0.346278 -1.010919 -0.254019 0.7246429999999999 0.470577 0.020716999999999985 0.38287000000000004 0.05464000000000001 0.22029800000000002 -0.548987 -0.62236 -0.30111899999999997 -0.14754499999999998 -0.24368 0.05721999999999999 -0.365999 0.432094 0.675023 0.703502 0.793864 0.468742 0.643059 -0.268581 -0.365491 -1.156902 -0.546725 -0.084871 0.488992 -0.209057 0.04935800000000001 -0.068523 0.277823 0.807921 0.8880239999999999 -0.420806 0.7047559999999999 0.515817 0.44716900000000004 0.519157 0.774007 -0.526867 0.125774 -0.02034199999999997 -0.170025 -0.366712 0.575772 -0.68157 0.334835 -0.664449 -0.07412800000000003 0.5363249999999999 0.42527099999999995 -0.05247500000000001 1.3953259999999998 -0.03372800000000001 0.203577 -0.57978 0.47719399999999995 0.08656399999999997 -0.9445479999999999 -0.39246899999999996 0.700853 -0.20416 -0.083082 -0.38348299999999996 -0.06217700000000001 -1.147761 -0.456241 -0.390475 0.638255 -0.6301779999999999 -0.12702699999999997 -0.576478 0.098633 0.500051 0.364355 -0.361718 -0.594078 0.523956 -0.9587779999999999 -0.477354 -0.066939 -1.159485 -0.136177 0.41174 -0.6771619999999999 0.510291 -0.12107000000000001 -0.145058 0.019540000000000002 0.18112100000000003 0.21952000000000002 -0.020949000000000002 -0.33192699999999997 -0.16178700000000001 -0.538212 0.42801300000000003 -0.194187 0.635707 -0.27924299999999996 -0.44442499999999996 -0.7562279999999999 1.183043 -0.547833 0.06312799999999999 -1.243978 0.18387799999999999 -0.472996 0.62222 0.701975 -0.24851800000000002 -0.269834 -0.231708 1.0144929999999999 -0.225537 0.05432500000000001 0.22780299999999998 0.189408 0.496711 0.514867 -0.091349 0.010543 -0.278318 -0.446872 0.27876100000000004 0.7274 -0.383495 0.65028 0.692458 -0.256325 0.441378 0.336044 0.023993 0.062768 -0.370942 0.295903 0.14509 0.346664 -0.152349 0.803355 0.25485599999999997 0.13494699999999998 0.764922 0.214708 -0.061432000000000014 -0.10821199999999999 -0.176421 0.016454000000000024 -0.06104899999999999 -0.354127 0.7299150000000001 -0.720406 -0.021868 0.34569099999999997 -0.6613519999999999 -0.394906 -0.595152 0.760955 0.13616999999999999 0.448744 -0.32068100000000005 -0.70638 0.7285710000000001 -0.17012899999999997 -0.568547 -0.14444399999999996 0.08255599999999999 -0.24015199999999998 0.600302 -0.439484 -0.438947 0.6527799999999999 0.33071 0.675064 0.899383 0.010031000000000012 0.06828699999999999 -0.206679 0.794046 -0.11746299999999998 0.360924 0.845851 -0.320347 0.259249 -0.37379300000000004 -0.037537000000000015 -0.015631000000000006 0.32772 -0.333662 -1.015309 -0.22735899999999998 -0.495359 0.05412 0.275187 -0.498006 0.03371199999999999 -0.643749 -0.181515 0.029918 -0.013096999999999998 0.222315 -0.315288 0.541682 -0.143021 -0.6769310000000001 -0.353346 0.488384 0.067318 0.10345899999999998 -0.067717 -0.696914 0.04714499999999999 -0.628388 0.991079 0.202055 0.12924400000000003 -1.086926 -0.012479999999999991 0.03957100000000002 -0.467258 -0.196548 0.11913599999999996 0.614702 -0.389001 -0.604893 -0.096891