usweight 0.601365 1.6269209999999998 0.5814100000000001 -1.401301 1.552117 -0.748035 1.912542 -2.615156 -0.424486 1.594061 0.7948260000000001 -0.8242929999999999 -0.33394999999999997 0.9027689999999999 0.6333070000000001 -0.723351 1.088341 -2.05865 -1.4697170000000002 0.995472 0.119006 1.863457 0.374353 0.552797 1.557166 1.402354 -0.405971 -1.221165 0.135965 -0.978393 -1.831607 1.255569 -1.597936 -2.49791 1.229196 0.220984 -0.23926799999999998 1.422007 -0.23172100000000007 0.46905499999999994 -0.888563 0.533864 -0.146983 1.256533 -0.2719070000000001 -0.7045760000000001 -0.253827 2.2579599999999997 -2.5393470000000002 -1.834107 0.7641840000000001 1.39144 0.960248 0.11449100000000001 1.327635 -0.453157 0.6635850000000001 3.381329 0.841927 -1.444763 0.9672120000000001 1.7473130000000001 -0.05689700000000003 1.089248 1.0662230000000001 -0.45666799999999996 0.14842599999999997 0.22524100000000002 -0.027533000000000002 -2.376168 -0.127095 0.907095 -1.4374099999999999 1.167491 0.7687620000000001 2.0926739999999997 -1.520285 0.40232 0.789689 -1.7985920000000002 0.19449299999999997 -0.04683000000000004 -1.704823 1.6478000000000002 -0.6851119999999999 -0.511056 0.9469979999999999 -0.34132700000000005 -0.347926 1.329927 1.915405 0.051512 1.080753 -0.30794900000000003 -2.307182 4.464042 -0.661048 -0.5635859999999999 -0.11360199999999998 -2.3586 1.062637 -1.065925 -2.433576 -0.14870200000000003 -0.15701 -1.148019 0.603037 -1.224685 0.289287 -1.25763 1.505242 -0.345329 -0.7481070000000001 0.416002 -1.428239 1.1097139999999999 -0.6885439999999999 0.52096 1.018738 1.7447940000000002 0.18511699999999998 0.062063000000000035 -1.9198970000000002 1.088579 1.376124 -0.20285099999999995 -0.926265 -1.2586460000000002 0.6386839999999999 -0.742481 1.331504 -0.09556300000000001 1.116312 1.488338 0.948624 0.9478179999999999 -2.147845 1.317747 -1.343551 -0.808761 -0.21459899999999998 0.7250130000000001 -0.48962300000000003 -1.382177 -2.209899 -2.062598 0.29388099999999995 1.037103 0.14762699999999995 -0.16235300000000003 3.3318630000000002 -0.604313 0.789614 0.9359259999999999 -0.489723 -1.835896 1.9215659999999999 1.116594 -0.804955 1.657732 -0.5815509999999999 -0.621497 -0.6016159999999999 -0.059119000000000005 0.22843499999999994 -1.636784 -0.514956 -0.9190919999999999 -0.971566 0.4721080000000001 -2.612343 -0.39542800000000006 -0.665246 -0.167502 1.1329440000000002 -0.19036699999999998 0.27346099999999995 -0.17153000000000002 1.71061 -1.3375569999999999 -0.441504 -0.874642 1.778318 -0.27615700000000004 -0.7483489999999999 -1.510109 -0.22739499999999999 1.2694530000000002 -0.795884 -1.1769129999999999 0.051624999999999976 -2.208748 0.735068 -1.2847179999999998 -0.15932800000000003 -1.435322 -0.347069 0.081874 -0.49882499999999996 -1.277822 1.324099 -0.9325939999999999 -0.596988 2.736765 0.487651 -1.305473 2.209745 0.024692 0.006410000000000027 -1.022448 -2.016285 -0.280052 0.830373 -0.735187 -0.42531699999999995 1.5996990000000002 0.715045 0.665841 -0.8947910000000001 -1.020564 -2.136731 -0.659861 -1.707184 -0.7303620000000001 3.104711 -1.288545 -0.28206299999999995 -0.8675410000000001 2.18166 0.922465 -2.196598 0.26847000000000004 0.44570600000000005 -0.6797610000000001 0.250208 1.758622 -0.954061 -1.444954 -0.7234820000000001 -1.025895 0.362736 -1.7379280000000001 1.185499 -0.11433199999999999 -0.312686 -0.023469000000000004 0.09782000000000002 1.598979 -0.540911 1.050456 1.675458 0.992351 -0.41365699999999994 -0.302939 -2.322058 1.197895 -1.114653 0.37559 1.070353 -0.127579 1.223669 0.223489 -2.698168 -0.531825 0.21111399999999997 1.251058 1.3840919999999999 2.269229 0.873124 1.3690280000000001 0.228566 1.578672 1.511854 1.711905 0.7317589999999999 0.881753 -0.6351 -1.043252 -1.210612 -1.1888159999999999 1.412717 0.259429 -1.528046 -1.394202 -0.586581 -1.923705 -1.230682 0.541614 -1.582829 0.3537239999999999 0.194712 0.290691 2.072308 -2.211848 -0.8642939999999999 0.3048749999999999 -0.8059020000000001 1.077825 -0.43077099999999996 -0.5506489999999999