waterweight 0.215047 0.5729460000000001 0.42924799999999996 -0.6897260000000001 0.07892700000000001 0.07775700000000002 -1.0109929999999998 0.012919999999999932 -0.310343 0.603838 0.722214 -0.660655 0.445977 0.281165 0.789932 0.08115800000000001 -0.534082 -1.3657819999999998 -0.054574999999999985 -0.558149 0.513059 -1.617494 -0.072409 0.42374199999999995 0.923658 -0.39154300000000003 -0.14322 -1.024841 0.48585999999999996 -0.364507 -0.39800199999999997 -1.434674 -1.047574 -0.020311999999999997 -0.796325 -0.24004799999999998 0.8423749999999999 -0.087408 0.76799 0.838865 0.281893 -0.066029 -0.26829 -0.106522 -0.920179 0.657886 -0.705432 1.505147 -0.725938 0.781455 -0.21934599999999999 -0.243994 0.137324 1.025446 0.37063599999999997 -1.119198 0.47237799999999996 0.441332 -0.714477 0.010539999999999994 -1.262593 0.100984 -0.6210549999999999 -0.725233 0.105349 -0.24133499999999997 1.078344 -0.050212999999999994 0.10781199999999991 -0.688607 0.609631 -0.1127 0.061556000000000013 -0.61587 -0.5209710000000001 0.431929 0.183861 0.439924 -0.062604 -0.08586900000000003 0.532099 -0.432151 0.299828 0.734143 -0.161693 0.38294399999999995 0.7902480000000001 0.464434 -0.404007 -1.077361 0.428678 -0.093892 -0.48505700000000007 -0.1568 -0.05469499999999994 -0.437936 -0.465611 0.491231 0.714299 0.216461 1.094298 -0.080339 0.6292030000000001 -0.534173 0.8063720000000001 0.878413 0.05257199999999998 0.5900449999999999 -0.71877 0.6562030000000001 0.15051300000000004 0.41895899999999997 0.186558 -0.522889 0.5724 0.325496 0.112041 -0.368895 0.253754 1.03412 -0.06176699999999999 0.574862 0.960971 0.360355 -0.235153 -0.40564900000000004 -0.225239 0.383054 -0.505336 -0.817425 -0.107636 -0.013020000000000018 0.27423699999999995 -0.5776300000000001 -0.9037170000000001 -0.6443030000000001 0.08425000000000005 0.33505 -0.052868000000000026 -0.214242 0.37153800000000003 -0.880463 0.526706 -0.215938 0.10725100000000001 -0.63021 1.524823 -0.005405999999999994 1.157784 0.8130879999999999 -0.12095 -0.8483390000000001 1.168825 -0.18264799999999998 -0.152363 -0.22163300000000002 -0.800808 1.9698449999999998 -0.40873400000000004 0.815758 -0.30834500000000004 0.17690799999999998 -0.01682900000000001 -0.362321 0.264932 -0.304963 -1.366346 0.018640000000000004 0.688205 -0.914555 -0.800973 -0.24464 -0.274648 -0.339864 -0.340802 0.061103000000000005 -0.6693760000000001 0.24306500000000003 1.033368 0.264909 -0.063577 0.477457 -1.069316 0.718181 -0.46629 0.09964400000000001 -0.45045599999999997 -1.048533 -0.5749489999999999 -1.01522 0.064909 -0.10581099999999999 0.150111 0.4722299999999999 -0.771215 -0.05097199999999999 0.21891899999999997 -0.34984299999999996 0.5596990000000001 -0.142149 -0.01559900000000003 0.21796200000000002 0.124852 0.266675 -0.418695 -0.078212 -0.001826000000000022 -0.123741 -1.115487 -1.682003 -0.716105 -1.348218 -0.208152 0.555993 -0.385316 0.27635800000000005 -0.019650999999999974 -1.074776 -0.12389199999999995 -0.255588 0.197285 -0.00023300000000000404 1.287148 0.092497 0.867769 0.06032500000000007 -1.563315 -0.310519 -0.6371720000000001 -0.490526 -0.270669 0.394456 -0.239641 1.203626 0.258341 1.099032 -0.714304 -0.7232209999999999 -0.307852 -0.81221 0.117034 0.003611000000000003 0.294751 0.115366 0.057533 -0.38724000000000003 -0.876921 -0.754638 0.300739 0.311373 0.70102 0.29662700000000003 -0.8805080000000001 -0.278928 -0.5673889999999999 0.11572200000000002 -0.4745269999999999 -1.038908 -0.46098300000000003 -0.446055 0.259011 0.49868599999999996 0.994944 -0.14045400000000002 0.29220999999999997 0.367604 -0.9832609999999999 0.862615 0.894801 -0.674233 0.574565 -0.17653000000000002 -0.040871000000000005 0.22612700000000002 0.673759 0.777821 -0.239767 0.07624999999999993 -0.6926570000000001 0.12379399999999996 -0.269023 -0.028859000000000024 -0.312604 0.24349600000000002 0.49272299999999997 -0.163274 0.561948 0.36427200000000004 -0.598526 -0.543527 0.341739 0.669923 -0.506472 0.080084 -0.190181 -0.665767 0.921894 -0.13204 0.141889 0.913003