weightand -0.175986 1.400004 -0.41985700000000004 -1.217854 0.35602500000000004 0.08818800000000004 -0.787839 -0.118894 -0.29958700000000005 -0.20068800000000003 0.242649 -0.7611669999999999 0.7859240000000001 0.404005 -0.086901 -0.32768600000000003 0.08550000000000002 0.008861000000000008 0.363899 -0.10607400000000002 -0.177768 -0.068412 0.6815289999999999 0.25572700000000004 0.868293 -0.201592 0.371374 -0.72275 0.0069190000000000085 -0.574387 0.05642299999999999 0.303892 -0.70246 -0.481638 0.26699 0.236614 0.7269110000000001 0.13559300000000002 0.428304 -0.255763 -0.550558 0.211343 -0.6555489999999999 -0.497271 -0.11208599999999999 -0.048347 -0.050588999999999995 0.862847 0.926883 -0.19861499999999999 -0.184717 -0.320359 -0.11251900000000001 0.521392 1.1432630000000001 -0.49413700000000005 0.893678 1.1987700000000001 0.45057 0.496147 0.23555700000000002 0.5694779999999999 0.527808 -0.285569 -1.026957 -0.12467900000000001 0.707331 0.9598340000000001 -0.7457309999999999 -0.6912320000000001 0.20072 -0.979184 0.332676 -0.669746 -0.365998 -0.842779 -0.655777 0.104577 -0.486429 0.821971 0.8916040000000001 -0.250441 -0.401494 -0.019534999999999997 -0.220525 0.613255 0.23373100000000002 0.3290209999999999 0.182334 -0.077845 -0.32569400000000004 0.677146 0.382617 -0.644612 -0.0013719999999999982 0.48479799999999995 -0.625359 -0.034477999999999995 -0.847038 0.420493 -0.31299299999999997 -0.75481 -0.039992 -0.17830600000000002 0.380603 -0.325369 1.3036349999999999 0.131845 -0.334094 0.12285299999999999 0.733387 -0.32103099999999996 -0.53977 0.32506199999999996 -0.040216 -0.023042000000000007 -0.384388 0.365992 0.03773700000000001 -0.28349500000000005 -0.190234 0.011553999999999953 0.68266 0.260366 0.087424 0.132038 -0.241456 0.19626000000000002 -0.23442200000000002 0.662873 -0.324168 0.321654 0.41011400000000003 0.014374999999999999 -0.296994 -0.549889 0.14233300000000004 0.159641 0.501479 0.123943 -0.145847 0.04208800000000001 -0.08182799999999998 -0.040106 -0.047963000000000006 -0.41766000000000003 0.16656200000000002 0.502202 1.4566560000000002 -0.018803000000000014 0.10081800000000002 -0.062985 1.103891 0.102503 -0.891648 0.149285 0.565971 -0.113735 0.14431300000000002 0.20450800000000002 -0.0024089999999999945 -0.285473 0.7963279999999999 0.734864 -0.217498 0.769944 0.048155 -0.252614 0.23056300000000002 0.568588 0.209112 0.485278 -1.607864 0.07588299999999998 -0.886917 -0.148282 0.384651 -0.23431999999999997 -0.06408899999999998 -0.634165 0.7303059999999999 0.22574 -0.07711499999999999 1.308955 0.425037 0.20374199999999998 0.27531500000000003 0.418216 -0.236128 0.47533499999999995 0.07084200000000002 0.681991 0.346196 0.561923 -0.814507 -0.094725 0.394572 -0.511753 0.548109 -0.720953 0.668715 -0.20100600000000002 -0.045104000000000005 0.120752 -0.12526600000000002 -0.07876899999999999 -0.22362200000000002 -1.140948 -0.41481099999999993 -0.04998599999999999 -0.270808 -0.221544 0.880537 0.602504 -0.025823000000000002 -0.135448 -0.066084 0.315006 -1.076557 -0.176228 -0.09989199999999998 -0.023756 0.218386 -0.195197 1.080452 -0.359015 -0.229356 0.377366 -0.218331 -0.384991 -0.197944 0.18889899999999998 0.7449910000000001 0.08387800000000001 0.03161599999999999 -0.139648 -0.767266 -0.099001 -0.156781 0.231593 -0.626554 -0.694654 0.333267 -0.365134 -0.69472 0.533848 -0.12046699999999999 0.5666739999999999 0.17752999999999997 0.023218000000000003 -0.08720299999999997 0.39451800000000004 -0.18566 0.8821319999999999 0.23280799999999996 1.19564 0.73068 -0.328856 -0.504018 0.203102 0.04519500000000001 0.028489999999999998 0.268235 -0.226303 -0.8912 0.503504 -0.224108 -0.293741 -0.6821929999999999 -0.51146 0.770256 0.743376 -1.217844 0.18002100000000004 1.273612 0.90437 0.41838400000000003 0.349212 0.287604 -0.45453600000000005 -0.7568889999999999 0.554034 -0.359936 0.987625 0.04538300000000001 0.689034 -0.483043 0.043067999999999995 0.43439300000000003 0.438163 0.48383 0.048396999999999996 -0.759417 0.45223800000000003 -0.6556500000000001 0.17051799999999998 0.398126 0.037997999999999976 0.538119 0.44572599999999996