weightwise 0.35319599999999995 0.417107 0.957476 -0.072943 -0.656956 -0.246562 -0.788479 -0.184846 -0.575393 -0.8551660000000001 0.42495000000000005 0.41969800000000007 -0.032597 -0.551132 -0.46875500000000003 0.20503899999999997 0.6883159999999999 -0.596224 -0.388476 -0.05265000000000003 -0.095911 0.522379 -0.248078 0.21309799999999998 -0.19647399999999998 0.308126 0.547216 -0.34036299999999997 0.11551499999999999 -0.40220100000000003 -0.439884 0.416585 -0.251244 0.33999599999999996 -0.120965 0.477489 0.14393799999999998 1.016353 1.02301 0.142412 0.611433 -0.153894 0.227473 0.36470199999999997 -0.237739 -0.12026799999999999 -0.004974000000000034 0.331531 0.044675999999999993 0.629011 -0.021808000000000008 -0.07877999999999999 -0.55967 0.9756670000000001 -0.681462 -0.35301499999999997 -0.051913000000000015 -0.144788 0.943331 0.828983 0.037006 -0.237017 -0.37941900000000006 0.21938199999999997 -0.331499 1.318971 -0.056527 0.658722 0.625039 -0.056484000000000006 -0.460074 0.190873 0.062513 -0.8522479999999999 -0.192809 -0.313297 0.021546999999999997 -0.062735 -0.280061 -0.097766 0.137101 0.22355 1.0149080000000001 0.261749 -0.135605 0.175481 0.526466 -1.1523560000000002 -0.06792599999999999 -0.302326 -0.23370499999999997 0.590935 -0.467833 -0.456491 0.07819799999999999 -0.399611 -0.619192 0.502304 0.08646899999999999 -0.159579 0.54889 -0.356013 0.28443799999999997 -0.936531 -0.13166299999999997 -1.0621770000000001 -0.0005819999999999992 0.277417 -0.125694 -0.21601700000000001 0.448733 -0.667088 0.326419 0.038443000000000005 0.230179 0.003282000000000007 0.143028 0.388092 -0.365446 0.139405 -0.306454 -0.846797 0.062986 -0.458563 -0.001808000000000004 0.250692 -0.07028500000000001 -0.261613 -0.276096 0.37742200000000004 -0.011932 0.137333 -0.229875 0.620719 1.0545 0.41431399999999996 -0.96367 0.141821 0.312326 -0.63164 -0.58627 0.047043999999999996 -0.015116999999999992 0.320821 0.11923800000000001 0.5042519999999999 -0.021319000000000005 -0.386699 0.37474 -0.080567 -0.020603999999999997 -0.46897900000000003 0.479316 0.007486000000000048 -0.421995 -0.123935 -0.314907 0.087793 0.601564 0.261873 -0.6855450000000001 0.473116 0.632514 -0.628702 0.826084 0.503132 0.172982 0.19752799999999998 -0.458576 0.048775999999999986 0.29435500000000003 1.269347 -0.033407 0.740186 -0.539036 0.8982939999999999 0.06819700000000001 -0.428097 -0.020391999999999993 0.051941000000000015 -0.132688 0.088503 0.10868999999999998 -0.017808000000000018 -0.01431600000000001 0.332627 0.11118600000000001 -0.21004099999999998 -0.463633 -0.71103 0.551239 -0.439577 0.25165499999999996 0.198199 -1.1299109999999999 -0.12859 0.15035300000000001 -0.188771 -0.502838 -0.460476 -0.439943 -0.212013 0.7436119999999999 0.365815 0.23513 0.129858 -0.007271 -0.236383 -0.151914 -0.016675999999999996 1.308039 -0.775327 -0.375054 0.13933300000000004 0.326711 -0.8425100000000001 0.29723 -0.00020700000000001273 -0.343925 0.906954 0.016936000000000007 -0.152516 -0.06615800000000001 -0.053498 0.583988 0.17680600000000002 0.109703 -0.0007120000000000043 -0.672504 0.557238 -0.192988 0.225021 0.24552400000000002 0.345981 0.225464 0.053021000000000006 0.000788000000000004 -0.126607 0.12182199999999999 0.423706 0.680837 0.740587 0.107128 -0.30956300000000003 0.294966 0.079864 -0.018442999999999987 -0.161895 -0.150165 -0.205088 -0.06654299999999999 0.473298 -0.816584 0.18411500000000003 0.23017500000000002 -0.560838 -0.009769 0.257501 -0.261788 -0.184617 -0.155903 -0.21416500000000002 -0.668585 0.0004600000000000021 -0.571529 0.751069 -0.07939600000000001 0.354649 0.375973 -0.642902 -0.578951 -0.610895 -0.173657 0.07996299999999998 0.866012 0.547147 0.28285 0.129632 -0.06483199999999999 0.021971 -0.389278 -0.39931 -0.727344 0.604559 -0.007598 0.297967 -0.11544499999999999 -0.028451999999999998 -0.129436 0.637337 0.055896 0.68994 0.0047800000000000065 -0.5440149999999999 -0.28134699999999996 -0.159224 0.313392 0.195965 0.006639000000000006 0.482522