weight.if 0.38222 0.06281399999999998 -0.24359499999999998 -0.293444 0.38347400000000004 -0.11086600000000002 -0.24692499999999998 -1.143323 -0.13480999999999999 0.363061 0.895105 -0.9233549999999999 0.09257000000000004 0.422205 0.655439 0.50727 -0.366948 -0.806463 -0.167812 -0.04755900000000002 -0.19428800000000002 -0.478603 0.13236 0.502851 0.268247 0.011415000000000008 1.324789 -0.480295 -0.161297 -0.234552 0.581065 -0.224364 0.082701 -0.08801899999999999 0.22093700000000005 0.641439 0.45816199999999996 0.275134 -0.36619799999999997 -0.368494 -0.09801400000000002 0.6667289999999999 -0.520589 0.45501500000000006 -0.298695 0.058917 0.910845 0.387661 0.230744 0.01514 0.043609999999999996 -0.6671670000000001 0.02255299999999999 1.779314 1.035942 -1.25057 -0.17547799999999997 0.021966 -0.483707 0.504071 -0.686176 0.107414 1.060942 0.022148 0.229265 0.23447400000000002 0.40023600000000004 1.154944 -0.040752 -0.334579 0.098684 -0.57246 -0.49236800000000003 -1.04826 -0.572506 0.451148 -0.378481 -0.149148 -1.7133610000000001 0.672535 -0.08860200000000001 -0.48006400000000005 0.481642 0.411092 0.06326300000000001 -0.39189199999999996 1.00045 -0.773249 -0.127415 -0.42637600000000003 -0.260027 0.735193 0.699678 0.5646909999999999 0.934505 0.06640599999999999 -0.23882299999999998 -0.032566 -0.322195 -0.37919 0.107889 0.09990399999999999 -0.576109 -0.02874800000000005 0.5763320000000001 -0.068248 1.58452 0.593641 -0.726506 0.37514 -1.211517 0.015261999999999998 0.643057 0.684586 -0.296939 0.8634109999999999 0.713676 0.08035300000000001 0.10878199999999999 0.909134 -0.494738 0.02604200000000001 1.2859699999999998 -0.18104 0.218481 0.694609 -0.101633 0.799419 -0.53982 0.09625999999999998 -0.19545499999999993 0.646936 0.6949810000000001 -0.351278 -0.052811999999999984 0.05308600000000001 -0.280231 -0.48899699999999996 -0.09065000000000001 0.5714159999999999 -0.674335 0.229825 0.28900000000000003 0.180008 0.339924 0.114429 -0.362819 0.190039 0.43805700000000003 0.42500899999999997 0.290389 0.305152 1.1789239999999999 -0.209023 0.42501999999999995 0.163992 -1.428639 -0.029892000000000002 0.603945 0.138511 1.143156 -0.319179 0.493727 1.105367 -1.316185 0.792241 0.05942 -0.758597 -0.079887 -0.093958 -0.390327 0.688578 -0.301059 0.32360700000000003 0.415696 -0.21145000000000003 0.33558699999999997 0.387515 -0.42956300000000003 -0.145697 -0.249554 0.220229 0.15101999999999996 0.248715 0.25732499999999997 -0.039689 0.205008 -0.07218799999999997 -0.458406 0.620128 -0.6205620000000001 -0.056545999999999985 0.406874 -0.005986999999999992 -0.34082 0.268021 0.440619 -0.145507 -0.009045000000000025 -0.7672399999999999 0.622293 -0.389034 -0.17539 -0.20938800000000002 0.071754 0.129126 -0.041125999999999996 -0.25265 -0.66591 -0.377993 0.49593200000000004 -1.295607 -0.288467 0.43358099999999994 0.5888340000000001 -0.073404 -0.23997 0.609856 -0.25723399999999996 -0.6208389999999999 0.213857 -0.44685700000000006 1.015929 -0.220055 0.78052 0.720755 -0.7134039999999999 0.42513900000000004 0.05529899999999999 0.20176699999999997 -0.306187 0.23071 0.10336200000000001 -0.202567 -0.451483 -0.521773 -0.774505 -0.10080700000000001 -0.48170100000000005 0.131136 -0.07196999999999999 0.113451 -0.21580199999999997 -0.41201599999999994 -0.343245 0.716841 0.121977 -0.554822 0.22694999999999999 -0.760579 0.471751 0.550414 -0.5058860000000001 0.18486 0.322961 1.079286 0.7952870000000001 -0.12639699999999998 -0.08316599999999999 0.29402 -0.48475799999999997 -1.072505 -0.746733 -0.144699 -0.18217 0.553286 -0.32890199999999997 0.11439200000000001 0.04569500000000001 -0.325504 0.597787 -0.191562 0.015560999999999998 0.395554 0.862978 0.341793 0.6431100000000001 -0.19216299999999997 0.036345 0.07454699999999997 -1.522936 -0.233323 -0.637286 0.369359 0.456028 -0.20900699999999997 -0.56882 0.605479 0.242703 0.0075930000000000025 -0.31021699999999996 1.23575 -0.622748 0.373541 -0.821688 -0.12664199999999998 0.12784900000000002 -1.050204 0.722147 -0.386738