weightily -0.06539299999999998 0.626497 0.19323600000000002 -0.11324000000000001 0.08842299999999999 -0.167498 -0.33041000000000004 -0.134333 -0.377664 -0.22546200000000002 0.049763 0.339958 0.617246 -0.22722000000000003 -0.025402000000000008 0.344399 -0.333921 -0.32189100000000004 -0.733008 0.39012 -0.25116700000000003 -0.197384 -0.225069 0.421638 0.011369000000000018 0.215449 0.071394 -0.069103 0.630153 -0.576258 -0.485625 0.197247 0.21101999999999999 0.143461 -0.41306 0.15054100000000004 -0.088295 0.018700999999999995 -0.208391 0.0020939999999999848 0.315611 0.047681 0.23332999999999998 -0.021452000000000027 -0.512456 0.608854 0.138146 0.067898 0.121462 0.020200999999999997 0.189573 -0.201936 -0.21806099999999998 0.05207200000000001 0.017675999999999997 -0.266183 0.229616 -0.127767 -0.03395899999999999 0.24770599999999998 0.240486 -0.213436 0.02397400000000001 -0.131739 -0.6004700000000001 0.5192779999999999 -0.232313 0.507952 0.05355599999999999 0.262812 -0.308518 -0.217892 -0.24386200000000002 -0.32494999999999996 0.375923 0.068824 -0.452705 0.7117150000000001 -0.05642799999999998 0.23736600000000002 0.26466 0.377981 0.033999 0.25762700000000005 -0.6964779999999999 0.126167 0.05644400000000001 -0.163447 0.948878 -0.140189 0.101127 0.227586 -0.21238200000000002 0.318258 -0.11046299999999998 -0.665415 -0.03061 -0.23382799999999998 -0.040762 0.12651600000000002 -0.49379 0.42239899999999997 0.39676 0.608375 0.230602 0.073945 0.348329 0.25830200000000003 0.094267 -0.279576 -0.633779 0.256036 -0.13276100000000002 -0.356034 -0.16581200000000001 0.39157200000000003 0.088669 0.322832 -0.424592 0.296902 -0.64474 -0.201851 -0.504451 0.45599100000000004 0.020391 0.19406099999999998 0.210867 0.45434199999999997 0.275823 0.280352 -0.534902 -0.680864 0.409751 -0.12862400000000002 -0.068039 0.136297 0.14921199999999998 0.061478 0.011892999999999987 -0.044649999999999995 0.15958 0.112191 -0.275311 0.382578 0.32208800000000004 0.25396799999999997 0.256567 -0.229229 0.108006 -0.430029 0.380167 -0.15878899999999999 0.361522 0.077665 0.029723000000000013 0.06002200000000002 -0.376739 0.271684 -0.177018 -0.103296 0.18094999999999997 -0.469576 -0.41748399999999997 -0.25636499999999995 0.164631 1.036445 -0.488519 -1.05764 0.345254 0.681228 0.274911 -0.21149500000000002 0.38531499999999996 -0.33189 -0.348889 0.173869 0.41518999999999995 -0.540322 -0.517988 -0.18878799999999998 -0.103519 -0.036821000000000007 -0.013290000000000001 0.07309299999999999 0.43045900000000004 0.364138 -0.32848 0.070047 0.085391 0.14123499999999997 -0.033248 0.10224100000000001 -0.181791 0.41737 -0.486441 -0.40115700000000004 -0.291046 0.377261 0.425382 -0.10885600000000001 -0.26270499999999997 0.245958 -0.19477699999999998 -0.11459199999999999 0.200745 -0.095637 0.040947000000000004 -0.170728 -0.368713 -0.102013 0.53008 0.950057 0.296197 -0.17396499999999998 -0.20688399999999998 -0.281125 0.229397 0.017208000000000008 -1.040753 0.387835 0.03530799999999999 -0.16483699999999998 -0.078482 0.024988999999999983 0.579993 -0.19411399999999995 -0.496874 -0.48361099999999996 0.014815999999999996 -0.871889 -0.432654 -0.08731 -0.597891 0.190764 0.061181 0.11179 -0.392712 0.19418 -0.329152 0.38674 -0.097933 0.29380500000000004 -0.043919 0.362017 0.139798 0.06626700000000002 -0.00146700000000001 -0.049519 -0.35314199999999996 -0.40845000000000004 0.044787999999999994 0.0010129999999999861 -0.022572999999999996 0.577855 -0.272882 -0.665487 0.07670099999999999 0.99739 -0.870084 0.113569 -0.08105 0.236383 -0.306797 -0.444455 0.005603999999999998 -0.596832 -0.197578 -0.051426999999999994 0.16266999999999998 -0.133969 0.324295 0.080982 0.156177 -0.553031 -0.216845 0.190894 0.15268 0.392615 0.13756600000000002 0.216868 0.042588 0.38877599999999995 -0.9701549999999999 0.216428 0.06220600000000001 0.003056000000000003 0.230921 0.218984 0.322541 0.21471099999999999 -0.193952 -0.310959 0.619893 -0.28057899999999997 -0.35063200000000005 0.20263599999999998 0.287432 -0.32518 0.052285 0.240544