weight.the 1.94043 1.966934 1.5842049999999999 -0.9828859999999999 -0.34230000000000005 1.977125 1.4150779999999998 -1.316865 0.324959 -0.60722 -0.789795 1.240669 3.2524889999999997 -0.320025 -1.090744 1.251465 -0.12996399999999997 -0.714144 -0.5477529999999999 1.1369799999999999 -0.27821699999999994 0.112236 -0.987136 -2.716688 1.239903 -0.595243 -3.009273 2.373112 -2.44385 0.40685800000000005 3.3748489999999998 0.55464 -0.509058 0.91535 1.6047129999999998 -0.705141 -2.9274950000000004 -1.264759 -4.451366 -0.906385 -0.299451 0.686167 0.610885 3.247438 0.798233 -2.6875869999999997 2.274895 -1.6918990000000003 2.183624 -0.883619 -0.487852 0.415149 0.25660099999999997 2.764199 -0.851819 -1.3329680000000002 1.340486 -0.806126 0.39859 2.346095 0.272216 -2.229484 -1.4041750000000002 -2.025156 -3.887421 2.183171 -2.473832 1.153458 2.2986240000000002 -2.3091440000000003 -0.33971500000000004 1.883778 -1.4660179999999998 -2.873888 -1.0197429999999998 1.4339680000000001 -1.047036 -0.776384 -2.577455 1.041028 -3.179164 -1.578688 -3.12575 -0.434894 2.8381089999999998 2.315813 -0.786659 0.08509900000000001 -3.569781 0.6096620000000001 0.49885100000000016 -0.19285000000000008 0.20618599999999998 -0.214275 1.219122 0.561631 2.184485 -0.10459200000000002 -2.386767 -2.6136939999999997 1.920652 -1.3019230000000002 -3.625096 0.8023529999999999 2.582711 -0.3912850000000001 1.145705 -1.590152 0.7031959999999999 -1.338013 -3.365958 1.5728010000000001 1.406351 0.503473 -2.089802 -0.12445000000000017 1.4317689999999998 0.17173 0.5977520000000001 0.8624669999999999 -1.834534 -4.578707 1.459825 -5.0008099999999995 -1.147595 0.12415900000000002 -1.433715 0.567734 -1.688896 1.567691 0.6152900000000001 -2.478741 0.817346 -1.848634 -1.201648 1.641851 0.929918 0.958594 -0.690099 1.728749 1.3470469999999999 2.382781 1.9216499999999999 0.21168599999999982 -0.14633300000000005 1.3393569999999997 -1.557383 3.114033 0.5932970000000001 1.411467 -2.7267 -0.18261799999999995 1.9962080000000002 -0.49331099999999994 0.5877190000000001 0.381517 -0.21620299999999998 1.2315969999999998 -0.06656299999999993 -2.886395 1.1762889999999997 2.6734169999999997 0.574965 0.417922 -3.272367 3.362405 1.055716 -1.268877 -1.423001 2.973961 4.295453 1.211611 -1.5773300000000001 -0.0046800000000000175 -2.7904910000000003 -1.084393 1.330827 0.366526 -2.9522359999999996 -0.8308599999999999 1.8245909999999999 1.2711709999999998 -0.596831 2.743724 2.89668 1.498362 -4.441231 -3.3077140000000003 1.136021 -2.658193 -3.990414 -0.45211999999999997 0.23221800000000004 -0.5405449999999998 -1.979461 0.7585419999999999 1.332128 0.8252860000000001 -1.304623 -2.624547 -0.8038409999999999 -2.880885 -0.36398299999999995 -0.632512 -0.06980399999999998 0.45418899999999995 -0.6069469999999999 -4.857352 1.5223309999999999 1.450621 -2.9567829999999997 0.43379 3.1446110000000003 -2.6592029999999998 -2.184365 2.182159 0.3082769999999997 -3.136749 -1.230051 0.7947369999999999 0.702954 -2.4593170000000004 0.113286 0.89857 0.443372 1.092441 -0.641787 0.96905 -1.061464 -0.8975949999999999 0.722469 0.827858 -0.15812700000000002 3.519065 1.9494349999999998 -1.953984 -2.830365 -0.909981 0.16596900000000003 0.8464450000000001 -1.20162 -2.169733 0.190442 -1.9517630000000001 -1.6274790000000001 -2.5308849999999996 -1.3849339999999999 0.22860199999999997 0.80416 -2.0623389999999997 -3.082855 0.99928 -2.4162600000000003 2.321238 0.9056010000000001 1.6995900000000002 -0.8960250000000001 0.28271100000000005 -0.8998130000000001 1.8756370000000002 -0.9149600000000002 -0.1822839999999999 -1.5691370000000002 1.615721 -1.065657 0.2161510000000001 -1.155275 0.47689000000000004 -0.724307 -0.8009950000000003 -2.82518 -0.5364399999999999 -2.303789 1.6205559999999997 -0.37119 -0.8388859999999999 -0.735649 -1.1990889999999998 0.554997 -1.493702 -0.32995600000000014 0.243579 0.6571640000000001 -0.14496599999999993 2.467243 -0.27497699999999997 0.631004 3.937745 1.082762 0.15794700000000006 -0.17370399999999997 1.647184 -2.695323 2.773803 -1.382616 1.5962640000000001 -1.440661 0.571264 -2.739337 -0.665571