weightwatchers -1.937458 -0.029981000000000035 0.9249740000000001 0.7659849999999999 -0.31342799999999993 1.059982 0.200763 -1.668736 0.521908 2.279455 0.622752 0.16416200000000003 -2.09004 0.17036500000000004 -2.338941 -0.32438100000000003 -1.7727709999999999 -1.272105 -0.049166000000000015 1.224813 -2.087738 -1.1323649999999998 -0.540303 0.648688 1.9802870000000001 -0.866989 0.64305 -1.408374 0.264945 -0.7947879999999999 -0.17395700000000003 -0.981139 0.20615 -0.417673 0.5159100000000001 -0.313495 -0.4138719999999998 0.8528089999999999 -1.132848 2.963238 0.190951 -0.9524080000000001 -1.639974 1.9324180000000002 -1.1600700000000002 -0.411707 0.93977 0.15556900000000007 0.317293 0.485356 0.6190849999999999 -0.04755599999999993 -0.652782 1.4409770000000002 -0.619486 -2.220275 -0.867668 0.058961 0.7156210000000001 -0.29011400000000004 0.677401 1.290352 -1.148799 1.42732 -0.8195269999999999 -0.7793929999999999 1.241682 0.8110890000000001 0.09006700000000001 -0.9402550000000001 1.772311 0.00850799999999996 0.163282 -1.314934 -0.045798000000000005 -1.038543 -0.463447 -0.513866 0.224357 -3.567157 1.151461 0.054977 1.4882849999999999 0.08937599999999998 0.17168799999999995 -0.12972 -2.380353 1.1593200000000001 0.7041850000000001 -0.18274 1.496835 0.892642 0.6919789999999999 0.615082 -1.145225 1.631329 1.10499 1.078256 -0.900961 0.558248 1.8370510000000002 -0.926891 1.049306 1.006936 -1.392018 -0.44896600000000003 -1.1679810000000002 -0.17443200000000003 -0.9763729999999999 0.6721250000000001 0.46551700000000007 -0.763272 -0.655402 0.66248 0.30671600000000004 0.956788 -1.001727 1.570547 1.9026360000000002 -1.45303 0.8416710000000001 -0.21846400000000005 -0.562067 0.886375 -1.086977 0.7662640000000001 1.8520400000000001 1.039353 -1.190167 -1.2985039999999999 -0.19001799999999996 1.212714 2.8876020000000002 0.343642 1.1916630000000001 -0.18025200000000002 -2.011871 -0.750937 -0.033401000000000014 -0.906053 -1.031513 -0.389808 -2.145824 -0.700882 1.8150490000000001 0.271826 0.776178 -0.189612 -0.181227 2.190067 0.69694 0.19672699999999999 2.009255 0.13739099999999999 -1.068599 -0.20655400000000002 0.256302 -1.289483 -0.32866199999999995 1.153384 -2.473079 -1.4519929999999999 -1.0395240000000001 -0.8934179999999999 0.913091 1.688199 -0.15837800000000002 -1.4014229999999999 1.179224 -2.158352 -0.693516 1.523984 -0.065468 -1.649082 1.427733 -1.085147 -1.408866 -1.437637 0.7113029999999999 -0.346299 0.6678250000000001 0.11157099999999998 -1.7895510000000003 -0.41388099999999994 -1.722432 -0.491973 -0.810354 -0.946926 -0.14193500000000014 -0.975524 0.00022600000000000398 0.506481 -2.029382 -0.8980350000000001 -0.19310100000000002 0.33247999999999994 0.785651 -0.6740349999999999 0.43165699999999996 0.16208099999999998 0.50713 -1.1154929999999998 0.305176 -0.44828100000000004 -1.297819 -0.5767450000000001 -1.1260820000000002 0.37351500000000004 -2.047787 -0.17853599999999997 2.226989 1.119608 -0.126141 -0.7820309999999999 0.385648 2.0616120000000002 -0.31478100000000003 -1.853497 -1.4280760000000001 -0.05504999999999999 0.641064 0.43123800000000007 1.48223 -1.046935 1.029217 -0.460319 -0.40870399999999996 0.05649 2.862714 -0.54411 -1.3415300000000001 0.135222 -0.44847800000000004 1.964187 -0.42161000000000004 0.224663 0.34579499999999996 -1.3770390000000001 -0.029892 -1.762175 -0.34905300000000006 0.10072599999999998 0.903422 1.737515 -0.43360199999999993 1.5643799999999999 -0.351349 -1.897051 -1.792438 -1.233527 -1.032828 2.059151 -0.766794 -1.624635 0.881737 1.2904339999999999 0.148523 1.594331 -1.124469 1.152185 0.6035969999999999 1.5239040000000001 1.0861509999999999 -1.508991 -1.760083 0.6447039999999999 0.5084960000000001 1.360339 0.519939 0.42663300000000004 -1.1837980000000001 -1.9732949999999998 -1.139195 0.10837300000000005 -0.416212 0.787379 1.7158410000000002 0.35650899999999996 -1.87759 0.8422350000000001 0.54127 0.202144 -0.373064 -2.5415349999999997 -1.286259 -0.396211 -1.089182 -1.057939 -0.25424099999999994 -1.267516 -1.271524 -0.303481 -1.221606 -0.893035 0.409444 0.929806 1.1567310000000002 -0.555436 1.931656 0.189641