weight.this 0.03285099999999999 0.12625899999999998 -1.061747 0.27948700000000004 0.30732499999999996 -0.433232 -1.2677239999999999 -0.4524480000000001 -0.33939 -0.755976 0.917902 -0.250035 1.819323 2.1999269999999997 0.893901 -2.205724 0.764582 -1.150887 0.61182 -1.869193 0.03922300000000001 0.730799 -0.7330110000000001 1.089832 0.70289 -0.785219 0.743595 0.6583700000000001 -0.457489 -0.099323 -1.0622530000000001 -0.7341679999999999 -0.754067 -1.702236 -0.7058310000000001 -0.8774489999999999 0.793654 -0.283858 -0.956656 0.561706 -1.1516600000000001 0.987183 0.029976000000000003 -0.27829400000000004 -0.693901 0.416995 1.8390300000000002 0.13557199999999997 -0.393801 -1.052903 -0.10511399999999999 -2.146961 -1.6728770000000002 2.109918 0.8532090000000001 -0.711424 0.141237 0.23316199999999998 0.383466 0.735982 -0.7453540000000001 0.19377199999999994 1.992096 -0.31162700000000004 0.131805 0.195519 0.44709000000000004 -0.24173599999999998 -1.267779 -0.16612700000000002 -1.266258 -0.40966 -0.8755649999999999 -0.8186329999999999 -1.6093009999999999 -0.441542 -0.326237 0.359814 -0.6185860000000001 0.253768 -0.667696 -0.557519 -0.727029 0.33767199999999997 0.39355 -0.736704 0.10413 -0.599115 -0.22119499999999997 -0.863615 -0.181179 1.435693 -0.13406400000000002 -0.457725 0.518895 0.760382 0.419959 0.715487 0.6504909999999999 -0.09784400000000001 0.399953 0.811701 0.7596769999999999 -0.31615 0.176469 0.11162099999999997 0.816176 1.190138 0.02314100000000001 -0.6220289999999999 0.15972999999999998 -1.079029 1.461535 0.659345 1.432776 1.0509300000000001 -0.9411769999999999 -0.40631300000000004 0.303931 0.51044 0.422773 0.313701 0.034413 -0.326218 -1.137728 0.608401 -0.9883299999999999 0.656081 -1.882558 0.35678499999999996 1.148287 0.342694 0.539586 -0.7072940000000001 -0.571254 -0.572238 0.5485169999999999 1.081513 0.6334310000000001 0.943064 -0.471101 1.185193 -0.06189199999999999 -0.997795 -0.027055000000000023 0.581024 0.12189799999999998 -0.40788499999999994 -0.20692 0.592452 -0.09768399999999999 -0.9868279999999999 0.991021 -0.225963 -0.501503 -0.966068 -1.5168270000000001 0.373306 0.21775099999999997 0.349947 1.230926 0.409301 0.42907 0.274566 -2.026608 -1.3129739999999999 0.47814600000000007 -0.822438 0.059815999999999994 -0.11680499999999999 -0.89767 1.692052 -0.576461 -0.267718 0.288777 -0.9903649999999999 0.80904 -0.430595 -1.0637940000000001 -1.170763 -0.544288 0.12378400000000003 0.501726 -0.03536500000000001 0.416088 -0.7920560000000001 -0.679389 0.6082179999999999 -0.18132399999999999 1.1510859999999998 0.37332 1.26872 1.719853 1.160161 -0.127979 -0.795331 0.570288 -0.325079 -0.195544 0.7689670000000001 -0.8926700000000001 0.641846 -0.9576209999999999 0.7940769999999999 -0.574421 -0.344583 -0.336109 0.13533699999999999 -1.878648 -0.050221000000000016 0.3481 -1.174582 0.589097 -0.592947 0.6272409999999999 0.30444899999999997 -1.327612 0.7449250000000001 -0.078431 -0.37783 0.483212 -1.542095 1.281814 0.958221 1.963012 -0.450052 0.5209360000000001 0.766401 0.998483 -0.525261 0.002002999999999977 -0.0022889999999999855 -1.2335019999999999 -0.637278 -0.537339 -1.6279350000000001 -0.961152 -0.06483 -0.16853300000000004 0.6154200000000001 0.5646329999999999 0.325562 -0.821172 -2.885926 -0.997169 0.9249240000000001 0.758254 -0.15328799999999998 -1.0573540000000001 -0.30358100000000005 1.707242 0.173246 0.060346000000000004 -0.05493399999999998 1.037347 1.423408 -0.49571199999999993 0.36712300000000003 -0.949602 0.25002900000000006 -1.423679 -0.860644 0.167985 0.15073300000000003 -0.657479 1.540449 -0.940928 1.445091 -0.13724800000000004 -0.8483130000000001 0.695727 -0.023422000000000002 -0.656144 0.328144 -1.238116 1.4692129999999999 -0.43581 1.137688 0.481531 0.160439 -0.9633929999999999 0.178024 0.148519 0.770137 0.11961300000000001 -1.281231 -0.636687 0.6034120000000001 -0.435133 0.372737 0.120002 0.933635 -1.082042 -0.063662 -0.26243099999999997 1.045872 0.37139 -0.110362 0.374791 -0.249769