weightless 0.414099 0.905223 0.254723 -0.29370599999999997 0.414352 -0.056946 -0.189123 -0.320384 0.04468100000000001 0.045729 0.55466 -0.371748 -0.03859 -0.386464 -0.11285399999999998 -0.0023839999999999972 -0.40025 0.475329 0.5926009999999999 -0.655704 -0.537718 -0.612689 -0.466234 0.218723 0.149367 0.498607 0.837831 -0.8528180000000001 -0.157657 -0.311362 0.629035 -0.5888 -0.32677100000000003 0.833445 0.688569 0.056171999999999986 0.5334380000000001 0.02258400000000002 0.364987 0.430143 0.7963040000000001 0.34510799999999997 0.209559 -0.30650299999999997 -0.682952 0.724565 -0.128489 0.136926 0.022715000000000003 0.125534 -0.078131 0.09034199999999999 0.20751999999999998 0.260691 -0.32369 -0.294819 0.14857399999999998 0.11340800000000001 0.042238 0.12048 0.435572 -0.43726699999999996 -0.12387199999999998 0.183956 0.080318 0.363996 0.469182 0.634071 1.177034 0.100755 -0.327548 0.09978 0.03981699999999999 0.41306299999999996 -0.636499 0.708243 -0.34550000000000003 0.7945260000000001 -0.576178 0.608607 -0.076955 0.28551699999999997 0.036925999999999994 0.37647600000000003 -0.485865 -0.22179100000000002 0.349966 -0.092595 0.642609 0.506965 0.264918 0.883038 0.264152 -0.10653500000000002 0.13229900000000003 0.416971 0.189086 0.320054 -0.7739640000000001 -0.079295 0.287033 0.394051 0.530652 -0.11420899999999998 0.40144100000000005 -0.367118 -0.41477600000000003 0.45453600000000005 0.756704 0.9663930000000001 -0.746209 0.37076600000000004 -0.187402 -0.523384 0.261961 0.452307 0.227481 -1.419989 0.34066 -0.23416700000000001 0.633669 -0.097593 0.07055800000000001 -0.143699 -0.091882 -0.09101599999999999 0.499046 0.21448699999999998 -0.03755799999999998 -0.091647 -0.430366 -0.11668899999999999 -0.17160499999999998 -0.607962 -0.556054 0.279858 -0.443685 -0.142268 -0.345009 0.04557 0.042228999999999996 -0.504205 -0.36953499999999995 -0.127025 -0.021724999999999994 0.015392 0.099467 -0.404175 0.479752 -0.131135 -0.17333199999999999 -0.172234 0.672392 0.053445999999999994 -0.290789 -0.189071 -0.21238600000000002 0.502312 -0.143073 -0.153835 -0.313272 0.442868 -0.993671 0.817959 -0.281564 -0.313296 0.147952 -1.220118 0.166746 0.199507 0.397383 0.142654 -0.9246559999999999 0.038187 0.16859999999999997 -0.040173 -0.16475599999999999 -0.789158 0.19268 -0.492673 -0.356802 -0.14514899999999997 0.09926399999999999 0.157534 0.260259 0.091263 0.281291 -0.029869000000000007 -0.019296000000000008 -0.163882 0.265054 0.305606 -0.101472 -0.17465099999999997 -1.005573 -0.600174 -0.63472 -0.63687 -0.615481 -0.5486179999999999 -0.010852 -0.32221500000000003 0.679089 -0.8739650000000001 0.034359 -0.49765099999999995 0.199989 -0.240985 0.347491 -0.291134 0.42857999999999996 1.2434180000000001 -0.861005 0.516016 0.39431099999999997 0.11735100000000001 -0.011223 -0.342903 0.47115699999999994 0.1739 -0.160303 0.639085 -0.198985 -0.25227499999999997 2.2611879999999998 -0.853505 0.48071800000000003 -0.407257 -0.063604 -0.46099199999999996 0.304039 0.47530799999999995 0.07399600000000002 0.845743 -0.392268 -0.185747 -0.007948999999999998 0.532729 -0.23148000000000002 0.245523 -0.117574 0.13583 0.710226 0.09612399999999999 0.620363 -0.235026 0.8152440000000001 -0.15378199999999997 0.344786 -0.464306 0.29662900000000003 0.198542 0.153533 -0.160801 -0.6269629999999999 -0.72442 0.061977000000000004 -0.607586 -1.069012 -0.055451 0.529082 0.297744 0.078134 0.23444900000000002 -0.270524 0.521765 -0.471422 -0.8925799999999999 0.751541 0.017455 0.10823699999999999 -0.254781 0.039865 -0.161966 -0.448745 0.507636 0.224908 0.364611 -0.013284999999999991 0.23318 -0.24039700000000003 0.531774 0.41408300000000003 0.257618 0.35708 -0.089794 0.7650239999999999 -0.133679 0.6540779999999999 0.060559 0.701466 0.445986 0.48817699999999997 0.11001700000000002 -0.11300199999999999 -0.279194 -0.14986099999999997 0.037343999999999995 -0.14562200000000003 0.252177