weightworld.uk -0.009445000000000009 -0.48408799999999996 -0.18639199999999997 -0.07799600000000001 0.9027379999999999 -0.20992 -0.301806 -0.07609499999999997 -0.969722 0.20025800000000002 -0.240632 0.771264 -0.174099 0.29817899999999997 0.526616 -0.018658000000000008 0.5312790000000001 -0.40885900000000003 -0.367162 -0.256174 -0.489961 -0.506219 0.232403 0.73602 0.6173960000000001 -0.377636 -0.319399 -0.00020600000000000132 0.263453 -0.252498 0.40602900000000003 -0.325367 0.529811 -0.16842299999999996 0.049679 -0.35440200000000005 0.747077 -0.36452500000000004 -0.13455399999999998 -0.253096 0.311381 0.021397 0.623081 0.67232 -0.14764300000000002 -0.224997 0.309492 0.129411 -0.48435799999999996 1.693931 -0.42123499999999997 0.347253 0.6537679999999999 -0.323945 -0.380762 -0.16755599999999998 -0.123582 0.568474 -0.636775 -0.252575 -0.390582 0.06359100000000001 0.871855 -1.038651 0.514056 0.16963100000000003 -0.5756760000000001 -0.140469 -0.465387 -1.483329 0.20067000000000002 -0.862432 0.15956399999999998 -0.6589200000000001 -1.101088 0.469864 -1.673244 0.07996199999999998 -0.968329 -0.605329 0.185175 0.680953 -0.643718 -0.822731 -0.5257069999999999 -0.44788300000000003 0.21597300000000003 0.272122 0.139256 -0.713196 -0.627523 0.991314 -1.150608 0.21896200000000002 -0.5137470000000001 0.506795 0.298315 0.265956 0.958573 -0.930628 0.346449 -0.15171400000000002 -0.18317299999999997 -0.581649 -0.165061 0.251846 0.756472 1.313228 -0.515791 0.26077400000000006 -0.12783699999999998 1.27968 -0.244265 0.897886 0.434959 0.7155419999999999 0.317526 0.907307 0.06146099999999999 0.008 -0.12209799999999998 -0.555668 0.77149 -0.834337 0.5447609999999999 0.633227 -0.26827999999999996 0.12019900000000001 -0.938068 -0.126039 -0.0072540000000000104 0.28978400000000004 -0.487958 -0.019562999999999997 1.555766 0.664339 -0.617132 -0.08888400000000002 0.694888 1.097792 -1.3348369999999998 0.626475 1.165218 -0.866482 -0.375433 -0.5607 -0.78443 -0.18970700000000001 -0.638231 0.449597 -0.344998 0.080508 -0.737082 -0.26793000000000006 -0.730815 0.48098300000000005 0.202272 0.18658 -0.29118299999999997 0.95214 0.486464 -0.667227 0.135127 -0.43343600000000004 -0.522789 -0.169268 -0.25518399999999997 0.566927 -0.856519 -0.203179 0.780954 0.766707 0.17902600000000002 0.26965300000000003 0.441172 -0.681254 -0.146102 0.051558999999999966 -0.154518 -0.366209 0.763199 0.23723799999999998 0.7433730000000001 -1.3792149999999999 -0.5705830000000001 0.15916299999999997 -0.592634 0.39083 -0.920466 0.5237539999999999 0.500652 0.278496 1.102328 -0.21700799999999998 -0.825453 0.635094 0.38650100000000004 -0.48595999999999995 -0.795383 -0.483288 -0.04033599999999998 0.051514000000000004 0.09376699999999999 0.509136 0.620211 -0.376008 -0.05912700000000004 0.221777 -0.5168699999999999 -0.21091700000000002 -0.294752 -0.733949 0.188214 0.196293 -0.221083 -0.8338730000000001 -0.019005000000000008 0.987301 -0.052345999999999976 -0.424694 -1.343114 0.36099999999999993 1.020187 -0.235154 -0.556122 -0.5728930000000001 -1.0509879999999998 0.410987 -0.868204 0.051559999999999995 -0.033584 -0.24656999999999996 -0.20213199999999998 0.354726 -0.12014600000000003 0.092955 0.33022399999999996 0.564997 0.8708419999999999 0.18200299999999997 -0.781157 0.17302700000000001 -0.382192 0.504983 0.758091 -0.4874 -0.06531699999999999 -1.123016 -0.575117 0.638671 -0.23131799999999997 0.188767 0.716503 -0.505408 0.616657 0.84095 0.162163 0.22411 0.7141390000000001 -0.352039 0.056073999999999985 -0.16109099999999998 -0.922321 -0.24456400000000003 1.058366 0.535094 0.583682 -0.04775900000000005 0.420393 0.246757 0.420241 -0.294988 -0.4741449999999999 0.620621 0.033828000000000025 0.964118 -0.39880899999999997 -0.137208 0.5840810000000001 -0.30033499999999996 -0.0761 0.016749999999999987 0.10713200000000003 -0.026756000000000002 1.391251 0.507363 -0.467708 -0.023035 0.456162 0.08382900000000001 -0.189052 0.328908 0.706471 0.189079 0.8834540000000001 -0.206511 -0.334914 0.5701989999999999 -0.403126 0.514009