weighty 0.08363399999999999 -0.208702 0.098786 -0.039162 0.21091100000000002 -0.42216 0.012320999999999999 0.361084 -0.0016280000000000044 0.006512000000000018 -0.376338 0.134052 0.078015 -0.016700999999999994 -0.161836 0.29185 0.037868 -0.207518 -0.10144500000000001 0.137136 -0.034637 -0.387117 0.11771199999999998 -0.15722000000000003 0.011962 -0.027344999999999998 -0.49221299999999996 0.24647400000000003 0.07217100000000001 -0.265649 -0.327753 0.24007299999999998 -0.29361699999999996 0.817719 -0.134721 -0.063261 -0.005303999999999989 -0.207013 0.068656 -0.19732899999999998 0.215666 -0.052601 -0.252334 -0.431116 0.283313 0.425937 0.524354 0.279509 -0.110468 -0.049637999999999995 -0.43058399999999997 -0.08498700000000001 0.067845 -0.460264 -0.061050999999999994 0.068488 -0.06664799999999999 0.196926 -0.19112800000000002 0.26088 0.236489 -0.28050600000000003 -0.323617 0.322858 -0.19469699999999998 -0.10399399999999998 0.199117 0.755 0.24925000000000003 0.569708 -0.02585 -0.252363 -0.271082 -0.190827 -0.147839 0.40139199999999997 0.19684400000000002 0.818752 0.06497800000000001 0.10941300000000001 0.726715 0.702037 -0.25842 -0.241325 -0.608826 -0.211028 0.09362000000000001 -0.280452 1.097432 -0.270628 0.11755199999999999 -0.187476 -0.10949500000000001 0.29206 0.52364 -0.533194 0.33294 -0.262532 -0.303365 -0.457919 -0.58275 0.24682300000000001 -0.09071399999999999 0.10604100000000001 0.646582 -0.41062 0.648526 -0.391226 -0.014679 0.618653 -0.212623 -0.10292799999999999 -0.234468 -0.144158 -0.060025999999999996 0.497139 -0.155652 -0.419621 -0.271134 -0.35188200000000003 0.8513350000000001 0.216608 0.215074 0.0037800000000000056 0.628567 0.09602700000000002 0.525096 0.251971 -0.023009 -0.356995 0.40274 0.082782 -0.297145 -0.288921 -0.18527 -0.338521 -0.43000900000000003 0.17375400000000002 -0.531665 0.084293 -0.239466 -0.459057 0.002148999999999998 -0.10593 0.47985500000000003 -0.413611 -0.253863 -0.193583 0.00260100000000002 0.196052 0.571834 0.26581899999999997 0.09733999999999998 0.102216 0.20308900000000002 -0.53186 -0.10139599999999999 0.19281399999999999 0.046749 -0.437192 -0.049673 -0.276752 -1.768675 0.083037 -0.209163 0.330795 0.295525 -0.320996 -0.05630699999999998 -0.061432 0.448929 -0.259187 0.21232399999999998 0.274797 -0.28727199999999997 0.074108 0.10505600000000001 -0.22315900000000002 0.252727 -0.053091 -0.31200700000000003 -0.131153 0.019684 0.5352399999999999 0.179506 0.474623 0.176472 0.231815 0.021137000000000003 0.09477899999999999 0.40476 -0.43167 -0.124524 0.19497699999999998 -0.746951 -0.731966 -0.015870000000000002 -0.34135 -0.104741 -0.52718 -0.239253 -0.029917 -0.063244 -0.07408400000000001 0.284748 -0.42059 0.32272599999999996 -0.06892999999999999 -0.19400799999999999 -0.178181 -0.43676699999999996 0.564853 0.33684000000000003 -0.371742 0.148445 -0.929148 0.35337 -0.06720200000000001 0.12265 0.280232 -0.211548 0.186087 -0.143266 -0.51468 2.146804 0.016128999999999998 -0.33469699999999997 -0.328905 -0.115311 -0.493537 -0.46170500000000003 0.441541 0.04342900000000001 0.586497 -0.405915 -0.096753 -0.494408 0.409638 -0.023832999999999993 -0.059072000000000006 0.21471 0.234594 -0.54669 -0.713409 0.63703 0.037345 0.055281 0.32857 -0.850357 -0.285193 0.026342000000000004 0.01721800000000001 -0.349762 -0.152117 -0.31876000000000004 -0.44353600000000004 0.398196 0.33798 -1.776164 0.297807 0.525961 -0.064604 0.021875000000000006 0.129854 0.07749500000000001 -0.26479 -0.741988 0.067577 -0.04838399999999998 -0.5104489999999999 0.021299 -0.173684 -0.232385 -0.196928 -0.638936 -0.173489 0.425242 -0.12786 -0.227423 0.172493 0.04792999999999999 0.299577 -0.303422 0.1114 -0.159948 -0.103832 -0.010484000000000021 -0.0038119999999999994 0.245759 -0.588918 0.539566 -0.007398000000000002 0.914345 0.150669 -0.460246 -0.12150699999999999 0.17435 0.23167300000000002 -0.140929 0.439002