weightwatchers.com 0.57484 0.015390000000000001 -0.12798199999999998 0.070921 -0.38739799999999996 -0.180257 -0.783126 -0.763438 -0.6717770000000001 -0.331494 -0.463735 0.022431999999999994 0.636455 0.5798340000000001 -0.838947 0.215368 0.47951900000000003 -0.099018 0.11206700000000003 0.16624700000000003 -0.275731 0.422566 -0.601046 0.754989 0.528496 -0.805323 1.082606 -0.373313 -0.324095 -0.5850139999999999 -0.45803 0.021839000000000004 -0.016493000000000008 0.19124300000000002 -0.664871 -0.077141 0.167294 -0.059085 0.49373 0.097213 0.21710800000000002 -0.19998299999999997 0.12284699999999998 -0.389714 -0.04900100000000002 0.120166 0.747439 0.078179 -0.751329 0.44912 0.216746 -0.15983199999999997 -0.67093 0.8502759999999999 0.20558099999999999 0.64891 0.17551700000000003 -0.337568 0.352745 0.026642 0.30201 0.803884 0.241625 0.438005 0.348673 1.424488 0.585905 0.203825 0.5713199999999999 -0.510786 0.896582 -0.605249 0.14689200000000002 -0.20918799999999999 0.197934 0.210523 -1.0268270000000002 0.579026 -0.305404 0.169118 0.4540700000000001 1.4840710000000001 0.782648 0.417989 -0.5630029999999999 -0.872574 0.520187 -0.427208 -0.22429500000000002 -0.169987 0.562913 -0.417848 0.227203 -0.028630000000000003 -0.30631200000000003 0.16395700000000002 -0.649424 -0.41867699999999997 0.204625 0.34268699999999996 -0.03674700000000003 0.13737299999999997 -0.662732 -0.015522000000000008 -0.205912 0.12753699999999998 -0.647406 -0.257555 -0.286477 0.16074000000000002 0.04048200000000002 -0.629566 -0.08668200000000001 0.188495 0.196384 -0.529703 -0.28389 0.957788 0.299763 -0.016901999999999986 0.217852 -0.064454 -0.463328 -0.366103 -0.711926 0.183207 -0.186802 0.145427 -0.29255200000000003 -0.011894000000000016 0.328868 -0.316338 0.25845300000000004 0.633925 0.189309 -0.291246 -0.345999 0.639512 0.036248 -0.005566999999999989 -0.513441 0.18358400000000002 0.06706100000000004 0.281118 1.136623 0.506182 -0.44588400000000006 0.096903 -0.015950999999999993 -0.07590400000000003 0.20815899999999998 -0.8503470000000001 0.7324670000000001 -0.24928299999999998 0.510523 0.10871200000000003 -0.45700700000000005 0.48264799999999997 0.178661 0.553858 -0.202159 -0.522874 0.132901 -0.196469 -0.204336 -0.114144 0.5410029999999999 -0.045148999999999995 0.207043 -0.009333999999999995 0.628365 0.885764 -0.282567 -0.478094 0.20578 -0.096942 0.852732 -0.049865999999999994 -0.833342 -0.500432 0.742084 -0.05560699999999999 0.8224290000000001 -0.364261 -0.644021 -0.25060499999999997 -0.006283 0.16175099999999998 0.04989400000000001 -0.521046 0.294905 -0.128607 -0.349539 -0.664577 -0.651059 0.04365999999999998 0.437672 0.193561 0.569283 -0.735712 -0.488261 -0.318136 0.321146 0.188485 -0.123182 0.45581099999999997 -0.545031 0.12654200000000002 0.352466 -0.771364 0.476942 -0.496601 -0.970788 -0.280629 0.09169000000000001 -0.6436200000000001 0.162309 -0.429303 -0.37839100000000003 -0.10876399999999999 0.00873199999999999 -0.845486 0.230529 0.174566 0.535243 -0.573022 -0.10812899999999999 0.5263760000000001 -0.12872299999999998 -0.362054 -1.1089259999999999 -0.30333 -0.596295 0.356487 -0.16992700000000002 -0.61136 -0.037598 -0.778452 -0.509626 -0.40096200000000004 0.22084600000000001 0.10548200000000002 0.492733 0.197808 -0.875283 0.019726 0.22838799999999998 -0.412096 -0.290337 -0.21385600000000002 0.16490299999999997 0.269445 -0.28884 -0.36235300000000004 -0.059092000000000006 0.6756610000000001 0.9852649999999998 0.446726 -0.7932939999999999 -0.21155100000000002 0.207796 0.624242 -0.784368 0.315418 -0.039955000000000004 0.20150500000000002 -0.05402900000000001 -0.294031 -0.09365100000000004 -0.507717 0.082967 0.131923 0.21669699999999997 -0.07308300000000001 0.688029 -0.400716 0.204293 0.680712 0.285787 -0.15092899999999998 -0.03180999999999998 0.14878199999999997 -0.307017 -0.30003199999999997 0.333294 0.166249 -0.125372 0.416775 0.151174 0.077132 -0.033499 0.828645 -0.27144 -0.755241 -0.6523540000000001 -0.026807000000000025 0.07490799999999997 -0.27262 -0.117811 -0.083992