weightlift 0.614436 -1.4365839999999999 -1.125964 -0.5784100000000001 1.235148 -1.1968299999999998 1.052559 -0.5884849999999999 -0.429697 -2.098192 0.146926 -3.461905 0.1421070000000001 -1.210065 0.866179 -0.916248 -0.122174 -1.654792 0.442601 -0.626864 1.144457 0.619244 -1.9998989999999999 -2.16045 0.007870000000000002 -0.432736 0.8487619999999999 0.790065 -0.199188 0.321363 0.43748899999999996 -1.884842 0.46475900000000003 1.3500670000000001 -1.196015 0.244337 -0.995485 -0.11447600000000002 0.113326 1.879925 -2.120775 2.949241 -1.7128389999999998 -0.767604 0.432408 0.332774 1.2826300000000002 -0.33409700000000003 -0.500257 -0.41886999999999985 -1.460358 2.443484 1.286807 0.40142700000000003 3.711843 0.132498 1.344932 0.452595 -0.6451650000000001 -0.313681 -0.05114799999999997 0.800514 -3.10493 -2.4252320000000003 0.836645 3.991404 -0.227943 0.88866 -2.590949 0.50044 0.9004789999999999 0.499018 0.7539290000000001 1.3032469999999998 0.169319 -1.003188 1.046004 0.622618 2.082963 0.4863280000000001 0.345876 -0.21333600000000003 0.273966 -1.793597 -3.771324 0.624314 -0.11760599999999999 0.033801 -0.823518 0.21255599999999997 -0.580757 -1.192819 0.021115999999999968 1.20329 -1.212439 0.18966800000000006 0.8417239999999999 1.3245559999999998 0.34128400000000003 0.476048 0.587011 0.19532400000000005 -0.23943000000000003 -2.466096 0.300701 3.197574 1.1059750000000002 -2.103704 -0.338471 -0.06506200000000001 0.600611 -1.3426690000000001 0.744427 0.622888 -0.616427 0.968817 -0.405818 0.23629900000000004 0.28054500000000004 0.61138 1.933596 0.666717 1.882173 -0.286266 -0.5266529999999999 0.46457400000000004 -0.19879800000000003 0.16503 0.07525299999999999 0.49731899999999996 0.364815 -0.471456 -0.390528 -1.2917100000000001 -3.334517 4.060016 -2.4282690000000002 1.204288 0.701108 0.095637 0.756467 -1.6244830000000001 -0.217007 1.025921 0.11537200000000003 1.276965 -0.269243 0.5013449999999999 0.40052200000000004 -0.278671 -0.14117000000000007 0.33339799999999997 0.812903 0.3077599999999998 0.48007 0.5625240000000001 -0.652397 -1.451236 -1.203324 -0.340756 0.29950299999999996 0.7814030000000001 -1.444581 0.344897 -1.127071 -0.094136 -1.170248 -1.7429709999999998 0.5928190000000001 -0.45328100000000004 1.0422639999999999 1.267789 -0.25788 -0.7764409999999999 1.611634 0.758086 1.445284 -0.14427500000000001 -0.6948259999999999 -2.827168 0.07403199999999999 -1.074041 -0.10205700000000001 2.238651 -2.371159 -0.456307 0.478886 0.785932 0.44197 0.003382999999999914 -0.766706 -0.07960500000000004 -1.663285 2.367865 -0.42735900000000004 0.616455 0.4312069999999999 2.616913 1.957078 -0.559645 -1.1024460000000003 -1.449813 2.132668 -0.327098 -1.58289 0.826541 -3.2025230000000002 -0.9043129999999999 1.3869170000000002 2.668356 1.019414 0.8260770000000001 0.14341700000000002 -0.13914500000000002 -0.130598 0.030052000000000023 1.213691 0.06615299999999996 -0.37244099999999997 0.143565 -3.778336 -1.229401 0.693485 -0.9342490000000001 0.432315 1.340303 -0.3882009999999999 -0.832731 -1.24728 0.052316999999999995 -1.271579 -0.43454099999999996 -1.1648939999999999 1.373592 1.3601420000000002 1.311902 -0.3602350000000001 -1.5110299999999999 -0.404871 0.583511 -0.15782200000000002 3.9984599999999997 0.380372 0.578879 -2.752591 -0.422963 0.8677480000000001 0.28497199999999995 -0.7666319999999998 0.7340089999999999 2.208235 0.461944 -0.28000700000000006 -0.898595 -1.9297429999999998 0.853372 -0.62006 -0.646711 -0.08823700000000001 1.309029 -0.48846399999999995 1.1415250000000001 0.046428000000000025 -0.0583800000000001 -1.826379 0.200986 0.116275 -0.774023 -0.718405 0.7693380000000001 -1.4046889999999999 1.0376750000000001 2.650194 -1.103202 1.306676 -0.33709500000000003 -1.104443 -2.764519 1.083467 -0.781729 0.941797 1.261774 -0.436758 -0.05957600000000007 -0.292477 -0.932106 -1.720947 0.228383 0.513413 0.448923 0.36393400000000004 0.951319 -0.45518400000000003 -0.8173940000000001 0.475882 -1.922771 2.278424 -1.383329 -0.10664200000000001 -0.18174200000000001