weightloss 0.043298 0.285535 0.20056400000000002 -0.30645900000000004 0.501104 0.054412 0.057332999999999995 -0.09659899999999999 -0.08673699999999998 0.5142990000000001 0.31118599999999996 -0.753315 0.205602 -0.584505 -0.092622 -0.113119 -0.481109 0.38767 0.412768 0.284956 -0.702901 -0.6226160000000001 0.013096999999999998 -0.222926 0.34072800000000003 0.518606 0.031598999999999995 -0.776143 -0.301627 -0.24043799999999999 0.19865700000000003 0.11009100000000001 -0.290072 -0.038914000000000004 0.014613000000000001 -0.747812 0.396803 0.836336 0.234199 0.573005 0.6533 0.022753999999999996 0.046044 0.310796 -0.47025700000000004 -0.662141 -0.058976 1.015861 0.03448599999999999 0.948569 0.126417 0.18145499999999998 -0.822238 -0.136043 -0.139627 -0.270629 -0.252522 -0.0076950000000000005 0.028896 1.2207189999999999 -0.094728 0.607209 0.11981 0.231989 -0.444392 0.6903189999999999 0.417793 0.47602300000000003 0.466267 -0.205619 -0.455202 0.4163 0.70711 -0.244532 0.295337 -0.09228700000000001 -0.671094 -0.420809 0.431419 0.689192 0.17255500000000001 0.334417 0.7071320000000001 -0.08601899999999998 0.231165 0.12575400000000003 0.0026650000000000007 -0.443684 0.063683 -0.275937 -0.921662 -0.059706 -0.17676999999999998 -0.468433 -0.09287000000000001 -0.05162599999999999 0.378496 -0.692205 -1.111373 -0.980167 0.96033 0.731994 -0.6305810000000001 0.650617 -0.11060600000000004 0.567636 0.5934699999999999 -0.623372 -0.30430999999999997 0.320324 0.321372 0.427383 0.212708 0.499235 0.321847 0.628067 0.540269 -0.8265419999999999 0.010120999999999991 -0.016901999999999993 1.241667 -0.18387699999999998 -0.169578 -0.208948 0.406435 0.430241 0.15751300000000001 0.937288 -0.826462 0.364602 -0.220473 0.8179590000000001 0.49658900000000006 0.354699 0.57412 -0.025201 -0.518931 -0.617436 0.27272 0.229431 -0.439802 0.488306 -0.331771 0.216031 0.254155 -0.194284 -0.18284999999999998 0.174967 0.403822 0.081414 0.07728500000000002 -0.23284399999999994 0.423923 0.268722 0.437302 0.453247 -1.1079379999999999 -0.620731 0.610636 0.31957199999999997 0.012567999999999996 -0.07621900000000001 -1.607564 -0.37953099999999995 -0.07236000000000001 0.36173999999999995 0.18826299999999999 0.33754700000000004 -0.34587900000000005 0.099533 0.07258999999999999 1.135065 0.8181 -0.6843889999999999 -0.679884 0.6015199999999999 0.02202699999999999 0.43824300000000005 0.193061 -0.094265 -0.23890699999999998 -0.516694 0.722406 0.7753680000000001 0.540692 -0.081273 -0.435841 -0.09785900000000002 -0.018112 0.094419 -0.193733 -0.12356099999999998 0.5703440000000001 0.41059100000000004 -0.81357 0.225298 -0.018691999999999986 0.218094 -0.183848 -0.127761 -0.428141 -0.017690999999999985 -0.060703 0.258308 0.07480400000000001 -0.15728899999999998 0.062395 0.142066 -0.14131 -0.06889999999999999 0.575807 1.1752150000000001 0.045327000000000006 0.271863 -0.09698100000000001 -0.683166 -0.410548 -0.128823 -1.363221 -0.22748 0.423579 -1.021955 0.85677 -0.345817 1.555934 -0.600697 -0.08948899999999999 0.25502199999999997 0.06730800000000003 -0.431767 -1.0543010000000002 0.16308899999999998 0.17882600000000004 0.534062 0.059662999999999994 -0.105363 -0.08479600000000001 -0.48860099999999995 -0.02602399999999999 0.572947 0.159516 -0.214223 -0.297241 -0.435703 0.11069899999999999 0.581348 -0.38624 0.07596 -0.342454 0.064217 -0.06515499999999999 1.028136 -0.257901 -0.471161 -0.42490700000000003 0.5848909999999999 0.471059 0.046037999999999996 -0.850689 -0.309232 0.505993 0.26510100000000003 -0.322051 1.138774 -0.5260199999999999 0.37440100000000004 -0.463595 0.234807 0.18171600000000002 -0.27919099999999997 0.06760100000000002 -0.8700319999999999 0.057047 0.358544 0.341552 0.08480599999999999 -0.642439 0.257189 0.039367 -0.575268 -0.344545 0.059445 -0.320762 0.518253 -0.175341 -0.22998599999999997 0.454557 -0.527933 0.298512 -0.179073 0.493209 0.942197 -0.059036000000000005 0.304765 -0.067868 -0.026348999999999997 0.409755 -0.20166499999999998 0.421485 -0.08002499999999999