weightbearing -0.25910099999999997 0.5509 0.142405 -0.998872 -0.454594 -0.22951600000000003 -0.575083 -1.087946 -0.471151 0.194708 0.811533 -0.446615 0.555348 -0.5788300000000001 0.21476800000000001 0.198926 -0.340356 -0.611494 0.271731 -0.49265200000000003 -0.23710799999999999 -0.213742 0.146033 -0.245989 -0.10637899999999997 0.130853 -0.11797799999999997 0.22829099999999997 0.7586390000000001 -0.976726 -0.07308999999999999 0.061903000000000014 -0.075776 0.10492100000000001 0.20204699999999998 0.622307 0.699875 0.11769800000000001 0.07866100000000001 0.153916 0.20923900000000004 -0.405896 -0.099405 0.225536 -0.277214 0.329236 0.283385 -0.497888 -0.517216 1.013538 -0.36322400000000005 -0.635827 -0.227795 -0.486943 0.10486600000000001 0.809444 0.12900199999999998 -0.840622 0.366296 0.865249 0.28621 0.021441000000000016 0.91195 -0.372273 0.369464 0.152537 0.223033 -0.41130300000000003 0.04713499999999998 0.69363 0.831727 0.8404659999999999 -0.948771 -0.45632100000000003 -0.22732399999999997 -0.41705499999999995 -0.043831999999999996 -0.20865 -0.004906999999999995 0.299875 0.156187 -0.146681 -0.21891500000000003 0.0034740000000000326 -0.271355 -0.760242 0.37498899999999996 0.396521 0.205528 0.8170769999999999 1.312418 0.22296999999999997 -0.5334909999999999 -0.43979900000000005 -0.134042 -0.694692 -0.79553 0.009848999999999997 -0.652433 -0.14779 -0.318807 -0.056511000000000006 -0.973335 0.08308199999999999 -0.441498 0.13419299999999998 -0.0006140000000000034 1.0611380000000001 -0.284002 -0.455132 -0.185666 0.15224100000000002 -0.053631 0.415623 0.8827019999999999 0.367273 -0.14644400000000002 -0.150197 0.8419840000000001 1.3656840000000001 0.576215 -0.747263 -0.043454 -0.45459700000000003 -0.902101 -0.419646 -0.351474 -0.44398000000000004 0.8336319999999999 0.082375 -0.49705099999999997 -0.38176000000000004 0.339851 -0.133831 -0.466491 -0.06361599999999999 -0.44775499999999996 -0.328826 0.324827 -0.697754 -0.051300999999999986 0.013690999999999981 1.067368 -0.46286800000000006 -0.580997 -0.026195999999999997 0.118762 -0.706631 -0.350876 0.074116 0.159878 0.552358 -0.197497 -0.0011450000000000071 1.533514 0.613864 -0.554071 -1.375276 0.350707 0.20803900000000003 -1.2778809999999998 -0.737321 -0.730908 0.518595 0.7104809999999999 0.13481800000000002 0.07754 -0.991967 0.611726 -0.07372499999999998 -0.510725 -0.42026399999999997 -0.381758 0.8406480000000001 0.722867 0.570226 0.37754699999999997 -0.800384 0.275266 0.6868470000000001 -0.005758000000000013 -0.131112 -0.340005 -0.52154 -0.953066 0.46840400000000004 0.053427999999999976 0.026429000000000005 -0.521408 -0.086696 0.08736400000000001 -0.436379 0.07075199999999998 0.74344 -0.084693 -0.154742 -0.867416 -0.824688 -0.13164700000000001 0.016043 -1.254874 -0.324872 -0.7576499999999999 -0.20077700000000004 0.609737 -0.489613 1.748755 -0.246056 0.19450699999999999 0.09964399999999998 -0.071793 1.001307 0.192432 -0.35215399999999997 -0.320251 -0.40472700000000006 -0.8464740000000001 -0.7362029999999999 0.19011199999999998 0.6463340000000001 0.806238 -0.746076 0.722729 -0.365598 0.9710350000000001 0.199026 -0.26085100000000006 -0.903226 0.04370500000000001 0.065939 -0.8506549999999999 0.137392 -0.43212300000000003 0.794829 -0.688882 -0.062329999999999997 0.901011 0.582021 0.135743 0.153759 -0.04488400000000001 -0.364594 0.256009 -0.29784900000000003 0.01672 0.31162500000000004 -0.251872 0.05500700000000001 0.872682 -1.33215 -0.507461 -0.037662000000000084 0.778471 0.368139 -0.311635 0.207349 -0.702558 -0.06490199999999999 -0.24456999999999998 -0.11603799999999997 -0.079607 0.6582479999999999 0.28223899999999996 -0.11668500000000001 -1.02389 -0.417378 -1.136658 0.012359000000000009 -0.13183899999999998 0.598116 0.45474000000000003 0.095637 -0.35569700000000004 0.672022 1.191872 0.34118800000000005 0.36517700000000003 0.19103799999999999 -0.676032 0.24984399999999998 0.579175 -0.063222 -1.12286 -0.173011 0.224474 -0.610377 0.48851700000000003 0.959945 0.13161299999999998 -0.054106999999999995 1.571082 -0.520706 0.12642799999999998 0.23525300000000002 -0.65021 -0.17083600000000002 0.03595799999999999 -0.05384 -0.659552 0.16328399999999998