weightiness -0.362207 0.309505 0.577102 0.280167 0.146584 -0.523171 -0.06346700000000001 -0.576113 0.054109 0.338148 0.774724 0.130139 -0.280198 0.280683 0.03004499999999999 0.446172 -3.999999999998796e-06 0.144786 -0.16962 0.08946300000000001 -0.108908 -0.10111200000000001 -0.084828 -0.011008000000000002 -0.02369200000000002 -0.216055 -0.10925300000000002 0.11549699999999999 0.270287 -0.8401339999999999 0.34724099999999997 0.171233 0.07258999999999996 0.07468599999999999 -0.162893 -0.47304199999999996 0.249475 -0.28776 0.333379 0.521567 -0.550544 0.480499 -0.396899 -0.167471 -0.32006 0.44740500000000005 0.417202 0.593148 0.198294 -0.19825700000000002 -0.638272 0.326081 0.13146999999999998 -0.033721 0.253152 0.463978 -0.076116 0.896126 0.321161 0.708911 0.587594 -0.10130700000000001 0.215367 0.289825 -0.18358999999999998 0.14750000000000002 -0.15763699999999997 0.9929189999999999 0.337599 0.980083 -0.010078999999999977 -0.22558699999999998 -0.07030599999999998 -0.236568 -0.735094 -0.098038 -0.450719 1.063576 -0.04956100000000001 0.318677 0.398505 0.48589499999999997 0.159897 -0.034358000000000014 -0.06561600000000001 0.038388 -0.28790499999999997 0.06507200000000002 -0.027163999999999994 -0.495114 0.014988000000000001 -0.45745 -0.271123 -0.053062 0.774367 -0.410068 0.0048870000000000025 -0.276418 -0.8582529999999999 -0.725309 -0.517996 0.122442 -0.23597200000000002 -0.49279399999999995 1.013123 -0.757084 0.7366149999999999 -0.107931 -0.18342 0.456774 -0.430958 0.5681860000000001 0.36835799999999996 -0.152681 0.039563 0.958798 -0.64344 -0.101543 -0.427864 -0.151735 0.049001 -0.084197 -0.26070399999999994 -0.40669 -0.015079000000000009 0.733727 0.030862 0.08372 -0.18347000000000002 -0.270291 -0.272478 -0.02578 0.14046 -0.188476 -0.095675 0.24364599999999997 -0.22576400000000002 -0.277652 -0.148673 -0.124167 -0.030512999999999985 0.0020550000000000013 0.328475 0.059655999999999994 0.579799 0.004934999999999995 -0.07168699999999997 0.05280400000000002 -0.0034220000000000014 -0.237225 0.135082 -0.287351 0.531484 0.526651 0.19555799999999998 -0.226014 -0.6403730000000001 0.321148 0.599568 -0.478532 0.08845499999999998 -0.152101 -0.579739 0.600395 -0.432521 0.547483 -0.41332800000000003 -0.118836 0.745106 0.240645 0.17448200000000003 -0.051045 -0.11649799999999999 -0.10610000000000003 -0.12617599999999998 -0.22917099999999999 0.18261600000000003 -0.091993 -0.34708 -0.164937 -0.307848 -0.047048000000000006 0.37736800000000004 0.32395799999999997 0.11346399999999998 0.497027 0.348281 -0.47735299999999997 -0.444604 0.646495 0.053489999999999996 0.43932800000000005 0.060944 0.330634 -0.7684679999999999 -0.347016 0.359339 -0.7362519999999999 -0.20560799999999999 -0.030918 -0.207255 -0.124855 -0.46389499999999995 0.18815 0.08161099999999999 -0.419249 -0.321701 -0.295917 -0.558991 -1.049031 0.5309349999999999 0.835294 -0.08555899999999997 -0.330895 0.079457 -0.281243 -0.318123 0.373961 -0.20536499999999996 0.633149 -0.028816 0.027389 0.478082 -0.03619 1.682888 0.37071499999999996 -0.29177 -0.005077999999999971 0.369728 -0.19234500000000002 -0.397488 0.08898999999999999 -0.524305 0.820861 -0.19867 -0.082438 -0.015258999999999995 0.145835 0.054307999999999995 -0.20297 0.016511 0.34373099999999995 0.042451 -0.8567089999999999 0.560014 1.4295019999999998 0.39207400000000003 0.03492299999999998 0.018563999999999997 -0.8753070000000001 0.351216 0.481939 -0.534542 -0.303701 0.030886999999999998 -0.6231829999999999 -0.048951999999999996 -0.280648 -0.833625 0.225034 -0.04069299999999998 0.562974 0.26454900000000003 -0.261259 -0.252686 0.278096 -0.24853999999999998 -0.461965 -0.026629000000000014 -0.130008 0.070821 -0.35099199999999997 -0.560485 0.113207 -0.5192 0.363118 -0.22636199999999998 0.18271500000000002 -0.531481 -0.09389600000000001 -0.238503 0.05430900000000005 -0.19455 0.15255400000000002 -0.11598800000000001 0.289686 0.38433900000000004 0.21895799999999999 0.39058000000000004 0.16399799999999998 0.291208 0.498099 -0.134724 0.061688999999999994 -0.757952 -0.181413 0.605342 -0.35183600000000004 -0.09062200000000001 -0.218804