weightworld 0.217399 0.13643 0.19203399999999998 0.823592 0.764564 -0.427754 -0.508609 -0.569461 -0.496625 0.278018 0.561754 -0.12079499999999999 0.47221500000000005 -0.272228 -0.539465 -0.27718899999999996 -0.670606 0.03711299999999995 0.17915499999999998 -0.17471200000000003 -0.050183000000000005 -0.507097 -0.09997300000000003 -0.04892200000000001 1.32148 -0.81134 0.41596199999999994 0.03037200000000001 0.37497499999999995 0.06194500000000001 0.726273 -0.6370359999999999 0.618154 0.270969 -0.325112 0.561211 0.21950199999999997 0.49673 0.41977999999999993 0.449955 -0.20292100000000002 0.354216 0.232559 -0.105661 -1.078242 -0.45704399999999995 -0.178242 0.018996999999999986 0.343556 0.250469 1.296772 0.609954 -1.073956 0.102584 0.941522 -0.010786000000000018 -0.926607 0.973133 -0.613993 0.083011 -0.49179799999999996 0.186564 -0.496548 -0.268377 -0.530957 0.557546 0.15981299999999998 -0.34983300000000006 0.10649299999999998 0.22332000000000002 0.052776 -1.388461 0.702385 -0.677883 -0.57305 0.765544 -0.647694 -0.5689599999999999 -0.563866 -0.567065 0.13202400000000003 0.592488 0.12607999999999997 -1.139538 -0.906555 -0.032447000000000004 1.423431 -0.304867 -0.316625 -0.441815 0.10104399999999998 0.337269 -0.16840000000000002 -0.185439 0.16486499999999998 0.01916000000000001 -0.19363299999999997 -0.17071599999999998 0.23999899999999996 -0.362784 0.7906059999999999 -0.355093 -0.363864 -0.44838500000000003 -0.896942 0.05738300000000002 0.402548 -0.891151 -0.163146 0.028100999999999998 0.036441999999999974 0.835385 0.457738 -0.380916 0.7006870000000001 0.462681 -0.45757499999999995 -0.6097509999999999 -0.45892999999999995 1.104163 -0.27190800000000004 -0.07855899999999999 0.665139 0.28164300000000003 -0.07149000000000005 0.193381 0.63348 0.597313 -0.487859 0.356208 0.5972660000000001 -0.37213700000000005 -0.06633799999999998 0.45264899999999997 1.117422 -0.03809800000000001 -0.790635 -0.13847900000000002 0.148719 -0.056964000000000015 -0.402965 0.559787 -0.541801 0.05066900000000002 -0.027337 0.403296 -0.11233900000000001 -0.623151 -0.179705 0.34600699999999995 0.232719 -1.118628 0.46324699999999996 -0.503493 -0.143563 0.046308000000000016 -1.3024040000000001 -0.778025 0.391152 1.378384 -0.87807 1.073922 0.6605449999999999 -0.992799 0.467412 0.0006059999999999954 -0.045391 0.010855999999999998 -0.08563000000000001 0.368619 -0.643798 0.42663799999999996 0.013544 0.28075 -0.16339200000000004 -1.026113 0.562686 0.394204 -0.19819299999999998 0.854582 0.227222 -0.15526299999999998 -0.772514 0.3808380000000001 -0.060906000000000016 -0.233095 -0.894112 -0.02793000000000001 0.12129200000000001 0.8639209999999999 -0.236914 1.285097 -0.02842 0.198664 -0.680046 -0.022743 0.436725 0.28757400000000005 -0.7023619999999999 -0.82224 1.148631 0.261113 -0.782292 0.6093489999999999 0.38478999999999997 0.359931 -0.242734 -0.44199999999999995 0.004400000000000001 -0.24254400000000004 1.1641759999999999 0.416694 -0.670961 0.8898060000000001 0.435936 -0.07417400000000002 0.7120029999999999 -0.045014 -0.524297 0.5120560000000001 0.234507 0.03900200000000004 0.240323 -0.964383 0.34117200000000003 -0.14114300000000002 -0.385239 0.07166299999999998 -0.5426610000000001 0.03267900000000001 0.052993000000000005 0.484775 -0.53626 -0.217468 -0.20806000000000002 0.026582999999999996 -0.843307 0.268279 0.684842 -0.033526 -0.6190800000000001 0.332204 0.12455100000000002 -0.481745 0.648385 0.344754 0.408756 -0.17724399999999998 -0.82577 -0.277177 -0.579948 0.17982800000000002 -0.017502000000000004 -0.688476 0.43079100000000004 -0.572352 0.460736 -0.254325 0.050957999999999976 0.273065 0.958887 -0.280559 -0.08205299999999999 0.00991800000000001 -0.48117899999999997 0.240087 0.32270000000000004 0.416816 -0.45357099999999995 -0.7042349999999999 0.299308 -1.507905 0.163974 0.015304000000000012 1.3266769999999999 1.0658400000000001 0.40239 -0.045711 0.43474900000000005 0.497415 -0.344889 0.23142799999999997 0.10070899999999999 0.372672 0.8984129999999999 -0.37072499999999997 -0.3019 -0.029422999999999998 0.07000800000000001 -0.476286 -0.18296300000000001 0.24616200000000002 0.131675 0.496046 -0.086104 -0.163409 0.174412 -0.683037 -0.825627 0.111761