weightlossmeds 0.35620399999999997 0.450325 0.13342600000000002 0.525115 -0.175338 -0.570218 -0.695348 -0.26933 0.209792 -0.260845 -0.418072 -0.864519 -0.09955799999999998 -0.921929 0.163587 0.27136000000000005 0.331397 -0.141106 -0.22136200000000006 1.6124910000000001 -0.20639800000000003 0.5026930000000001 0.677089 0.23336900000000002 -0.01523400000000008 -0.046327 0.49197 -0.730394 -0.208932 -1.581739 0.6342340000000001 -0.407254 0.344835 -0.06911999999999999 0.11546699999999999 -0.24052099999999998 0.259273 0.259548 0.22097599999999995 0.803139 0.7928580000000001 0.381108 -0.346704 0.919181 -0.7036439999999999 0.251442 -0.09950099999999999 -0.137852 -0.34365 0.109584 -0.041156 -0.226413 -1.08616 0.45278199999999996 0.741232 0.671073 -0.21921600000000002 0.655837 0.23501899999999998 0.287033 0.33004199999999995 -0.291985 -0.07922000000000001 0.273579 -0.44376099999999996 1.5847799999999999 0.38504099999999997 0.816838 0.734415 0.070137 -0.142197 -1.086235 0.160564 -0.624748 0.11976099999999998 -0.173633 0.029134000000000007 0.5436840000000001 0.050901 -0.41574500000000003 0.472283 0.745194 1.249421 -0.01618 0.6066769999999999 -0.173277 0.8519300000000001 -0.038603000000000054 0.006180999999999999 -0.16372800000000004 -0.13120200000000004 0.364985 0.5652389999999999 0.038243 -0.021680000000000033 -0.123031 0.924706 -1.1928860000000001 -0.735477 1.205246 1.221143 -0.42552 -0.441492 0.10045799999999999 0.093638 0.32527 0.786359 -0.9055559999999999 -0.059822999999999994 -0.337171 0.17557499999999998 0.978043 1.2264590000000002 0.198085 0.9349320000000001 0.341418 0.48904600000000004 0.111548 0.496034 0.721584 0.373126 -0.524586 -0.18272000000000005 -0.17407400000000003 -0.217993 1.010916 0.0011940000000000006 -0.026225 0.11910599999999999 0.550825 0.211486 0.24557199999999996 -0.798621 0.718118 -0.323003 -0.458225 -0.741738 0.065253 0.5271 0.22896300000000003 0.150851 0.16739300000000001 0.304521 0.21548499999999998 1.791042 1.272491 -0.013509 -0.354278 1.065276 0.2552 -0.23317499999999997 0.03640000000000004 0.291657 0.7657499999999999 0.7105079999999999 0.345139 -0.137596 -0.281102 0.7204830000000001 0.596592 -0.459041 -0.6549159999999999 -0.269072 0.434785 0.11124400000000001 -0.08865200000000001 -1.013899 1.178632 0.639072 0.649292 -0.299711 0.5487650000000001 -0.410449 -0.652744 -0.584017 0.28964100000000004 0.356363 0.26146899999999995 -0.509383 -0.5728329999999999 0.70165 0.587759 -0.360343 1.144601 -0.15349000000000002 -0.356635 -0.296732 0.656604 -0.106831 -0.202595 -0.38326 -0.282916 -0.26148899999999997 -0.595861 -0.7841119999999999 -0.16033799999999998 0.587699 0.645912 -0.99 -0.690609 -0.09644300000000001 0.05060300000000001 0.619976 -0.425904 -0.04863000000000001 -0.5921080000000001 -0.26241899999999996 -0.08115 -0.0547 -0.740811 0.746842 1.329486 -1.16968 0.491647 -0.862853 0.34429299999999996 -0.883957 -0.611253 -0.559836 0.302591 0.12660699999999997 -0.7000500000000001 0.03821600000000001 -0.245909 0.726735 0.002910999999999997 -0.12462699999999999 -0.606211 0.05748800000000001 -0.43534 0.059135999999999966 0.635176 -0.668911 1.406171 -0.257047 -0.278956 -0.8320339999999999 -0.41288100000000005 0.452538 0.392483 0.6431469999999999 0.765961 0.019875000000000004 -0.08051199999999997 0.668533 1.441988 -3.900000000001125e-05 0.202078 -0.870307 -0.414823 -0.34930700000000003 0.14434999999999998 -0.08486700000000003 -0.037978 0.326198 0.14666700000000002 -0.015313999999999994 -0.04531 -1.0131700000000001 0.25284399999999996 -0.41825199999999996 0.687254 0.066013 -0.48829300000000003 0.113563 0.277225 -0.360081 -0.31530800000000003 -0.550778 0.04682300000000003 -0.433426 -1.087183 -0.215888 0.34703100000000003 0.19026 0.920721 0.928133 0.43153300000000006 0.440767 0.13746100000000003 0.17570099999999997 -0.120117 -0.50971 0.635665 0.134787 0.187845 0.32661599999999996 -0.469411 -0.03470999999999999 0.9066529999999999 0.789779 0.132343 0.283374 -0.10606600000000002 -1.021443 0.33689 0.392336 -1.391966 0.9962639999999999 0.11846500000000001