weightreduction 1.292976 1.2372649999999998 -0.301151 0.33487500000000003 -0.382842 -1.6287340000000001 -1.043913 -0.11652500000000002 -0.11039399999999999 -0.665648 -0.18345499999999998 -0.777494 -0.380608 0.855148 0.196414 1.2144059999999999 0.06856600000000002 -0.289029 0.645062 0.175837 -0.293083 0.31964499999999996 -0.13742800000000002 0.832481 0.45979200000000003 -0.319093 -0.238823 -0.11605700000000001 1.081385 -0.42093299999999995 0.575245 0.41865800000000003 0.865502 -0.589034 -0.24117300000000003 -0.09848599999999999 -0.06078600000000001 -0.478362 -0.069832 0.947217 0.128588 -0.47338499999999994 -0.253286 -0.022004000000000024 -1.016407 0.7377940000000001 0.8031870000000001 1.04714 0.597742 0.061416000000000026 -0.579875 0.78577 -0.541407 0.3219400000000001 -0.370795 0.12795 0.525181 0.334353 0.686097 -0.319256 0.769186 -0.6998800000000001 0.572858 1.076775 0.700105 1.366177 -1.534942 -0.1172 -1.611461 0.377912 -0.848309 0.46553199999999995 -1.106905 -1.907984 -0.584465 -0.713847 0.714664 0.650699 0.08435499999999999 -0.40893099999999993 0.6492370000000001 -0.404942 0.643798 0.6271960000000001 0.326218 -0.092358 1.0405010000000001 0.852693 0.103041 -0.19503599999999993 -0.057210000000000004 0.279185 -0.422954 -1.2675489999999998 -0.813665 0.883219 0.231902 -0.048159 0.588618 -0.8634029999999999 0.9011279999999999 0.6771469999999999 -1.341586 -1.057085 0.7966219999999999 -0.154472 0.9983139999999999 0.535891 0.67505 0.44091 0.271976 0.469658 0.220005 1.2733269999999999 -0.9804360000000001 1.087346 -0.94842 1.4960930000000001 -0.191944 0.146706 -0.9997880000000001 -0.14994399999999997 -0.024000999999999995 0.667838 -0.559067 0.902645 -0.346353 0.528497 -1.1671630000000002 -0.027566000000000007 -0.371201 1.024497 0.798971 -1.347684 0.555993 0.36956999999999995 0.06156900000000001 0.10215299999999994 0.254667 -0.541337 0.841074 -0.394643 0.0046690000000000065 -0.10645000000000002 -0.5376700000000001 0.25791600000000003 -0.6892579999999999 0.265883 1.2761550000000002 -0.9529829999999999 0.7521 -0.272223 1.00648 2.297093 -1.619783 0.50316 -0.743112 -0.009951 0.49388299999999996 0.409369 0.966753 -1.414126 0.282881 0.47852500000000003 0.102129 0.930905 1.027368 0.04303399999999999 -0.14006899999999997 0.249916 0.056478999999999974 -0.569572 -1.105539 -0.525843 -0.200587 -0.061398 0.7323350000000001 0.07195099999999999 0.6297079999999999 -0.922022 -1.181257 0.17171199999999998 0.785584 -0.16808099999999998 0.09294000000000002 -0.191984 1.1773989999999999 0.55766 -1.7069710000000002 0.48619500000000004 0.9701900000000001 -0.199445 -0.20411800000000002 0.932502 0.20615500000000003 -0.742807 -0.41668 -0.087189 -0.499813 -1.390832 0.637771 0.20883600000000002 -0.169713 0.719055 -1.00912 -1.5871490000000001 -1.0453430000000001 -0.9277869999999999 1.061574 0.409455 0.02284799999999998 -0.513949 -0.475263 -0.036304 -1.012441 1.074275 0.9657849999999999 -0.346185 -1.099356 -0.440524 -0.310205 -1.4253870000000002 1.171079 0.5296540000000001 1.332314 -0.8540719999999999 -0.8703350000000001 -1.049168 -0.6702049999999999 -0.339277 -0.9393799999999999 0.395191 0.140591 0.846916 -1.32804 0.002906999999999993 0.22897500000000004 0.30175199999999996 -0.73257 1.04197 0.08170000000000002 0.461014 1.314517 -0.701542 -0.10094099999999999 -0.248776 -0.382075 -0.273339 -0.009133000000000002 -0.350485 0.07070599999999999 -0.347069 -0.757636 -1.002131 0.94247 1.414295 0.767433 0.250502 -1.5033690000000002 0.18919999999999998 -0.07723100000000001 -0.22660899999999998 0.958944 0.233617 -0.0016939999999999733 1.2867199999999999 1.376769 -0.258511 0.039180000000000006 0.527047 0.542018 -0.427168 -0.8151079999999999 1.393973 1.6128019999999998 0.493371 -0.460782 0.47757400000000005 -0.766956 0.221067 0.069793 -0.04238799999999998 0.039309 0.409814 0.59658 0.766583 -0.512897 0.198536 1.048802 0.399812 0.87382 0.7003619999999999 -0.46503 0.288769 -0.522376 0.7279530000000001 -0.456534 -0.520504 0.42936399999999997 -0.277929