weightages -0.138148 0.286059 -0.821967 -0.136706 0.026009000000000004 -0.828057 -0.909609 -0.9410480000000001 0.36285600000000007 -0.023494 -0.20174799999999998 -0.870198 0.100908 0.871981 -0.277927 -0.426193 -0.305654 -0.307657 -0.30397500000000005 0.43709299999999995 0.409931 -0.894692 0.19270900000000002 -0.34082 -0.594242 -0.254942 -0.129601 0.246026 0.37814 -0.894566 -0.143199 0.027397000000000005 0.368996 -0.37891600000000003 -0.221274 0.020071000000000006 0.20084999999999997 0.235162 -0.499025 0.23286300000000001 -0.6157790000000001 1.1790129999999999 -0.7125509999999999 0.319425 -0.584238 -0.07096300000000001 -0.48255 0.7803629999999999 -0.06222000000000001 0.6713210000000001 0.119742 0.017497999999999903 -0.366278 -0.20476699999999998 -0.40598 0.463107 -0.30739700000000003 0.273515 0.690265 -0.423942 0.311784 0.06156299999999999 -0.791467 -0.487402 -0.145862 -0.275483 0.23028999999999997 0.404255 0.0946 0.424501 0.698458 -0.005488000000000021 0.34198 -0.951381 -0.334542 -0.04813200000000001 -0.221731 -0.25352800000000003 0.8538439999999999 0.144708 -0.19736 -0.002453999999999984 0.394658 0.46332599999999996 -0.05248000000000003 0.375135 -0.26565900000000003 0.945676 0.74503 0.516869 -0.38387099999999996 -0.440272 -0.43776699999999996 0.0023150000000000115 -0.6731199999999999 0.871645 0.496187 0.167601 0.60338 0.319016 0.15589999999999998 0.139405 -0.389833 -0.717822 -0.20522 -0.279858 0.412146 -0.229771 -0.8240689999999999 -0.409736 1.038169 -0.392803 -0.308944 -0.21863400000000002 -0.34797900000000004 -0.5493 0.58313 0.276676 0.09682800000000003 0.702446 -0.250471 -0.98127 0.41960600000000003 -0.189248 0.538223 0.509485 0.131728 -0.388813 0.55123 0.12128699999999999 -0.8435429999999999 -0.244537 -0.166802 -0.03455999999999998 -0.35888499999999995 -0.11613900000000002 0.421079 0.648769 0.22531299999999999 -0.5997509999999999 -0.781498 -0.706569 -0.533833 -0.6692400000000001 -0.250547 0.604336 -0.34415500000000004 -0.10472100000000001 0.739168 0.219255 0.05398 0.2571 0.866854 0.663485 0.16850800000000002 -0.018208999999999975 -0.783446 -0.352406 -0.268916 0.168608 0.587145 -0.19134 -0.8523379999999999 0.014654999999999974 -0.9277230000000001 0.36046599999999995 -0.358076 0.145037 0.128006 0.095622 0.192545 -0.7923709999999999 -0.0066890000000000005 1.138836 0.605185 -0.381854 0.425082 1.003236 -0.35364999999999996 -1.194473 -0.035593999999999994 -0.12251899999999999 0.534387 -0.49634700000000004 0.986042 1.344444 0.550959 1.144738 -0.005919999999999998 0.380418 -0.254555 0.243145 -0.024557000000000002 -0.24037799999999998 0.655644 -0.242716 0.633458 -0.11355599999999999 -0.354611 -0.696537 -0.797825 -0.197729 -0.446299 -1.1636419999999998 0.6411169999999999 -0.827595 -0.310038 0.535616 -0.711146 -0.7128540000000001 0.497361 -0.634656 0.056261 -1.077541 1.0496240000000001 0.6603509999999999 0.038852 -0.343105 -0.7215499999999999 -0.055728 -0.128916 -0.544828 -0.20795 -0.359518 1.112164 0.27043300000000003 -0.94373 -0.259516 0.144463 0.15163300000000002 -0.268208 -0.711527 -0.701479 0.360824 0.405675 0.414599 -0.292025 0.6845490000000001 0.587399 0.240284 -0.453827 -0.193125 -0.33414 -0.151856 -0.157254 0.257959 0.43644099999999997 -0.26519099999999995 -0.329515 -0.121192 -0.434075 -0.354267 0.278216 -0.397571 -0.436637 -0.40789699999999995 -0.021063 -0.008476000000000011 0.06575 -0.06432700000000001 -0.413498 -0.288493 0.256985 0.010699999999999987 0.287377 0.59207 0.400901 0.45783 0.139879 0.47410199999999997 0.410192 0.488797 0.19442399999999999 0.14613299999999999 -0.6425879999999999 0.610296 0.47233499999999995 -0.419245 -0.8480070000000001 0.24216500000000002 -0.39583599999999997 -0.152464 0.173973 0.522118 0.32288399999999995 0.386229 0.016512 0.207274 0.39543000000000006 -0.510199 -0.01707699999999998 -0.5902270000000001 0.200516 0.11543699999999996 0.49154699999999996 0.394897 -0.17214599999999997 -0.591908 0.073784 -0.055593