weight.info -0.41391500000000003 0.0015490000000000018 -0.09113700000000001 -0.211335 -0.07285 0.263015 -0.872212 -0.7303689999999999 -0.313838 -0.15748900000000005 0.291313 -0.163516 0.7949010000000001 -0.05658099999999999 -0.292621 -0.287418 -0.260009 -0.10213799999999998 -0.139456 1.214804 0.094968 0.12729400000000002 0.15609399999999998 0.28147500000000003 0.15498900000000002 0.120282 0.261307 -0.023129999999999998 0.134418 0.412389 -0.044229 0.534572 0.0924 -0.244884 -0.28577199999999997 -0.073656 0.608972 0.39623800000000003 0.973981 0.015639 -0.427658 0.079306 0.298672 0.290892 0.132086 0.39510300000000004 -0.8367150000000001 -0.28524499999999997 -0.047212000000000004 0.577874 0.533732 -0.176089 -0.017062000000000008 0.8214159999999999 0.160445 -0.327347 0.456566 -0.258343 -0.130029 -0.257714 -0.178402 -0.156942 0.656508 -0.102239 0.18319600000000003 -0.06069900000000002 -0.302095 1.067275 0.176854 -0.387488 -0.38333 0.483008 -0.078563 -0.196266 -0.4801 -0.016593999999999998 0.049578999999999984 -1.14487 -1.097752 -0.11597099999999999 0.10386100000000001 -0.0022159999999999958 -0.18330400000000002 0.836068 0.25880200000000003 -0.885233 -0.176773 0.071687 -0.007671999999999998 -0.6783939999999999 -0.09253700000000001 -0.04586499999999999 0.074749 -0.762432 -0.094088 0.34526100000000004 -0.159649 -0.044135 -0.09485299999999999 -0.07339899999999999 -0.40076 -0.058637 0.07526700000000001 0.330958 -0.662711 1.007684 -0.06494799999999999 0.277194 -0.44665 -0.15264 0.7624879999999999 0.29679 0.709687 -0.071429 0.34512400000000004 0.300328 -0.03921899999999999 -0.20928100000000002 0.275786 0.519309 0.370101 0.314572 0.066261 0.14742 -0.190885 -0.48185500000000003 0.38154 0.474285 -0.646447 0.240632 -0.268791 0.11393400000000001 0.37107 -0.083957 0.05496900000000002 0.188634 0.238537 0.5217430000000001 -0.462222 0.30967 0.176969 -0.199756 -0.199981 -0.000305999999999999 0.44860300000000003 0.316006 -0.272449 -0.26087 -0.159512 0.267965 0.436736 0.226617 0.44749099999999997 -0.096003 0.379437 0.496266 0.022841999999999973 -0.451268 -0.780249 0.43592000000000003 0.42658199999999996 0.22597599999999998 0.50771 -0.10830100000000001 -0.244372 0.499641 -0.088005 0.104746 0.10125600000000001 -0.070877 0.03842899999999999 0.491558 0.205781 -0.036856 0.309786 -0.449724 0.085964 -0.143603 -1.2970480000000002 -1.02484 0.24637199999999998 -0.03902 0.167739 -0.26628999999999997 -0.426232 -0.01965 -0.560624 -0.412594 -0.115928 -0.05252899999999999 0.288825 -1.243879 0.936683 0.06837599999999999 0.093154 -0.55894 -0.060785000000000006 -0.07164100000000001 -0.455673 -0.307948 -0.168275 0.129496 0.09726299999999999 0.095771 -0.29551499999999997 0.361095 0.326296 -0.170942 0.201539 0.260632 0.069937 -0.652826 -0.143339 0.865777 -0.508284 -0.59109 -0.17783100000000002 0.281212 -0.226621 -0.008569 0.148367 -0.220193 0.12186699999999999 -0.23444399999999999 -0.975845 0.5262749999999999 0.38078900000000004 -0.327556 0.202605 0.421983 -0.15976300000000002 -0.5545329999999999 -0.062558 0.141837 -0.028316000000000008 -0.861026 -0.024100999999999997 0.4172 0.288194 0.39650399999999997 0.10559299999999999 -0.007559999999999997 0.548664 -0.111402 -0.532685 0.11266300000000001 -0.314295 -0.232536 0.661686 -0.258589 -0.21284200000000003 0.872522 0.326728 -0.396606 0.367806 0.712566 -0.667422 -0.05524599999999999 0.709831 -0.09481800000000001 0.009954999999999999 -0.075555 0.248241 -0.0064909999999999985 -0.043212 0.195153 -0.151447 -0.368123 -0.231486 -0.362902 0.3993749999999999 0.00017799999999998373 -0.602588 0.37624100000000005 0.33489100000000005 -0.09648300000000001 0.67987 0.07856099999999999 0.307564 -0.12315 -0.09796200000000001 0.222914 0.01822 0.6574829999999999 0.31914899999999996 0.106062 -0.740942 -0.11727 -0.212258 0.140506 -0.049678 0.145106 -0.15718100000000002 -0.25476 0.234512 0.086998 0.41045200000000004 0.6238710000000001 -0.16134300000000001 -0.862705