weightlessly 0.6157720000000001 1.129298 -0.09762200000000001 0.510005 0.265112 -0.167786 -0.505826 -0.513509 -0.6410089999999999 -0.32412399999999997 0.583814 -0.21024700000000002 -0.21790600000000002 0.522531 -0.251463 -0.6232500000000001 -0.149138 0.5010760000000001 0.220122 -1.004518 0.328464 -0.391067 -0.256326 0.08783700000000001 0.418289 0.424681 -0.08819300000000002 -0.220803 0.014844999999999997 -0.831303 0.205502 -0.347345 0.562374 0.9393130000000001 0.526953 -0.281215 -0.543354 0.007741999999999971 0.686272 0.4628 0.384662 -0.219315 -0.068098 -0.46412699999999996 -0.495923 0.693816 -0.591016 0.373469 -0.11373799999999999 0.686239 0.24935700000000002 0.422207 0.44908099999999995 0.562479 -0.019987000000000005 0.035941 0.7409899999999999 -0.05892199999999999 0.12857400000000002 0.142964 0.369026 -0.6843859999999999 -0.15387 -0.535898 -0.09174000000000002 0.930399 0.07699099999999999 0.5738759999999999 0.221223 -0.197236 -0.7862359999999999 0.021733999999999976 1.13587 -0.06074 -0.40601000000000004 0.486315 0.06437999999999999 0.6132259999999999 -0.727546 -0.208148 0.144529 0.205354 -0.008039999999999999 0.546495 -0.677646 0.24186000000000002 0.5603330000000001 -0.617501 0.31059000000000003 0.0005649999999999995 0.056984000000000035 0.645436 -0.21534499999999998 0.632281 -0.027744999999999992 -0.0733 0.49513699999999994 -0.392462 -0.416255 0.167094 0.033387 -0.257202 0.229091 -0.559478 0.18504700000000002 -0.611273 -0.609565 -0.144226 1.03754 0.720315 -0.184325 0.132522 -0.20834999999999998 0.220962 -0.102577 0.527339 0.47174699999999997 -0.601176 -0.340144 -0.214498 -0.132567 -0.574711 -0.643799 -0.011802000000000007 -0.020721000000000003 0.102766 0.500364 0.29613599999999995 0.0062429999999999986 0.530669 -0.315254 0.28258300000000003 -0.010447000000000005 0.01278600000000002 -0.851942 0.0020720000000000044 0.18194099999999996 -0.02004499999999998 0.10280900000000001 -0.177506 0.166717 -0.47388600000000003 -0.296068 0.27433599999999997 -0.317 -0.122643 -0.236821 -0.11585499999999999 0.667324 -0.227499 0.294099 0.854992 0.679165 0.006881999999999999 -0.058073000000000013 0.2034 -0.333433 0.7920039999999999 0.204958 -0.113506 -0.19506800000000002 0.159761 -0.057672999999999995 0.681602 -0.14205100000000004 -0.18234099999999998 -0.37909600000000004 -1.136771 -0.17300700000000002 -0.301741 0.35634899999999997 0.203928 -0.762877 -0.392486 0.136185 0.185415 -0.447994 0.181802 -0.08005999999999999 -0.241606 -0.266602 -0.21425699999999998 -0.103216 0.49259 -0.262169 0.10239700000000002 0.103417 -0.601588 -0.029399999999999996 0.14131200000000002 -0.280449 0.07681199999999999 -0.172788 0.791323 -0.7012240000000001 -0.40384699999999996 0.00028300000000000547 0.357224 -0.214189 -0.7110460000000001 -0.090391 0.17689899999999997 0.357016 -0.772904 0.5124150000000001 -0.387901 -0.261976 -0.779896 0.598904 -0.6331690000000001 0.262195 1.204249 -0.15774 0.6838989999999999 1.077089 0.619562 0.005862999999999993 -0.19891599999999998 0.37680400000000003 0.502528 -0.525968 0.370591 0.129974 -0.11358800000000001 1.619506 -1.134654 0.46565100000000004 -0.510436 0.319339 -0.911412 -0.6762600000000001 0.44809299999999996 -0.42454800000000004 1.055245 0.113265 -1.3002090000000002 0.16012700000000002 0.24263 -0.39866599999999996 0.705417 0.49786 -0.171229 0.775496 -0.274367 -0.07458999999999999 0.947567 0.247477 -0.5996969999999999 -0.050005999999999995 -0.10683599999999999 0.138925 -0.29764 0.07420299999999999 0.29791599999999996 -0.695542 -0.437875 -0.20637 -0.271224 -1.03574 -0.270283 -0.32094500000000004 0.8216669999999999 -0.492907 -0.153355 0.340342 -0.08071999999999999 0.13547399999999998 -0.628029 0.62855 0.232965 -0.019866999999999996 0.247159 -0.29291100000000003 0.292222 0.510343 1.228538 0.252545 -0.07965900000000001 -0.238197 0.31417900000000004 -0.728146 0.130066 -0.12172300000000003 0.128405 0.21048 -0.580458 -0.7301439999999999 -0.31058800000000003 0.407601 -0.013089000000000017 0.21112899999999996 -0.10962200000000001 0.208408 -0.121034 0.08363200000000001 0.16097199999999998 -0.022805999999999993 -0.034225 -0.09091100000000002 0.565142