weightometer -1.160447 0.020508000000000026 -0.537443 -1.045008 0.05077999999999999 -0.6353190000000001 0.16777399999999998 -0.410559 -0.855027 -0.182963 -0.25520399999999993 -1.055191 -0.48779000000000006 0.980856 0.276068 -0.770337 -0.35999899999999996 0.104136 1.557406 -0.09032199999999996 -0.14318700000000006 0.41376599999999997 0.428314 -0.057203000000000004 0.279585 -0.35967599999999994 -0.029609999999999997 -0.12719000000000003 0.235498 0.453633 0.51425 -0.09842299999999998 0.154957 -0.862469 -1.466694 -0.21587499999999998 -0.282975 0.296114 -0.05917800000000001 -1.106567 -0.008120000000000016 0.666198 -0.204123 0.859696 -0.207102 -0.710144 0.280654 0.060205 0.844763 1.2881900000000002 0.09850899999999999 -0.6317969999999999 0.070436 0.400232 -0.13146399999999997 -0.278906 -0.16840100000000002 -0.155223 1.0733650000000001 -0.102991 -1.198853 0.42433199999999993 -0.24835600000000002 0.230839 -0.647328 -0.41685000000000005 -0.004151000000000002 0.809021 -0.233367 0.895053 1.271122 0.404588 0.38827399999999995 -0.07099200000000006 0.08350899999999999 0.07353300000000002 -0.489025 0.102165 -0.5088 0.38694 -0.568426 -0.700049 0.441971 0.23389500000000002 -0.279088 0.8275110000000001 0.791104 0.658385 0.841126 -0.710866 0.466986 0.312025 -0.27971599999999996 -0.5496920000000001 0.025464000000000014 0.435765 0.285222 0.40080899999999997 -0.555035 0.36310000000000003 0.31043899999999996 0.737074 -1.108538 -0.17874 -0.29345 -0.09640900000000002 0.164305 -0.177157 -0.380351 0.260315 -0.004646999999999998 0.513349 1.37454 -0.728398 0.291307 -0.315874 0.251459 -0.602214 -1.128604 0.05523399999999999 -0.835035 -0.016047 0.167696 0.604606 -0.535207 -0.317452 -0.7204860000000001 0.014858999999999956 0.148706 1.219423 0.016581000000000005 0.078767 0.765752 0.693426 0.435855 -0.03819600000000001 -0.526381 1.394869 0.14666200000000001 -0.276318 0.6078939999999999 -0.22093100000000002 -0.160047 -0.946755 0.128206 -1.238286 -0.202885 0.189835 -0.14529000000000003 0.689847 -0.32405 1.154244 1.234915 0.23467700000000002 1.2213699999999998 -0.505558 -0.338333 -0.59898 -0.313091 -0.6629 -0.41954800000000003 0.520757 -0.5279579999999999 -0.723923 0.276522 -0.349778 0.7698309999999999 -0.842646 0.055811 1.157543 0.8232729999999999 0.707585 -0.7439020000000001 -0.60899 -0.623587 0.28374699999999997 1.5117150000000001 -1.726953 -0.132769 0.145382 0.676211 0.18599200000000002 -0.06357400000000002 -0.743312 -0.18826299999999999 0.949496 -0.877023 0.008967000000000003 -0.077907 0.7511720000000001 0.33352 0.680395 0.376181 0.07345200000000002 0.6990500000000001 -0.385426 -0.408027 0.22744899999999996 -0.293971 -0.02738099999999999 -0.38217100000000004 -0.31282899999999997 -0.002821000000000004 -0.30777699999999997 -0.390738 -0.14388299999999998 0.24845499999999998 0.83004 0.13442699999999996 0.39268100000000006 0.162485 -0.270829 -0.05829799999999999 0.864019 -0.12547899999999998 -0.539759 -0.090861 0.711954 -0.42066899999999996 -0.450253 0.08915899999999999 0.222794 0.191838 -0.26571900000000004 -0.183143 -0.249382 -0.47015199999999996 0.920044 -1.2673299999999998 0.333258 -0.425068 -0.203703 -0.38388700000000003 -0.549292 0.166773 1.01027 0.332477 0.11522700000000002 0.14780400000000005 0.901909 0.21569000000000002 -0.008733000000000001 -0.656084 0.15581099999999998 -0.437849 0.38262599999999997 0.755854 -0.46046599999999993 0.41466 -0.23932199999999998 -0.048173999999999995 0.131461 -0.6556599999999999 0.640456 0.517724 0.301129 0.32615 1.035217 -0.619481 0.287548 0.504298 -0.291283 0.230577 -0.494834 0.43638899999999997 -0.415698 -0.188832 -0.477862 -1.2484929999999999 0.328441 0.980782 0.6053940000000001 -0.478197 0.08529000000000003 0.491645 0.29817499999999997 0.9740800000000001 0.669176 -0.263278 -0.43128199999999994 -0.385107 0.24802400000000002 -0.690134 0.464122 0.357547 -0.031818999999999986 -0.810465 -0.219397 0.196854 -0.5640149999999999 -0.136131 -0.164177 -0.5394519999999999 0.839973 -0.15197899999999998 -0.258859 -1.133696 -1.247688 -0.153762 0.31519600000000003