weightnormalcolor1603a1line 0.264317 0.09129699999999999 0.389384 0.6803889999999999 0.21964399999999998 0.24404399999999998 -0.10367900000000002 -0.031108999999999998 0.018963999999999995 -0.25247200000000003 -0.02807699999999999 -0.175227 -0.13700800000000002 -0.787776 0.351693 0.02313900000000002 -0.399389 0.013477 0.22340700000000002 1.071991 0.10275499999999999 -0.11740699999999998 0.496504 0.41996999999999995 -0.363569 0.200293 0.538898 -0.6997479999999999 -0.23605900000000002 0.16457100000000002 0.200598 0.049508999999999984 0.385571 1.0482710000000002 0.09123 -0.26775 0.167289 1.197447 0.127554 -0.13506100000000001 -0.135453 -0.546575 -0.283849 1.06737 0.5027889999999999 -0.259697 -0.502299 -0.86129 -0.21731699999999998 -0.865209 0.09843399999999997 -0.44216300000000003 -0.625228 0.439907 -0.017385 0.087387 0.302058 0.6697299999999999 -0.410521 -0.3520539999999999 0.6724410000000001 -0.016868999999999995 0.16838999999999998 0.366683 -0.19291599999999998 -0.43327899999999997 0.17911600000000003 0.171618 0.8969480000000001 0.40632599999999996 0.418742 -0.585226 -0.428172 0.219195 0.284454 0.2184 0.461179 0.40012400000000004 0.451641 0.5096069999999999 0.510096 0.088076 0.43151500000000004 0.646972 -0.238507 0.0005650000000000099 -0.193333 -0.40687799999999996 0.359377 -0.17954 0.227524 -0.137518 0.327189 0.45108000000000004 0.08697099999999999 0.154064 0.396673 0.075738 -0.178511 0.05656799999999998 -0.27650199999999997 -0.390316 0.035928999999999996 -0.579971 0.469885 0.43912 -0.15841 0.13218 0.20885499999999999 0.246903 0.10149499999999999 0.41050600000000004 -0.248585 -0.171408 0.463639 0.165961 0.02087399999999999 -0.344071 -0.781617 -0.187037 0.567054 -0.13608199999999998 0.005953999999999987 -0.733919 0.39204799999999995 -0.371334 -0.41449 0.239224 -0.369643 0.060925 0.058037 -0.809589 -0.030437999999999993 -0.049343000000000005 -0.052936 0.173086 0.5677019999999999 0.406325 0.655043 -0.002678 0.577661 -0.22237800000000002 -0.225897 -0.09028 0.34891400000000006 0.43081100000000006 -0.174958 0.26268800000000003 0.07005800000000001 -0.148932 -0.38587899999999997 -0.703098 -0.04872400000000002 0.139402 0.04673899999999999 -0.494654 0.422741 0.412714 -0.073347 -0.19412100000000002 -1.058802 -0.667837 -0.9558550000000001 -0.125853 0.177749 -0.13846 0.10530199999999999 0.398444 -0.304462 -0.59503 0.10343 -0.26105 -0.135762 -0.21754400000000002 0.048943 0.06844499999999999 0.5894 -0.39880499999999997 -0.648022 0.020213 -0.07886599999999999 0.948442 -0.028482 1.2662360000000001 -0.25553899999999996 -0.016807 -0.513053 0.350149 0.18567699999999998 0.141566 0.416207 -0.655555 -0.507943 0.13739800000000002 1.415653 0.093437 0.011866999999999996 0.20132099999999997 0.237867 -0.450028 -0.678871 -0.462662 -0.11642900000000003 -0.066516 0.388657 0.169578 -0.296522 -0.10566500000000004 0.163796 -0.530655 0.307795 -0.935433 0.410216 -0.5015959999999999 -1.557701 -0.5174179999999999 0.5254220000000001 0.384973 0.04858699999999999 -0.402071 0.163651 -0.06115599999999999 -0.196884 -0.308081 -1.495744 0.249055 0.047425 -0.277653 0.433441 0.309553 0.22401499999999996 0.841316 -1.04305 -0.03983999999999999 0.494004 -0.083432 0.202192 0.128934 0.336329 0.645385 -0.358449 -0.12480699999999999 0.063728 -0.13143 0.095427 0.34194 -0.5073369999999999 -0.422675 0.599117 0.662856 -0.279045 0.952313 -0.549107 0.019129000000000007 -0.14142699999999997 -0.74642 -0.25128700000000004 0.10229700000000003 1.047328 -0.22365200000000002 -0.217082 -0.557217 0.31142800000000004 0.566454 0.8083800000000001 0.26363000000000003 0.22393200000000002 0.665681 -0.7507999999999999 -0.308133 -0.49389299999999997 0.328202 -0.324869 -0.367865 -0.083285 1.116108 0.0055639999999999995 1.3382710000000002 -0.12299399999999999 0.408558 -0.48306000000000004 0.19126500000000002 0.40554 0.24988000000000002 -0.058358999999999994 -0.656863 0.12042400000000003 -0.42275399999999996 0.211762 0.14852700000000002 -0.060469 -0.24296600000000002 -0.67136 0.253812 -0.115245 -0.440975 -0.059081999999999996 -0.651886 -0.027706 -0.19374999999999998