weight-wise -0.417809 0.902652 1.226039 0.954661 0.786681 -0.169075 -0.65297 -0.719083 0.188726 -0.711956 0.704912 -0.694592 -0.582242 -0.815399 0.28718099999999996 0.223281 2.2772629999999996 0.656258 0.178466 -0.026900000000000007 -0.22301500000000002 -0.00917599999999999 -1.6038009999999998 0.306321 -0.530859 -0.272263 0.450456 0.26222900000000005 1.015376 -0.607727 0.963693 0.13279 -0.332181 0.247427 0.329966 0.438689 0.05678 -0.02832699999999999 -0.18371299999999996 0.118061 -1.065501 0.698403 0.30337400000000003 -0.7091909999999999 -0.706895 0.139869 -0.413069 1.253691 -0.09006199999999998 -1.555401 0.447592 1.313937 0.569068 -0.538421 0.13992100000000002 -0.004422999999999955 0.25230600000000003 0.9293119999999999 1.423413 0.071716 -1.351799 -0.694715 0.049017000000000005 1.424863 1.456133 0.12597 0.505698 1.365135 0.513071 0.360202 0.89086 1.024395 -0.0009500000000000064 1.353717 0.510046 -0.50632 0.406682 -1.134085 0.939928 0.21464699999999998 -0.641502 -0.9783470000000001 0.643788 0.44091500000000006 -0.895451 1.065271 0.049128000000000005 -1.813276 -0.40770699999999993 -0.39217799999999997 0.802262 -0.544436 -0.6213200000000001 -0.884223 0.8121800000000001 1.54513 -0.16074899999999998 0.519671 0.40346 -1.901901 -0.743584 1.20329 0.570627 -0.16261800000000004 -0.359085 0.459423 1.039873 -0.07841999999999999 -1.465557 -0.689408 0.678531 -1.2729 0.8688359999999999 -0.15689999999999998 -0.63595 0.8855919999999999 0.480727 -0.33352499999999996 -1.438336 -0.09912400000000002 1.24639 -1.194729 -1.028642 -0.30152300000000004 -0.128105 -0.019401 -0.07004900000000003 -0.307167 -0.681198 1.504474 0.45581799999999995 0.322032 0.147036 -0.17391700000000002 0.38784799999999997 -0.139034 0.47519199999999995 0.114674 -0.10966500000000001 -0.07996000000000003 -1.098036 1.489023 0.720777 0.684077 0.698882 -0.036263 -0.68113 1.054007 1.1521730000000001 -0.153121 -0.24699300000000002 -0.25611300000000004 -0.910079 -1.484646 -0.29866499999999996 -1.335068 -0.29691 -0.322284 -0.418431 -0.653382 -1.304934 -0.013651999999999997 -0.902796 0.11267000000000005 1.462061 1.210558 -0.17335900000000004 0.09464100000000003 0.896076 0.39326500000000003 1.471587 0.10558299999999998 2.140763 -0.348858 -0.171388 0.5416799999999999 0.5110699999999999 -1.359126 0.02366499999999999 0.17549200000000004 1.188604 -0.619338 0.12319199999999997 -0.338689 0.720872 -1.410975 -1.563982 0.654158 -0.27457000000000004 -0.354614 -0.666439 -1.8340699999999999 1.669325 0.885025 0.035033 -0.43873 -0.056031999999999985 -1.943843 0.054589 -0.99276 -0.07747100000000001 -0.46479199999999987 0.970059 0.46657899999999997 0.40857699999999997 -0.13928300000000005 0.32648699999999997 0.06096199999999996 -0.884908 -0.354823 0.741799 -0.06885600000000003 -1.864401 -0.282673 0.02009900000000009 1.9791940000000001 0.485576 -0.45302999999999993 -0.35209399999999996 -0.359644 -0.935511 0.24562900000000001 0.229429 -1.691465 1.265914 -0.609951 -0.7850950000000001 -0.42676800000000004 -0.20338100000000003 -0.6161679999999999 -0.272469 -0.020577000000000005 -0.598971 0.56945 -0.23186800000000002 -0.350294 0.06220300000000001 -0.368232 0.778348 -0.005439000000000027 1.311148 -0.484469 0.9296439999999999 -0.21497900000000003 -0.157992 -0.171195 0.777215 -0.437275 -1.8986489999999998 1.442472 -0.219459 0.980886 1.044908 -0.632128 -0.657203 0.502198 -0.056403999999999996 0.5014730000000001 -0.742719 0.8624499999999999 1.51435 0.271252 0.211068 0.538632 -1.395099 0.212341 -0.829964 0.372143 0.69601 -0.532092 0.247241 0.16487800000000002 0.387297 0.808438 -0.08590000000000003 0.32161 0.29389299999999996 0.084343 0.47168 -1.942552 -0.6776719999999999 0.663222 -1.3697270000000001 1.5553270000000001 -0.73524 -0.559543 0.9366369999999999 0.36883900000000003 0.8072670000000001 0.42572 0.14946 -0.49489900000000003 0.370784 -0.273585 -0.928428 -0.664871 1.22282 0.7367889999999999 -0.257739 -0.551856