weightroom 0.08378300000000005 0.507761 -0.08045400000000003 -0.8153710000000001 -0.064167 -0.42940599999999995 0.09402800000000006 0.23501899999999998 1.362282 -0.17779899999999998 1.757086 -0.42267099999999996 0.21723 -0.71434 -0.726793 0.10445300000000002 0.03482199999999999 1.259895 1.076052 -0.01907700000000001 -0.6553610000000001 -0.8254509999999999 -0.13560199999999994 0.14480800000000002 0.302809 -0.6148629999999999 0.799365 -1.153144 0.100495 0.737915 0.8844270000000001 0.25227 -0.6550389999999999 -0.44647000000000003 0.600383 0.632574 -0.668759 0.190149 -0.231589 0.23637600000000003 0.073964 -1.08509 0.0022000000000000353 -0.27701800000000004 0.545677 -1.014865 0.694951 -0.022106999999999998 -0.452518 0.359503 -0.623068 0.498995 0.544896 -0.145387 0.275497 -0.047011 1.197501 0.04038999999999998 0.658305 -0.37450700000000003 0.330198 0.757035 -0.46717800000000004 -0.154493 -0.095557 0.743602 -0.310463 0.9283 0.416566 -0.586751 -0.020865999999999996 -0.03672 -0.08512399999999999 -0.735649 -0.914006 0.350014 0.9641489999999999 0.471886 0.509167 -0.662283 0.748869 0.05015399999999999 -0.302982 0.252254 -0.663718 -0.5541929999999999 0.114818 -0.366572 0.12659900000000002 0.0012179999999999969 -0.33429200000000003 -0.097225 -0.7633030000000001 0.10253600000000002 -0.026586 -0.226856 0.37442200000000003 -0.510654 -1.4083809999999999 -0.5724710000000001 -0.5665579999999999 -0.6971689999999999 0.138357 -0.042839000000000016 -1.015466 0.405132 -0.178639 -0.435713 0.503682 0.112999 0.68355 0.07296599999999998 -0.39625099999999996 0.807592 0.402453 0.58223 0.431585 0.136164 -0.739116 -0.7257549999999999 0.603219 0.14179 0.552878 0.8734930000000001 0.243721 0.621625 0.39945200000000003 -0.258043 0.14165 -0.542281 -0.826379 0.21176099999999998 0.088522 -0.12091299999999999 0.8814150000000001 -0.9677640000000001 -0.8076220000000001 -0.24933900000000003 0.9793239999999999 -0.093093 0.579286 0.28696499999999997 0.25235199999999997 0.229571 0.388272 0.066888 0.19172599999999998 -1.385001 0.561943 -0.27227300000000004 0.239096 -0.031455999999999984 0.288323 -0.765539 0.15913200000000002 -0.026813000000000003 0.20138099999999998 -0.152894 -0.10529200000000001 0.213923 -0.29477899999999996 0.07005800000000001 -0.567543 -0.587546 0.32420099999999996 0.595256 -0.955819 -0.6332709999999999 -0.6277790000000001 -0.854567 0.410567 0.20129 0.625033 0.23024299999999998 0.71189 0.56268 0.801784 0.605786 -0.372548 -0.5226149999999999 0.196932 -0.591928 -0.381544 1.350434 0.115224 -0.19188 0.21900600000000003 0.623195 0.20768399999999998 -0.33823200000000003 -0.434799 0.6560269999999999 1.004135 -0.09058899999999999 -0.189245 -0.115232 -0.405263 -0.234844 -0.5334479999999999 0.23794900000000002 -0.628497 -0.42830399999999996 0.5895630000000001 0.18654500000000002 0.312732 -0.04880099999999998 0.545812 -0.23281700000000002 0.541223 -0.08871000000000001 -0.02801400000000001 0.106844 -0.08465700000000001 -1.018385 0.290745 -0.6851430000000001 0.38153499999999996 0.02914 -1.0917400000000002 -0.013555999999999999 0.8983410000000001 -0.307087 0.944283 -0.0028819999999999957 0.654227 -0.17261499999999996 1.69321 0.36914199999999997 0.37798200000000004 0.06075799999999998 -0.238566 0.28073800000000004 -0.19919199999999998 0.897526 -0.39254799999999995 -0.602135 0.532793 -1.09172 0.340626 -0.24079 0.306679 -0.34160199999999996 -0.024042000000000008 -0.40263 0.06884 -0.06920899999999996 -0.100942 0.14258200000000001 0.02277699999999999 -0.883371 -0.308178 0.506785 -0.617201 -0.522574 0.749028 -0.46688799999999997 -0.4511919999999999 -0.01639299999999999 -0.18212100000000003 0.377871 0.5658909999999999 0.308861 -0.972124 -0.077456 -0.391478 -0.16592 -0.51376 0.637954 0.449066 -0.26503899999999997 0.111445 -0.5444749999999999 -0.418202 -0.099058 -0.47969 0.5050680000000001 -0.313148 0.068081 0.336275 -0.125004 0.021245 0.102004 -0.075012 0.257035 -0.35361300000000007 -0.85037 -0.15835 0.037831000000000004 1.1734559999999998 -0.340339 -0.373427 -0.5781580000000001 0.335129 -0.375112 0.229029 -0.06125000000000001 0.38041200000000003 0.15311600000000003 -0.979636 -0.560673