weightiest 0.485558 0.496956 -0.11590400000000001 0.868668 0.312828 -0.355754 0.144266 -0.275119 -0.061904 0.589927 0.11957999999999999 -0.24044500000000002 -0.09556900000000002 0.301784 -0.355714 0.19948899999999997 -0.351431 -0.60554 -0.22611499999999998 0.252743 0.004064999999999985 -1.000322 0.270941 0.739398 1.090973 0.769152 -0.880865 0.6081890000000001 0.031778 -0.216785 0.400779 0.334413 -0.09245199999999999 0.382834 -0.356976 0.098575 -0.452361 -0.23409400000000002 0.19054899999999997 0.745233 0.22830700000000004 0.147918 -0.5468310000000001 -0.904227 -0.443637 0.6411600000000001 -0.010587000000000013 -0.088038 0.111968 0.80551 0.091831 0.16707000000000005 -0.8286439999999999 -1.068589 0.32880200000000004 0.752634 -0.137518 0.271704 0.357693 0.19141099999999997 0.8983000000000001 -0.13659899999999997 -0.477663 0.300035 -0.190278 -0.708136 -0.347434 1.120184 -0.6028469999999999 0.21882600000000002 0.131677 0.133689 0.479212 -0.04300700000000002 0.337171 0.661375 0.397641 0.678802 0.573288 0.7567010000000001 0.30298800000000004 0.072829 0.9181999999999999 -0.23384700000000003 -0.647255 -0.18995100000000004 -0.707568 -0.255517 -0.340295 -0.402081 0.744914 -0.49936400000000003 -1.1663329999999998 0.286637 0.613159 -0.37024300000000004 0.643277 0.5574060000000001 -0.302532 0.18817699999999998 0.434824 0.48278499999999996 -0.834159 -0.39504 -0.09187500000000001 0.255395 0.42330100000000004 -0.601984 0.6407780000000001 0.7517480000000001 0.024465 0.7532829999999999 0.23347800000000002 -0.907734 -0.29352599999999995 0.362868 0.021383 0.33109 -0.526278 0.746978 0.10064899999999999 -0.272748 0.589885 -0.077433 0.575393 0.2449 -0.40309 0.710404 0.011983000000000021 0.05005699999999999 0.183085 0.190715 0.13342500000000002 -0.265389 -0.403074 0.03667400000000004 -0.898832 0.284293 -0.864668 0.033249 -0.505745 -0.442998 -0.597205 -0.09830900000000001 1.29064 -0.35465199999999997 -0.44430600000000003 0.200009 0.101367 0.13679299999999997 0.771839 -0.16534100000000002 -0.426363 -0.6304540000000001 -0.287833 0.024590999999999974 -0.07632100000000001 0.399421 -0.041475 -0.581511 -0.258859 -0.8739939999999999 -0.5360860000000001 -0.013034999999999998 0.45385 0.465665 -0.127275 -0.357785 -0.35129699999999997 0.370497 0.032198 -0.47717 -0.125867 0.013391 -0.427216 0.803406 0.710221 -0.113437 -0.015746999999999997 0.21336700000000003 -0.619084 0.413813 0.158782 -0.559257 -0.45956199999999997 -0.48247999999999996 -0.477371 0.579865 -1.09874 0.335033 -0.137067 -0.38362399999999997 0.397588 0.699092 0.13963399999999998 -1.076951 0.115949 -0.472777 -0.43716900000000003 -0.625626 -0.09040800000000002 -0.09732199999999999 0.019821000000000005 0.201341 0.265961 -1.015929 0.024253999999999998 -0.201847 -0.1678 -1.108507 0.22165600000000002 -0.075752 0.269886 0.051183000000000006 -0.1458 -0.931337 0.602146 0.29990300000000003 -0.674863 -0.360348 0.381288 -0.09396100000000002 0.056546 -0.628506 1.037458 -0.069234 0.423063 -0.503687 -0.030602999999999998 0.310294 -0.67882 0.522502 -0.224864 0.121448 -0.898905 -0.16434600000000002 -0.20854999999999999 0.9872529999999999 -0.39777 0.091592 -0.218186 0.447829 -0.190472 -0.46643 0.460276 0.8605079999999999 -0.22972299999999998 -0.748478 -0.139597 -0.010255999999999987 0.078449 -0.276072 0.361949 -0.142927 0.700256 -0.304125 0.7014119999999999 -0.004274 -0.9003950000000001 0.28676500000000005 0.390047 -1.08729 0.05992900000000001 0.20097000000000004 0.084922 -0.299414 -0.713131 -0.650807 0.28367200000000004 0.028584 -0.042942999999999995 0.311585 -0.816236 -0.32298 0.041042999999999996 0.82642 0.194667 0.33654 0.112937 0.435262 -0.569791 -0.653299 -0.8446499999999999 0.090877 0.45768699999999995 -0.151918 0.25495799999999996 0.26825099999999996 0.10774000000000002 -0.502772 0.544984 -0.17822300000000002 0.600621 -0.183329 0.39366599999999996 0.50461 0.509185 0.39537599999999995 0.11644799999999997 0.33458