weight -0.051267 0.10514100000000001 0.078057 0.139032 -0.004665999999999999 -0.151307 -0.16259200000000001 -0.449627 0.413448 -0.024468000000000004 0.296963 -1.052893 0.063828 -0.312456 -0.12398799999999999 0.174685 -0.32196800000000003 -0.04892199999999999 0.198605 0.352316 -0.491138 -0.155335 0.068744 0.19216799999999998 -0.097602 -0.15984199999999998 0.70946 -0.354016 0.281248 -0.787841 -0.307598 0.188588 -0.38309400000000005 0.353082 -0.191919 -0.262327 0.215796 0.589693 0.41638200000000003 -0.274153 0.05372500000000001 -0.147912 -0.328818 -0.375211 0.020633 -0.19875899999999996 0.675392 0.128938 -0.217256 0.34602299999999997 -0.34693799999999997 0.10016900000000001 -0.18964199999999998 0.306538 0.329394 -0.11321800000000001 0.188269 -0.18872 -0.193513 0.607426 -0.095913 0.349841 -0.811869 0.19878 0.103259 0.61814 0.149924 0.377757 0.5133449999999999 -0.38801699999999995 -0.179006 0.18505700000000003 0.368338 -0.254293 -0.128463 -0.406877 -0.21693199999999999 -0.355821 -0.300362 0.664021 -0.15077000000000002 0.49709400000000004 0.60399 -0.330444 0.08523399999999999 -0.09464600000000001 0.47555800000000004 0.104623 0.627326 -0.239045 -0.131385 0.101227 0.434269 -0.38487899999999997 0.145952 0.09578400000000001 0.110857 -0.08471699999999999 -0.491213 -0.403947 0.8792420000000001 0.366028 -0.35202 0.26155 0.142737 0.41247100000000003 1.002491 -0.176012 -0.09256099999999999 0.09221599999999999 0.18386200000000003 -0.014845999999999998 0.040613 0.22343600000000002 0.437521 0.12090100000000001 -0.150209 -1.440807 0.120643 0.59819 1.8364669999999998 -0.190609 0.213607 -0.093481 -0.199446 0.60379 -0.06942400000000001 0.423122 -0.975675 -0.312908 -0.017056 -0.025185999999999993 -0.146995 0.119671 0.458134 -0.050795999999999994 -0.362684 0.16363 -0.18153 0.43251500000000004 -0.240284 0.21002300000000002 0.19633899999999999 -0.139549 -0.160269 -0.241885 -0.25707 0.216148 0.366182 0.337445 -0.063701 -0.135176 0.099542 0.10876 0.23929699999999998 0.130827 -0.737562 -0.039729 -0.409904 0.29427000000000003 0.280318 0.019769999999999996 -2.494878 -0.142181 -0.294281 0.12285400000000002 -0.044298000000000004 0.212374 -0.184144 0.089967 0.28993 0.915189 0.298342 0.032489000000000004 -0.240801 -0.063945 0.169929 -0.095659 0.6020719999999999 -0.388182 -0.032758 0.16327 0.160736 0.01013 -0.18671200000000002 -0.00010499999999999399 0.07757800000000001 -0.15765099999999999 -0.08724 0.08415 -0.006115000000000009 0.0015249999999999986 -0.008965 0.12259799999999998 -0.786316 -0.344841 -0.22832899999999998 -0.036615999999999996 0.06271600000000001 -0.441879 -0.158445 -0.253231 0.151276 0.268924 0.005691000000000002 -0.090696 0.128747 0.289106 0.19017 0.7878670000000001 -0.778095 1.965371 0.140588 0.509304 0.275484 -0.26170000000000004 0.184589 0.267001 -0.34204999999999997 -0.285969 -0.10275000000000001 -0.399305 0.19956000000000002 -0.138898 2.964559 -0.29471899999999995 -0.103758 0.018532000000000007 -0.326681 -0.467233 -0.017291999999999995 1.0457109999999998 0.477078 0.551854 0.058984999999999996 -0.10303999999999999 -0.583182 0.013412 -0.291162 0.004520999999999997 0.208136 -0.198816 -0.304462 -0.14622 -0.13681100000000002 0.43042800000000003 -0.228074 -0.47666600000000003 -0.059535000000000005 -0.123898 -0.300986 0.3436 0.20851599999999998 0.04692400000000001 0.113315 0.36041500000000004 0.138323 -0.03575300000000001 -1.7502879999999998 0.38387499999999997 0.470414 0.137328 -0.024945 0.6656519999999999 -0.898416 0.437203 0.115305 0.48418700000000003 0.541061 -0.6253569999999999 0.14221 -0.625031 -0.020825999999999997 -0.24382700000000002 0.22081699999999999 0.07469 0.19323600000000002 -0.27442500000000003 0.110358 -0.040366 -0.23453800000000002 -0.100966 0.02416199999999999 -0.051521 -0.175264 0.09444799999999999 0.586654 0.466263 0.280681 -0.34482599999999997 0.336187 0.373207 0.364839 0.241008 -0.42939099999999997 -0.045957000000000005 0.464066 0.511863 -0.053609000000000004 -0.015335000000000001