weighter -0.27903 -0.45642 -0.529332 0.220497 -0.401661 -0.50686 0.468171 0.47485900000000003 0.24365900000000001 -0.49172 0.048007999999999995 -0.136452 0.06675800000000001 -0.9443889999999999 0.07059800000000001 -0.046003000000000016 0.04239200000000001 -1.005176 0.300155 -0.316547 -0.438547 0.280841 0.715091 -0.021185999999999997 -0.23019299999999998 -0.110322 -0.020783999999999997 -0.8123670000000001 -0.09865400000000002 -0.61446 -0.137388 0.564143 -0.541168 0.21005400000000002 -0.193136 0.506556 -0.659383 0.7704519999999999 0.161767 0.813549 0.430639 0.020698999999999995 -0.422531 -0.014966999999999994 0.144096 -0.11803899999999999 -0.194125 -0.006506999999999985 -0.512962 0.47291700000000003 -0.11184000000000002 0.20541600000000004 -0.361096 0.531352 -0.42279900000000004 -0.112847 0.02126800000000001 0.126484 0.240031 0.39570500000000003 -0.074744 -0.308278 0.412068 0.558748 -0.04499499999999999 0.352762 -0.8183050000000001 -0.16715200000000002 -0.136256 0.794254 0.344376 0.13125799999999999 -0.488849 -0.708537 -0.6276769999999999 -0.06054700000000002 -0.467483 0.705331 -0.53825 0.24117000000000002 0.272048 0.02567700000000002 -0.372857 0.334789 -0.463254 0.05638700000000001 0.713058 -0.373272 -0.27478699999999995 0.03894700000000001 0.22043000000000001 0.030779 0.23493799999999998 0.268405 1.455382 0.13517 0.994652 -0.21066800000000002 -0.056566 -0.520567 -0.099973 0.23233299999999998 0.65509 -0.6742520000000001 0.99079 0.332997 0.453342 0.492657 0.121146 0.819218 -1.039189 -0.875083 -0.126023 0.1887 0.283083 0.802153 -0.294278 -0.905347 0.51527 -0.630923 -0.31732299999999997 0.34614999999999996 0.100806 -0.41144100000000006 0.604511 -0.6571610000000001 -0.290084 0.033530000000000004 -0.265532 0.033664 -0.38182 0.495976 0.378831 0.73407 0.744174 -0.344326 -0.403687 0.04481400000000002 -0.023882999999999988 -0.562918 -0.005816999999999989 0.261273 0.023565999999999997 -0.5517920000000001 0.34377199999999997 0.158773 0.675061 -0.839853 0.20363299999999998 -0.005377000000000021 -0.023924 -0.48208700000000004 -0.22679099999999996 -0.4742620000000001 0.266429 -0.06426000000000001 -0.43710600000000005 0.37963600000000003 -0.21667899999999998 0.075579 -0.173712 0.015906000000000003 0.03765 -0.267582 0.673087 0.493988 0.288863 0.124854 0.35688699999999995 0.220959 0.6110019999999999 -0.697995 0.004456000000000002 0.08496799999999999 0.322259 0.6136699999999999 0.171312 -0.5837410000000001 0.297006 0.796264 -0.8499399999999999 -0.04569999999999999 0.136507 0.05001299999999999 -0.075114 0.692078 -0.7108000000000001 -0.03575099999999998 -0.344947 -0.401845 -0.32869 -0.446176 0.44611900000000004 -0.21804600000000002 0.301662 0.159635 0.036747999999999975 -0.340498 -0.257774 0.369375 -0.15981 0.30990399999999996 0.508259 0.187429 -0.582195 -0.320193 -0.646622 0.197651 0.407235 -0.019768 0.05949500000000002 -0.765009 0.618206 -0.381611 -0.014366000000000004 -0.16761000000000004 0.256819 0.560877 0.123301 0.255129 0.9648570000000001 -0.08101599999999998 -0.17161500000000002 -0.662916 0.859073 0.288789 0.13082 0.10316700000000001 -0.018414 0.444133 -0.366346 -0.44483399999999995 -0.286368 0.14633 -0.10024699999999998 0.48187899999999995 -0.8195509999999999 0.207602 0.646633 -0.878345 -0.682079 -0.7304269999999999 -0.37040300000000004 -0.157345 0.452989 -0.06329599999999999 0.425709 0.556234 -0.201214 0.122225 0.012717999999999993 0.517122 -0.32933599999999996 0.36538000000000004 1.06012 0.804144 -0.156576 0.356917 0.219785 0.6664509999999999 0.381985 -0.04397100000000001 -0.141711 0.32966700000000004 -0.415785 -0.533633 -1.344988 -0.239311 0.212127 -1.28077 0.569681 0.184404 0.18988899999999997 -0.17218899999999998 -0.194299 -0.22837999999999997 0.667895 -0.889182 -0.274119 -0.103301 0.500617 0.7762180000000001 -0.6418200000000001 -0.0015069999999999806 -0.134132 -0.497956 -0.595594 0.077713 0.454562 -0.28406699999999996 0.950084 -0.3435 0.007915999999999979 -0.10395200000000002 -0.652423 -0.408461 0.439197 -0.20106 0.516509 0.44637