weightloss-easily.com -0.19559100000000001 0.190874 1.2003050000000002 0.16578500000000002 0.590164 -0.524547 0.018547000000000036 1.058135 -0.636622 -0.505198 -0.06632200000000002 0.38007 0.24599100000000002 -0.616046 1.067309 0.038797000000000026 -0.375016 -0.35231999999999997 1.248919 -0.25836400000000004 -1.334857 -1.504333 -1.118282 -0.210081 0.09159400000000001 0.906592 0.320955 0.908175 -0.7253320000000001 -0.607211 0.272941 -0.448898 0.410023 0.179309 1.16433 -0.78483 1.470691 -0.369882 -1.99543 -0.8186800000000001 0.089753 -1.365569 -1.148132 0.06538600000000003 -1.894844 -0.5166160000000001 1.3947910000000001 0.461721 -0.5270950000000001 1.1571 -1.973723 0.6363559999999999 -0.64914 -1.318619 -0.33988199999999996 0.25022 -0.822194 0.186579 0.27494199999999996 -0.424662 0.11393799999999998 -0.397005 -0.65342 -1.2286380000000001 -1.800816 1.247493 0.489634 0.860666 -1.329778 -1.124649 0.9443710000000001 -0.883313 1.0086249999999999 -1.7206519999999998 0.369782 1.7011939999999999 -0.272251 -0.19225399999999998 0.07485800000000001 0.764771 -1.328314 -0.058870000000000006 0.83295 -1.50545 0.386312 0.694168 0.177289 -0.14696700000000001 2.262237 -0.788447 0.699825 0.410733 -1.281144 -1.5859260000000002 -0.377738 -0.45584099999999994 1.090065 -1.330405 1.10267 -0.26759200000000005 0.00122899999999998 -0.117178 -0.307025 -1.58384 -2.351501 0.647491 1.510716 1.141151 0.035075999999999996 -2.635949 0.12566 1.4096980000000001 0.38430200000000003 -0.12446299999999999 -0.5263260000000001 -0.24255 0.12724800000000003 0.13953700000000002 0.714175 -0.499056 -0.886867 -0.493317 0.173312 1.338594 1.5378379999999998 -1.17154 -1.043475 0.715824 0.05500699999999997 0.674998 0.08693100000000001 -0.024534 -0.4222429999999999 0.7337 0.40561 0.21595000000000003 -0.665433 0.413927 -1.399296 -1.750156 -0.156021 -0.52761 1.536483 -1.448289 -0.533621 0.184008 -0.47731 0.28450300000000006 0.26429 -0.722279 0.62654 -0.984831 -0.17444900000000002 0.42400899999999997 -0.46736099999999997 0.87226 -0.241908 -0.08435500000000007 0.9322170000000001 -0.223218 0.829395 -1.348341 0.23531799999999997 -0.86 2.1352260000000003 -0.32584900000000006 -0.742681 -0.38263199999999997 1.347518 0.6258050000000001 -0.135614 0.294142 2.092199 -0.77934 0.775369 -0.39637 0.074188 -0.5386070000000001 -1.458824 1.103636 0.7875810000000001 0.35272299999999995 1.6164779999999999 0.586712 -0.127189 0.28852999999999995 -0.045683 1.581844 0.447511 -0.5817060000000001 -1.129967 0.747013 0.350182 0.14616 -0.005514000000000019 -0.24138199999999999 0.31341699999999995 2.405171 -0.723168 -1.306727 0.118525 -1.327492 -0.583129 0.601406 0.510676 -2.37897 0.796825 0.536781 2.1818980000000003 0.794917 -0.719924 -1.851808 -0.9721089999999999 0.269789 1.047752 0.003832000000000002 -1.4394179999999999 -1.3714119999999999 -1.197562 0.6208400000000001 0.541506 -0.752772 0.858104 -0.115388 -0.38944199999999995 -0.263751 -0.7029209999999999 -0.49004000000000003 -1.36055 -0.602716 -0.333719 -0.515785 1.115345 1.1811880000000001 -0.8840790000000001 -1.278405 0.776584 -0.810173 -0.677411 1.028348 1.2866309999999999 -0.295489 -0.29086599999999996 0.670019 -0.11622099999999999 0.598197 0.606312 -0.92487 -0.6391309999999999 -0.03642299999999998 0.487788 0.857847 1.1514229999999999 -1.676831 -0.956096 -0.5274920000000001 0.941481 -0.053941 -0.541109 -0.780672 1.132331 -1.058059 0.8616999999999999 -0.148897 1.939476 2.204781 0.317683 0.10962900000000003 -0.693705 -0.276307 0.916021 0.7300300000000001 -0.996305 -0.666393 2.176005 0.9825189999999999 -1.16587 0.65027 0.588843 0.725931 0.170326 -0.819185 -0.374954 0.7694099999999999 1.253858 -0.177781 -0.270555 0.277794 -0.35607400000000006 -0.570943 1.206483 -0.6265620000000001 0.901859 0.10543899999999999 -0.05435099999999998 0.431769 -1.1281539999999999 -0.244453 -0.203194 0.8380559999999999