weightmans 0.342615 -0.250923 0.599267 0.47157899999999997 -1.595348 -0.23797400000000002 -0.42728900000000003 0.197251 -0.21260099999999998 -0.44011600000000006 0.27596899999999996 -0.46005 0.208407 -0.15379 -0.396159 0.479931 -0.17484499999999997 -0.0005880000000000052 0.325758 0.15798800000000002 -1.048616 0.845824 -0.349993 -0.497295 0.226852 0.296963 -0.338953 0.011972999999999956 -0.781852 0.835916 -0.198133 0.533183 -1.03263 -0.3718 -0.310746 0.151615 0.250523 0.10588800000000001 -0.195745 -0.29687399999999997 0.6920489999999999 -0.509497 0.622717 -0.067124 -0.069463 0.2642549999999999 0.703087 0.052874 -0.013646000000000005 0.255815 0.372543 0.295686 -0.819068 0.38354600000000005 0.184518 0.739499 -0.177753 -0.495055 -0.0004009999999999986 0.11393500000000001 -0.45609999999999995 0.307792 0.26802499999999996 0.6211679999999999 -0.492172 0.20352599999999998 -0.844461 0.12141799999999998 0.292943 0.160466 -0.309664 -0.20946199999999998 0.555613 -0.083745 -0.282275 -0.45818499999999995 0.228029 -0.26495599999999997 -0.8245560000000001 0.12334799999999999 0.401711 0.262493 -1.4503780000000002 0.437052 0.06323899999999999 0.174527 0.139258 -0.957874 -0.6302559999999999 1.413146 0.216165 0.25705 -0.393945 -0.34653 -0.29185099999999997 -0.39621800000000007 0.360732 0.10969 0.17924299999999999 -0.6731560000000001 -0.9417139999999999 -1.143343 -0.411736 -0.355687 0.322037 -0.633434 0.34494 0.801653 -0.284822 0.18924100000000002 -0.775347 -0.303014 -0.926183 0.090947 -0.065925 0.032881 -0.084514 0.863317 -0.345079 0.075808 -0.5617449999999999 -0.850795 0.362284 0.09972900000000001 0.302734 0.021765000000000007 0.083032 -0.852636 -0.030674999999999994 0.500646 1.308092 -0.34997 1.251591 0.223551 0.10977299999999998 0.035460000000000005 0.014098999999999973 -0.851265 -0.15650299999999998 0.43873399999999996 0.28844600000000004 0.7162869999999999 0.05272199999999999 0.13668 0.467172 0.652239 0.07741999999999999 0.031200999999999993 0.613078 0.48533 -0.52142 0.947246 0.277651 0.017785000000000002 0.459871 0.189226 0.120686 0.142953 -0.698952 0.531107 0.621778 -0.186655 -0.972855 0.048802999999999985 0.6339130000000001 0.202698 -0.187384 -0.42325999999999997 -0.7531950000000001 -0.338269 -0.029382 0.24391300000000002 0.486154 -0.48228800000000005 -0.16245700000000002 -0.804113 0.06911700000000001 -0.32409099999999996 0.07899600000000001 -0.205669 -0.23478599999999994 0.871937 0.46618800000000005 -0.398969 -0.11526700000000001 -0.318591 -0.389726 0.103157 -0.484552 0.5207930000000001 -0.048136999999999985 -0.39793 0.381818 -0.464969 -0.43634300000000004 0.08014299999999999 1.090557 -0.923107 0.13257400000000003 0.092198 -0.379841 0.11638199999999999 -0.19665 -0.843073 0.805904 -0.33848999999999996 -0.335099 -0.209848 0.40501800000000004 0.028314999999999993 0.321083 0.600351 -0.18212699999999998 -0.418468 -0.257587 0.22186499999999998 -0.447814 0.176078 -0.681735 0.560686 0.010807999999999984 0.33568299999999995 0.256586 0.377606 0.190232 -0.344736 0.784619 -0.436335 0.9889460000000001 0.202737 -0.552369 -0.10600599999999999 0.536397 0.021818000000000004 -0.536686 -0.11976700000000001 -0.2751 -0.23971199999999998 0.25475500000000006 0.611673 -0.193582 -0.691041 0.295599 -0.8441970000000001 0.6945370000000001 0.406505 0.25412999999999997 0.0005709999999999882 -0.5052369999999999 -0.306533 0.303364 -0.287041 -0.12092 -0.470682 1.6583269999999999 -1.130644 0.606567 0.12862300000000002 -0.578685 -0.418923 -0.117032 0.964871 -0.21611199999999997 -0.20771699999999998 0.648226 -0.568071 -0.2865019999999999 -0.05639100000000001 0.14606200000000003 0.040984999999999994 0.120134 0.02037299999999999 -0.17181 -0.417161 0.053903 -0.367714 0.10021700000000001 -0.6562509999999999 -1.0809090000000001 1.004945 -0.832437 -0.6336710000000001 -1.157104 0.038444 0.30097799999999997 0.743707 0.46407099999999996 0.08271400000000001 -1.365935 -0.602045 -1.050092 0.686248 0.45476599999999995 -0.509846 -0.6597350000000001 0.24337400000000003 0.6170669999999999 -0.033502000000000004 -0.153762 0.925635