weight1 0.10516199999999999 0.683097 0.804501 -0.19160000000000002 0.015338999999999992 -0.655885 0.092448 -0.105824 0.202959 -0.524273 0.143968 -0.932202 0.295219 0.348937 -0.220332 -0.09704299999999999 0.36512900000000004 -0.073852 0.053035 0.06356500000000001 -0.143667 -0.320167 0.397532 -0.291965 0.14811100000000002 -0.07356999999999997 -0.319625 -1.0957080000000001 -0.016682999999999948 -0.851681 -0.343385 0.047721 -0.154047 0.984227 0.543602 0.020135999999999998 0.02297500000000001 0.650237 0.33441999999999994 0.40998799999999996 -0.028621000000000008 0.680831 0.262658 -0.396457 -1.340993 0.277904 0.5524 0.372682 0.377052 -0.696535 0.34420399999999995 -0.129187 0.015656000000000003 0.917054 0.300699 -0.30990300000000004 1.097415 0.282643 0.789687 0.37151100000000004 0.0413 -0.262498 -0.164439 -0.41159999999999997 0.138542 0.16432200000000002 0.623996 0.33876 0.5591320000000001 -0.29848700000000006 -0.202237 -0.8783030000000001 -0.395439 -0.170549 -0.1514 -0.18122499999999997 -0.600293 -0.345255 -0.152465 0.460337 0.5506909999999999 0.22453499999999998 -0.046471 -0.12876800000000002 -0.288252 0.189027 -0.35683499999999996 -0.34969100000000003 -0.9290639999999999 -0.15908100000000003 0.808458 -0.13492499999999996 0.8739870000000001 0.318369 0.189909 -0.422187 -0.359179 0.725206 -1.1393469999999999 -0.151725 0.334649 -0.372957 -0.5014460000000001 -0.513491 0.136094 -0.03818 0.407438 -0.368266 -0.10178099999999998 -0.185074 0.202306 -0.595491 -0.15347 -0.041603999999999995 0.257674 -0.06765900000000002 0.192328 -0.205744 -0.755904 0.5649569999999999 0.184736 0.419324 0.482047 0.552729 0.047266 0.556979 -0.114 0.03907500000000001 -0.25791400000000003 0.974309 0.05249299999999999 -0.15670099999999998 0.281484 0.122505 -0.715206 0.27514500000000003 -0.349437 0.01461900000000002 0.904849 -0.785812 -0.19869799999999999 0.311355 -0.43652799999999997 0.057291 0.412813 -0.415647 0.78478 -0.28431300000000004 0.1812649999999999 0.381069 1.071402 -0.14967499999999995 0.302816 -0.22471999999999998 0.744805 -0.364118 -0.427179 -0.677387 0.386323 0.039012000000000005 0.02335100000000001 -0.652335 -0.403072 0.40895899999999996 -0.075683 -0.424553 0.014634000000000008 0.05092 -0.368391 -0.09231 0.26968499999999995 -0.486714 -0.334454 0.148353 -0.44996600000000003 0.778915 -0.09729700000000002 -0.688083 -0.570282 -1.592865 0.599386 0.07699300000000003 0.18208900000000003 0.40643100000000004 -0.288811 -0.852308 -0.146984 0.620468 -0.28342599999999996 0.513598 -0.48702199999999995 -0.266102 -0.03346499999999997 0.023720999999999992 0.23139400000000002 0.14940900000000001 0.315961 0.241553 -0.06899 -0.783666 -0.182084 -0.07527 0.015857999999999997 0.08555700000000001 -0.31164400000000003 -0.178982 -0.059178 -0.369248 -0.496811 -0.244872 -0.12422499999999997 0.666659 -0.031799999999999995 0.323838 -0.390089 -0.085138 0.06963 -0.784836 -0.744263 0.42089499999999996 -0.583069 -0.5241640000000001 0.538434 0.059203000000000006 0.6389739999999999 0.2582 -0.555743 0.300424 1.065215 0.26739 0.21118799999999993 0.489523 0.347554 0.32666000000000006 0.17754200000000003 -0.420011 0.280833 -0.140042 0.085165 -0.027343999999999993 0.11230000000000004 -0.572682 0.20264500000000002 0.647286 -0.894598 0.843546 0.518111 0.366248 0.452747 -0.010283 -0.22246299999999997 0.10334199999999999 0.26416300000000004 -0.155178 0.366602 0.086025 0.5238700000000001 -0.66973 -0.13817000000000002 0.049920000000000006 -0.411363 0.01472100000000004 0.076663 -0.46631300000000003 -0.15482400000000002 -0.32808600000000004 -0.290234 0.148422 -0.07353599999999999 -0.62522 -0.7325079999999999 -0.24615400000000004 -0.20200400000000002 0.43655499999999997 -0.116817 0.617142 -0.17685599999999999 -0.612965 -0.5260050000000001 -0.053382 -0.589045 -0.329815 -0.677804 0.284326 -0.04221899999999998 -0.9626840000000001 0.155927 0.573975 0.539149 -0.587635 0.509324 -0.987839 -0.111486 0.36842699999999995 -0.386112 0.136672 0.21876500000000002 -1.102075 0.320671 0.43050900000000003