weightgain 0.0026239999999999875 -0.39674200000000004 0.154195 -0.80526 0.091458 0.313232 -0.39302 -0.337091 -0.6514399999999999 -0.313745 0.6857800000000001 -0.16221599999999997 -0.06591000000000002 -0.036775999999999996 -0.886119 -0.33245199999999997 -0.642533 -0.0017719999999999958 0.774956 -0.13678500000000002 -0.321364 -0.343111 0.515854 0.169261 0.298328 0.417203 0.6098830000000001 -0.280181 0.28155399999999997 -0.45866300000000004 0.20359100000000002 -0.682438 -1.135572 -0.117865 -0.26236100000000007 -0.761524 0.354882 0.586401 0.14169900000000002 0.6260880000000001 0.864139 0.21434 0.086444 0.512918 -0.24624000000000001 -0.634452 0.266259 1.2347139999999999 0.930167 0.715106 0.16115600000000002 -0.488457 -0.06802 0.077508 0.062122000000000004 -0.410348 -0.36485 0.133994 0.370296 0.491981 0.130553 0.10401300000000001 -0.171887 -0.664698 0.090722 0.12037099999999999 0.05211199999999999 0.874796 0.732795 -0.369284 0.400675 0.3197 0.548135 0.16052099999999997 -0.15632800000000002 -0.614719 -0.7296769999999999 0.407836 -1.005444 -0.045309 -0.418871 0.456576 0.23552 0.112144 -0.13377699999999998 -0.34651 -0.286528 -0.740423 0.502494 0.26417 0.186423 0.139153 -0.21957700000000002 0.206488 -0.495316 0.136828 0.44796900000000006 -0.01508000000000001 -0.880685 -0.825672 -0.22255800000000003 0.670114 -0.751349 -0.21815199999999998 0.13310599999999997 -0.79409 0.8719350000000001 -0.27382399999999996 -0.13336 -0.07573900000000001 -0.168891 0.043071 0.021435999999999983 -0.12324099999999999 -0.252981 0.58196 -0.412146 -0.299084 -0.270198 -0.360396 0.292034 0.02038699999999999 -0.388443 -0.425878 0.54515 0.532892 0.42412700000000003 0.172962 -0.395734 -0.09835899999999999 -1.2418230000000001 -0.054668 0.338103 0.31953699999999996 0.763995 0.033158999999999994 -1.17047 -0.678104 1.228522 -0.169341 0.968577 -0.01492199999999999 0.5354720000000001 0.286911 0.437246 0.079774 0.372664 -0.484122 0.481651 0.32849 0.098384 -0.09432800000000001 0.169317 -0.346849 0.278923 -0.182191 -0.7188939999999999 0.35169799999999996 0.010767000000000002 0.095409 -0.331687 -0.6062259999999999 0.180641 -0.250442 0.416385 0.07767300000000005 -0.7309730000000001 0.53973 -0.409796 -0.309626 -0.083868 0.406856 0.415455 -0.23351100000000002 -0.466797 0.578454 0.030571999999999988 0.6324110000000001 0.6759000000000001 0.217721 0.077329 0.19689600000000002 0.277107 0.649643 0.53323 -0.48151099999999997 0.44707699999999995 -0.185554 -0.121743 -0.44027700000000003 -0.540152 0.213395 0.5186660000000001 0.417747 -0.847975 0.014855000000000007 -0.038316 -0.130206 0.538721 -0.12294100000000001 -0.23861400000000002 -0.221399 -0.159462 0.435728 -0.09504 0.45929 0.278345 0.17817499999999997 0.09515599999999999 -0.504834 -0.129891 0.22397099999999998 -1.5016850000000002 -0.027897000000000005 0.06986899999999999 0.076489 0.02940899999999999 -0.276618 -0.437 -0.03592400000000001 -0.18088100000000001 -0.245334 1.402436 -0.47722699999999996 0.374596 -0.676342 -0.192567 0.169358 0.045749 -0.611375 -0.33785 -0.690267 0.232924 -0.18136799999999997 0.139709 0.08354100000000003 -0.401542 -0.38859999999999995 0.216133 0.055639999999999995 0.278126 -0.10954900000000001 0.274338 0.18589699999999998 -0.662594 0.743043 0.502303 -0.06897600000000004 0.01514 -0.653395 0.008567999999999992 0.512217 -0.5520560000000001 -0.246087 0.811464 -0.07047199999999999 -0.199787 0.436887 0.24780200000000002 0.972267 1.222949 0.6536730000000001 -0.302891 0.555957 0.48648399999999997 -0.270572 -0.556864 0.607776 0.28442 -0.262759 0.014223000000000013 0.17436 -0.265866 -0.130883 -0.0023870000000000002 0.38866500000000004 -0.10577299999999999 0.558781 -0.29962 -0.10468000000000001 -0.128074 0.42495099999999997 -0.463924 0.579475 -0.11947600000000001 -0.10075100000000001 0.09127299999999999 0.25148800000000004 0.5971409999999999 -0.23075300000000004 -0.186391 -0.035258999999999985 -0.028650000000000002 0.637064 -0.5816359999999999 0.27233399999999996 0.198254 0.326639 -0.027288000000000034 -0.284501