weightman 0.26631299999999997 -0.268013 -0.172178 0.012766 -0.407823 -0.269499 0.819889 -0.683837 0.04147500000000004 -0.398037 -0.32549500000000003 -0.348482 -0.05983100000000001 -0.17622700000000002 0.20103000000000001 0.345309 -0.320577 -0.306374 -0.15098499999999998 0.619029 -0.883197 0.27186899999999997 0.098193 0.32681899999999997 0.222287 -0.098329 0.013098000000000012 0.465682 0.391718 0.435981 0.021993 0.594544 -0.468762 -0.067469 -0.296728 0.011894999999999996 0.09552100000000002 0.09044899999999997 -0.0008969999999999811 -0.651865 -0.008703000000000016 -0.042989 0.6663709999999999 -0.05204 -0.338924 0.248056 -0.773834 -0.12892000000000003 -0.539284 0.208131 -0.298441 -1.2096040000000001 0.073946 -0.34796499999999997 -0.129639 0.205455 0.0045640000000000125 0.232984 -0.637945 -0.48173000000000005 0.14563199999999998 0.524887 -0.935706 -0.161099 0.342069 0.226411 -0.37388299999999997 0.232846 0.889886 0.231807 -0.287519 0.033261 0.538462 -0.37664600000000004 -0.051625000000000004 0.263517 -0.51822 -0.07790899999999995 0.03348899999999999 0.41233600000000004 0.087913 -0.245055 -0.297211 0.362178 -0.678705 0.31293099999999996 -0.484405 -0.22314 0.580302 0.322654 -0.195107 0.28742900000000005 -0.22792099999999998 -0.24322300000000002 0.652202 -0.303058 -0.330924 -0.19797800000000002 -0.17278100000000002 0.41317499999999996 -0.231475 -0.345727 0.411865 0.46722 -0.077927 -0.10400200000000001 -0.462734 0.5211859999999999 0.157746 -0.32090399999999997 -0.032885 0.12232399999999999 0.04697399999999999 0.24845499999999998 -0.27475 -0.082112 0.340317 1.0953979999999999 -0.092794 -0.440987 0.08975899999999999 -0.47637599999999997 0.181688 -0.665807 0.199085 0.04491999999999999 0.06625600000000004 -0.448653 0.323911 0.7930889999999999 -0.02945099999999999 -0.597345 -0.06207700000000001 -0.402066 -0.623943 -0.486808 -0.603418 -0.080428 0.315431 0.371275 0.130045 -0.738939 0.08237200000000001 0.10328599999999999 0.747941 -0.010998 -0.537942 0.5252829999999999 0.423801 0.148209 -0.051962999999999995 0.452186 -0.080606 0.018728999999999996 0.068101 0.299016 0.160331 0.6869780000000001 0.669891 -0.39986900000000003 -0.457749 0.133605 -1.242599 -0.12709199999999998 -0.520457 -0.253521 -0.546735 -0.087844 0.8914850000000001 0.857346 0.11937400000000001 0.172971 -0.023649 0.24770399999999998 0.162026 0.35918 -0.026688 -0.454562 -0.521485 0.680628 -0.338027 0.05311099999999999 0.17974299999999999 -0.29490000000000005 0.062818 -0.374257 0.614899 -0.31303100000000006 -0.204929 0.5010600000000001 0.03586600000000001 0.267359 -0.2309 0.679021 -0.04087299999999999 -0.086395 0.293274 0.576612 -0.508256 0.513814 -0.360439 0.436925 0.45222199999999996 -0.17505199999999999 0.222653 -0.681311 0.148941 0.335401 1.064644 -0.772665 0.346133 0.988313 0.11485799999999999 -0.204847 -0.0052259999999999945 0.34245499999999995 0.202512 0.022810000000000004 0.44177299999999997 -0.296632 0.797785 0.265261 -0.561644 0.49161299999999997 0.294775 0.16003499999999998 0.413002 0.079695 1.1863549999999998 -0.278527 -0.447213 0.48001399999999994 0.7650870000000001 0.33224699999999996 0.185039 -0.207279 0.159378 -0.372322 0.504838 -0.06382499999999999 -0.152389 0.027838999999999996 0.237133 0.07969800000000002 0.17000700000000002 0.809626 -0.0003939999999999985 0.33203099999999997 -0.10395099999999999 -0.19203900000000002 -0.721847 0.687907 -0.7149369999999999 0.28868499999999997 -0.779739 0.40485499999999996 0.451744 0.5365219999999999 -0.40260999999999997 0.305089 -0.315724 0.22619999999999998 0.08288499999999999 -0.060048000000000004 -0.001918000000000003 -0.41810099999999994 -0.39582199999999995 0.578109 0.181747 -0.307909 0.311457 -0.07868999999999998 -0.791712 0.27648999999999996 -0.21736699999999998 0.331714 -0.3925599999999999 0.094414 0.40888199999999997 -0.018485 -0.04865600000000003 0.051452000000000005 -0.796601 -0.378516 -0.178488 0.162003 0.09659599999999999 0.37334 0.205952 -0.036548000000000004 0.04584699999999999 -0.211566 -0.076917 0.10491300000000003 0.197165 0.12232100000000001 -0.248463 -0.28275 0.07022899999999999 -0.10510299999999997