weightier -0.824677 -0.129766 0.20230099999999995 1.0528499999999998 0.378096 -0.14606299999999997 0.6964410000000001 0.291716 0.10125899999999999 0.375019 -0.193132 -0.6002529999999999 -0.268154 0.833494 -0.06426199999999999 0.359897 -0.380922 0.264997 -0.31959800000000005 0.49562 0.321242 -0.28714 0.2208 0.43936600000000003 0.503575 -0.92944 -0.58121 0.430605 0.30706100000000003 -0.41587799999999997 -0.38827500000000004 0.20117999999999997 -0.34933000000000003 0.705016 0.33131 -0.385089 0.007921999999999998 0.218338 0.6737059999999999 0.12862099999999999 0.34656 -0.38922999999999996 0.032639 -0.604257 0.07347400000000001 0.6293799999999999 0.560454 -0.103244 0.014314999999999994 -0.021089999999999998 -0.969061 0.41086599999999995 0.340047 -0.9411529999999999 0.025588999999999973 -0.314509 -0.046342999999999995 -0.34930700000000003 -0.188779 -0.225355 1.3161459999999998 -0.6476390000000001 -0.10182099999999997 0.046821999999999975 0.15718100000000002 -0.25794799999999996 -0.27335000000000004 0.570634 0.8481730000000001 -0.063992 -0.114815 -0.03204299999999999 -0.821564 -0.371309 -0.736644 1.0636160000000001 1.140012 0.447963 0.14727900000000002 -0.025280999999999998 1.324258 0.709986 -0.19987799999999997 0.095465 -1.11319 -0.11787300000000003 -0.981069 -0.633182 0.32177500000000003 0.475718 -0.253672 0.7270760000000001 0.15672799999999998 -0.733082 0.679569 -0.17677400000000004 0.510038 0.24808599999999997 -0.921033 0.352096 -0.797409 0.641267 -0.420154 -0.195872 0.529004 -0.47483 0.075433 -0.45175200000000004 -0.5089239999999999 0.497558 0.33767499999999995 -1.147634 -0.007666 -1.133671 -0.008726999999999999 0.483031 -0.562283 0.031063 -0.504588 -0.595542 0.745614 0.378616 -0.46709900000000004 -0.847801 0.9020440000000001 0.7715529999999999 -0.542386 -0.117054 0.405611 -0.960277 0.04080400000000001 0.44863499999999995 0.256757 -0.924263 -0.054710999999999996 -0.146771 -0.5381370000000001 1.2065009999999998 -0.6309210000000001 -0.306059 -0.646169 0.501707 -0.260149 -0.430376 0.6025550000000001 -0.252997 -0.430461 0.04262 0.397394 -0.205124 0.192851 0.38328199999999996 0.170249 -0.079942 0.163208 -0.006258000000000041 -0.264114 0.03273699999999999 -0.0008130000000000082 -0.292832 0.234112 -0.22941299999999998 0.120362 -0.061279999999999994 0.642342 0.216933 0.12339199999999999 0.116899 0.12138100000000002 0.677482 0.135641 -0.52774 -0.298396 0.366714 -0.317202 0.45514200000000005 0.844769 -1.021373 0.089418 -0.41373800000000005 -0.9628530000000001 -0.22313399999999994 0.450055 0.45599600000000007 -0.542774 1.079245 0.261565 0.596378 0.358193 0.163562 0.414655 -0.11910700000000002 0.5236419999999999 0.225284 -0.607361 -0.458502 0.815339 -0.659593 0.089208 0.080784 -0.57413 -0.31959 0.179459 -0.7309 0.17499699999999999 -0.351709 -0.52511 0.387067 0.279009 -0.600375 -0.321645 -0.831793 0.460758 0.029680000000000012 2.035597 -0.785798 0.091532 0.233877 0.258549 -0.013330000000000009 -0.35611400000000004 0.06928899999999999 -0.268279 -0.44403899999999996 1.208426 -0.27413099999999996 0.18021900000000002 -0.13387900000000003 -0.08815299999999998 -0.639397 -0.577426 0.335729 -0.02079700000000001 0.585284 0.05338699999999996 0.571507 -0.815381 0.944793 0.076731 0.19334 -0.10913999999999999 -0.032162000000000024 -0.384822 -0.796009 0.284203 0.92771 0.08720500000000003 -0.23260100000000006 0.04068100000000002 0.151795 -0.17169299999999998 -0.178946 -0.054743000000000014 0.26291200000000003 -0.15356799999999998 -0.46007 0.10036 0.13295400000000007 -0.860827 0.08838099999999999 0.663086 -0.70073 -0.113858 0.282239 0.136762 -0.10218499999999997 0.142461 -0.558417 0.410092 -0.7199770000000001 0.6847749999999999 0.246012 0.281294 -0.030614000000000002 -0.04272 -1.311045 0.44531299999999996 0.557202 -0.276924 0.362615 0.04821800000000001 -0.10766600000000001 -0.46102600000000005 0.577519 -0.20813800000000002 0.5034620000000001 -0.15504300000000004 0.671519 -0.36025999999999997 -0.687474 0.11626700000000001 0.597933 0.5810919999999999 -1.006283 -0.647528 0.066002 0.918536 0.13013199999999997 0.793749 0.338133