weightlifters 0.421379 1.0992380000000002 0.247924 -0.54489 -0.06143800000000002 -0.2128 0.357444 0.308807 0.41475999999999996 0.455016 1.1123699999999999 -0.209569 0.622573 -0.534249 0.177104 -0.537228 -0.298988 -0.081733 -0.5663020000000001 -0.400774 -0.22136899999999998 -0.38225899999999996 0.41467 1.217529 -0.05529200000000001 -0.622184 0.614564 -0.53598 0.018199999999999994 0.352214 0.083626 0.69167 0.06325999999999998 -0.467576 -0.481695 0.656418 -0.037268 0.376855 -0.797562 -0.315639 0.16520900000000002 -0.47694000000000003 0.41219300000000003 -0.268318 -0.296549 0.228474 0.529548 0.295024 -0.42857600000000007 0.18305400000000002 -0.246992 -0.011276000000000008 -0.10207400000000003 -0.10098000000000001 0.760616 -0.57282 0.608567 0.20386900000000002 0.587947 0.47155800000000003 -0.625656 0.466715 -0.33287 0.39876900000000004 0.534151 1.13931 -0.212291 -0.025148000000000004 0.151188 0.593173 0.396305 -0.101848 0.55838 -0.30600299999999997 -0.576188 -0.685233 0.557882 -0.015747999999999998 -0.27151000000000003 -0.07334099999999999 0.304633 0.152116 0.526069 -0.406514 -0.09229699999999999 1.0101580000000001 0.549268 0.369201 0.21668700000000002 -0.517256 0.03809 -0.07874199999999999 -0.44557 -0.19450299999999998 0.03812599999999999 0.16526100000000002 0.142378 0.23125 -1.01633 -0.22260599999999997 -0.07953300000000002 0.19882000000000002 0.223892 0.232328 -0.998858 0.768782 0.9779960000000001 0.29193 -0.161598 0.7360709999999999 -0.611834 0.044378 -0.668142 0.459615 0.24782699999999996 0.360241 -0.06102199999999999 0.04199200000000003 -0.289201 0.30264599999999997 0.711609 0.221244 0.574825 0.011339000000000016 -0.11773700000000001 -0.065465 0.21197499999999997 -0.81053 -0.134133 0.031491000000000005 -0.994274 0.655716 -0.392963 -0.08198899999999998 0.721793 -0.020139999999999998 -0.19939400000000002 -0.14570899999999998 -0.562787 -0.04967 -0.71515 -0.382793 0.246102 0.064433 -0.048894 -0.12333400000000001 0.17987999999999998 -0.017320999999999975 -0.186038 -0.166107 -0.387306 0.400819 -0.059905 0.45317599999999997 0.373099 1.076496 0.23574799999999999 -0.28480500000000003 -0.376299 0.084975 -0.21635700000000002 0.472169 -1.528534 0.267994 -0.531683 0.5693809999999999 0.17757 0.08257399999999998 -0.18887900000000002 0.528163 0.6711199999999999 0.485086 -0.219976 -0.227572 -0.20242300000000002 0.47018499999999996 0.23456499999999997 -0.6320520000000001 -0.13721 0.42634599999999995 -0.46710199999999996 -0.194611 0.06027100000000002 1.216573 0.7791380000000001 -0.089849 0.6351669999999999 0.148362 0.21260099999999998 0.315621 -0.102702 0.533547 0.572422 0.321464 0.152938 -0.453338 -0.915013 0.652062 -0.262652 -0.217227 0.260306 -0.440682 0.682393 -0.611608 -0.48196700000000003 -0.320742 0.17798800000000004 -0.711073 -0.260699 -0.061112000000000014 -0.040339 1.2614 0.192097 -0.07314999999999999 -0.059190999999999994 -0.347976 0.05874 -0.036159 0.227397 -0.334428 1.08637 -0.079037 0.837625 -0.259652 1.3466420000000001 -0.379322 0.02779799999999999 0.344816 0.379223 -0.38356 -0.154789 0.640559 -0.144725 0.497264 -0.353974 -0.026917000000000024 0.07256300000000002 -0.064265 0.010774000000000006 -0.322249 -0.171032 -0.46941099999999997 -0.011204999999999993 -0.618669 0.340892 0.842033 -0.87129 0.517307 0.138452 0.422216 0.028574000000000016 0.11085099999999999 0.10286999999999999 -0.276302 0.07397599999999999 0.25856 0.126954 0.62816 -0.552135 -0.697735 0.471241 0.10472899999999999 0.069041 0.28649899999999995 -0.654801 -0.019213999999999995 0.328527 0.12723800000000002 0.20620299999999997 -0.338871 -0.601216 -1.0253349999999999 -0.538441 0.327202 -0.009987 0.21769500000000003 -0.255837 -0.561869 0.928696 -0.278636 0.527442 0.109119 -0.505192 0.271523 0.656552 -0.585365 1.4304540000000001 0.39022599999999996 0.344032 -0.386949 -0.136576 0.183768 1.1390980000000002 -0.343404 -0.388416 -0.23908000000000001 -0.061531 -0.024964999999999994 0.281067 0.03687700000000002