weightrelated -0.9939899999999999 -0.869537 0.392872 1.169816 -0.02520100000000003 -0.516279 -1.042654 0.687361 -0.87425 -0.373607 0.48769 -0.542671 -1.300894 -0.487129 -0.332896 1.3902109999999999 -1.002038 0.269258 0.866703 1.504329 -1.35177 0.354718 0.788007 0.598013 -0.585376 -0.6017300000000001 -0.396873 -0.336496 -0.300843 -2.4050529999999997 -1.588339 0.9565870000000001 -1.35934 0.653745 -0.892928 -0.26660300000000003 0.28504300000000005 2.715416 -0.229353 -0.20978199999999997 -0.155478 1.035675 -0.250683 -1.106727 -2.0554 2.664234 1.622248 -2.097205 -1.629051 -0.534253 -0.312545 -2.279715 0.546006 0.393697 2.379341 -0.766718 0.974052 -1.065524 -0.697797 -0.695029 -0.060799999999999965 1.164243 -1.360867 1.363124 -0.647472 0.190453 -0.969576 2.624416 0.344603 -0.45504799999999995 0.503911 0.07867499999999994 2.149204 -0.454008 1.0562399999999998 0.568819 1.229148 -0.648767 -1.183323 -0.595917 1.246621 -1.20844 -1.1479620000000001 -0.451448 0.3354619999999999 1.123391 0.72827 -0.838588 -1.773936 -0.31843299999999997 0.241588 0.504994 0.48085999999999995 -0.996018 -1.707872 0.402337 -2.468803 -1.0391460000000001 -0.690047 -0.203397 0.658247 -0.469417 -2.472528 -1.121158 -1.9468869999999998 -0.31331200000000003 2.833912 -0.07571300000000002 1.1881309999999998 -0.768713 -0.20010300000000003 -0.8429599999999999 -1.405808 -0.023744999999999995 0.049368999999999996 0.77424 0.24195299999999997 1.156768 0.080986 -0.107683 -1.421143 -0.30678399999999995 -0.634584 -1.427747 -0.078563 0.35226900000000005 -0.821893 0.796591 1.702925 0.830396 0.685854 -1.3929799999999999 -0.919611 0.343541 1.4639499999999999 -0.150915 1.042505 1.108629 0.039743999999999995 -0.047451999999999994 -1.570946 -0.20044399999999996 1.787831 0.560172 -1.000497 -0.27085499999999996 0.887481 1.969536 -1.243775 0.263327 1.643056 -0.568076 0.903151 -1.563173 -0.035421 0.099465 -1.362658 -0.978808 -2.211083 0.4887 2.197225 0.6666700000000001 0.751431 0.47255499999999995 -0.24874600000000002 1.359056 0.575619 -1.479014 0.522784 0.520216 -0.11423299999999999 0.28405199999999997 -2.156228 0.8663000000000001 -1.483292 0.859134 -0.398597 1.1098510000000001 -0.9508089999999999 0.8197369999999999 -0.38755900000000004 -0.401428 2.2671330000000003 1.440688 0.8270489999999999 0.538473 0.39384399999999997 -0.597752 -0.43487200000000004 0.07811300000000004 0.09384200000000001 -1.268217 -1.147116 -1.035234 0.971924 0.98579 -0.48907399999999995 -0.191221 2.719452 -1.175822 -0.24149900000000002 -0.567882 0.27326200000000006 0.49202 -0.328451 -1.990448 -0.628032 -0.523304 0.597559 0.815526 -0.400852 -1.202707 0.35554299999999994 -0.48729 -0.42778 -1.7702499999999999 1.871391 0.682256 -1.2860610000000001 -0.29381099999999993 -0.9505570000000001 0.239311 -0.871447 -0.9260270000000002 1.5645769999999999 -1.00238 1.196167 -0.972789 0.439676 -2.074854 -1.043245 -0.7992429999999999 0.29611099999999996 -0.628714 0.14903099999999997 0.528263 0.45511999999999997 0.521928 1.076813 0.531533 0.294259 0.9675549999999999 1.8362580000000002 -1.094669 -2.300618 -0.416763 -0.088806 0.38849900000000004 -1.59599 -0.994097 -0.99902 1.41781 -1.212104 -0.635066 0.7555299999999998 -0.447967 -0.035563999999999985 -0.5005440000000001 0.7827930000000001 -0.18578699999999992 0.420369 -0.6013809999999999 0.652396 -1.0211810000000001 -0.662889 1.254673 -0.369513 0.20748200000000006 -0.033557000000000003 -1.7584840000000002 0.7796190000000001 -0.9796590000000001 -0.424453 0.24347400000000002 -0.275279 0.24828799999999998 1.229469 0.271072 0.038135 0.8810600000000001 0.445677 0.926243 -0.783628 -1.542186 -1.428637 0.12519400000000003 1.128304 0.212943 1.240896 -0.961187 1.686526 -1.245924 0.660262 0.151132 1.5777079999999999 0.9278770000000001 1.110939 0.044354000000000005 -0.32476900000000003 -0.096982