weight.in -0.07319399999999998 -0.17623500000000003 0.44840599999999997 -0.640062 -0.076657 -0.109446 -1.160947 -1.278041 -0.26268400000000003 -0.09223200000000001 0.505844 -0.247867 1.522411 1.114121 0.17449399999999998 -0.222302 -0.8456969999999999 -0.690776 0.8773469999999999 0.5281849999999999 0.14839200000000002 -0.6129450000000001 0.614607 0.116831 -0.051118 0.036906 -0.052823 -0.05069199999999999 0.0012969999999999926 -0.42617700000000003 -0.174136 -0.294176 0.568716 -0.7394069999999999 0.23304399999999997 0.260574 -0.342004 0.22853500000000002 -0.379131 -0.7603869999999999 -0.433128 1.300655 0.147818 0.975279 0.093656 0.727023 1.255807 0.630895 0.254853 0.02232200000000001 0.43385399999999996 -0.130164 -0.535812 0.8519589999999999 0.09410299999999999 -1.262545 -0.224927 -0.007800000000000001 0.48538000000000003 0.40815599999999996 -0.5376489999999999 0.10405999999999999 1.273592 0.563698 -0.871321 0.118135 -0.183664 0.6449940000000001 -1.182388 -0.529568 -0.221957 -0.845367 -0.911573 -0.583924 -0.9416140000000001 -0.592962 0.045847 -0.283945 0.09312899999999999 0.5102410000000001 0.19183200000000006 0.329721 0.15276 -0.40101200000000004 1.275499 -0.870529 0.497282 -0.446703 -0.344422 -0.646463 -0.797987 0.647638 0.260653 0.061252 0.404176 0.576707 0.362437 0.232369 -0.535109 -1.385163 0.856606 0.400871 -0.792035 -0.34128000000000003 -0.9747299999999999 0.273856 1.023149 0.425595 -0.3354710000000001 0.34812200000000004 -0.091507 0.173458 2.069736 0.673442 -0.099187 0.963586 0.045384 0.697633 -0.149354 0.37682000000000004 0.079564 -0.639815 1.801872 0.11857399999999998 -0.187941 0.751498 1.015964 1.42077 -1.121568 -0.505842 0.258477 -0.191488 1.153881 0.018142000000000002 0.005929 -0.919468 -0.322715 0.049865999999999994 -0.588901 0.061160000000000006 -0.0037690000000000015 0.601897 -0.415708 -0.481352 0.372096 0.402246 -0.033338000000000007 0.9374370000000001 0.247939 0.294996 -0.428698 -0.567702 0.806257 0.8819980000000001 1.053641 0.811879 -0.9269799999999999 -0.933959 0.7423109999999999 0.07569500000000001 0.44595399999999996 0.07577300000000001 0.847274 0.413249 0.59523 1.184988 -0.0029889999999999917 0.236785 -0.497801 -0.223651 -0.507428 -0.36525799999999997 -0.543356 -0.04628199999999999 -0.764644 -0.5973299999999999 0.329639 -0.494454 -0.325084 -0.42271699999999995 -0.10392699999999999 0.39810100000000004 -0.04679799999999999 -0.164856 0.677706 0.179215 -0.11987699999999996 -0.6445489999999999 -0.847993 0.660526 -0.782727 -0.878855 0.632556 0.9422429999999999 -0.126068 -0.27332 0.239703 -0.567524 -1.1043720000000001 -0.11511700000000002 0.08210499999999998 -1.045948 0.410319 0.391896 -1.447805 0.399293 -0.175381 -0.422395 -0.117475 -0.37151 0.328861 -0.10894300000000001 -0.037710999999999995 0.528063 0.412234 0.17387999999999998 -0.13699300000000003 -1.005179 0.04956399999999994 0.013645999999999991 -0.02537 0.302056 0.33768 -0.143858 1.1372559999999998 -0.023240999999999956 -0.270247 0.011917999999999984 -0.22808900000000001 -0.20636500000000002 -0.16159800000000002 0.830579 0.8563149999999999 0.204208 0.16724 -1.449559 -0.348121 0.07576999999999999 -0.297782 0.21724300000000002 0.800092 0.7991809999999999 0.253502 -0.89993 -1.288357 -0.252807 0.635791 -0.246585 0.709712 -0.0063399999999999845 0.38793099999999997 0.88953 0.645231 0.40782199999999996 1.258547 1.1477870000000001 0.25041599999999997 -0.053309999999999996 0.166609 0.177298 -0.882916 -0.934787 0.412239 0.760517 -0.441499 -0.12477300000000001 -0.858252 0.76018 -0.07573200000000002 -0.49975 1.6083720000000001 -0.5531619999999999 -1.290341 1.288263 0.783105 0.16882600000000003 0.706812 0.952531 -0.5687409999999999 0.771567 -0.518912 -0.095283 -0.23947800000000002 0.9168749999999999 0.849237 -0.854361 -0.424957 0.260754 0.24935699999999997 0.639869 0.8782300000000001 -0.271698 -0.02557 1.1845750000000002 -0.990166 0.347963 0.809122 -0.164817 0.447484 -0.17341099999999998