weight.it 0.306452 -0.22848999999999997 -0.18995700000000001 0.057531 0.261042 -0.113819 -0.31862599999999996 -0.990387 -0.5997250000000001 -0.25983100000000003 0.180883 -1.105742 0.211951 0.5102 0.15735000000000002 -0.186811 0.04623200000000001 -0.688274 -0.14540399999999998 -0.607096 -0.631643 -0.82066 0.36401399999999995 0.241551 1.073778 0.782018 0.982459 -0.024457999999999994 -0.445256 0.221332 -0.0011420000000000007 -0.588622 0.056183000000000004 -0.674723 -0.530247 -0.7078679999999999 0.649922 -0.213616 -0.282917 0.04463700000000004 -1.180593 1.234762 -0.300297 -0.35405200000000003 -0.414022 -0.452305 1.3191709999999999 1.650539 -0.076732 0.197079 0.10518399999999999 -0.183345 -0.005936000000000011 0.6479659999999999 0.557665 -0.905275 -0.063603 0.8980859999999999 0.386006 0.236451 -0.223431 0.345167 1.119558 -0.219106 -0.552411 0.449699 0.03874800000000003 0.8938699999999999 -0.511007 -0.9618599999999999 -0.656136 -0.432026 -0.669349 -0.48151 -0.686994 -0.418047 -0.171237 0.429735 -1.234871 0.612896 0.6998139999999999 -0.01692300000000002 -0.59055 -0.933929 0.504472 -0.665652 -0.274211 -0.350315 -0.269574 -0.551426 0.24463700000000002 0.553668 0.8375130000000001 -0.307924 0.621427 0.935512 0.16998699999999997 0.377962 -0.721591 -0.810784 0.286901 0.17086500000000002 -0.003778 -0.39732500000000004 0.8342320000000001 0.08641299999999999 1.2301030000000002 -0.26714499999999997 -0.008137000000000005 -0.19868999999999998 -0.306213 0.095294 0.663517 0.681737 -0.16271100000000002 0.7276260000000001 -0.146555 0.02196300000000001 -0.049266000000000004 1.721758 0.142486 0.464348 1.165502 -0.33878600000000003 -0.7702389999999999 0.6482559999999999 -0.09770000000000001 1.2737720000000001 -1.078487 -0.09225400000000003 -0.847777 -0.544813 1.182228 -0.5424979999999999 -0.607474 -0.010109000000000007 -0.620152 -0.407646 -0.039909 0.174317 -0.052863999999999994 -0.268571 0.400282 0.18969799999999998 0.567482 -0.25323399999999996 -0.569658 0.277735 0.30361099999999996 0.61871 0.259141 -0.275988 2.036094 0.301191 -0.253876 -0.27349 -1.231674 -0.49774899999999994 0.9128179999999999 -0.29031199999999996 0.670291 -0.449642 0.626297 0.91255 -1.280716 1.219603 0.445461 -0.362469 1.037089 0.184672 -0.12066500000000002 0.665183 -0.975997 0.7783469999999999 -0.46683300000000005 -1.046468 0.24437099999999998 -0.08880199999999999 0.6220060000000001 -0.5117430000000001 -0.069974 0.03670000000000001 -0.43009299999999995 -0.218831 0.48019999999999996 0.576246 0.232264 -0.37389300000000003 0.15352899999999997 0.185701 -0.031265 1.444509 0.939656 0.6340619999999999 -0.370873 0.436812 0.05746800000000002 -0.76152 -0.126124 -0.465364 0.864806 -0.379792 -0.5468679999999999 -0.09819900000000001 -0.506967 -0.419983 0.00956499999999999 0.6245350000000001 -0.74922 -0.838381 0.47648700000000005 -0.21262499999999998 0.22884 0.709671 0.490521 -0.006371000000000002 0.729259 0.574459 0.085009 -0.452584 0.484109 -0.50412 0.502718 -0.377556 1.262838 -0.096111 -0.471924 0.37102399999999996 -0.444797 -0.777348 -0.168008 0.374405 0.337343 0.32349799999999995 0.16235300000000003 0.10919800000000002 -0.329897 -0.486896 -0.652657 0.315108 -0.208034 -0.26927 -0.093478 -0.233562 -0.737683 -0.106474 0.210357 -0.21845799999999999 -0.237008 -0.7103090000000001 0.525786 0.5207679999999999 -0.095051 0.445511 0.409364 1.295539 0.7897289999999999 -0.791358 -0.13487100000000002 0.21980599999999997 -1.5228380000000001 -0.051256 -0.451569 0.442975 -0.275224 0.945873 -0.26488900000000004 0.81905 -0.239896 -0.741255 1.0307460000000002 -0.905518 -0.575466 0.6824969999999999 0.17299199999999998 1.361695 0.379343 0.6700210000000001 -0.825671 0.271776 -0.7222109999999999 -0.549876 0.200156 0.5616169999999999 0.535134 -0.08512199999999998 -0.763167 0.299641 0.441694 0.19927699999999998 0.41621300000000006 0.6634789999999999 -0.675519 0.619308 -0.599942 0.35708799999999996 0.14114099999999996 -0.22261999999999998 0.109176 -0.417717