weights -0.15324900000000002 0.27522199999999997 0.13217600000000002 -0.069331 0.09095199999999999 -0.5445800000000001 0.029613 -0.41853399999999996 0.30210499999999996 -0.170004 0.51981 -0.7600009999999999 -0.210617 -0.18371300000000002 -0.319928 0.565397 -0.075815 0.18560900000000002 0.514671 0.089555 -0.18659799999999999 -0.12099 0.106181 -0.092856 -0.5617030000000001 -0.312452 0.49647199999999997 -0.323989 0.325705 -0.278549 0.030645 0.38158 -0.374501 0.166583 -0.156491 0.346545 0.009593 0.617733 -0.203633 -0.349874 0.031238000000000002 -0.043135 0.046496 -0.49006 -0.33241299999999996 -0.07198 0.204306 0.48704099999999995 -0.35557099999999997 0.318975 -0.191784 0.386327 -0.130383 0.343333 0.29914 -0.205265 0.201744 -0.18445799999999998 0.189201 0.7180500000000001 -0.144254 0.302708 -1.10829 0.172044 0.20231300000000002 0.301948 -0.068215 0.231209 0.507098 0.045399999999999996 0.40270300000000003 0.38050799999999996 -0.108516 -0.32767500000000005 0.016138 -0.2596 0.627125 0.188615 0.21536299999999997 0.37599899999999997 -0.088901 0.174318 0.28197 0.241586 -0.19876 0.19400900000000001 0.66767 -0.066667 0.47243100000000005 -0.061873 -0.192596 0.006440000000000001 0.041248999999999994 0.077415 0.206212 0.264196 -0.014020000000000005 0.12743100000000002 -0.655771 -0.507237 0.336005 -0.287877 0.12575599999999998 0.318345 -0.287741 -0.151501 0.29860699999999996 0.212903 -0.360584 -0.020177999999999998 0.18221099999999998 0.07724799999999998 -0.19283299999999998 0.11382500000000001 -0.026827999999999998 0.139353 -0.26337499999999997 -1.1408209999999999 0.19002999999999998 0.5765469999999999 1.362025 -0.201738 0.068013 -0.075348 -0.11096899999999998 0.9415039999999999 -0.080804 -0.193074 -0.117677 -0.300092 0.146335 -0.162773 -0.109208 0.039813 0.134714 -0.279696 -0.1304 0.22825600000000001 -0.448661 0.219268 -0.083391 0.11432600000000001 0.270984 -0.169295 0.184891 -0.33551699999999995 -0.163116 -0.20214800000000002 0.562781 0.271606 0.288555 -0.25569400000000003 0.414346 -0.404466 0.138367 0.614748 -0.18884700000000001 0.07684 -0.294156 0.496131 0.259295 -0.068094 -2.204465 0.19896599999999998 -0.367937 -0.070824 0.243145 0.03066 -0.150913 -0.099925 0.806249 0.657966 -0.024059000000000004 -0.068967 0.058078000000000005 -0.100937 0.382125 -0.201308 0.30333 -0.174901 -0.034626000000000004 -0.28643599999999997 -0.17102499999999998 0.027918999999999985 0.231207 0.023149000000000003 0.014940999999999996 0.29739899999999997 0.20446399999999998 0.530902 -0.196997 0.04182 -0.090476 0.594347 -0.297597 -0.5747150000000001 -0.14963500000000002 -0.253067 -0.007867000000000006 -0.351933 -0.414899 -0.290523 0.20114700000000002 -0.008740999999999999 0.161795 -0.101305 0.30334300000000003 0.243543 -0.13743799999999998 0.979015 -0.393794 1.068394 -0.219228 0.095483 0.285957 -0.270891 0.100661 -0.00908600000000001 -0.390301 -0.500623 0.193686 0.0017149999999999995 -0.05160000000000001 -0.110898 3.010428 -0.441185 -0.27804799999999996 0.09737799999999999 -0.379807 -0.458788 -0.0019409999999999983 0.928728 0.379193 0.22583799999999998 0.11207199999999999 0.17157 -0.51341 0.36175500000000005 -0.055888 -0.295186 0.10967199999999999 -0.673657 -0.17266 -0.49829599999999996 0.27213 0.284047 -0.473664 0.12218100000000001 0.011933 -0.13200099999999998 -0.434881 0.001523 -0.12731499999999998 -0.455554 -0.025617999999999995 0.050846 -0.413346 -0.27539800000000003 -1.00539 -0.011888 0.158269 0.323303 -0.393876 0.089266 -1.301614 0.245861 -0.038757 0.344032 0.27454 -0.551627 -0.11953200000000001 -0.5400119999999999 -0.022017999999999996 -0.18852200000000002 0.353132 -0.11013300000000001 0.497591 -0.263721 -0.040357000000000004 0.128771 0.103381 0.22427 -0.09634400000000001 0.014257999999999993 0.162239 0.092255 0.39422 0.286772 0.515237 -0.544025 0.218645 0.15995900000000002 0.611819 -0.101533 -0.0031340000000000014 -0.5633790000000001 0.220532 0.022246000000000002 -0.10898 0.440045