weightlifting 0.19646600000000003 0.9105859999999999 0.20312999999999998 -0.47817 0.202208 -0.266357 0.115038 -0.25695 0.388145 0.04956600000000001 0.8251599999999999 -0.25442200000000004 0.5063759999999999 -0.299466 -0.506602 -0.073071 0.074567 -0.015655000000000002 1.01539 -0.025260000000000005 -0.661713 0.129748 0.282188 0.523239 -0.21240000000000003 -0.47911 0.620333 -0.259454 -0.182557 0.52414 0.499208 0.669894 0.180119 0.14845599999999998 -0.01503 0.693765 0.33599300000000004 0.6791659999999999 -0.798206 -0.236246 -0.7786679999999999 0.19572499999999998 0.24787900000000002 -0.6272420000000001 -0.26128799999999996 0.040470000000000006 1.126179 0.068308 -0.226193 0.42061800000000005 -0.49424500000000005 0.27306600000000003 -0.16797800000000002 0.338811 0.680196 -0.639979 0.592584 -0.07212500000000001 -0.267622 0.645853 0.005378999999999995 0.6950770000000001 -0.313481 0.306964 0.064872 0.8977620000000001 0.180337 0.245265 0.745242 0.42309199999999997 0.31888 0.392175 0.04397800000000002 -0.225472 -0.093029 0.075542 0.699264 -0.027745000000000006 -0.04639600000000001 -0.527077 0.376362 0.214706 -0.314421 -0.365495 0.432244 0.115201 0.22784700000000002 -0.244444 0.592148 -0.240359 0.30361899999999997 -0.305165 -0.547109 -0.9900789999999999 0.310546 0.04833899999999999 -0.264207 0.460352 -1.066393 -0.519482 0.017917000000000002 0.125598 0.633524 0.185535 -0.561395 0.46120300000000003 0.288023 -0.017133 0.196623 0.573172 -0.04281199999999999 0.523131 -0.04438900000000001 0.9161060000000001 -0.03048300000000001 0.5282340000000001 0.19070899999999996 -0.10231100000000001 0.041615999999999986 0.429223 1.470958 0.348222 0.175552 0.19809 0.024370000000000003 0.166548 -0.014732000000000002 -0.663102 -0.45935 -0.468063 -1.011317 -0.12555899999999998 0.133742 -0.265498 0.435825 -0.24476 -0.173518 0.272445 0.101492 0.408582 0.052524 -0.164025 0.198696 0.11059700000000001 0.225852 -0.24305700000000002 0.22755599999999998 -0.68455 0.164666 0.015907000000000004 0.063593 -0.14529799999999998 0.312899 0.097715 0.743049 0.873575 0.395928 -0.486565 -0.63713 0.250178 -0.45382599999999995 0.363585 -2.156835 0.024409 -0.126265 6.099999999997774e-05 -0.266122 0.24484299999999998 -0.270407 -0.03427899999999999 0.92789 0.91103 0.085484 -0.33560500000000004 -0.095499 0.112346 0.07592600000000001 -0.8652770000000001 0.33200999999999997 -0.13615499999999997 0.29211699999999996 -0.103132 -0.10357700000000003 0.971338 0.362803 -0.583856 -0.269924 0.22283799999999998 0.25057 0.368551 -0.007323 0.618538 0.12335099999999999 0.852435 -0.248502 -0.563786 -0.9084319999999999 0.169171 0.400187 -0.488854 0.107804 -0.271991 0.123489 -0.396776 -0.35468700000000003 -0.06986100000000002 0.133345 0.15965000000000001 0.29196 0.619963 -0.221892 0.8890959999999999 0.07602 0.20436 0.19217800000000002 -0.6158159999999999 0.61182 -0.05387900000000001 -0.123018 -0.7535240000000001 1.214003 -0.578456 0.37127099999999996 0.380502 1.5679310000000002 -0.442745 0.275156 -0.018734999999999974 0.244278 -0.269851 -0.451341 0.9194119999999999 0.09180400000000002 0.33934200000000003 -0.21295599999999998 0.2145 -0.154057 0.355595 -0.230737 -0.05373000000000001 0.25027 -0.8234509999999999 0.206785 -0.18630000000000002 0.046542 0.375313 -0.933415 0.358201 0.22130899999999998 -0.34661600000000004 -0.0031940000000000024 0.621397 -0.876276 -0.8719 0.18734499999999998 -0.043654 -0.319729 0.017061999999999994 -0.725527 -0.448646 0.262203 0.422872 -0.541595 0.033353999999999995 -0.55674 0.830091 -0.037542000000000006 0.267934 0.13506200000000002 -0.117697 -0.164008 -0.937112 0.532867 -0.096081 0.24285099999999998 -0.06461 -0.042457999999999996 -0.617388 0.758146 -0.037441 0.630004 0.182554 -0.26790899999999995 0.238369 -0.168502 -0.15429500000000002 0.6574850000000001 -0.083467 0.261435 -0.352185 0.292782 0.994189 0.44443999999999995 -0.4001 -0.447111 -0.556565 -0.22198400000000001 -0.07431900000000001 0.038569 0.528235