weighton 0.37699099999999997 -0.931459 -1.046344 -1.276355 -0.163768 -0.25549299999999997 -0.9046589999999999 0.268943 -1.142457 -0.17253500000000002 -0.697993 0.420434 0.049609999999999994 0.341648 0.974536 0.433163 0.280317 0.344936 -0.09801700000000002 0.920712 -0.786867 0.550769 -0.38525699999999996 -0.779129 -0.07461300000000001 -0.8754339999999999 0.302018 -0.29521299999999995 0.168132 -0.40564700000000004 -1.07555 1.01328 0.590222 -0.07226300000000002 0.08237699999999998 0.518378 -0.7050879999999999 0.837946 -0.5759500000000001 -0.268464 0.465121 0.110299 -0.290034 -1.452489 -0.847385 0.334369 0.39006100000000005 -0.842237 0.06134200000000001 0.311083 0.799375 1.5582660000000002 0.286134 0.71071 0.273789 -0.067671 -0.2670300000000001 -0.16060400000000002 -0.5896079999999999 0.493767 -0.29825799999999997 -1.190213 1.3060289999999999 0.7970590000000001 -0.7899020000000001 -0.442886 0.453454 1.112312 1.520448 0.003151999999999988 -0.39376 -0.6565049999999999 -0.25131099999999995 -1.4062139999999999 0.340507 1.1998199999999999 0.072299 0.085115 -0.263131 0.675667 -0.389577 -0.018972000000000017 0.649811 0.751401 0.90679 1.0503749999999998 -0.252301 -0.49926499999999996 0.306187 0.97565 -0.826534 0.778366 0.18894499999999997 -0.12824999999999998 0.25088200000000005 0.514589 0.617693 -1.475155 -2.1727689999999997 0.051255999999999996 0.075353 -0.606468 0.829585 -0.534809 -1.090363 -0.268912 -0.516317 0.422146 -0.398289 0.249323 -0.495691 -1.503428 0.522667 0.377651 -0.047264 -1.273186 0.576701 0.9636600000000001 0.580432 -0.08065299999999999 0.10760200000000009 -0.038605999999999994 1.147111 0.42285 0.026404000000000004 0.16399 -0.549064 -0.09812500000000002 0.201276 0.8494879999999999 0.5745480000000001 0.288662 0.008753999999999984 1.19598 0.020734000000000002 0.327922 -1.618897 -0.613903 0.38553399999999993 0.24037699999999998 -0.713825 -0.521532 -0.137385 1.6889020000000001 0.23717799999999997 0.401329 -0.42827 0.13861700000000002 -0.385423 -0.026107999999999992 -0.23708999999999997 -0.532669 0.45863899999999996 0.23287899999999997 0.296648 -0.603482 -1.390526 0.09353799999999998 0.37484700000000004 -1.965201 0.8437220000000001 1.2562229999999999 -0.102683 1.145945 -0.554465 0.45160999999999996 0.240877 -0.214674 -0.246544 0.566365 -0.208889 -0.337611 1.361453 -0.524053 -0.57324 0.386644 -0.261632 0.5578989999999999 -0.938482 0.348241 0.999916 -0.024131 -0.164521 -0.34826999999999997 0.150721 0.22281600000000001 -0.763078 0.069407 -0.757931 -0.869616 -0.160105 -0.253477 1.408894 -0.315906 0.280025 -0.127769 -0.590979 1.5180099999999999 0.45323900000000006 -0.490169 -0.20599599999999998 0.8849180000000001 -0.189966 0.603533 0.10350399999999998 -0.334579 -0.753673 -0.10479700000000003 0.5142249999999999 -0.25893999999999995 -0.622262 1.415247 0.170172 -0.392159 0.287174 0.40300600000000003 -0.354835 0.402594 0.458811 0.3358 -0.080977 1.361993 0.21611399999999992 0.22928300000000001 0.36444 -1.600003 0.535684 -0.04203799999999999 -1.120887 -0.447867 0.23232499999999998 0.670001 0.13946199999999997 0.610104 -1.007925 -0.14044299999999998 -1.356905 0.224862 -0.73721 0.681449 0.603081 0.146208 -0.47832600000000003 -0.118001 -0.6193960000000001 -0.7727759999999999 -0.342113 -0.42077299999999995 -0.379652 -0.48510699999999995 -0.039136000000000004 -0.23796699999999998 -1.13872 0.683391 0.599792 -0.8387889999999999 0.754959 -0.651605 0.096717 -0.245064 -0.33121 0.719057 0.399421 -0.346522 -0.14288299999999998 0.638487 -0.144 0.33550599999999997 0.14732 0.653208 -0.463409 0.03045500000000001 -0.657616 0.780607 0.523649 0.369978 0.636184 0.610718 0.346026 -0.144347 -0.121393 0.30492400000000003 -0.541558 -0.451008 0.7271639999999999 0.586254 -0.578933 0.790757 -2.0510219999999997 0.625932 0.265097 0.23067 0.627354 -0.277489 1.250566 -0.955788 -0.416952 -0.270962 0.6357269999999999 -0.259865