weightlessness 0.057784 0.6820820000000001 0.009233999999999992 0.085 -0.560526 -0.40144199999999997 -0.23685199999999998 -0.5189 0.117226 0.41937 0.198901 -0.619677 0.263075 -0.470469 0.110114 0.40953700000000004 -0.7762530000000001 0.396108 0.03681999999999999 -0.70374 -0.323297 0.047956 -0.028978000000000004 -0.05122 0.113733 0.10955899999999999 0.241216 0.19521800000000003 0.126304 -0.956865 0.203724 -0.014516000000000001 0.63399 0.7728980000000001 -0.356059 -0.291027 -0.03134100000000001 -0.432085 0.25768 0.351025 0.22081299999999998 -0.485464 -0.08247600000000001 -0.239996 -0.022924 0.609393 -0.758992 0.530694 -0.28650200000000003 0.405715 -0.03856599999999999 -0.29429700000000003 0.360318 0.163614 -0.069411 -0.305737 0.468723 0.414859 0.185744 0.58089 0.03125900000000001 -0.10720199999999999 0.442661 0.277436 0.5640499999999999 0.339453 0.282166 0.24594899999999997 0.683287 0.006258 -0.432335 0.31134 0.23629299999999998 -0.248188 -0.912074 -0.340126 -0.766072 0.146485 -0.423811 0.776771 -0.644126 0.088621 0.09934000000000001 0.19300099999999998 -0.228466 -0.01177800000000001 0.586374 -0.05337499999999999 0.565026 0.798505 0.556508 0.560465 0.333136 0.287294 0.504955 0.127522 -0.387718 -0.04323400000000001 -1.029125 -0.565572 0.11343500000000004 0.00908500000000001 0.454923 -0.401855 0.737741 0.19382300000000002 -0.057832999999999996 0.5967199999999999 0.21456199999999997 0.68201 -0.570712 0.143333 -0.27649900000000005 0.133675 -0.198438 0.08787799999999998 -0.204834 -0.7257199999999999 0.698931 0.358371 -0.07311400000000001 -0.628708 -0.146086 0.13156 -0.014126000000000007 -0.06536699999999998 1.038851 -0.12541 -0.106322 0.10930300000000001 -0.442762 -0.17725400000000002 0.095908 -0.577372 -0.290987 -0.21256500000000003 0.16190600000000002 -0.217471 -0.192455 0.632469 -0.44121699999999997 -0.06728300000000001 0.102837 -0.229386 -0.580856 0.355663 0.380312 -0.658641 0.624259 -0.298833 -0.880435 0.639358 0.623888 0.603557 0.337816 0.300406 -0.325102 -0.0003640000000000032 -0.346903 -0.27229899999999996 0.39252800000000004 0.489519 -1.134191 1.2367789999999999 0.04820200000000001 0.14347300000000002 -0.191602 -0.24920199999999998 -0.283508 0.16351799999999997 0.479734 -0.7401610000000001 -1.2569409999999999 0.474008 -0.100775 0.06969900000000001 -0.177497 -0.394248 0.13009 -0.511139 -0.549032 -0.26408 0.401639 0.398945 -0.17557299999999998 0.437959 0.5447690000000001 -0.548836 -0.358614 -0.286776 -0.14019600000000002 0.46226700000000004 -0.40171900000000005 0.147089 -0.06373999999999999 -0.87461 -0.039437 -0.150134 0.176964 0.016461000000000003 0.375239 -0.7778160000000001 0.376722 0.0011639999999999984 -0.08716299999999999 -0.46034600000000003 0.127781 0.196636 0.24809200000000003 -0.8640220000000001 0.8485 0.9310579999999999 -0.663797 -0.017081 0.781455 -0.518275 -0.396133 -0.10469900000000001 -0.36435 0.26351 -0.169834 0.111955 0.147874 -0.37517999999999996 1.837118 -0.333251 -0.128172 -0.799134 0.006311999999999998 -0.574848 0.138616 -0.115863 0.443685 0.537596 -0.06893099999999999 -0.150477 0.18575 0.333997 -0.332884 0.631726 -0.108653 0.5372870000000001 0.036113000000000006 -0.5998020000000001 0.57375 0.7439979999999999 0.145206 -0.121645 -0.237863 -0.781523 0.261977 0.7198869999999999 -0.749821 -0.28554 -0.522117 -0.712052 -0.727699 -0.47119500000000003 -1.234115 0.12891 0.017197000000000018 0.250401 0.351445 -0.301133 -0.598586 -0.01663899999999996 0.108552 -0.5986370000000001 0.484456 -0.114697 0.276998 -0.12482299999999999 -0.6419710000000001 -0.051134 -0.093068 0.684346 -0.334169 0.114146 0.05792400000000002 0.15922000000000003 -0.351966 0.581888 0.054844000000000004 0.190212 0.550449 -0.715461 0.067519 0.623292 0.43634 0.59283 0.07763400000000001 0.158931 -0.136177 0.260141 -0.589164 0.5400769999999999 0.77164 0.45469499999999996 -0.114006 0.200339