weightclasses 0.609355 0.736595 -0.219574 0.09756399999999998 -0.539218 0.22915800000000003 -0.811162 0.916892 -0.93008 -0.384892 -0.15408000000000005 -0.6321140000000001 0.5707650000000001 -0.269378 0.185765 -0.154977 -0.018922999999999995 -0.691257 -0.552316 -0.005291000000000046 -0.358559 -0.614475 -0.03153700000000001 0.755441 -0.6531319999999999 -1.27529 0.423294 -0.457056 0.319527 -0.336937 0.03220399999999998 -0.8750370000000001 0.124737 0.386378 -0.300309 -0.339392 0.03869499999999999 0.080978 -0.46179000000000003 1.152746 0.19938299999999998 0.341889 0.010124999999999999 -0.27756000000000003 0.6342990000000001 0.385248 -0.091416 0.6521239999999999 -0.07715899999999998 -0.8599370000000001 -0.271531 0.7714570000000001 -0.345405 0.09402399999999998 0.31981299999999996 -0.260814 1.171221 0.19735 0.002481000000000011 -0.327356 0.010076000000000002 0.611247 -0.28871100000000005 0.437126 -0.079258 -0.600936 -0.34122399999999997 0.247625 -0.334403 -0.6689590000000001 0.637162 -0.200178 -0.883267 -0.177154 0.182018 0.421216 -0.10943899999999995 0.787167 -0.245379 0.369204 -0.454364 0.484117 -0.09167199999999998 -0.151144 -0.137366 0.877133 0.15879700000000002 -0.675586 0.311575 0.178529 -0.364782 -0.560068 -0.46946 -0.246263 0.0013989999999999975 -0.7033119999999999 -0.13709200000000002 -0.523689 0.415124 -0.12496499999999999 0.341623 1.009068 0.220815 -1.00682 -0.18056100000000003 -0.319375 0.970471 -0.034104999999999996 -0.727262 -1.151387 0.056714 -0.108657 -0.007295999999999997 -0.249304 0.334943 0.5587880000000001 0.512653 0.51801 0.5747629999999999 0.284576 0.058755000000000016 -0.38701700000000006 -0.15194099999999994 0.31918599999999997 0.42871500000000007 0.45744700000000005 -0.342985 0.202147 -0.57943 0.18688300000000002 -0.21804999999999997 -0.750648 -0.9567220000000001 0.395942 0.756524 -0.791955 0.106263 -0.239166 -0.315421 -0.740337 -1.0246659999999999 -0.314515 0.021820999999999993 -0.237589 -0.5709219999999999 -0.14188 -0.331063 0.195471 0.137008 0.01719799999999999 -0.17074299999999998 -0.856272 -0.27788199999999996 -0.185247 -0.13865 0.040567000000000006 -0.516556 0.513555 0.179726 -0.018562999999999996 0.162505 0.074001 -0.083102 -0.11000700000000001 -0.668867 0.488846 1.157193 0.025115 -0.185223 0.454824 0.641899 0.486187 -0.836472 -0.10681099999999999 -0.820911 0.479206 0.3086 -0.264029 0.0016379999999999728 0.63405 -0.10600599999999999 -0.824755 1.576712 -0.020689000000000013 0.24278100000000002 0.328385 -0.8098989999999999 0.05005 -0.00955499999999998 0.11459899999999999 0.08574100000000001 0.376935 -0.12264 0.8945970000000001 -0.227961 0.200459 0.052432 0.288128 0.589346 -1.047888 -0.07284299999999999 -0.562951 0.23814200000000002 0.042519 -0.153884 0.6970149999999999 -1.0481150000000001 -0.407316 0.579913 0.21856600000000004 -0.019486000000000003 -0.159943 -0.39834800000000004 0.123192 0.13524699999999998 -0.13604500000000003 0.507822 -0.423438 -0.854153 -0.09446 0.385355 0.03070400000000001 -0.794234 -0.41878100000000007 0.49167000000000005 0.6759160000000001 -0.488468 -0.28267899999999996 0.780094 -1.1348479999999999 -0.7758849999999999 0.093507 -0.17140099999999997 0.746239 0.112512 0.596367 -0.581165 0.34839600000000004 -0.311963 0.88601 0.204409 0.219221 0.465436 0.119892 0.421902 0.204185 -0.8265020000000001 -0.19697900000000002 0.725966 -0.272835 -0.286781 -0.202141 -0.938218 0.17261000000000004 0.6305550000000001 -0.294835 0.139214 -0.355222 0.069685 -0.163679 0.835522 0.16495100000000001 -1.036588 0.494846 -0.8759509999999999 -0.275758 -0.406033 0.382771 0.78149 0.678667 0.456009 0.346348 -0.257253 -0.332295 -0.021723 -0.394923 -0.549114 -0.314757 0.17630700000000002 0.22363799999999998 0.014461000000000002 0.11255200000000001 0.07648300000000001 0.165302 1.107842 0.6599550000000001 0.04546000000000001 0.518145 0.4638 -0.375598 -0.278473 0.444259 0.350729 -1.107835 -0.281246 0.146268 -0.465638 0.72139 1.066656 -0.0069150000000000045