weightage -0.06996199999999997 0.25909899999999997 -0.43390799999999996 0.009294000000000004 0.725079 -0.75897 0.33181099999999997 -0.730923 0.382448 0.057642 -0.047175999999999996 -1.1431559999999998 0.33901099999999995 0.31204 0.320944 0.090552 0.06294 -0.428216 0.03745599999999999 0.259624 -0.15574100000000002 -0.8479019999999999 -0.993813 0.026552999999999993 -0.168347 -0.30560200000000004 -0.513112 0.455275 -0.599544 -1.12153 -0.221736 -0.064366 0.07987300000000003 0.294288 -0.751907 -0.086337 0.5787180000000001 0.13983299999999999 -0.6547620000000001 0.105087 -0.565054 1.088248 -0.44145500000000004 -0.31206300000000003 -0.15580100000000002 0.358275 0.228382 -0.151761 -0.244647 0.10601099999999997 -0.238305 -0.02047199999999999 -0.767927 -0.08131099999999997 0.19583100000000003 -0.210408 0.095493 0.08229500000000003 0.361939 -0.564379 0.442988 0.690001 -0.282846 0.008901000000000006 0.137972 -0.199154 -0.381883 0.7131799999999999 0.120695 0.940919 0.328198 -1.160469 0.331494 -0.232899 -0.46010700000000004 -0.524862 0.26423599999999997 0.273469 0.778759 0.03551700000000002 0.520152 0.803184 0.579784 0.12337 0.10121 0.288632 -0.27269 -0.41557 0.31994300000000003 0.551195 -0.387497 -0.299416 0.08632200000000001 0.530051 0.651154 0.077326 0.402223 -0.629016 0.8441270000000001 -0.124891 -0.369438 0.146614 -0.19352699999999998 -0.06958599999999998 0.545966 -0.950026 1.016464 0.233893 -0.670621 -0.027500999999999998 0.603709 -0.14372700000000002 -0.363033 -0.501906 0.324073 -0.363647 0.2956 -0.018098000000000003 0.502181 -0.016031999999999998 -0.298959 -0.61704 0.172852 -0.5427 0.278951 0.20261400000000002 0.116517 -0.010858000000000007 0.675334 0.248237 0.063057 -0.497864 -0.096163 0.015899000000000003 0.18297599999999997 -0.023492 0.060583 0.135236 0.537838 -0.531256 -0.40948300000000004 -0.350375 0.038169999999999996 -1.337791 -0.085405 -0.11681699999999999 -0.39154 -0.790111 0.663563 0.569701 0.132902 -0.120159 0.454469 0.347132 0.442936 0.004838000000000009 -0.461013 0.902542 0.014349 -0.350631 0.258236 -1.0295290000000001 -2.1385050000000003 -0.071286 -0.454308 0.579072 0.367261 -0.219442 0.864904 0.7967489999999999 0.559808 -0.514289 -0.390621 0.20998 0.040435 -0.167383 0.895926 -0.6357029999999999 0.9736739999999999 -0.271319 0.00658000000000003 0.05222700000000002 -0.07932799999999998 -0.06418 0.18374000000000001 -0.05069399999999999 0.101661 0.7564550000000001 -0.651101 -0.09346699999999997 -0.09176999999999999 0.293066 0.31772900000000004 -0.18018599999999999 0.750595 -1.012883 0.924031 0.01613199999999998 -0.7076560000000001 -0.352286 -0.202384 -0.300228 0.442958 -0.138943 -0.369959 -1.338757 0.254657 0.179702 -0.608727 -0.024677000000000004 -0.26361799999999996 0.488707 0.41219300000000003 -0.679719 0.837957 0.257202 -0.013697999999999998 0.406202 -0.863256 -0.24826199999999998 -0.560118 -0.676179 0.421253 -0.128618 1.642174 -0.22667400000000004 -0.5062679999999999 -0.19264599999999998 -0.067581 0.487367 -0.22096499999999997 1.0959699999999999 -0.8456300000000001 -0.457195 -0.326053 0.24202500000000002 -0.788772 0.360114 0.294445 0.30773700000000004 -0.303272 -0.43063399999999996 0.712387 -0.420975 -0.504402 0.295728 0.361673 -0.801191 -0.387073 -0.017026999999999987 -0.077478 -0.4305030000000001 -0.7096859999999999 -0.167284 -0.179329 0.39333500000000005 -0.342608 -0.471712 -0.095437 -0.353342 0.074029 -0.398651 0.195805 -0.045864 -0.215529 -0.595097 0.381649 0.45260799999999995 -1.0617510000000001 -0.516202 -0.164281 0.6192340000000001 -0.289203 0.708863 -0.66193 0.25891499999999995 -0.07347699999999999 -1.042751 -0.8167899999999999 0.36705199999999993 0.13567800000000002 -0.034959 0.166904 -0.19998100000000002 -0.115323 0.522186 0.206977 0.826144 0.482744 0.24742200000000003 0.8908510000000001 -0.7597229999999999 0.61309 0.638688 0.017601 -0.089054 -0.21416799999999997 0.311363 0.359933 -0.292349