weight.i 0.387613 0.553926 0.268792 0.125355 0.51119 0.11889300000000003 0.19341999999999998 -0.65327 -0.739671 -0.24004 -0.317544 -1.692879 0.006606000000000001 -0.329285 -0.148612 0.122364 0.13592900000000002 0.13424000000000003 0.10022599999999998 -0.41844400000000004 -1.5811920000000002 -0.156424 -0.589505 0.323275 1.241707 0.65194 1.156281 -1.232382 -0.942291 -0.031997 0.582359 -0.325475 -1.603121 -0.44025800000000004 -0.861432 -0.15346100000000001 0.451921 0.766641 0.303162 -0.248175 -1.2368899999999998 0.300752 -0.574586 0.329901 0.36636599999999997 0.5979589999999999 -0.02637600000000001 1.490777 0.064248 -0.354505 -0.709082 0.252869 0.555369 0.759825 0.619328 -0.983218 -0.756435 0.508466 0.09576800000000002 1.5941079999999999 -0.874683 1.415874 0.436555 -0.12567 0.22489 -0.5830759999999999 -0.5285070000000001 0.5559310000000001 -0.691323 0.9904310000000001 -0.564079 -0.619179 0.11709899999999998 -0.720796 -0.75388 -0.7128650000000001 -0.354027 -0.448057 0.122031 0.26365 1.2560539999999998 -0.972937 -0.527899 0.07916300000000001 -0.469097 0.007512999999999992 0.219453 -0.05663099999999999 -0.38703999999999994 -0.983696 0.054159 0.882182 0.39791 -0.923177 0.20201599999999997 0.7477229999999999 -1.628629 0.31980000000000003 -0.08072 -0.519752 -1.176943 0.258617 -0.254675 -0.11477499999999999 -0.262532 -0.233565 2.468872 0.6193919999999999 0.167568 -0.131652 -1.500211 -0.831075 -0.025009999999999977 1.031334 0.5999030000000001 -0.40623 -0.22643200000000002 0.36138899999999996 0.49599 -0.0024069999999999925 0.411594 0.144369 1.604205 0.6560060000000001 -2.0515820000000002 -0.05389100000000002 -0.41900200000000004 -0.033247 -1.383904 0.30058 -0.07979699999999998 0.350966 -0.451473 -2.1383910000000004 -0.08330399999999999 -1.1854049999999998 0.8550169999999999 0.13654100000000002 0.705852 1.189111 -1.357738 0.39940000000000003 -0.19171299999999997 -0.172918 0.432028 0.539584 0.22135999999999997 0.7003039999999999 -0.12207600000000002 -0.24468199999999996 0.012414999999999999 0.410595 1.174755 0.43546500000000005 0.14301399999999997 0.7131310000000001 -0.925248 0.288729 0.48860099999999995 -0.452113 0.715229 0.100885 0.964609 0.379785 -1.295885 0.883749 -0.606249 0.270736 0.922076 0.556855 0.245485 0.518382 -1.354019 -0.06803200000000009 0.8248770000000001 -0.46671399999999996 -0.101684 -0.272549 0.264038 -1.052514 -0.379532 0.676339 -0.218648 1.112188 0.710134 -0.208202 0.222908 0.322176 -0.46517000000000003 -0.32319200000000003 -1.118813 1.129926 0.36802 0.48978000000000005 -0.827253 -0.726885 0.745292 0.576397 0.184149 -0.275675 0.517637 -0.828755 0.609658 0.13122100000000003 0.668166 -0.463259 0.586336 -0.48419199999999996 -0.965802 -0.9015770000000001 -1.010694 0.153939 -0.28640200000000005 1.1141590000000001 0.19317699999999993 -0.041928999999999994 0.038382 0.02832800000000002 -0.785846 0.532463 0.45957 -0.207499 0.9483349999999999 0.19305699999999998 0.569544 0.858409 -0.166688 -0.19631900000000002 0.012701000000000004 -1.220544 -0.11494900000000002 0.23645700000000003 0.35930400000000007 0.003013999999999989 0.19482600000000005 -0.20998900000000004 -0.623307 -0.443619 -0.907238 -0.8112630000000001 0.7122229999999999 -0.503565 -0.717676 -0.466752 -1.186182 0.40066 0.348902 -0.125619 0.432769 -0.347307 1.6860680000000001 0.37188400000000005 -0.06746 0.105481 -0.005957999999999991 0.9575600000000001 0.014518000000000003 -0.082766 -0.5075879999999999 0.837524 0.135293 0.279897 -1.264796 -0.37341799999999997 -0.890969 0.642504 -0.082231 0.610549 -1.401635 -0.852506 0.8945150000000001 -0.21415299999999998 -0.04210900000000001 0.199575 1.656403 0.8977419999999999 0.795437 -0.11149999999999999 -0.656905 0.164076 0.628529 0.745708 0.8146059999999999 1.08897 0.767776 0.48711399999999994 -0.23224 -0.556821 0.063547 0.517146 0.04513 1.251749 0.602833 -0.616572 -0.059702 -0.596967 0.080768 -0.11170600000000001 -0.297047 0.569936