weightlifter 0.15166500000000002 0.8799170000000001 -0.054882000000000014 -0.24011700000000002 -0.17417200000000002 -0.528435 0.8548709999999999 -0.233067 0.23456 0.051685999999999996 0.91851 0.015239999999999976 0.779755 -0.196241 -0.259656 -0.853904 -0.439762 -0.480126 0.083781 0.24704 -0.9495680000000001 -0.224485 0.019993999999999998 0.660073 0.231553 -0.263165 0.6134010000000001 0.321106 0.139448 0.6946859999999999 0.47347400000000006 0.415217 -0.240201 -0.528416 0.066137 0.308163 0.25347 0.66231 -0.9695179999999999 -0.012694999999999984 -0.827434 0.006267999999999996 -0.319998 -0.170041 -0.143644 0.04212099999999999 0.372253 -0.062885 0.13681 -0.223495 -0.646425 -0.162446 0.22053 0.282085 0.437316 -0.94825 0.299094 0.783244 0.073483 0.392085 -1.146918 -0.05262699999999998 -0.897525 0.38673 0.446809 0.65337 -0.510511 0.7655829999999999 0.39064 0.599731 -0.195241 0.232501 0.415486 -0.428603 -0.451156 -0.0025410000000000016 0.284378 0.34705600000000003 -0.512781 0.130597 0.352159 -0.07139999999999999 0.43591899999999995 -0.117287 0.348936 0.799053 -0.157889 0.218571 0.229565 -0.400468 0.706171 0.456893 0.03065900000000002 -1.0021490000000002 -0.144565 0.040071999999999997 0.457653 0.244321 -0.5705020000000001 -0.763003 0.08933700000000003 -0.213736 0.209 -0.17296099999999998 -0.18862 0.32806 0.537628 0.48215299999999994 -0.036671999999999996 0.782132 0.126722 -0.162747 -0.33298 0.895499 -0.492358 0.67116 0.670884 0.35860099999999995 -0.475679 0.615524 1.113147 0.548567 0.208422 -0.251739 0.18885000000000002 0.193374 -0.03257099999999996 -0.66981 -0.490697 0.5970340000000001 -0.288773 0.604268 0.009406999999999999 -0.7390829999999999 0.500834 0.26641000000000004 -0.288759 0.023587999999999998 0.188965 0.170236 -0.02609800000000001 0.520191 -0.357128 0.19175699999999998 0.932794 -0.150296 0.12828399999999998 -0.062917 0.340093 0.38833300000000004 0.097279 0.103984 -0.166407 -0.03531100000000001 0.312955 0.791598 0.49252300000000004 -0.349948 -0.592013 0.189322 -0.680149 0.26983 -1.827413 0.137146 -0.119877 0.323642 -0.390584 -0.573814 -0.009057999999999955 -0.15125100000000002 0.39154 0.46568699999999996 -0.065444 0.41149600000000003 0.145118 0.33575 -0.039820999999999995 -0.798516 0.248796 -0.265223 -0.264582 -0.30622099999999997 -0.183834 0.681555 0.34318400000000004 -0.071945 0.19156099999999998 -0.048629000000000006 0.041513999999999995 0.134237 0.39276300000000003 0.347986 0.299459 0.702447 0.534659 -0.792457 -0.37328300000000003 0.5458369999999999 0.02585700000000002 -0.047145000000000006 0.562576 -0.19535 0.304326 -0.101803 0.169184 -0.413501 -0.176857 -0.17216599999999999 -0.30882 -0.240207 0.056743000000000016 1.2335289999999999 -0.18789799999999998 -0.037399000000000016 -0.637844 0.08415800000000001 0.555187 -0.288152 -0.19673000000000002 -0.246271 0.390185 -0.21554099999999998 0.422855 -0.207761 0.800442 -0.41240299999999996 0.2428 0.37202799999999997 1.010299 -1.089961 -0.099499 1.368967 0.094053 0.46682 0.238447 0.392979 -0.094836 0.42579599999999995 -0.038939 -0.080488 0.166757 -0.170161 0.298941 -0.191376 0.04281599999999999 0.380478 -0.7514799999999999 0.535112 0.745213 -0.134527 0.46963299999999997 0.408891 -0.5013 -0.7963709999999999 0.046985999999999986 0.011151000000000008 0.11911600000000001 0.18942800000000004 -0.274794 0.1794 0.246811 -0.148536 -0.830128 -0.123604 -0.545706 0.353059 -0.18013900000000002 0.6895990000000001 -0.062518 0.042853 -0.5969549999999999 -1.034595 -0.34798300000000004 -0.278662 0.389997 -0.0038989999999999997 0.14659100000000003 -0.103047 0.790878 -0.344886 0.203117 0.082506 -0.13979899999999998 0.49617200000000006 0.8042159999999999 -0.447814 0.960078 -0.48292599999999997 0.331124 -0.33660399999999996 0.7068840000000001 0.423297 0.633122 0.057163000000000005 0.11905699999999998 -0.14032 0.05695500000000003 -0.226432 -0.133243 0.29828