weightclass 0.890085 0.631132 0.527956 0.121806 -0.49146 -0.624587 -0.7560600000000001 0.524826 -0.566729 -0.079677 0.558523 -0.8380799999999999 0.569335 -0.723238 -0.809281 -0.128697 0.292643 -0.22386799999999998 -0.154872 0.813601 -0.6271169999999999 -0.667878 -0.957551 1.138609 0.662069 0.18838899999999997 -0.627797 0.11000700000000002 0.638301 0.05521400000000001 1.040744 -0.07628800000000002 -0.7380249999999999 -0.38615499999999997 0.302857 -0.059542 -0.36659600000000003 0.068686 -0.61641 0.12305800000000003 0.284114 0.15009 -0.31876899999999997 0.41816 -0.05170800000000003 0.492809 0.606523 0.823897 0.530575 -0.105131 -0.257487 0.451545 0.28782800000000003 0.298684 0.31286200000000003 0.094077 0.378442 0.252861 0.18554700000000002 0.25177700000000003 -0.415998 0.7295769999999999 -0.24319200000000002 0.070578 -0.831871 -0.631921 -0.4980220000000001 0.310161 -0.21001299999999998 -0.112143 -0.397219 0.413945 -0.444409 -0.22686199999999998 -0.21569399999999997 0.02212900000000001 -0.420283 0.566992 -0.188075 0.286804 -0.7697350000000001 0.363539 -0.06653699999999996 0.642504 -0.277045 0.288859 0.702944 -0.307812 1.1582629999999998 -0.5183530000000001 -0.11566499999999999 0.19835199999999997 -0.684072 0.02588499999999999 0.243 -0.003251000000000004 -0.07874600000000001 0.259325 0.322052 0.280198 -0.10361700000000001 -0.8637490000000001 0.20339800000000002 -0.7343379999999999 0.24332099999999998 -0.878609 1.175408 -0.014731000000000001 -0.212923 -0.016991 0.096085 -0.414496 -0.03562499999999999 0.60207 -0.295945 0.023507 0.467487 0.16025 -0.287601 0.355557 0.366858 -0.27973699999999996 -0.036461999999999994 -0.694729 0.32978 0.780842 0.515068 0.18297 -0.20614300000000002 -0.11823299999999998 -0.6486099999999999 -0.248399 -0.39572 0.00850200000000001 0.389181 0.411301 0.094 -0.014603999999999999 0.964697 -0.987128 -0.336612 -0.041414999999999993 0.152304 -0.614983 0.552795 0.140378 -0.59714 -0.500097 0.324044 0.934903 0.050047999999999995 -0.21775300000000009 -0.14681900000000003 -0.31657 0.018755999999999995 0.500389 -0.244743 0.29228 -0.08449300000000001 0.457814 0.306905 -0.38305 -0.48962300000000003 -0.296048 0.111909 1.463965 0.677484 0.20545000000000002 0.15081999999999998 0.880023 0.7029719999999999 -0.2537 -1.024636 -0.046225999999999996 0.026465000000000016 -0.09717300000000001 0.87235 -0.549907 -0.17251199999999997 0.36348199999999997 -0.117656 0.315021 0.276737 0.454207 0.50937 0.26077300000000003 -0.812632 -0.191599 0.324541 0.027271999999999963 0.30434900000000004 0.12026500000000001 0.748141 1.104857 -0.36145800000000006 -0.742086 -0.478835 0.19644699999999998 -0.154541 -0.934288 -1.597731 0.533934 0.220868 0.21352700000000002 -0.803888 0.46660100000000004 -0.54177 0.013121999999999995 -0.775041 0.22541699999999998 -0.471861 0.6790360000000001 0.16622599999999998 -0.167874 -0.608473 0.256762 -0.056942999999999994 -0.213109 -1.049824 -0.403352 0.5568219999999999 0.006283999999999998 0.260553 -0.219404 0.955128 0.400935 -0.760246 -0.48006499999999996 -0.253374 -0.530203 0.040547 1.111698 -0.7168410000000001 -0.287756 -0.051642999999999994 -0.5835079999999999 -0.516424 1.0145490000000001 0.271456 1.547214 -0.012101999999999988 -0.72038 0.002482000000000012 -0.44257599999999997 0.52046 1.069425 -0.230113 -0.08727499999999999 0.520216 0.142801 0.495393 -0.41896100000000003 -0.48524999999999996 0.30384700000000003 0.755804 0.034943 0.637294 -0.18470300000000003 -0.35140499999999997 0.6840649999999999 1.458838 -0.6932710000000001 -1.844697 0.15743 0.0010280000000000011 -1.185011 0.059021000000000004 -0.6141 0.16875700000000002 0.864675 0.19830199999999998 -0.285437 -0.515835 -0.45726 0.364707 -0.02885399999999999 -0.488716 0.048649 0.04053999999999999 0.178673 -1.4805030000000001 0.43316 0.0048860000000000015 0.822403 0.916585 -0.114801 0.38222700000000004 -0.160998 0.670946 -0.199483 0.6288199999999999 0.45443100000000003 0.6967289999999999 -0.227019 -0.532338 -0.11167399999999997 -0.379394 -0.214578 0.38000999999999996 0.41616200000000003