weight. -0.146137 0.45144200000000007 -0.123421 -0.485997 -0.106466 -0.5856469999999999 -0.166414 -0.928461 0.185446 -0.303196 -0.445629 -0.7412890000000001 -0.269433 0.924715 -0.226817 -0.298439 -0.5371619999999999 0.12346399999999999 -0.12362099999999998 0.38222999999999996 -0.09591400000000001 -0.506997 0.456232 -0.28541300000000003 0.129888 0.352099 0.281304 -0.698032 0.56492 -0.27518299999999996 -0.11526399999999999 -0.037605 0.020324000000000002 0.135765 -0.19704599999999997 -0.097338 0.391363 0.6125929999999999 -0.0024059999999999637 0.314299 0.27687700000000004 0.10338 -0.32233300000000004 -0.0009860000000000424 -0.325735 -0.143495 0.211972 0.566149 0.272468 -0.5117909999999999 0.477327 0.12106 -0.640749 1.208889 0.836722 -1.115983 1.192364 0.814567 -0.108463 -0.063154 -0.305793 -0.28972200000000004 0.490849 -0.03125499999999998 -0.31635599999999997 0.09548499999999999 -0.061334 0.727882 0.068267 -0.29908900000000005 0.254535 -0.024153000000000008 -0.462114 -0.07754099999999998 -0.841252 -0.13844499999999998 -0.160834 -0.103872 -0.086816 0.416981 0.596951 0.517073 0.07821 -0.023014 -0.018427 -0.03210700000000005 0.131042 -0.386957 -0.884752 -0.122389 -0.026608999999999994 0.244931 0.25443099999999996 0.482292 -0.20620599999999997 0.679944 0.007135999999999976 -0.362719 -0.889758 -0.182141 -0.407704 0.686858 0.286221 0.39416399999999996 0.06847299999999999 -0.300706 1.0885410000000002 -0.011470999999999999 -0.01340899999999999 0.090082 0.184832 0.08641200000000002 0.191686 0.746016 -0.03227999999999999 0.773012 -0.5570890000000001 0.38017900000000004 -0.214279 0.291057 0.539006 0.37943699999999997 0.33177500000000004 -0.543319 0.092995 -0.449455 -0.15565900000000002 0.320258 -0.870379 -0.415101 -0.080505 -0.657172 -0.642052 -0.164409 -0.245012 -0.5329969999999999 0.03942100000000004 0.49451100000000003 0.782516 0.317621 0.390652 -0.618129 0.555113 -0.327885 -0.06547800000000001 -0.040258999999999996 0.007826 0.658221 0.607824 1.068255 0.823216 -0.008851999999999999 0.647625 0.12594 -0.844947 0.387604 -1.186892 -0.14402099999999998 0.7397339999999999 -0.120477 -0.572979 -0.35582199999999997 0.29437800000000003 0.238907 0.33241200000000004 0.846107 -0.406142 -0.40008 0.198928 -0.39403699999999997 0.61571 -0.048255999999999966 -0.6504570000000001 0.059886999999999996 -0.140141 -0.292918 -0.19633100000000003 -0.646032 -0.395109 -0.884126 -0.099351 0.378006 0.171487 0.510756 0.09914099999999999 -0.45590400000000003 0.349163 0.525478 -0.36076899999999995 0.5948869999999999 -0.202821 0.074522 0.523155 -0.123929 -0.10922100000000001 -0.5464789999999999 0.392771 0.119134 -0.025140999999999997 -0.047626000000000016 0.398581 -0.739491 -0.45993999999999996 -0.022522000000000014 -0.221939 -0.25479700000000005 -0.47894700000000007 -0.137142 -0.45461700000000005 -0.694657 0.14078099999999993 0.480132 -0.415819 -0.211463 0.179675 -0.319858 0.003716999999999998 -0.06851199999999999 -0.11218899999999998 0.041982000000000005 -0.078925 -0.311968 0.290935 -0.274433 0.754462 0.116115 -0.145511 0.021442000000000017 0.946557 -0.371072 -0.03383900000000001 0.49460899999999997 -0.102663 0.457168 -0.15159 0.123792 -0.7824949999999999 0.12450399999999999 0.179032 0.147893 0.14365600000000003 -0.489784 -0.351885 -1.0758139999999998 -0.599255 0.6456689999999999 0.6117589999999999 -0.00699799999999999 0.081328 -0.24210900000000002 0.08732200000000001 0.267863 -0.476682 0.080857 -0.24093 -0.17796099999999998 0.9051319999999999 -0.46849999999999997 -0.279486 0.41299800000000003 -0.459105 0.347824 0.344381 -0.18802800000000003 0.215908 0.322634 0.144126 0.542948 0.04211200000000004 0.25680899999999995 0.0499 0.485229 -0.7692 0.373427 0.509829 0.30453 0.527191 0.402026 -0.319627 0.897578 0.26372799999999996 0.08023099999999998 -0.299134 0.27539 0.071296 0.45494999999999997 -0.6338980000000001 -0.275262 -0.357858 0.093935 0.45454300000000003 0.359027 -0.12722899999999998 0.265135 -1.0931 -0.15539599999999998 0.567027 -0.243917 0.503657 -0.140586