welterweight -0.420667 -0.208517 0.8224830000000001 -0.167471 -0.382691 -0.046815999999999997 -0.23718 -0.978683 -0.294389 -0.7696419999999999 -0.128806 -0.572578 -0.02616200000000002 -0.353138 -0.437771 -0.10519799999999999 0.12434100000000003 -0.195389 -0.769112 0.5539620000000001 -0.055132 0.470951 0.680761 0.8330770000000001 0.389555 -0.29542199999999996 0.316731 0.384949 0.023079000000000016 0.298444 0.105568 0.534961 -0.115145 -0.21941699999999997 -0.55259 -0.010009 0.37828 0.522493 -1.151001 0.33316999999999997 -0.19580399999999998 -0.5125959999999999 -0.114647 -0.20091799999999999 0.473373 1.00562 -0.18592499999999998 -0.39057 0.46587999999999996 0.163492 -0.099995 -0.18197499999999997 0.023117999999999972 0.562798 1.1056920000000001 -0.49660899999999997 0.641631 0.8855890000000001 0.09692899999999999 0.005109000000000002 -0.13525000000000004 1.128145 -0.19994800000000001 -0.062063000000000035 -0.633941 0.243921 -0.373599 0.47968500000000003 0.707776 0.619016 0.25974200000000003 -0.5634 -0.5405420000000001 0.314226 -0.822322 0.19549899999999998 -0.512958 0.668222 -0.517594 0.246936 -0.062722 0.21095799999999998 -0.386737 0.575667 0.23221599999999998 0.385421 0.422589 -0.433959 0.544536 -0.686966 -0.470304 -0.0027500000000000024 -0.41801099999999997 -0.600319 0.382463 0.554665 0.18623900000000002 -0.020427 0.41012 -0.02799 0.963012 0.40626300000000004 0.380081 -0.400311 0.828676 -0.06167 0.292762 0.409414 0.885063 0.05903900000000001 -0.0031889999999999974 0.064033 0.351646 0.575177 0.22190100000000001 1.048666 0.393986 -0.196829 -0.6440049999999999 0.07453399999999999 1.393962 0.19603099999999998 0.33248599999999995 -0.135218 0.45558699999999996 0.334031 0.0006160000000000054 0.543528 -0.443589 0.292009 -0.551436 0.01824199999999998 -0.47602200000000006 0.359617 0.148221 0.045001000000000006 -0.614655 0.18205999999999997 -0.16042299999999998 0.104764 0.096488 0.074409 -0.067162 0.086407 0.259791 -0.09934400000000002 0.784674 0.831055 0.339788 0.141753 0.236269 -0.049485000000000015 -0.18198899999999998 -0.505433 0.621 0.604499 0.11016299999999998 0.830971 -0.192017 -0.6622520000000001 -0.809965 -0.04554799999999998 -2.870613 -0.02782799999999999 -0.859131 0.615655 -0.322185 -0.776329 0.06679299999999999 0.35985 0.580106 0.14345799999999997 0.396538 -0.578757 0.24921500000000002 -0.37275 0.242942 -0.6612009999999999 -0.217778 -0.333031 0.380779 0.337274 -0.5435030000000001 -0.170265 0.638843 0.362261 -0.34062899999999996 -0.651804 0.540003 0.450978 0.644297 0.9806 0.293566 0.874428 -0.184778 -0.555303 -0.147381 -0.162707 0.477539 -1.5098799999999999 0.048553999999999986 -0.897167 0.02717900000000001 0.09655800000000002 0.8625780000000001 -0.24964900000000004 -0.633852 0.117349 -0.591873 0.272609 -0.36350499999999997 0.990634 -0.13632599999999997 0.861793 -0.505512 -0.335399 0.571428 -0.743368 -0.385264 0.063107 0.14836 0.476694 -0.48262299999999997 -0.06641499999999997 -0.287773 0.468299 -0.790568 0.542959 0.515465 -0.662391 0.280904 2.028106 0.004620999999999986 0.366615 0.7252689999999999 -0.58751 0.697552 0.294431 0.345139 0.270069 -0.054289 -0.040939999999999976 0.40492799999999995 -0.25236200000000003 0.027522000000000005 0.18802400000000002 -0.349974 -0.00829000000000002 0.344527 0.469747 0.19199999999999998 -0.11440799999999998 -0.29692700000000005 -0.005199999999999982 -0.058114 -0.08738499999999999 0.182652 0.253889 -0.237402 0.212341 0.44841000000000003 0.05917900000000001 -0.451066 0.943144 0.419712 -0.550757 -0.09080500000000001 -0.688445 0.42126 -0.461617 0.286768 -1.169163 -0.02651500000000001 -0.54313 0.564132 0.30457500000000004 -0.7129650000000001 -0.295804 0.426635 0.086991 -0.542964 0.134903 0.042349000000000005 -0.198421 0.261891 1.226741 0.872506 0.333796 -0.862417 -0.306063 0.696305 -0.14666799999999997 -0.259133 -0.173197 -0.322311 -0.517845 0.07802699999999999 -0.323212 0.396667 -0.618935