welterweights 0.194996 0.321764 0.614711 -0.42742800000000003 -0.414431 -0.184699 -0.442951 -0.622761 -0.753509 -0.7698130000000001 0.213938 -0.5362899999999999 -0.27322 -0.18979300000000002 0.205844 0.07329100000000001 -0.08168600000000004 -0.19405099999999997 -0.66591 0.568437 0.130029 0.313826 0.38503299999999996 0.906383 0.267094 -0.173041 0.019129000000000007 -0.122842 0.41002 0.541305 -0.064608 -0.061271000000000006 -0.075045 0.200725 -1.020116 0.9010659999999999 0.24642199999999997 0.108324 -1.019053 0.770396 0.442739 -0.234109 -0.389447 -0.264908 0.067683 0.238722 -0.522207 -0.07816200000000001 0.348568 0.6218130000000001 0.470638 0.152666 -0.320037 -0.395992 0.686742 -0.482378 0.07065600000000002 0.9887480000000001 0.277116 0.452035 0.15475099999999997 1.184993 -0.158887 -0.04056900000000002 -0.7667619999999999 0.11116300000000001 -0.7203769999999999 0.275385 0.03584 0.322808 -0.03578700000000001 -0.499448 -0.208353 0.948327 -0.696275 -0.528436 -0.9646440000000001 0.602835 -0.157816 0.211581 0.081966 0.5005379999999999 -0.33777599999999997 0.055975 -0.190835 0.797868 0.039129 -0.221841 0.344394 -0.078513 -0.24022599999999994 -0.429134 0.06699100000000001 -0.424595 1.125909 -0.24749999999999997 0.11604 0.473318 0.357889 0.26385699999999995 0.454885 0.301728 0.363848 -0.11738599999999999 0.07928299999999999 -0.41496299999999997 0.19961800000000002 0.135426 0.32382500000000003 -0.438169 -0.123059 0.24050699999999997 -0.12468299999999999 0.713839 0.200908 0.407176 0.349298 -0.6047560000000001 -0.40013200000000004 0.250027 1.113924 -0.554092 0.44521999999999995 -0.353493 0.466068 0.41971 0.05404700000000001 0.176232 0.22457900000000003 0.886976 -0.27978800000000004 -0.05465299999999995 -0.691752 -0.190991 0.25697 -0.066648 -0.34478 -0.134955 -0.21803099999999997 -0.073201 -0.35759399999999997 -0.09601399999999999 -0.07501400000000003 0.548211 0.17531199999999997 0.110545 0.43817999999999996 0.6978390000000001 0.715664 -0.232932 -0.133512 0.066084 -0.524921 0.084019 -0.5910329999999999 0.446997 -0.16974 0.368058 0.275679 -0.9299229999999999 -0.849246 0.29110600000000003 -1.530349 0.036166000000000004 -0.799453 1.447359 0.017907999999999993 -0.43410099999999996 -0.21922 0.35923700000000003 0.7492859999999999 0.168567 0.16901 -1.130138 -0.003697000000000006 0.376583 0.684865 -0.607969 0.107884 0.181527 0.013600000000000001 -0.40444199999999997 0.345472 -0.391078 0.24466400000000002 0.694745 0.473078 -0.357152 0.5507080000000001 0.639238 0.256941 0.715608 0.18962700000000002 0.174112 -0.81308 -0.610786 0.14507799999999998 0.300362 -0.187714 -1.125495 0.6116250000000001 -1.1764459999999999 0.312895 -0.322919 0.443785 -0.11963 -0.6672480000000001 -0.371212 -0.512344 0.08537800000000001 -0.13266 0.591247 0.00370899999999999 0.697716 -0.24798099999999998 0.43428100000000003 0.14303100000000002 -1.174919 -0.439748 0.547183 0.321063 0.442481 -0.350792 -0.201839 -0.03339600000000004 0.11525400000000001 -0.202947 0.017939999999999956 0.364503 -0.319834 0.065233 1.332048 -0.04226200000000002 0.253011 0.333725 -0.614341 -0.17282499999999998 0.256451 0.401994 0.85632 -0.273634 -0.22255000000000003 0.596958 -0.651537 0.238915 0.126764 0.246906 0.041218000000000005 0.384384 -0.092025 -0.385649 -0.81668 -0.102883 0.287132 -0.029371999999999995 -0.153078 0.172711 0.335244 0.053705 -0.551507 0.6278900000000001 -0.316268 -0.555563 0.960918 0.63988 -0.43171000000000004 0.081457 -0.895463 0.374231 -0.476788 0.05188799999999999 -0.478331 -0.31123100000000004 -0.6721980000000001 1.325345 0.398694 -0.962872 -0.12793300000000002 0.236415 0.184805 -0.18975 0.109595 0.45804 0.371448 0.004691000000000001 0.897815 0.713855 -0.285942 -0.332428 -0.645573 0.503082 0.030251999999999987 0.114643 -0.062744 -0.36096500000000004 0.12530200000000002 0.31222199999999994 -0.07313 0.183134 -0.244921