x-weight 0.42955 -0.853108 -0.074312 0.202957 0.298003 -1.035285 0.220831 -0.746561 0.378533 0.5424329999999999 -0.530475 -0.9352360000000001 0.131161 0.015395000000000048 0.025606000000000018 0.12550399999999998 0.060080999999999996 0.01392199999999999 -0.8999010000000001 0.015068999999999999 0.848639 -0.14776899999999998 0.6380669999999999 0.14439199999999996 0.365322 0.333463 0.409795 0.051279 0.259182 0.44246399999999997 0.12283999999999998 -0.520166 0.142531 -0.6117360000000001 0.204718 -1.6869809999999998 0.00980299999999995 -0.16322 -0.337563 -0.750786 0.389817 0.856202 -0.516618 -0.34887900000000005 0.7594430000000001 -0.660918 0.466404 -0.540478 -0.769359 0.23551300000000003 -0.3827069999999999 -1.229066 -0.692418 -0.06040999999999999 0.179836 0.305849 1.316877 0.819583 0.034042 0.624789 -1.241924 0.196939 0.05641500000000005 -0.692992 0.20402800000000001 0.7481059999999999 -0.652232 -0.169733 -0.294686 0.03587800000000002 0.20227699999999998 -0.389915 -0.876903 0.19188899999999998 -0.038144999999999984 -0.7970109999999999 -0.605618 0.483675 -0.339245 0.323195 -0.051246000000000014 0.19195 -0.777688 0.726804 -0.05357899999999999 0.505277 0.7069150000000001 -0.464977 1.080657 1.402011 0.46729599999999993 -0.06419200000000003 -0.365568 0.54377 -0.6508959999999999 0.41133200000000003 -0.470573 0.818103 -0.781315 -0.430945 0.33468800000000004 0.328078 -0.08226699999999998 0.959413 0.351889 -0.783166 -0.307972 -0.08739200000000003 0.240097 0.07722499999999999 0.20656300000000002 0.90636 0.706754 0.5090619999999999 0.706748 -0.584729 0.421468 0.01996300000000001 -0.066502 -0.30225900000000006 0.517001 0.93059 0.862458 -0.07814700000000002 -0.025724 -0.746976 0.8710939999999999 1.250781 -1.3920910000000002 -0.142028 -0.767764 -0.722556 -0.6526150000000001 0.45539199999999996 -0.17407999999999998 -0.484726 0.321858 -0.50545 0.33975299999999997 -0.484578 -0.363198 0.5626039999999999 -0.9320090000000001 -0.5373819999999999 0.7366889999999999 -0.861837 0.752485 0.12560899999999997 -0.40920599999999996 -0.075856 0.448619 0.130204 -0.045000999999999985 0.507881 0.013694999999999999 -0.34737599999999996 -0.556144 0.09858699999999998 -0.196668 -0.966122 0.6552629999999999 0.07713999999999999 -0.05414899999999999 0.8099890000000001 0.025784 0.330755 0.744762 -0.21075499999999997 0.678049 -0.094276 0.283906 0.349283 -0.10783799999999999 -0.499617 -0.30807 1.111393 0.756731 -0.277959 0.031139000000000028 -0.461653 0.27404199999999995 -0.720763 -0.961633 0.249958 0.704056 -0.398219 -0.818427 -0.34491000000000005 -0.283559 -0.304344 1.099643 0.308169 -0.378964 -0.376479 -0.603121 0.12199499999999999 -1.087027 0.097271 0.07596399999999999 0.235323 -0.15124800000000002 -0.518833 0.992415 -0.15299600000000002 0.563612 0.149856 -0.15931599999999999 -0.338684 -1.734421 0.8659410000000001 -1.172582 0.126609 1.033267 -0.121966 -0.511584 -0.484155 0.175518 0.9248620000000001 -0.281111 -0.41504899999999995 0.149906 -0.749474 0.132959 0.35361 0.77606 0.138516 -0.849808 -1.0081419999999999 -0.75777 -0.07741 -0.662888 0.927577 0.23110999999999998 0.15755599999999997 -0.18845599999999998 0.049263 -0.9103 0.07595100000000002 1.5929760000000002 -0.38462199999999996 0.959079 0.001586000000000004 -0.20681099999999997 -0.650488 -0.0031410000000000014 -1.021181 0.035827 0.91821 -0.270991 1.6636849999999999 0.713752 -0.633907 -0.10943200000000002 0.6896739999999999 -0.201459 -0.8715729999999999 0.09621299999999999 0.04699299999999999 -0.455399 -0.094498 -0.23253000000000001 0.417365 -0.510306 0.29318099999999997 -0.016081000000000012 -0.368774 -0.643135 -0.089221 -1.0415480000000001 0.78793 0.324243 0.698431 0.310379 -0.6523589999999999 0.16136499999999998 -0.757561 0.011928000000000008 0.26013 -0.506337 -0.37731000000000003 0.567929 -0.940346 -0.06115000000000004 0.410333 0.371552 -0.06439099999999998 0.352592 -0.054197999999999996 -0.662526 -0.853736 1.950158 -0.5363629999999999 0.508402 0.10329800000000001 -0.639248 0.438303 -0.255538 0.20261500000000002 1.273344 0.8420770000000001